~o
<STREAMINFO> 1 75
<VECSIZE> 75<NULLD><USER_D_A><DIAGC>
~h "e"
<BEGINHMM>
<NUMSTATES> 5
<STATE> 2
<NUMMIXES> 2
<MIXTURE> 1 4.061218e-01
<MEAN> 75
 4.201552e+00 3.880983e+00 3.476499e+00 3.062744e+00 2.740414e+00 2.585020e+00 2.570196e+00 2.582768e+00 2.573164e+00 2.539633e+00 2.489758e+00 2.435125e+00 2.391748e+00 2.372526e+00 2.365804e+00 2.337474e+00 2.257190e+00 2.110273e+00 1.896758e+00 1.634711e+00 1.369923e+00 1.168110e+00 1.060884e+00 1.000000e+00 1.005947e+00 8.301460e-02 9.821103e-02 1.004568e-01 8.283433e-02 5.151556e-02 1.976728e-02 3.983341e-03 1.497069e-03 1.763185e-03 1.963415e-03 1.821902e-03 1.397374e-03 6.843312e-04 1.731253e-05 -4.345368e-04 -5.321132e-04 -5.711576e-04 -5.117829e-04 -5.416964e-04 -5.788500e-04 -5.356449e-04 -3.591880e-04 -1.919810e-04 1.278014e-08 -4.287488e-05 -1.118112e-02 -8.145370e-03 -2.061683e-03 3.813487e-03 6.552361e-03 5.228146e-03 1.704523e-03 1.873601e-04 -3.767011e-05 -4.323716e-05 -2.616724e-05 -1.824001e-05 -8.813241e-06 1.628519e-06 -4.564071e-06 -8.218730e-06 -1.262986e-05 -9.185907e-06 -1.007462e-05 -3.115914e-06 -2.332182e-06 -6.961609e-06 1.968080e-06 1.278014e-08 9.246819e-07
<VARIANCE> 75
 8.342877e-01 6.409684e-01 4.813466e-01 2.865130e-01 1.004650e-01 2.812354e-02 2.055217e-02 1.688728e-02 1.405216e-02 1.358555e-02 1.643994e-02 2.245624e-02 2.807038e-02 2.761043e-02 2.092969e-02 1.377040e-02 1.000000e-02 1.000000e-02 1.000000e-02 1.000000e-02 1.000000e-02 1.000000e-02 1.000000e-02 1.000000e-02 1.000000e-02 1.355137e-02 1.455576e-02 1.230592e-02 1.000000e-02 1.000000e-02 1.000000e-02 1.000000e-02 1.000000e-02 1.000000e-02 1.000000e-02 1.000000e-02 1.000000e-02 1.000000e-02 1.000000e-02 1.000000e-02 1.000000e-02 1.000000e-02 1.000000e-02 1.000000e-02 1.000000e-02 1.000000e-02 1.000000e-02 1.000000e-02 1.000000e-02 1.000000e-02 1.000000e-02 1.000000e-02 1.000000e-02 1.000000e-02 1.000000e-02 1.000000e-02 1.000000e-02 1.000000e-02 1.000000e-02 1.000000e-02 1.000000e-02 1.000000e-02 1.000000e-02 1.000000e-02 1.000000e-02 1.000000e-02 1.000000e-02 1.000000e-02 1.000000e-02 1.000000e-02 1.000000e-02 1.000000e-02 1.000000e-02 1.000000e-02 1.000000e-02
<GCONST> -1.812020e+02
<MIXTURE> 2 5.938726e-01
<MEAN> 75
 4.210887e+00 3.760318e+00 3.223918e+00 2.734537e+00 2.447231e+00 2.369920e+00 2.380196e+00 2.382278e+00 2.357150e+00 2.309345e+00 2.249175e+00 2.191547e+00 2.150324e+00 2.125254e+00 2.098903e+00 2.046715e+00 1.951800e+00 1.808280e+00 1.623041e+00 1.417615e+00 1.231277e+00 1.102879e+00 1.038053e+00 9.999998e-01 1.001460e+00 6.898700e-02 8.232474e-02 8.209153e-02 5.792521e-02 2.634937e-02 6.564323e-03 1.452737e-03 1.256107e-03 1.468660e-03 1.446020e-03 1.152274e-03 6.760919e-04 1.425525e-04 -2.217618e-04 -4.461778e-04 -5.192127e-04 -5.970227e-04 -6.506668e-04 -7.120229e-04 -6.488375e-04 -5.377976e-04 -3.151810e-04 -1.478667e-04 -1.611131e-07 -2.413565e-05 -7.728239e-03 -5.876957e-03 -5.410043e-04 4.131182e-03 4.176902e-03 1.836660e-03 2.912931e-04 -1.925965e-05 -4.126172e-05 -3.486182e-05 -2.630107e-05 -1.901767e-05 -1.156383e-05 -3.376250e-06 -8.988485e-06 -9.986223e-06 -1.075202e-05 -6.481094e-06 -7.987099e-06 -7.930887e-06 1.250093e-07 -3.947102e-07 -3.557527e-06 -1.611131e-07 7.782181e-07
<VARIANCE> 75
 2.224700e-01 2.661852e-01 2.860859e-01 1.793737e-01 4.219365e-02 2.812354e-02 1.891963e-02 1.152333e-02 1.000000e-02 1.000000e-02 1.000000e-02 1.000000e-02 1.000000e-02 1.000000e-02 1.000000e-02 1.267668e-02 1.474899e-02 1.438265e-02 1.124188e-02 1.000000e-02 1.000000e-02 1.000000e-02 1.000000e-02 1.000000e-02 1.000000e-02 1.000000e-02 1.000000e-02 1.000000e-02 1.000000e-02 1.000000e-02 1.000000e-02 1.000000e-02 1.000000e-02 1.000000e-02 1.000000e-02 1.000000e-02 1.000000e-02 1.000000e-02 1.000000e-02 1.000000e-02 1.000000e-02 1.000000e-02 1.000000e-02 1.000000e-02 1.000000e-02 1.000000e-02 1.000000e-02 1.000000e-02 1.000000e-02 1.000000e-02 1.000000e-02 1.000000e-02 1.000000e-02 1.000000e-02 1.000000e-02 1.000000e-02 1.000000e-02 1.000000e-02 1.000000e-02 1.000000e-02 1.000000e-02 1.000000e-02 1.000000e-02 1.000000e-02 1.000000e-02 1.000000e-02 1.000000e-02 1.000000e-02 1.000000e-02 1.000000e-02 1.000000e-02 1.000000e-02 1.000000e-02 1.000000e-02 1.000000e-02
<GCONST> -1.905631e+02
<STATE> 3
<NUMMIXES> 2
<MIXTURE> 1 6.341883e-01
<MEAN> 75
 5.110496e+00 5.298666e+00 5.366663e+00 5.307770e+00 5.119015e+00 4.803477e+00 4.382505e+00 3.901445e+00 3.421282e+00 3.012996e+00 2.724782e+00 2.542593e+00 2.426832e+00 2.365574e+00 2.348481e+00 2.334902e+00 2.279652e+00 2.155953e+00 1.957408e+00 1.697593e+00 1.418474e+00 1.192702e+00 1.068507e+00 1.000000e+00 1.005963e+00 -1.108146e-02 -5.987497e-04 9.969987e-03 2.057842e-02 3.074505e-02 3.800602e-02 3.797846e-02 3.149964e-02 2.233751e-02 1.318178e-02 6.537738e-03 3.011293e-03 1.200242e-03 1.348682e-04 -4.417140e-04 -6.781045e-04 -7.153984e-04 -7.122100e-04 -7.274511e-04 -7.359746e-04 -6.619593e-04 -4.803743e-04 -2.444545e-04 8.807171e-09 -3.969344e-05 -1.894043e-03 -2.637159e-03 -3.374139e-03 -3.977101e-03 -4.043334e-03 -2.855887e-03 -1.037823e-03 -1.933264e-04 -3.731485e-05 -4.741719e-05 -8.215721e-05 -8.414514e-05 -6.389098e-05 -3.688077e-05 -2.537829e-05 -2.357458e-05 -2.205686e-05 -2.303830e-05 -2.626674e-05 -2.395061e-05 -1.984021e-05 -1.487435e-05 -4.079116e-06 8.807171e-09 1.879362e-06
<VARIANCE> 75
 2.700398e-01 1.184977e-01 7.542402e-02 1.249576e-01 2.572343e-01 4.497210e-01 6.151160e-01 6.331691e-01 4.877306e-01 2.729279e-01 1.085160e-01 3.177704e-02 1.040405e-02 1.000000e-02 1.000000e-02 1.000000e-02 1.000000e-02 1.000000e-02 1.000000e-02 1.000000e-02 1.000000e-02 1.000000e-02 1.000000e-02 1.000000e-02 1.000000e-02 1.000000e-02 1.000000e-02 1.000000e-02 1.000000e-02 1.000000e-02 1.000000e-02 1.000000e-02 1.000000e-02 1.000000e-02 1.000000e-02 1.000000e-02 1.000000e-02 1.000000e-02 1.000000e-02 1.000000e-02 1.000000e-02 1.000000e-02 1.000000e-02 1.000000e-02 1.000000e-02 1.000000e-02 1.000000e-02 1.000000e-02 1.000000e-02 1.000000e-02 1.000000e-02 1.000000e-02 1.000000e-02 1.000000e-02 1.000000e-02 1.000000e-02 1.000000e-02 1.000000e-02 1.000000e-02 1.000000e-02 1.000000e-02 1.000000e-02 1.000000e-02 1.000000e-02 1.000000e-02 1.000000e-02 1.000000e-02 1.000000e-02 1.000000e-02 1.000000e-02 1.000000e-02 1.000000e-02 1.000000e-02 1.000000e-02 1.000000e-02
<GCONST> -1.711380e+02
<MIXTURE> 2 3.658056e-01
<MEAN> 75
 4.759405e+00 4.849475e+00 4.819742e+00 4.671796e+00 4.421983e+00 4.114949e+00 3.814196e+00 3.522166e+00 3.230220e+00 2.944573e+00 2.676646e+00 2.451226e+00 2.306199e+00 2.240917e+00 2.207898e+00 2.162974e+00 2.076371e+00 1.935105e+00 1.741136e+00 1.513397e+00 1.293049e+00 1.131648e+00 1.047465e+00 1.000000e+00 1.003209e+00 -1.121195e-03 1.036045e-02 2.174941e-02 3.250968e-02 4.014282e-02 3.794554e-02 2.897324e-02 2.224619e-02 1.725087e-02 1.286625e-02 8.757936e-03 4.763456e-03 1.680918e-03 2.468878e-04 -2.952296e-04 -4.830366e-04 -5.261987e-04 -5.983885e-04 -6.251817e-04 -6.492733e-04 -5.403126e-04 -3.937708e-04 -1.791627e-04 2.849965e-08 -4.183020e-05 -2.787466e-03 -3.508879e-03 -4.137020e-03 -4.385647e-03 -3.137421e-03 -4.403982e-04 3.585458e-04 1.262419e-04 9.273181e-06 -3.145535e-05 -2.295271e-05 -1.471286e-05 -1.257642e-05 -2.670898e-05 -2.308549e-05 -2.630111e-05 -1.363329e-05 -1.463119e-05 -1.466384e-05 -9.258557e-06 -6.523024e-06 5.860940e-07 -1.622900e-06 2.849965e-08 -1.021792e-06
<VARIANCE> 75
 7.074116e-01 5.966321e-01 6.875120e-01 9.301926e-01 1.242628e+00 1.471683e+00 1.427481e+00 1.176766e+00 8.414788e-01 4.976573e-01 2.190093e-01 6.227670e-02 1.824562e-02 1.572464e-02 2.025901e-02 2.680022e-02 3.228045e-02 3.331834e-02 2.813758e-02 1.820819e-02 1.000000e-02 1.000000e-02 1.000000e-02 1.000000e-02 1.000000e-02 1.000000e-02 1.000000e-02 1.000000e-02 1.000000e-02 1.000000e-02 1.000000e-02 1.000000e-02 1.000000e-02 1.000000e-02 1.000000e-02 1.000000e-02 1.000000e-02 1.000000e-02 1.000000e-02 1.000000e-02 1.000000e-02 1.000000e-02 1.000000e-02 1.000000e-02 1.000000e-02 1.000000e-02 1.000000e-02 1.000000e-02 1.000000e-02 1.000000e-02 1.000000e-02 1.000000e-02 1.000000e-02 1.000000e-02 1.000000e-02 1.000000e-02 1.000000e-02 1.000000e-02 1.000000e-02 1.000000e-02 1.000000e-02 1.000000e-02 1.000000e-02 1.000000e-02 1.000000e-02 1.000000e-02 1.000000e-02 1.000000e-02 1.000000e-02 1.000000e-02 1.000000e-02 1.000000e-02 1.000000e-02 1.000000e-02 1.000000e-02
<GCONST> -1.508825e+02
<STATE> 4
<NUMMIXES> 2
<MIXTURE> 1 4.718739e-01
<MEAN> 75
 5.204358e+00 5.295494e+00 5.274943e+00 5.133700e+00 4.866881e+00 4.478092e+00 4.002642e+00 3.517376e+00 3.085131e+00 2.741194e+00 2.501290e+00 2.354814e+00 2.267812e+00 2.217213e+00 2.185561e+00 2.141637e+00 2.056630e+00 1.916614e+00 1.723625e+00 1.497925e+00 1.282166e+00 1.126657e+00 1.046867e+00 1.000000e+00 1.003503e+00 -6.786204e-03 4.240371e-04 7.813012e-03 1.526988e-02 2.258036e-02 2.828479e-02 2.850095e-02 2.308902e-02 1.599867e-02 9.201041e-03 4.072642e-03 1.343778e-03 2.844986e-04 -2.416630e-04 -5.199273e-04 -6.655012e-04 -7.265935e-04 -7.815812e-04 -8.122039e-04 -7.730236e-04 -6.341885e-04 -3.939793e-04 -1.852526e-04 -5.675673e-09 -2.426527e-05 -7.454328e-04 -1.163051e-03 -1.585686e-03 -2.017048e-03 -2.317003e-03 -2.092741e-03 -1.150740e-03 -4.914102e-04 -2.034326e-04 -8.605554e-05 -5.760506e-05 -5.502981e-05 -3.900021e-05 -2.788694e-05 -1.150195e-05 -5.642121e-06 -6.448760e-06 -6.883854e-06 -8.654870e-06 -2.928590e-06 6.683061e-07 1.203089e-06 1.098362e-06 -5.675673e-09 6.739531e-07
<VARIANCE> 75
 8.997960e-02 7.490857e-02 8.147660e-02 1.760091e-01 3.346165e-01 5.351995e-01 6.676362e-01 5.865410e-01 3.533428e-01 1.367624e-01 3.138347e-02 1.000000e-02 1.000000e-02 1.000000e-02 1.373867e-02 2.000730e-02 2.554582e-02 2.718624e-02 2.317195e-02 1.468308e-02 1.000000e-02 1.000000e-02 1.000000e-02 1.000000e-02 1.000000e-02 1.000000e-02 1.000000e-02 1.000000e-02 1.000000e-02 1.000000e-02 1.000000e-02 1.000000e-02 1.000000e-02 1.000000e-02 1.000000e-02 1.000000e-02 1.000000e-02 1.000000e-02 1.000000e-02 1.000000e-02 1.000000e-02 1.000000e-02 1.000000e-02 1.000000e-02 1.000000e-02 1.000000e-02 1.000000e-02 1.000000e-02 1.000000e-02 1.000000e-02 1.000000e-02 1.000000e-02 1.000000e-02 1.000000e-02 1.000000e-02 1.000000e-02 1.000000e-02 1.000000e-02 1.000000e-02 1.000000e-02 1.000000e-02 1.000000e-02 1.000000e-02 1.000000e-02 1.000000e-02 1.000000e-02 1.000000e-02 1.000000e-02 1.000000e-02 1.000000e-02 1.000000e-02 1.000000e-02 1.000000e-02 1.000000e-02 1.000000e-02
<GCONST> -1.711095e+02
<MIXTURE> 2 5.281195e-01
<MEAN> 75
 5.157420e+00 5.078559e+00 4.886583e+00 4.575718e+00 4.150242e+00 3.649536e+00 3.177618e+00 2.809643e+00 2.551589e+00 2.386615e+00 2.279501e+00 2.199352e+00 2.140072e+00 2.098534e+00 2.058237e+00 1.996305e+00 1.896756e+00 1.754457e+00 1.576260e+00 1.383767e+00 1.212637e+00 1.095399e+00 1.035124e+00 1.000000e+00 1.000319e+00 4.941081e-03 1.279870e-02 2.101833e-02 2.918548e-02 3.610950e-02 3.681438e-02 2.757616e-02 1.616754e-02 7.863685e-03 3.254418e-03 1.366583e-03 6.094468e-04 1.094604e-04 -2.780362e-04 -4.881116e-04 -6.049863e-04 -6.700550e-04 -7.195672e-04 -7.465894e-04 -6.934456e-04 -5.239176e-04 -3.218931e-04 -1.448690e-04 -1.478934e-08 -8.604344e-06 -1.536820e-03 -2.017790e-03 -2.476098e-03 -2.853877e-03 -2.723716e-03 -1.261111e-03 1.789946e-04 3.451603e-04 1.363623e-04 2.406728e-06 -4.276193e-05 -3.616455e-05 -2.050271e-05 -1.460455e-05 -6.358057e-06 2.931662e-07 -4.052977e-06 -2.789808e-06 1.270630e-06 6.890666e-06 1.079371e-06 1.505827e-06 9.383537e-07 -1.478934e-08 4.961155e-07
<VARIANCE> 75
 1.884445e-01 2.234035e-01 3.028747e-01 4.240715e-01 5.666005e-01 6.495334e-01 5.315035e-01 2.885091e-01 1.025244e-01 2.401620e-02 1.000000e-02 1.000000e-02 1.000000e-02 1.000000e-02 1.000000e-02 1.000000e-02 1.000000e-02 1.000000e-02 1.000000e-02 1.000000e-02 1.000000e-02 1.000000e-02 1.000000e-02 1.000000e-02 1.000000e-02 1.000000e-02 1.000000e-02 1.000000e-02 1.000000e-02 1.000000e-02 1.000000e-02 1.000000e-02 1.000000e-02 1.000000e-02 1.000000e-02 1.000000e-02 1.000000e-02 1.000000e-02 1.000000e-02 1.000000e-02 1.000000e-02 1.000000e-02 1.000000e-02 1.000000e-02 1.000000e-02 1.000000e-02 1.000000e-02 1.000000e-02 1.000000e-02 1.000000e-02 1.000000e-02 1.000000e-02 1.000000e-02 1.000000e-02 1.000000e-02 1.000000e-02 1.000000e-02 1.000000e-02 1.000000e-02 1.000000e-02 1.000000e-02 1.000000e-02 1.000000e-02 1.000000e-02 1.000000e-02 1.000000e-02 1.000000e-02 1.000000e-02 1.000000e-02 1.000000e-02 1.000000e-02 1.000000e-02 1.000000e-02 1.000000e-02 1.000000e-02
<GCONST> -1.755966e+02
<TRANSP> 5
 0.000000e+00 1.000000e+00 0.000000e+00 0.000000e+00 0.000000e+00
 0.000000e+00 9.414815e-01 5.851840e-02 0.000000e+00 0.000000e+00
 0.000000e+00 0.000000e+00 8.843843e-01 1.156157e-01 0.000000e+00
 0.000000e+00 0.000000e+00 0.000000e+00 9.538811e-01 4.611883e-02
 0.000000e+00 0.000000e+00 0.000000e+00 0.000000e+00 0.000000e+00
<ENDHMM>
~h "ne"
<BEGINHMM>
<NUMSTATES> 5
<STATE> 2
<NUMMIXES> 2
<MIXTURE> 1 5.122527e-01
<MEAN> 75
 2.045988e+00 2.176966e+00 2.296127e+00 2.395523e+00 2.470763e+00 2.521200e+00 2.547154e+00 2.549713e+00 2.531090e+00 2.494749e+00 2.447123e+00 2.401282e+00 2.376695e+00 2.383384e+00 2.401369e+00 2.393039e+00 2.328678e+00 2.193859e+00 1.987475e+00 1.724219e+00 1.444533e+00 1.215868e+00 1.084328e+00 1.000000e+00 1.010445e+00 2.013916e-03 -2.194552e-04 -1.316108e-03 -1.300179e-03 -1.045479e-03 -8.529715e-04 -7.259700e-04 -6.290239e-04 -6.126359e-04 -6.195021e-04 -6.589897e-04 -7.393844e-04 -8.429764e-04 -9.586187e-04 -1.059762e-03 -1.139200e-03 -1.218045e-03 -1.295541e-03 -1.341928e-03 -1.319271e-03 -1.141436e-03 -7.551943e-04 -3.888674e-04 5.205870e-07 -6.893314e-05 7.993321e-04 5.889478e-04 1.783777e-04 2.158687e-06 -1.327607e-05 -1.736168e-06 1.967772e-07 3.952307e-06 8.028727e-06 7.767835e-06 4.850104e-06 6.488977e-07 -6.082352e-06 -5.988324e-06 -6.174376e-06 -1.053259e-05 -8.662003e-06 -9.896568e-06 -9.326244e-06 -1.041181e-05 -6.679054e-06 -6.017140e-06 -1.929763e-06 5.205870e-07 1.892134e-06
<VARIANCE> 75
 8.703106e-02 7.490857e-02 6.273318e-02 5.043118e-02 3.875412e-02 2.812354e-02 1.891963e-02 1.152333e-02 1.000000e-02 1.000000e-02 1.000000e-02 1.107076e-02 1.326097e-02 1.165731e-02 1.000000e-02 1.000000e-02 1.000000e-02 1.000000e-02 1.000000e-02 1.000000e-02 1.000000e-02 1.000000e-02 1.000000e-02 1.000000e-02 1.000000e-02 1.000000e-02 1.000000e-02 1.000000e-02 1.000000e-02 1.000000e-02 1.000000e-02 1.000000e-02 1.000000e-02 1.000000e-02 1.000000e-02 1.000000e-02 1.000000e-02 1.000000e-02 1.000000e-02 1.000000e-02 1.000000e-02 1.000000e-02 1.000000e-02 1.000000e-02 1.000000e-02 1.000000e-02 1.000000e-02 1.000000e-02 1.000000e-02 1.000000e-02 1.000000e-02 1.000000e-02 1.000000e-02 1.000000e-02 1.000000e-02 1.000000e-02 1.000000e-02 1.000000e-02 1.000000e-02 1.000000e-02 1.000000e-02 1.000000e-02 1.000000e-02 1.000000e-02 1.000000e-02 1.000000e-02 1.000000e-02 1.000000e-02 1.000000e-02 1.000000e-02 1.000000e-02 1.000000e-02 1.000000e-02 1.000000e-02 1.000000e-02
<GCONST> -1.962098e+02
<MIXTURE> 2 4.877446e-01
<MEAN> 75
 1.944842e+00 2.076495e+00 2.197019e+00 2.297589e+00 2.375187e+00 2.429318e+00 2.460152e+00 2.468014e+00 2.453816e+00 2.419783e+00 2.371984e+00 2.323660e+00 2.295636e+00 2.298758e+00 2.313932e+00 2.303758e+00 2.238435e+00 2.103557e+00 1.899385e+00 1.643779e+00 1.381732e+00 1.178967e+00 1.069210e+00 9.999998e-01 1.009315e+00 1.534496e-04 -1.422278e-03 -1.629705e-03 -1.319117e-03 -1.006686e-03 -7.855907e-04 -6.499270e-04 -5.554313e-04 -5.161538e-04 -5.127458e-04 -5.837659e-04 -6.330858e-04 -7.731862e-04 -9.087763e-04 -1.016753e-03 -1.103434e-03 -1.164680e-03 -1.247673e-03 -1.299027e-03 -1.223502e-03 -1.010393e-03 -6.354415e-04 -3.067154e-04 -2.501002e-07 -4.584427e-05 6.743208e-04 2.517360e-04 1.303176e-05 -2.169930e-05 -2.134334e-05 -3.975492e-06 2.863336e-06 7.163497e-06 6.414549e-06 6.861597e-06 1.076079e-05 2.204691e-06 1.246351e-06 -2.084055e-06 -7.112326e-06 -3.929923e-06 -7.183909e-06 -6.601540e-06 -9.292447e-07 -3.547779e-07 1.362870e-06 1.076233e-06 1.450435e-06 -2.501002e-07 -3.262020e-07
<VARIANCE> 75
 8.703106e-02 7.490857e-02 6.273318e-02 5.043118e-02 3.875412e-02 2.812354e-02 1.891963e-02 1.152333e-02 1.000000e-02 1.000000e-02 1.000000e-02 1.000000e-02 1.000000e-02 1.000000e-02 1.000000e-02 1.000000e-02 1.000000e-02 1.000000e-02 1.000000e-02 1.000000e-02 1.000000e-02 1.000000e-02 1.000000e-02 1.000000e-02 1.000000e-02 1.000000e-02 1.000000e-02 1.000000e-02 1.000000e-02 1.000000e-02 1.000000e-02 1.000000e-02 1.000000e-02 1.000000e-02 1.000000e-02 1.000000e-02 1.000000e-02 1.000000e-02 1.000000e-02 1.000000e-02 1.000000e-02 1.000000e-02 1.000000e-02 1.000000e-02 1.000000e-02 1.000000e-02 1.000000e-02 1.000000e-02 1.000000e-02 1.000000e-02 1.000000e-02 1.000000e-02 1.000000e-02 1.000000e-02 1.000000e-02 1.000000e-02 1.000000e-02 1.000000e-02 1.000000e-02 1.000000e-02 1.000000e-02 1.000000e-02 1.000000e-02 1.000000e-02 1.000000e-02 1.000000e-02 1.000000e-02 1.000000e-02 1.000000e-02 1.000000e-02 1.000000e-02 1.000000e-02 1.000000e-02 1.000000e-02 1.000000e-02
<GCONST> -1.967472e+02
<STATE> 3
<NUMMIXES> 2
<MIXTURE> 1 3.866268e-01
<MEAN> 75
 2.003317e+00 2.100958e+00 2.198299e+00 2.290571e+00 2.363874e+00 2.413714e+00 2.439536e+00 2.441880e+00 2.422188e+00 2.384315e+00 2.336768e+00 2.294571e+00 2.273268e+00 2.272527e+00 2.269634e+00 2.234525e+00 2.145661e+00 1.994146e+00 1.784002e+00 1.537185e+00 1.300918e+00 1.132424e+00 1.047970e+00 9.999999e-01 1.003396e+00 6.149617e-03 2.967945e-03 -2.409625e-04 -1.191075e-03 -1.069168e-03 -8.545639e-04 -7.081620e-04 -6.205637e-04 -5.777128e-04 -5.853829e-04 -6.284516e-04 -7.111028e-04 -8.211865e-04 -9.465023e-04 -1.042434e-03 -1.115393e-03 -1.192064e-03 -1.246520e-03 -1.261175e-03 -1.159395e-03 -8.964764e-04 -5.229459e-04 -2.346322e-04 -5.384659e-08 -3.844822e-05 8.122013e-04 1.000959e-03 5.983468e-04 1.163665e-04 1.610239e-06 -2.154477e-06 1.296446e-06 2.081477e-06 9.437643e-06 1.036518e-05 9.504701e-06 8.254778e-06 2.974041e-06 -9.976668e-07 -4.378650e-07 5.171345e-07 3.464915e-07 1.918778e-06 7.314668e-06 1.954423e-06 1.904158e-06 -8.623146e-07 -2.765339e-06 -5.384659e-08 1.437696e-06
<VARIANCE> 75
 8.703106e-02 7.490857e-02 6.273318e-02 5.043118e-02 3.875412e-02 2.812354e-02 1.891963e-02 1.152333e-02 1.000000e-02 1.000000e-02 1.000000e-02 1.000000e-02 1.000000e-02 1.000000e-02 1.000000e-02 1.000000e-02 1.000000e-02 1.000000e-02 1.000000e-02 1.000000e-02 1.000000e-02 1.000000e-02 1.000000e-02 1.000000e-02 1.000000e-02 1.000000e-02 1.000000e-02 1.000000e-02 1.000000e-02 1.000000e-02 1.000000e-02 1.000000e-02 1.000000e-02 1.000000e-02 1.000000e-02 1.000000e-02 1.000000e-02 1.000000e-02 1.000000e-02 1.000000e-02 1.000000e-02 1.000000e-02 1.000000e-02 1.000000e-02 1.000000e-02 1.000000e-02 1.000000e-02 1.000000e-02 1.000000e-02 1.000000e-02 1.000000e-02 1.000000e-02 1.000000e-02 1.000000e-02 1.000000e-02 1.000000e-02 1.000000e-02 1.000000e-02 1.000000e-02 1.000000e-02 1.000000e-02 1.000000e-02 1.000000e-02 1.000000e-02 1.000000e-02 1.000000e-02 1.000000e-02 1.000000e-02 1.000000e-02 1.000000e-02 1.000000e-02 1.000000e-02 1.000000e-02 1.000000e-02 1.000000e-02
<GCONST> -1.967472e+02
<MIXTURE> 2 6.133587e-01
<MEAN> 75
 1.946511e+00 2.072799e+00 2.182175e+00 2.270240e+00 2.334961e+00 2.376171e+00 2.394022e+00 2.389103e+00 2.363484e+00 2.321955e+00 2.274777e+00 2.237148e+00 2.220173e+00 2.217930e+00 2.207345e+00 2.163036e+00 2.068525e+00 1.917755e+00 1.716245e+00 1.485878e+00 1.270057e+00 1.117953e+00 1.042032e+00 1.000000e+00 1.000808e+00 -1.201194e-03 -1.385707e-03 -1.345331e-03 -1.141131e-03 -1.004702e-03 -8.781739e-04 -8.107254e-04 -7.705154e-04 -7.426440e-04 -7.642326e-04 -7.829161e-04 -8.214226e-04 -9.275406e-04 -1.003089e-03 -1.079331e-03 -1.130778e-03 -1.217001e-03 -1.298452e-03 -1.281018e-03 -1.128378e-03 -8.594937e-04 -4.645337e-04 -2.759382e-04 1.108195e-07 -7.524003e-06 9.654257e-05 2.414930e-05 -1.532895e-06 -1.783656e-05 -5.208661e-06 -6.085362e-06 -7.262511e-06 -6.497536e-06 -1.060233e-05 -7.998017e-06 1.563024e-05 -1.911155e-05 -9.608490e-06 -5.758540e-06 -1.141963e-05 -9.172464e-06 -2.292129e-05 3.714053e-06 1.052050e-05 -1.487882e-05 -1.398978e-05 -1.488007e-05 -1.389186e-05 1.108195e-07 4.500546e-07
<VARIANCE> 75
 8.703106e-02 7.490857e-02 6.273318e-02 5.043118e-02 3.875412e-02 2.812354e-02 1.891963e-02 1.152333e-02 1.000000e-02 1.000000e-02 1.000000e-02 1.000000e-02 1.000000e-02 1.000000e-02 1.000000e-02 1.000000e-02 1.000000e-02 1.000000e-02 1.000000e-02 1.000000e-02 1.000000e-02 1.000000e-02 1.000000e-02 1.000000e-02 1.000000e-02 1.000000e-02 1.000000e-02 1.000000e-02 1.000000e-02 1.000000e-02 1.000000e-02 1.000000e-02 1.000000e-02 1.000000e-02 1.000000e-02 1.000000e-02 1.000000e-02 1.000000e-02 1.000000e-02 1.000000e-02 1.000000e-02 1.000000e-02 1.000000e-02 1.000000e-02 1.000000e-02 1.000000e-02 1.000000e-02 1.000000e-02 1.000000e-02 1.000000e-02 1.000000e-02 1.000000e-02 1.000000e-02 1.000000e-02 1.000000e-02 1.000000e-02 1.000000e-02 1.000000e-02 1.000000e-02 1.000000e-02 1.000000e-02 1.000000e-02 1.000000e-02 1.000000e-02 1.000000e-02 1.000000e-02 1.000000e-02 1.000000e-02 1.000000e-02 1.000000e-02 1.000000e-02 1.000000e-02 1.000000e-02 1.000000e-02 1.000000e-02
<GCONST> -1.967472e+02
<STATE> 4
<NUMMIXES> 2
<MIXTURE> 1 4.531254e-01
<MEAN> 75
 1.992164e+00 2.083686e+00 2.168074e+00 2.242633e+00 2.298248e+00 2.331015e+00 2.340579e+00 2.328165e+00 2.296550e+00 2.251786e+00 2.204606e+00 2.168537e+00 2.150629e+00 2.142076e+00 2.122146e+00 2.070438e+00 1.974263e+00 1.829973e+00 1.644070e+00 1.437017e+00 1.246331e+00 1.111295e+00 1.040830e+00 1.000000e+00 1.002103e+00 5.036107e-03 2.763977e-03 1.822410e-04 -9.262676e-04 -9.277188e-04 -7.583124e-04 -6.520033e-04 -5.892949e-04 -5.758791e-04 -6.008369e-04 -6.690740e-04 -7.545131e-04 -8.481694e-04 -9.468922e-04 -1.026479e-03 -1.099367e-03 -1.168335e-03 -1.204453e-03 -1.190482e-03 -1.073421e-03 -7.978822e-04 -4.523942e-04 -1.850956e-04 8.198194e-09 -3.413945e-05 5.397255e-04 8.308158e-04 6.316582e-04 1.939384e-04 2.732484e-05 1.208745e-06 7.082082e-06 8.742592e-06 1.094274e-05 6.737569e-06 7.906143e-06 7.946299e-06 3.681786e-06 8.440152e-07 1.157401e-06 -1.847585e-08 3.871909e-06 2.679084e-06 1.732053e-06 2.558065e-06 1.914716e-06 3.910353e-06 5.265128e-06 8.198194e-09 -4.854735e-07
<VARIANCE> 75
 8.703106e-02 7.490857e-02 6.273318e-02 5.043118e-02 3.875412e-02 2.812354e-02 1.891963e-02 1.152333e-02 1.000000e-02 1.000000e-02 1.000000e-02 1.000000e-02 1.000000e-02 1.000000e-02 1.000000e-02 1.000000e-02 1.000000e-02 1.000000e-02 1.000000e-02 1.000000e-02 1.000000e-02 1.000000e-02 1.000000e-02 1.000000e-02 1.000000e-02 1.000000e-02 1.000000e-02 1.000000e-02 1.000000e-02 1.000000e-02 1.000000e-02 1.000000e-02 1.000000e-02 1.000000e-02 1.000000e-02 1.000000e-02 1.000000e-02 1.000000e-02 1.000000e-02 1.000000e-02 1.000000e-02 1.000000e-02 1.000000e-02 1.000000e-02 1.000000e-02 1.000000e-02 1.000000e-02 1.000000e-02 1.000000e-02 1.000000e-02 1.000000e-02 1.000000e-02 1.000000e-02 1.000000e-02 1.000000e-02 1.000000e-02 1.000000e-02 1.000000e-02 1.000000e-02 1.000000e-02 1.000000e-02 1.000000e-02 1.000000e-02 1.000000e-02 1.000000e-02 1.000000e-02 1.000000e-02 1.000000e-02 1.000000e-02 1.000000e-02 1.000000e-02 1.000000e-02 1.000000e-02 1.000000e-02 1.000000e-02
<GCONST> -1.967472e+02
<MIXTURE> 2 5.468662e-01
<MEAN> 75
 1.882716e+00 1.995827e+00 2.098529e+00 2.182514e+00 2.242731e+00 2.278067e+00 2.289214e+00 2.277702e+00 2.246604e+00 2.202038e+00 2.154740e+00 2.117601e+00 2.097016e+00 2.084314e+00 2.059816e+00 2.004384e+00 1.906357e+00 1.763116e+00 1.582575e+00 1.386879e+00 1.212918e+00 1.094331e+00 1.034371e+00 9.999998e-01 1.000817e+00 3.999813e-04 -8.804298e-04 -1.247599e-03 -1.113136e-03 -8.812229e-04 -7.041548e-04 -5.888733e-04 -5.322323e-04 -5.256546e-04 -5.558052e-04 -6.281359e-04 -7.220184e-04 -8.233672e-04 -9.148549e-04 -9.980893e-04 -1.062827e-03 -1.122016e-03 -1.155844e-03 -1.127291e-03 -9.867874e-04 -7.084662e-04 -4.077399e-04 -1.902965e-04 -1.764020e-07 -3.242652e-05 4.324295e-04 2.004673e-04 5.395579e-05 8.858872e-06 6.946044e-06 9.539281e-06 1.298095e-05 1.519511e-05 1.492153e-05 1.467776e-05 1.348057e-05 1.111987e-05 9.885831e-06 9.440109e-06 7.898787e-06 1.023730e-05 1.047476e-05 9.644904e-06 9.536783e-06 9.172809e-06 7.077822e-06 4.272340e-06 2.258714e-06 -1.764020e-07 6.191508e-07
<VARIANCE> 75
 8.703106e-02 7.490857e-02 6.273318e-02 5.043118e-02 3.875412e-02 2.812354e-02 1.891963e-02 1.152333e-02 1.000000e-02 1.000000e-02 1.000000e-02 1.000000e-02 1.000000e-02 1.000000e-02 1.000000e-02 1.000000e-02 1.000000e-02 1.000000e-02 1.000000e-02 1.000000e-02 1.000000e-02 1.000000e-02 1.000000e-02 1.000000e-02 1.000000e-02 1.000000e-02 1.000000e-02 1.000000e-02 1.000000e-02 1.000000e-02 1.000000e-02 1.000000e-02 1.000000e-02 1.000000e-02 1.000000e-02 1.000000e-02 1.000000e-02 1.000000e-02 1.000000e-02 1.000000e-02 1.000000e-02 1.000000e-02 1.000000e-02 1.000000e-02 1.000000e-02 1.000000e-02 1.000000e-02 1.000000e-02 1.000000e-02 1.000000e-02 1.000000e-02 1.000000e-02 1.000000e-02 1.000000e-02 1.000000e-02 1.000000e-02 1.000000e-02 1.000000e-02 1.000000e-02 1.000000e-02 1.000000e-02 1.000000e-02 1.000000e-02 1.000000e-02 1.000000e-02 1.000000e-02 1.000000e-02 1.000000e-02 1.000000e-02 1.000000e-02 1.000000e-02 1.000000e-02 1.000000e-02 1.000000e-02 1.000000e-02
<GCONST> -1.967472e+02
<TRANSP> 5
 0.000000e+00 1.000000e+00 0.000000e+00 0.000000e+00 0.000000e+00
 0.000000e+00 9.620944e-01 3.790563e-02 0.000000e+00 0.000000e+00
 0.000000e+00 0.000000e+00 9.547178e-01 4.528228e-02 0.000000e+00
 0.000000e+00 0.000000e+00 0.000000e+00 9.856799e-01 1.432013e-02
 0.000000e+00 0.000000e+00 0.000000e+00 0.000000e+00 0.000000e+00
<ENDHMM>
