~o
<STREAMINFO> 1 75
<VECSIZE> 75<NULLD><USER_D_A><DIAGC>
~h "e"
<BEGINHMM>
<NUMSTATES> 5
<STATE> 2
<NUMMIXES> 2
<MIXTURE> 1 4.037034e-01
<MEAN> 75
 4.164166e+00 3.861344e+00 3.474336e+00 3.073724e+00 2.755629e+00 2.595448e+00 2.575166e+00 2.586102e+00 2.576250e+00 2.543119e+00 2.494224e+00 2.440812e+00 2.398289e+00 2.379215e+00 2.371792e+00 2.342209e+00 2.260532e+00 2.112314e+00 1.897704e+00 1.634775e+00 1.369682e+00 1.167907e+00 1.060954e+00 9.999999e-01 1.006001e+00 7.963692e-02 9.431999e-02 9.662777e-02 8.022120e-02 5.070612e-02 2.014128e-02 4.172823e-03 1.446014e-03 1.662723e-03 1.866105e-03 1.738435e-03 1.327754e-03 6.276051e-04 -1.792069e-05 -4.582529e-04 -5.526827e-04 -5.956533e-04 -5.401989e-04 -5.687005e-04 -6.053780e-04 -5.479494e-04 -3.710554e-04 -1.915303e-04 -9.633829e-08 -4.348729e-05 -1.070325e-02 -7.769259e-03 -2.023343e-03 3.503932e-03 6.144471e-03 5.056149e-03 1.732702e-03 2.026174e-04 -3.450904e-05 -4.267483e-05 -2.671919e-05 -2.062547e-05 -7.181120e-06 1.510941e-06 -6.945412e-06 -8.417177e-06 -1.048170e-05 -7.752998e-06 -1.020542e-05 -2.927696e-06 -4.307351e-06 -4.968591e-06 1.610400e-07 -9.633829e-08 1.272350e-06
<VARIANCE> 75
 9.332500e-01 6.969794e-01 5.065044e-01 2.975241e-01 1.063446e-01 2.867688e-02 2.045427e-02 1.644885e-02 1.340766e-02 1.293831e-02 1.597680e-02 2.234785e-02 2.831287e-02 2.777809e-02 2.064674e-02 1.298487e-02 1.000000e-02 1.000000e-02 1.000000e-02 1.000000e-02 1.000000e-02 1.000000e-02 1.000000e-02 1.000000e-02 1.000000e-02 1.337764e-02 1.431165e-02 1.212806e-02 1.000000e-02 1.000000e-02 1.000000e-02 1.000000e-02 1.000000e-02 1.000000e-02 1.000000e-02 1.000000e-02 1.000000e-02 1.000000e-02 1.000000e-02 1.000000e-02 1.000000e-02 1.000000e-02 1.000000e-02 1.000000e-02 1.000000e-02 1.000000e-02 1.000000e-02 1.000000e-02 1.000000e-02 1.000000e-02 1.000000e-02 1.000000e-02 1.000000e-02 1.000000e-02 1.000000e-02 1.000000e-02 1.000000e-02 1.000000e-02 1.000000e-02 1.000000e-02 1.000000e-02 1.000000e-02 1.000000e-02 1.000000e-02 1.000000e-02 1.000000e-02 1.000000e-02 1.000000e-02 1.000000e-02 1.000000e-02 1.000000e-02 1.000000e-02 1.000000e-02 1.000000e-02 1.000000e-02
<GCONST> -1.811034e+02
<MIXTURE> 2 5.962894e-01
<MEAN> 75
 4.203581e+00 3.749481e+00 3.209202e+00 2.717153e+00 2.435548e+00 2.369225e+00 2.384087e+00 2.387330e+00 2.362693e+00 2.315292e+00 2.255408e+00 2.197886e+00 2.156644e+00 2.131949e+00 2.106570e+00 2.055558e+00 1.961419e+00 1.818017e+00 1.631925e+00 1.424632e+00 1.235790e+00 1.105166e+00 1.039058e+00 9.999998e-01 1.001749e+00 7.124747e-02 8.499085e-02 8.482279e-02 5.958608e-02 2.627004e-02 6.117352e-03 1.367451e-03 1.283135e-03 1.509857e-03 1.488790e-03 1.192510e-03 7.054546e-04 1.748379e-04 -2.129007e-04 -4.383913e-04 -5.080744e-04 -5.917192e-04 -6.387425e-04 -6.983110e-04 -6.432527e-04 -5.378241e-04 -3.116555e-04 -1.571084e-04 -1.690415e-07 -2.703577e-05 -8.142059e-03 -6.226731e-03 -6.104747e-04 4.450249e-03 4.508227e-03 1.894536e-03 2.858012e-04 -2.427484e-05 -4.283582e-05 -3.654638e-05 -2.723503e-05 -1.935987e-05 -9.624659e-06 -2.679131e-06 -1.196853e-05 -7.107053e-06 -1.136135e-05 -7.837297e-06 -8.038443e-06 -7.964551e-06 -4.657955e-06 -4.137835e-07 -4.183423e-06 -1.690415e-07 3.617224e-07
<VARIANCE> 75
 2.129607e-01 2.497152e-01 2.644735e-01 1.606974e-01 3.912752e-02 2.845205e-02 1.922121e-02 1.176505e-02 1.000000e-02 1.000000e-02 1.000000e-02 1.000000e-02 1.000000e-02 1.000000e-02 1.062850e-02 1.419312e-02 1.661703e-02 1.624281e-02 1.269616e-02 1.000000e-02 1.000000e-02 1.000000e-02 1.000000e-02 1.000000e-02 1.000000e-02 1.000000e-02 1.000000e-02 1.000000e-02 1.000000e-02 1.000000e-02 1.000000e-02 1.000000e-02 1.000000e-02 1.000000e-02 1.000000e-02 1.000000e-02 1.000000e-02 1.000000e-02 1.000000e-02 1.000000e-02 1.000000e-02 1.000000e-02 1.000000e-02 1.000000e-02 1.000000e-02 1.000000e-02 1.000000e-02 1.000000e-02 1.000000e-02 1.000000e-02 1.000000e-02 1.000000e-02 1.000000e-02 1.000000e-02 1.000000e-02 1.000000e-02 1.000000e-02 1.000000e-02 1.000000e-02 1.000000e-02 1.000000e-02 1.000000e-02 1.000000e-02 1.000000e-02 1.000000e-02 1.000000e-02 1.000000e-02 1.000000e-02 1.000000e-02 1.000000e-02 1.000000e-02 1.000000e-02 1.000000e-02 1.000000e-02 1.000000e-02
<GCONST> -1.903500e+02
<STATE> 3
<NUMMIXES> 2
<MIXTURE> 1 5.722771e-01
<MEAN> 75
 5.125763e+00 5.306047e+00 5.367063e+00 5.301721e+00 5.106567e+00 4.783480e+00 4.352409e+00 3.862746e+00 3.383150e+00 2.985944e+00 2.710401e+00 2.536066e+00 2.424031e+00 2.364013e+00 2.346949e+00 2.332778e+00 2.276687e+00 2.152125e+00 1.952934e+00 1.693013e+00 1.415138e+00 1.191487e+00 1.068741e+00 1.000000e+00 1.006320e+00 -1.097874e-02 -8.764925e-04 9.318775e-03 1.955753e-02 2.945204e-02 3.684265e-02 3.728285e-02 3.087363e-02 2.155721e-02 1.247314e-02 6.094717e-03 2.782822e-03 1.092484e-03 9.145805e-05 -4.602002e-04 -6.931227e-04 -7.324609e-04 -7.325750e-04 -7.524035e-04 -7.532226e-04 -6.804637e-04 -4.886106e-04 -2.532217e-04 -2.064959e-08 -4.004298e-05 -1.736855e-03 -2.436707e-03 -3.128754e-03 -3.711054e-03 -3.839640e-03 -2.839482e-03 -1.105524e-03 -2.170959e-04 -3.588828e-05 -4.347131e-05 -7.874062e-05 -8.135390e-05 -6.343046e-05 -3.621122e-05 -2.400312e-05 -2.275718e-05 -2.158818e-05 -2.180178e-05 -2.625877e-05 -2.277036e-05 -1.762521e-05 -1.431025e-05 -4.005726e-06 -2.064959e-08 1.725253e-06
<VARIANCE> 75
 2.538917e-01 1.099307e-01 6.863257e-02 1.150431e-01 2.405001e-01 4.273885e-01 5.969661e-01 6.218583e-01 4.770908e-01 2.625320e-01 1.026242e-01 2.991126e-02 1.000000e-02 1.000000e-02 1.000000e-02 1.000000e-02 1.000000e-02 1.000000e-02 1.000000e-02 1.000000e-02 1.000000e-02 1.000000e-02 1.000000e-02 1.000000e-02 1.000000e-02 1.000000e-02 1.000000e-02 1.000000e-02 1.000000e-02 1.000000e-02 1.000000e-02 1.000000e-02 1.000000e-02 1.000000e-02 1.000000e-02 1.000000e-02 1.000000e-02 1.000000e-02 1.000000e-02 1.000000e-02 1.000000e-02 1.000000e-02 1.000000e-02 1.000000e-02 1.000000e-02 1.000000e-02 1.000000e-02 1.000000e-02 1.000000e-02 1.000000e-02 1.000000e-02 1.000000e-02 1.000000e-02 1.000000e-02 1.000000e-02 1.000000e-02 1.000000e-02 1.000000e-02 1.000000e-02 1.000000e-02 1.000000e-02 1.000000e-02 1.000000e-02 1.000000e-02 1.000000e-02 1.000000e-02 1.000000e-02 1.000000e-02 1.000000e-02 1.000000e-02 1.000000e-02 1.000000e-02 1.000000e-02 1.000000e-02 1.000000e-02
<GCONST> -1.718348e+02
<MIXTURE> 2 4.277074e-01
<MEAN> 75
 4.871902e+00 4.952343e+00 4.915676e+00 4.760120e+00 4.496185e+00 4.159054e+00 3.804296e+00 3.465341e+00 3.158347e+00 2.887891e+00 2.648405e+00 2.447767e+00 2.316025e+00 2.255605e+00 2.228761e+00 2.191828e+00 2.111723e+00 1.972931e+00 1.776277e+00 1.540360e+00 1.308954e+00 1.138274e+00 1.049866e+00 1.000000e+00 1.003878e+00 -1.756201e-03 8.622436e-03 1.901326e-02 2.892753e-02 3.621394e-02 3.575091e-02 2.896177e-02 2.159755e-02 1.564362e-02 1.101376e-02 7.281219e-03 3.908219e-03 1.345171e-03 1.180914e-04 -3.917642e-04 -5.569750e-04 -6.009527e-04 -6.731946e-04 -7.057471e-04 -6.991345e-04 -6.046670e-04 -4.077589e-04 -1.883490e-04 -7.205966e-09 -3.610199e-05 -2.324841e-03 -2.959787e-03 -3.526727e-03 -3.775109e-03 -2.837902e-03 -8.926896e-04 4.228580e-06 6.997341e-05 1.284316e-06 -3.247497e-05 -3.282224e-05 -2.273074e-05 -2.319014e-05 -2.693413e-05 -1.992840e-05 -2.308759e-05 -1.563564e-05 -1.666991e-05 -1.997815e-05 -1.118307e-05 -3.788818e-06 2.668461e-06 -7.601855e-07 -7.205966e-09 2.420428e-07
<VARIANCE> 75
 5.817824e-01 4.820973e-01 5.510418e-01 7.501072e-01 1.014880e+00 1.218197e+00 1.213320e+00 1.016268e+00 7.206061e-01 4.150614e-01 1.750034e-01 4.723890e-02 1.373505e-02 1.243636e-02 1.721677e-02 2.436085e-02 3.065499e-02 3.257181e-02 2.820726e-02 1.883105e-02 1.000000e-02 1.000000e-02 1.000000e-02 1.000000e-02 1.000000e-02 1.000000e-02 1.000000e-02 1.000000e-02 1.000000e-02 1.000000e-02 1.000000e-02 1.000000e-02 1.000000e-02 1.000000e-02 1.000000e-02 1.000000e-02 1.000000e-02 1.000000e-02 1.000000e-02 1.000000e-02 1.000000e-02 1.000000e-02 1.000000e-02 1.000000e-02 1.000000e-02 1.000000e-02 1.000000e-02 1.000000e-02 1.000000e-02 1.000000e-02 1.000000e-02 1.000000e-02 1.000000e-02 1.000000e-02 1.000000e-02 1.000000e-02 1.000000e-02 1.000000e-02 1.000000e-02 1.000000e-02 1.000000e-02 1.000000e-02 1.000000e-02 1.000000e-02 1.000000e-02 1.000000e-02 1.000000e-02 1.000000e-02 1.000000e-02 1.000000e-02 1.000000e-02 1.000000e-02 1.000000e-02 1.000000e-02 1.000000e-02
<GCONST> -1.540805e+02
<STATE> 4
<NUMMIXES> 2
<MIXTURE> 1 4.444923e-01
<MEAN> 75
 5.196415e+00 5.305295e+00 5.301504e+00 5.176294e+00 4.925172e+00 4.550884e+00 4.083731e+00 3.592019e+00 3.136198e+00 2.758961e+00 2.491812e+00 2.333423e+00 2.244245e+00 2.191547e+00 2.153500e+00 2.100942e+00 2.008894e+00 1.866107e+00 1.676100e+00 1.459899e+00 1.258379e+00 1.116029e+00 1.043151e+00 9.999999e-01 1.002641e+00 -7.831338e-03 -3.600063e-04 7.264900e-03 1.493412e-02 2.245860e-02 2.842289e-02 2.931723e-02 2.470000e-02 1.779695e-02 1.053365e-02 4.714480e-03 1.533215e-03 3.424658e-04 -1.962728e-04 -4.687320e-04 -6.111102e-04 -6.808937e-04 -7.407555e-04 -7.670184e-04 -7.352658e-04 -5.923492e-04 -3.684204e-04 -1.739270e-04 -1.091840e-07 -2.289421e-05 -7.621081e-04 -1.189630e-03 -1.624421e-03 -2.058839e-03 -2.342264e-03 -2.104462e-03 -1.205901e-03 -5.289351e-04 -2.066852e-04 -8.306076e-05 -5.424599e-05 -5.220812e-05 -3.879051e-05 -2.568415e-05 -1.130765e-05 -5.533400e-06 -8.023889e-06 -7.796337e-06 -4.660830e-06 -2.866486e-06 3.667637e-08 -4.221398e-07 1.827555e-06 -1.091840e-07 7.252232e-07
<VARIANCE> 75
 1.033251e-01 7.529422e-02 7.751451e-02 1.670884e-01 3.231299e-01 5.248947e-01 6.691010e-01 6.095088e-01 3.850589e-01 1.578227e-01 3.760063e-02 1.000000e-02 1.000000e-02 1.000000e-02 1.190530e-02 1.648131e-02 2.012096e-02 2.055234e-02 1.674524e-02 1.003401e-02 1.000000e-02 1.000000e-02 1.000000e-02 1.000000e-02 1.000000e-02 1.000000e-02 1.000000e-02 1.000000e-02 1.000000e-02 1.000000e-02 1.000000e-02 1.000000e-02 1.000000e-02 1.000000e-02 1.000000e-02 1.000000e-02 1.000000e-02 1.000000e-02 1.000000e-02 1.000000e-02 1.000000e-02 1.000000e-02 1.000000e-02 1.000000e-02 1.000000e-02 1.000000e-02 1.000000e-02 1.000000e-02 1.000000e-02 1.000000e-02 1.000000e-02 1.000000e-02 1.000000e-02 1.000000e-02 1.000000e-02 1.000000e-02 1.000000e-02 1.000000e-02 1.000000e-02 1.000000e-02 1.000000e-02 1.000000e-02 1.000000e-02 1.000000e-02 1.000000e-02 1.000000e-02 1.000000e-02 1.000000e-02 1.000000e-02 1.000000e-02 1.000000e-02 1.000000e-02 1.000000e-02 1.000000e-02 1.000000e-02
<GCONST> -1.722329e+02
<MIXTURE> 2 5.555024e-01
<MEAN> 75
 5.132119e+00 5.037837e+00 4.829942e+00 4.502904e+00 4.063082e+00 3.558764e+00 3.101597e+00 2.758056e+00 2.523285e+00 2.372473e+00 2.271512e+00 2.193963e+00 2.136157e+00 2.095563e+00 2.055474e+00 1.993474e+00 1.893733e+00 1.751665e+00 1.574006e+00 1.382368e+00 1.212075e+00 1.095323e+00 1.035135e+00 1.000000e+00 1.000308e+00 6.013851e-03 1.386783e-02 2.205295e-02 3.014877e-02 3.666681e-02 3.603676e-02 2.582007e-02 1.461657e-02 6.950354e-03 2.883547e-03 1.242694e-03 5.534848e-04 7.799649e-05 -2.984325e-04 -5.031266e-04 -6.192781e-04 -6.729703e-04 -7.322194e-04 -7.546066e-04 -7.044257e-04 -5.266282e-04 -3.225324e-04 -1.440835e-04 6.554370e-08 -8.472842e-06 -1.562250e-03 -2.034983e-03 -2.483657e-03 -2.835891e-03 -2.592046e-03 -9.997918e-04 2.883384e-04 3.450353e-04 1.183105e-04 -4.672833e-06 -4.123112e-05 -3.440165e-05 -1.718514e-05 -1.385191e-05 -4.207363e-06 -2.213186e-06 -2.639393e-06 -2.133077e-06 6.584085e-07 5.043292e-06 3.603140e-06 2.205786e-06 2.060978e-06 6.554370e-08 2.863709e-07
<VARIANCE> 75
 1.833335e-01 2.198856e-01 3.012692e-01 4.251738e-01 5.691288e-01 6.386173e-01 5.011200e-01 2.613589e-01 8.907773e-02 2.022828e-02 1.000000e-02 1.000000e-02 1.000000e-02 1.000000e-02 1.000000e-02 1.000000e-02 1.000000e-02 1.000000e-02 1.000000e-02 1.000000e-02 1.000000e-02 1.000000e-02 1.000000e-02 1.000000e-02 1.000000e-02 1.000000e-02 1.000000e-02 1.000000e-02 1.000000e-02 1.000000e-02 1.000000e-02 1.000000e-02 1.000000e-02 1.000000e-02 1.000000e-02 1.000000e-02 1.000000e-02 1.000000e-02 1.000000e-02 1.000000e-02 1.000000e-02 1.000000e-02 1.000000e-02 1.000000e-02 1.000000e-02 1.000000e-02 1.000000e-02 1.000000e-02 1.000000e-02 1.000000e-02 1.000000e-02 1.000000e-02 1.000000e-02 1.000000e-02 1.000000e-02 1.000000e-02 1.000000e-02 1.000000e-02 1.000000e-02 1.000000e-02 1.000000e-02 1.000000e-02 1.000000e-02 1.000000e-02 1.000000e-02 1.000000e-02 1.000000e-02 1.000000e-02 1.000000e-02 1.000000e-02 1.000000e-02 1.000000e-02 1.000000e-02 1.000000e-02 1.000000e-02
<GCONST> -1.761251e+02
<TRANSP> 5
 0.000000e+00 1.000000e+00 0.000000e+00 0.000000e+00 0.000000e+00
 0.000000e+00 9.406219e-01 5.937820e-02 0.000000e+00 0.000000e+00
 0.000000e+00 0.000000e+00 9.017971e-01 9.820288e-02 0.000000e+00
 0.000000e+00 0.000000e+00 0.000000e+00 9.519291e-01 4.807094e-02
 0.000000e+00 0.000000e+00 0.000000e+00 0.000000e+00 0.000000e+00
<ENDHMM>
~h "ne"
<BEGINHMM>
<NUMSTATES> 5
<STATE> 2
<NUMMIXES> 2
<MIXTURE> 1 5.121704e-01
<MEAN> 75
 2.044683e+00 2.176001e+00 2.295376e+00 2.394898e+00 2.470255e+00 2.520832e+00 2.546904e+00 2.549538e+00 2.530918e+00 2.494429e+00 2.446569e+00 2.400588e+00 2.376157e+00 2.383098e+00 2.401072e+00 2.392393e+00 2.327430e+00 2.191860e+00 1.984727e+00 1.720976e+00 1.441520e+00 1.214013e+00 1.083706e+00 1.000000e+00 1.010489e+00 1.886031e-03 -2.890154e-04 -1.329353e-03 -1.298788e-03 -1.043311e-03 -8.535566e-04 -7.284287e-04 -6.289858e-04 -6.152751e-04 -6.227038e-04 -6.593829e-04 -7.390928e-04 -8.431559e-04 -9.578784e-04 -1.057694e-03 -1.138030e-03 -1.218189e-03 -1.294687e-03 -1.340390e-03 -1.316956e-03 -1.136770e-03 -7.490437e-04 -3.855783e-04 4.953381e-07 -6.862381e-05 7.842925e-04 5.647637e-04 1.671312e-04 1.148075e-06 -1.331748e-05 -2.033522e-06 7.752978e-07 3.536735e-06 8.319841e-06 8.685205e-06 4.887125e-06 1.993363e-07 -6.040454e-06 -5.980936e-06 -6.623271e-06 -1.103341e-05 -8.943553e-06 -1.007092e-05 -9.248555e-06 -1.037804e-05 -6.040307e-06 -6.063551e-06 -2.146793e-06 4.953381e-07 1.700554e-06
<VARIANCE> 75
 8.735170e-02 7.529422e-02 6.314393e-02 5.083671e-02 3.912752e-02 2.845205e-02 1.922121e-02 1.176505e-02 1.000000e-02 1.000000e-02 1.000000e-02 1.060102e-02 1.271107e-02 1.120300e-02 1.000000e-02 1.000000e-02 1.000000e-02 1.000000e-02 1.000000e-02 1.000000e-02 1.000000e-02 1.000000e-02 1.000000e-02 1.000000e-02 1.000000e-02 1.000000e-02 1.000000e-02 1.000000e-02 1.000000e-02 1.000000e-02 1.000000e-02 1.000000e-02 1.000000e-02 1.000000e-02 1.000000e-02 1.000000e-02 1.000000e-02 1.000000e-02 1.000000e-02 1.000000e-02 1.000000e-02 1.000000e-02 1.000000e-02 1.000000e-02 1.000000e-02 1.000000e-02 1.000000e-02 1.000000e-02 1.000000e-02 1.000000e-02 1.000000e-02 1.000000e-02 1.000000e-02 1.000000e-02 1.000000e-02 1.000000e-02 1.000000e-02 1.000000e-02 1.000000e-02 1.000000e-02 1.000000e-02 1.000000e-02 1.000000e-02 1.000000e-02 1.000000e-02 1.000000e-02 1.000000e-02 1.000000e-02 1.000000e-02 1.000000e-02 1.000000e-02 1.000000e-02 1.000000e-02 1.000000e-02 1.000000e-02
<GCONST> -1.962542e+02
<MIXTURE> 2 4.878233e-01
<MEAN> 75
 1.943047e+00 2.075198e+00 2.196216e+00 2.297096e+00 2.374888e+00 2.429150e+00 2.460066e+00 2.468007e+00 2.453870e+00 2.419913e+00 2.372238e+00 2.324102e+00 2.296346e+00 2.299547e+00 2.314314e+00 2.303272e+00 2.236783e+00 2.100645e+00 1.895374e+00 1.639263e+00 1.377940e+00 1.177009e+00 1.068775e+00 9.999999e-01 1.009438e+00 1.612228e-04 -1.428795e-03 -1.635385e-03 -1.321677e-03 -1.005881e-03 -7.876126e-04 -6.505885e-04 -5.546016e-04 -5.179844e-04 -5.145140e-04 -5.857252e-04 -6.351009e-04 -7.740466e-04 -9.073437e-04 -1.013700e-03 -1.100650e-03 -1.162209e-03 -1.244363e-03 -1.297061e-03 -1.218320e-03 -1.004492e-03 -6.293415e-04 -3.032389e-04 -1.200142e-07 -4.698049e-05 6.547370e-04 2.444807e-04 1.199509e-05 -2.140833e-05 -2.127014e-05 -4.176261e-06 3.037331e-06 6.212675e-06 5.893512e-06 7.107589e-06 1.015794e-05 1.421511e-06 9.297291e-07 -2.498694e-06 -6.921668e-06 -3.894705e-06 -6.959332e-06 -7.078938e-06 -8.677750e-07 -4.500809e-07 1.773847e-06 3.484412e-07 1.259022e-06 -1.200142e-07 -1.300844e-07
<VARIANCE> 75
 8.735170e-02 7.529422e-02 6.314393e-02 5.083671e-02 3.912752e-02 2.845205e-02 1.922121e-02 1.176505e-02 1.000000e-02 1.000000e-02 1.000000e-02 1.000000e-02 1.000000e-02 1.000000e-02 1.000000e-02 1.000000e-02 1.000000e-02 1.000000e-02 1.000000e-02 1.000000e-02 1.000000e-02 1.000000e-02 1.000000e-02 1.000000e-02 1.000000e-02 1.000000e-02 1.000000e-02 1.000000e-02 1.000000e-02 1.000000e-02 1.000000e-02 1.000000e-02 1.000000e-02 1.000000e-02 1.000000e-02 1.000000e-02 1.000000e-02 1.000000e-02 1.000000e-02 1.000000e-02 1.000000e-02 1.000000e-02 1.000000e-02 1.000000e-02 1.000000e-02 1.000000e-02 1.000000e-02 1.000000e-02 1.000000e-02 1.000000e-02 1.000000e-02 1.000000e-02 1.000000e-02 1.000000e-02 1.000000e-02 1.000000e-02 1.000000e-02 1.000000e-02 1.000000e-02 1.000000e-02 1.000000e-02 1.000000e-02 1.000000e-02 1.000000e-02 1.000000e-02 1.000000e-02 1.000000e-02 1.000000e-02 1.000000e-02 1.000000e-02 1.000000e-02 1.000000e-02 1.000000e-02 1.000000e-02 1.000000e-02
<GCONST> -1.966660e+02
<STATE> 3
<NUMMIXES> 2
<MIXTURE> 1 3.795099e-01
<MEAN> 75
 2.011797e+00 2.104022e+00 2.198033e+00 2.289372e+00 2.362481e+00 2.412239e+00 2.437963e+00 2.440270e+00 2.420555e+00 2.382762e+00 2.335407e+00 2.293515e+00 2.272398e+00 2.271566e+00 2.268332e+00 2.232769e+00 2.143513e+00 1.991773e+00 1.781684e+00 1.535327e+00 1.299895e+00 1.132187e+00 1.048080e+00 9.999998e-01 1.003391e+00 6.419911e-03 3.099074e-03 -2.186091e-04 -1.193341e-03 -1.071141e-03 -8.532648e-04 -7.032442e-04 -6.187835e-04 -5.724033e-04 -5.816935e-04 -6.224839e-04 -7.067694e-04 -8.189771e-04 -9.454603e-04 -1.040782e-03 -1.111487e-03 -1.188184e-03 -1.244632e-03 -1.256586e-03 -1.155455e-03 -8.926938e-04 -5.223862e-04 -2.385757e-04 -2.554892e-07 -3.718988e-05 8.486303e-04 1.030061e-03 6.060045e-04 1.159581e-04 1.925149e-06 -2.379634e-06 8.371716e-07 2.440856e-06 9.006383e-06 9.564893e-06 1.065434e-05 8.851082e-06 3.037791e-06 -9.765656e-07 -1.594266e-06 -1.883168e-07 1.949346e-07 2.005623e-06 7.044846e-06 1.041969e-06 1.808431e-06 -4.373248e-07 -2.540823e-06 -2.554892e-07 1.062069e-06
<VARIANCE> 75
 8.735170e-02 7.529422e-02 6.314393e-02 5.083671e-02 3.912752e-02 2.845205e-02 1.922121e-02 1.176505e-02 1.000000e-02 1.000000e-02 1.000000e-02 1.000000e-02 1.000000e-02 1.000000e-02 1.000000e-02 1.000000e-02 1.000000e-02 1.000000e-02 1.000000e-02 1.000000e-02 1.000000e-02 1.000000e-02 1.000000e-02 1.000000e-02 1.000000e-02 1.000000e-02 1.000000e-02 1.000000e-02 1.000000e-02 1.000000e-02 1.000000e-02 1.000000e-02 1.000000e-02 1.000000e-02 1.000000e-02 1.000000e-02 1.000000e-02 1.000000e-02 1.000000e-02 1.000000e-02 1.000000e-02 1.000000e-02 1.000000e-02 1.000000e-02 1.000000e-02 1.000000e-02 1.000000e-02 1.000000e-02 1.000000e-02 1.000000e-02 1.000000e-02 1.000000e-02 1.000000e-02 1.000000e-02 1.000000e-02 1.000000e-02 1.000000e-02 1.000000e-02 1.000000e-02 1.000000e-02 1.000000e-02 1.000000e-02 1.000000e-02 1.000000e-02 1.000000e-02 1.000000e-02 1.000000e-02 1.000000e-02 1.000000e-02 1.000000e-02 1.000000e-02 1.000000e-02 1.000000e-02 1.000000e-02 1.000000e-02
<GCONST> -1.966660e+02
<MIXTURE> 2 6.204767e-01
<MEAN> 75
 1.949523e+00 2.074782e+00 2.183274e+00 2.270765e+00 2.335030e+00 2.375830e+00 2.393320e+00 2.388128e+00 2.362324e+00 2.320737e+00 2.273688e+00 2.236335e+00 2.219615e+00 2.217401e+00 2.206637e+00 2.162076e+00 2.067412e+00 1.916671e+00 1.715419e+00 1.485482e+00 1.270083e+00 1.118150e+00 1.042181e+00 1.000000e+00 1.000800e+00 -1.210137e-03 -1.368065e-03 -1.336077e-03 -1.139243e-03 -1.003507e-03 -8.781755e-04 -8.124636e-04 -7.735402e-04 -7.477967e-04 -7.659118e-04 -7.849224e-04 -8.249112e-04 -9.290840e-04 -1.001897e-03 -1.081653e-03 -1.128306e-03 -1.216960e-03 -1.298118e-03 -1.280447e-03 -1.127875e-03 -8.611593e-04 -4.658388e-04 -2.816469e-04 -1.248884e-08 -7.318977e-06 8.929099e-05 2.072300e-05 -1.090525e-06 -1.693024e-05 -6.313815e-06 -5.486112e-06 -6.543672e-06 -5.810545e-06 -1.024255e-05 -7.487271e-06 1.475380e-05 -1.936850e-05 -8.750584e-06 -5.092912e-06 -1.258664e-05 -9.510976e-06 -2.284641e-05 4.255604e-06 1.053534e-05 -1.438858e-05 -1.319244e-05 -1.415006e-05 -1.322583e-05 -1.248884e-08 3.327452e-07
<VARIANCE> 75
 8.735170e-02 7.529422e-02 6.314393e-02 5.083671e-02 3.912752e-02 2.845205e-02 1.922121e-02 1.176505e-02 1.000000e-02 1.000000e-02 1.000000e-02 1.000000e-02 1.000000e-02 1.000000e-02 1.000000e-02 1.000000e-02 1.000000e-02 1.000000e-02 1.000000e-02 1.000000e-02 1.000000e-02 1.000000e-02 1.000000e-02 1.000000e-02 1.000000e-02 1.000000e-02 1.000000e-02 1.000000e-02 1.000000e-02 1.000000e-02 1.000000e-02 1.000000e-02 1.000000e-02 1.000000e-02 1.000000e-02 1.000000e-02 1.000000e-02 1.000000e-02 1.000000e-02 1.000000e-02 1.000000e-02 1.000000e-02 1.000000e-02 1.000000e-02 1.000000e-02 1.000000e-02 1.000000e-02 1.000000e-02 1.000000e-02 1.000000e-02 1.000000e-02 1.000000e-02 1.000000e-02 1.000000e-02 1.000000e-02 1.000000e-02 1.000000e-02 1.000000e-02 1.000000e-02 1.000000e-02 1.000000e-02 1.000000e-02 1.000000e-02 1.000000e-02 1.000000e-02 1.000000e-02 1.000000e-02 1.000000e-02 1.000000e-02 1.000000e-02 1.000000e-02 1.000000e-02 1.000000e-02 1.000000e-02 1.000000e-02
<GCONST> -1.966660e+02
<STATE> 4
<NUMMIXES> 2
<MIXTURE> 1 4.538291e-01
<MEAN> 75
 1.992643e+00 2.083895e+00 2.168293e+00 2.242955e+00 2.298681e+00 2.331501e+00 2.341062e+00 2.328598e+00 2.296910e+00 2.252053e+00 2.204789e+00 2.168658e+00 2.150722e+00 2.142142e+00 2.122165e+00 2.070402e+00 1.974151e+00 1.829784e+00 1.643811e+00 1.436732e+00 1.246091e+00 1.111158e+00 1.040770e+00 9.999998e-01 1.002092e+00 5.200510e-03 2.874975e-03 2.346690e-04 -9.180887e-04 -9.259000e-04 -7.555414e-04 -6.460186e-04 -5.821547e-04 -5.676798e-04 -5.936148e-04 -6.631881e-04 -7.493143e-04 -8.461926e-04 -9.443402e-04 -1.024766e-03 -1.098017e-03 -1.164890e-03 -1.202003e-03 -1.188391e-03 -1.071759e-03 -7.952374e-04 -4.509219e-04 -1.827080e-04 -2.272822e-07 -3.287410e-05 5.405219e-04 8.422114e-04 6.457190e-04 1.990344e-04 2.805062e-05 1.444540e-06 6.442598e-06 8.594672e-06 1.103589e-05 7.307583e-06 8.153037e-06 7.487167e-06 3.731743e-06 5.449788e-07 1.645401e-06 -5.939956e-08 4.021249e-06 3.082597e-06 2.334465e-06 3.042605e-06 1.780216e-06 3.266244e-06 4.544325e-06 -2.272822e-07 -6.750591e-07
<VARIANCE> 75
 8.735170e-02 7.529422e-02 6.314393e-02 5.083671e-02 3.912752e-02 2.845205e-02 1.922121e-02 1.176505e-02 1.000000e-02 1.000000e-02 1.000000e-02 1.000000e-02 1.000000e-02 1.000000e-02 1.000000e-02 1.000000e-02 1.000000e-02 1.000000e-02 1.000000e-02 1.000000e-02 1.000000e-02 1.000000e-02 1.000000e-02 1.000000e-02 1.000000e-02 1.000000e-02 1.000000e-02 1.000000e-02 1.000000e-02 1.000000e-02 1.000000e-02 1.000000e-02 1.000000e-02 1.000000e-02 1.000000e-02 1.000000e-02 1.000000e-02 1.000000e-02 1.000000e-02 1.000000e-02 1.000000e-02 1.000000e-02 1.000000e-02 1.000000e-02 1.000000e-02 1.000000e-02 1.000000e-02 1.000000e-02 1.000000e-02 1.000000e-02 1.000000e-02 1.000000e-02 1.000000e-02 1.000000e-02 1.000000e-02 1.000000e-02 1.000000e-02 1.000000e-02 1.000000e-02 1.000000e-02 1.000000e-02 1.000000e-02 1.000000e-02 1.000000e-02 1.000000e-02 1.000000e-02 1.000000e-02 1.000000e-02 1.000000e-02 1.000000e-02 1.000000e-02 1.000000e-02 1.000000e-02 1.000000e-02 1.000000e-02
<GCONST> -1.966660e+02
<MIXTURE> 2 5.461631e-01
<MEAN> 75
 1.883260e+00 1.996042e+00 2.099027e+00 2.183218e+00 2.243513e+00 2.278872e+00 2.290009e+00 2.278460e+00 2.247295e+00 2.202637e+00 2.155233e+00 2.118016e+00 2.097390e+00 2.084693e+00 2.060208e+00 2.004775e+00 1.906714e+00 1.763404e+00 1.582759e+00 1.386953e+00 1.212905e+00 1.094294e+00 1.034343e+00 9.999999e-01 1.000839e+00 4.325864e-04 -8.893901e-04 -1.256500e-03 -1.114006e-03 -8.811510e-04 -7.027492e-04 -5.877045e-04 -5.301582e-04 -5.229386e-04 -5.541153e-04 -6.259638e-04 -7.204791e-04 -8.220589e-04 -9.143360e-04 -9.968458e-04 -1.062004e-03 -1.120054e-03 -1.155252e-03 -1.126678e-03 -9.873078e-04 -7.084914e-04 -4.082859e-04 -1.906011e-04 -6.992745e-08 -3.261388e-05 4.371903e-04 1.996460e-04 5.239260e-05 8.521410e-06 6.534923e-06 9.196854e-06 1.313270e-05 1.484270e-05 1.507530e-05 1.449792e-05 1.340739e-05 1.129531e-05 1.047535e-05 9.331267e-06 8.363815e-06 1.007939e-05 1.074879e-05 9.835367e-06 9.714325e-06 8.800505e-06 6.868705e-06 4.376794e-06 2.531210e-06 -6.992745e-08 6.461785e-07
<VARIANCE> 75
 8.735170e-02 7.529422e-02 6.314393e-02 5.083671e-02 3.912752e-02 2.845205e-02 1.922121e-02 1.176505e-02 1.000000e-02 1.000000e-02 1.000000e-02 1.000000e-02 1.000000e-02 1.000000e-02 1.000000e-02 1.000000e-02 1.000000e-02 1.000000e-02 1.000000e-02 1.000000e-02 1.000000e-02 1.000000e-02 1.000000e-02 1.000000e-02 1.000000e-02 1.000000e-02 1.000000e-02 1.000000e-02 1.000000e-02 1.000000e-02 1.000000e-02 1.000000e-02 1.000000e-02 1.000000e-02 1.000000e-02 1.000000e-02 1.000000e-02 1.000000e-02 1.000000e-02 1.000000e-02 1.000000e-02 1.000000e-02 1.000000e-02 1.000000e-02 1.000000e-02 1.000000e-02 1.000000e-02 1.000000e-02 1.000000e-02 1.000000e-02 1.000000e-02 1.000000e-02 1.000000e-02 1.000000e-02 1.000000e-02 1.000000e-02 1.000000e-02 1.000000e-02 1.000000e-02 1.000000e-02 1.000000e-02 1.000000e-02 1.000000e-02 1.000000e-02 1.000000e-02 1.000000e-02 1.000000e-02 1.000000e-02 1.000000e-02 1.000000e-02 1.000000e-02 1.000000e-02 1.000000e-02 1.000000e-02 1.000000e-02
<GCONST> -1.966660e+02
<TRANSP> 5
 0.000000e+00 1.000000e+00 0.000000e+00 0.000000e+00 0.000000e+00
 0.000000e+00 9.617578e-01 3.824225e-02 0.000000e+00 0.000000e+00
 0.000000e+00 0.000000e+00 9.542242e-01 4.577585e-02 0.000000e+00
 0.000000e+00 0.000000e+00 0.000000e+00 9.857897e-01 1.421025e-02
 0.000000e+00 0.000000e+00 0.000000e+00 0.000000e+00 0.000000e+00
<ENDHMM>
