~o
<STREAMINFO> 1 75
<VECSIZE> 75<NULLD><USER_D_A><DIAGC>
~h "e"
<BEGINHMM>
<NUMSTATES> 5
<STATE> 2
<NUMMIXES> 2
<MIXTURE> 1 5.000000e-01
<MEAN> 75
 4.152733e+00 3.785088e+00 3.341176e+00 2.908830e+00 2.626081e+00 2.535927e+00 2.543299e+00 2.549605e+00 2.530950e+00 2.491061e+00 2.439739e+00 2.389767e+00 2.353727e+00 2.334983e+00 2.318231e+00 2.275656e+00 2.184287e+00 2.033032e+00 1.823929e+00 1.575733e+00 1.333916e+00 1.160806e+00 1.070811e+00 1.020000e+00 1.023855e+00 9.595728e-02 1.098934e-01 1.087980e-01 8.629633e-02 5.190707e-02 2.917465e-02 2.182720e-02 2.121782e-02 2.149812e-02 2.158707e-02 2.138067e-02 2.093671e-02 2.035223e-02 1.983320e-02 1.952976e-02 1.943539e-02 1.938155e-02 1.938873e-02 1.933632e-02 1.933126e-02 1.942893e-02 1.963991e-02 1.981601e-02 2.000000e-02 1.996608e-02 1.111155e-02 1.351206e-02 1.931212e-02 2.531521e-02 2.586515e-02 2.292060e-02 2.066839e-02 2.003203e-02 1.996907e-02 1.997443e-02 1.998355e-02 1.998954e-02 1.999892e-02 1.999882e-02 1.999660e-02 2.000001e-02 1.998986e-02 1.999260e-02 1.999420e-02 1.999719e-02 1.999878e-02 1.999916e-02 2.000057e-02 2.000000e-02 2.000008e-02
<VARIANCE> 75
 8.243532e-01 5.578478e-01 3.608784e-01 1.981685e-01 7.403334e-02 3.019397e-02 2.494662e-02 2.317561e-02 2.280704e-02 2.400246e-02 2.708983e-02 3.169462e-02 3.600138e-02 3.748815e-02 3.633115e-02 3.493821e-02 3.387386e-02 3.150814e-02 2.604602e-02 1.748036e-02 1.000000e-02 1.000000e-02 1.000000e-02 1.000000e-02 1.000000e-02 1.077836e-02 1.185855e-02 1.000000e-02 1.000000e-02 1.000000e-02 1.000000e-02 1.000000e-02 1.000000e-02 1.000000e-02 1.000000e-02 1.000000e-02 1.000000e-02 1.000000e-02 1.000000e-02 1.000000e-02 1.000000e-02 1.000000e-02 1.000000e-02 1.000000e-02 1.000000e-02 1.000000e-02 1.000000e-02 1.000000e-02 1.000000e-02 1.000000e-02 1.000000e-02 1.000000e-02 1.000000e-02 1.000000e-02 1.000000e-02 1.000000e-02 1.000000e-02 1.000000e-02 1.000000e-02 1.000000e-02 1.000000e-02 1.000000e-02 1.000000e-02 1.000000e-02 1.000000e-02 1.000000e-02 1.000000e-02 1.000000e-02 1.000000e-02 1.000000e-02 1.000000e-02 1.000000e-02 1.000000e-02 1.000000e-02 1.000000e-02
<GCONST> -1.745567e+02
<MIXTURE> 2 5.000000e-01
<MEAN> 75
 3.789557e+00 3.486331e+00 3.100884e+00 2.730766e+00 2.517245e+00 2.466421e+00 2.480121e+00 2.488711e+00 2.470542e+00 2.429091e+00 2.373903e+00 2.318555e+00 2.277831e+00 2.257535e+00 2.241988e+00 2.200888e+00 2.110667e+00 1.962030e+00 1.759373e+00 1.522847e+00 1.293916e+00 1.120806e+00 1.030811e+00 9.800000e-01 9.838550e-01 5.442972e-02 6.633460e-02 6.879801e-02 4.629633e-02 1.190707e-02 -1.082535e-02 -1.817280e-02 -1.878218e-02 -1.850188e-02 -1.841293e-02 -1.861933e-02 -1.906329e-02 -1.964777e-02 -2.016680e-02 -2.047024e-02 -2.056461e-02 -2.061845e-02 -2.061127e-02 -2.066368e-02 -2.066874e-02 -2.057106e-02 -2.036009e-02 -2.018399e-02 -2.000000e-02 -2.003392e-02 -2.888845e-02 -2.648794e-02 -2.068787e-02 -1.468479e-02 -1.413485e-02 -1.707940e-02 -1.933161e-02 -1.996797e-02 -2.003093e-02 -2.002557e-02 -2.001645e-02 -2.001046e-02 -2.000107e-02 -2.000118e-02 -2.000340e-02 -1.999999e-02 -2.001014e-02 -2.000740e-02 -2.000580e-02 -2.000281e-02 -2.000122e-02 -2.000084e-02 -1.999943e-02 -2.000000e-02 -1.999992e-02
<VARIANCE> 75
 8.243532e-01 5.578478e-01 3.608784e-01 1.981685e-01 7.403334e-02 3.019397e-02 2.494662e-02 2.317561e-02 2.280704e-02 2.400246e-02 2.708983e-02 3.169462e-02 3.600138e-02 3.748815e-02 3.633115e-02 3.493821e-02 3.387386e-02 3.150814e-02 2.604602e-02 1.748036e-02 1.000000e-02 1.000000e-02 1.000000e-02 1.000000e-02 1.000000e-02 1.077836e-02 1.185855e-02 1.000000e-02 1.000000e-02 1.000000e-02 1.000000e-02 1.000000e-02 1.000000e-02 1.000000e-02 1.000000e-02 1.000000e-02 1.000000e-02 1.000000e-02 1.000000e-02 1.000000e-02 1.000000e-02 1.000000e-02 1.000000e-02 1.000000e-02 1.000000e-02 1.000000e-02 1.000000e-02 1.000000e-02 1.000000e-02 1.000000e-02 1.000000e-02 1.000000e-02 1.000000e-02 1.000000e-02 1.000000e-02 1.000000e-02 1.000000e-02 1.000000e-02 1.000000e-02 1.000000e-02 1.000000e-02 1.000000e-02 1.000000e-02 1.000000e-02 1.000000e-02 1.000000e-02 1.000000e-02 1.000000e-02 1.000000e-02 1.000000e-02 1.000000e-02 1.000000e-02 1.000000e-02 1.000000e-02 1.000000e-02
<GCONST> -1.745567e+02
<STATE> 3
<NUMMIXES> 2
<MIXTURE> 1 5.000000e-01
<MEAN> 75
 4.982270e+00 5.141816e+00 5.204455e+00 5.160346e+00 5.009089e+00 4.768326e+00 4.457274e+00 4.085857e+00 3.668202e+00 3.240645e+00 2.862213e+00 2.582090e+00 2.415626e+00 2.342992e+00 2.314568e+00 2.283470e+00 2.212582e+00 2.080569e+00 1.884054e+00 1.637642e+00 1.381299e+00 1.185321e+00 1.079454e+00 1.020000e+00 1.024493e+00 1.670801e-02 2.955770e-02 4.221303e-02 5.365357e-02 6.000673e-02 5.912754e-02 5.365480e-02 4.774280e-02 4.201250e-02 3.576759e-02 2.964523e-02 2.489153e-02 2.186108e-02 2.036623e-02 1.974439e-02 1.953765e-02 1.946190e-02 1.943495e-02 1.940622e-02 1.938881e-02 1.945200e-02 1.959450e-02 1.979128e-02 2.000000e-02 1.995516e-02 1.633679e-02 1.550479e-02 1.486616e-02 1.514214e-02 1.699000e-02 1.900917e-02 2.002461e-02 2.002487e-02 1.995976e-02 1.993890e-02 1.993861e-02 1.994763e-02 1.995985e-02 1.996798e-02 1.996948e-02 1.997396e-02 1.997699e-02 1.997680e-02 1.997565e-02 1.998313e-02 1.998257e-02 1.998506e-02 1.999796e-02 2.000000e-02 2.000070e-02
<VARIANCE> 75
 5.949746e-01 4.808167e-01 5.679814e-01 8.082517e-01 1.103766e+00 1.285167e+00 1.265746e+00 1.069076e+00 7.731695e-01 4.561468e-01 2.027877e-01 6.404655e-02 2.346747e-02 2.017070e-02 2.277259e-02 2.720186e-02 3.246717e-02 3.546366e-02 3.303934e-02 2.441832e-02 1.258143e-02 1.000000e-02 1.000000e-02 1.000000e-02 1.000000e-02 1.000000e-02 1.000000e-02 1.000000e-02 1.000000e-02 1.000000e-02 1.000000e-02 1.000000e-02 1.000000e-02 1.000000e-02 1.000000e-02 1.000000e-02 1.000000e-02 1.000000e-02 1.000000e-02 1.000000e-02 1.000000e-02 1.000000e-02 1.000000e-02 1.000000e-02 1.000000e-02 1.000000e-02 1.000000e-02 1.000000e-02 1.000000e-02 1.000000e-02 1.000000e-02 1.000000e-02 1.000000e-02 1.000000e-02 1.000000e-02 1.000000e-02 1.000000e-02 1.000000e-02 1.000000e-02 1.000000e-02 1.000000e-02 1.000000e-02 1.000000e-02 1.000000e-02 1.000000e-02 1.000000e-02 1.000000e-02 1.000000e-02 1.000000e-02 1.000000e-02 1.000000e-02 1.000000e-02 1.000000e-02 1.000000e-02 1.000000e-02
<GCONST> -1.509095e+02
<MIXTURE> 2 5.000000e-01
<MEAN> 75
 4.673732e+00 4.864452e+00 4.902997e+00 4.800734e+00 4.588848e+00 4.314866e+00 4.007252e+00 3.672273e+00 3.316482e+00 2.970491e+00 2.682085e+00 2.480860e+00 2.354350e+00 2.286182e+00 2.254206e+00 2.217498e+00 2.140508e+00 2.005241e+00 1.811347e+00 1.575136e+00 1.336433e+00 1.145321e+00 1.039454e+00 9.800000e-01 9.844930e-01 -2.329198e-02 -1.044230e-02 2.213031e-03 1.365357e-02 2.000673e-02 1.912754e-02 1.365480e-02 7.742800e-03 2.012501e-03 -4.232410e-03 -1.035477e-02 -1.510847e-02 -1.813892e-02 -1.963377e-02 -2.025561e-02 -2.046235e-02 -2.053810e-02 -2.056505e-02 -2.059378e-02 -2.061119e-02 -2.054800e-02 -2.040550e-02 -2.020872e-02 -2.000000e-02 -2.004484e-02 -2.366321e-02 -2.449520e-02 -2.513384e-02 -2.485786e-02 -2.301000e-02 -2.099083e-02 -1.997539e-02 -1.997513e-02 -2.004023e-02 -2.006109e-02 -2.006139e-02 -2.005237e-02 -2.004015e-02 -2.003202e-02 -2.003052e-02 -2.002604e-02 -2.002301e-02 -2.002320e-02 -2.002435e-02 -2.001687e-02 -2.001743e-02 -2.001494e-02 -2.000204e-02 -2.000000e-02 -1.999930e-02
<VARIANCE> 75
 5.949746e-01 4.808167e-01 5.679814e-01 8.082517e-01 1.103766e+00 1.285167e+00 1.265746e+00 1.069076e+00 7.731695e-01 4.561468e-01 2.027877e-01 6.404655e-02 2.346747e-02 2.017070e-02 2.277259e-02 2.720186e-02 3.246717e-02 3.546366e-02 3.303934e-02 2.441832e-02 1.258143e-02 1.000000e-02 1.000000e-02 1.000000e-02 1.000000e-02 1.000000e-02 1.000000e-02 1.000000e-02 1.000000e-02 1.000000e-02 1.000000e-02 1.000000e-02 1.000000e-02 1.000000e-02 1.000000e-02 1.000000e-02 1.000000e-02 1.000000e-02 1.000000e-02 1.000000e-02 1.000000e-02 1.000000e-02 1.000000e-02 1.000000e-02 1.000000e-02 1.000000e-02 1.000000e-02 1.000000e-02 1.000000e-02 1.000000e-02 1.000000e-02 1.000000e-02 1.000000e-02 1.000000e-02 1.000000e-02 1.000000e-02 1.000000e-02 1.000000e-02 1.000000e-02 1.000000e-02 1.000000e-02 1.000000e-02 1.000000e-02 1.000000e-02 1.000000e-02 1.000000e-02 1.000000e-02 1.000000e-02 1.000000e-02 1.000000e-02 1.000000e-02 1.000000e-02 1.000000e-02 1.000000e-02 1.000000e-02
<GCONST> -1.509095e+02
<STATE> 4
<NUMMIXES> 2
<MIXTURE> 1 5.000000e-01
<MEAN> 75
 5.213771e+00 5.202680e+00 5.093305e+00 4.871227e+00 4.536585e+00 4.119516e+00 3.676070e+00 3.255927e+00 2.894478e+00 2.615788e+00 2.424108e+00 2.303786e+00 2.229428e+00 2.184941e+00 2.154232e+00 2.108506e+00 2.022024e+00 1.883204e+00 1.694942e+00 1.477614e+00 1.275577e+00 1.134851e+00 1.062225e+00 1.020000e+00 1.022092e+00 2.218624e-02 3.026794e-02 3.855266e-02 4.659695e-02 5.244041e-02 5.221888e-02 4.635103e-02 3.847950e-02 3.129760e-02 2.587065e-02 2.259166e-02 2.098482e-02 2.022239e-02 1.976229e-02 1.949118e-02 1.936199e-02 1.930015e-02 1.925148e-02 1.922478e-02 1.926867e-02 1.941528e-02 1.963514e-02 1.982900e-02 2.000000e-02 1.998208e-02 1.850786e-02 1.803534e-02 1.757391e-02 1.728162e-02 1.772448e-02 1.885573e-02 1.968907e-02 1.995493e-02 1.997737e-02 1.996185e-02 1.995029e-02 1.995467e-02 1.996836e-02 1.998000e-02 1.998989e-02 1.999123e-02 1.999407e-02 1.999246e-02 1.999404e-02 1.999631e-02 1.999931e-02 2.000110e-02 2.000018e-02 2.000000e-02 2.000079e-02
<VARIANCE> 75
 1.403813e-01 1.876866e-01 3.217954e-01 5.372326e-01 7.889861e-01 9.269763e-01 8.305820e-01 5.686998e-01 2.932369e-01 1.107761e-01 3.349854e-02 1.459004e-02 1.104804e-02 1.097158e-02 1.420099e-02 1.987257e-02 2.512444e-02 2.680632e-02 2.315546e-02 1.501433e-02 1.000000e-02 1.000000e-02 1.000000e-02 1.000000e-02 1.000000e-02 1.000000e-02 1.000000e-02 1.000000e-02 1.000000e-02 1.000000e-02 1.000000e-02 1.000000e-02 1.000000e-02 1.000000e-02 1.000000e-02 1.000000e-02 1.000000e-02 1.000000e-02 1.000000e-02 1.000000e-02 1.000000e-02 1.000000e-02 1.000000e-02 1.000000e-02 1.000000e-02 1.000000e-02 1.000000e-02 1.000000e-02 1.000000e-02 1.000000e-02 1.000000e-02 1.000000e-02 1.000000e-02 1.000000e-02 1.000000e-02 1.000000e-02 1.000000e-02 1.000000e-02 1.000000e-02 1.000000e-02 1.000000e-02 1.000000e-02 1.000000e-02 1.000000e-02 1.000000e-02 1.000000e-02 1.000000e-02 1.000000e-02 1.000000e-02 1.000000e-02 1.000000e-02 1.000000e-02 1.000000e-02 1.000000e-02 1.000000e-02
<GCONST> -1.654068e+02
<MIXTURE> 2 5.000000e-01
<MEAN> 75
 5.063901e+00 5.029388e+00 4.866397e+00 4.578043e+00 4.181285e+00 3.734398e+00 3.311524e+00 2.954279e+00 2.677872e+00 2.482656e+00 2.350898e+00 2.255470e+00 2.187384e+00 2.143043e+00 2.106565e+00 2.052118e+00 1.958622e+00 1.817714e+00 1.634074e+00 1.428600e+00 1.235577e+00 1.094851e+00 1.022225e+00 9.800000e-01 9.820920e-01 -1.781376e-02 -9.732059e-03 -1.447340e-03 6.596951e-03 1.244041e-02 1.221888e-02 6.351031e-03 -1.520500e-03 -8.702399e-03 -1.412935e-02 -1.740834e-02 -1.901517e-02 -1.977761e-02 -2.023771e-02 -2.050882e-02 -2.063801e-02 -2.069985e-02 -2.074852e-02 -2.077522e-02 -2.073133e-02 -2.058472e-02 -2.036486e-02 -2.017100e-02 -2.000000e-02 -2.001792e-02 -2.149214e-02 -2.196466e-02 -2.242609e-02 -2.271838e-02 -2.227552e-02 -2.114427e-02 -2.031093e-02 -2.004507e-02 -2.002263e-02 -2.003815e-02 -2.004971e-02 -2.004533e-02 -2.003164e-02 -2.002000e-02 -2.001011e-02 -2.000877e-02 -2.000593e-02 -2.000754e-02 -2.000596e-02 -2.000369e-02 -2.000069e-02 -1.999890e-02 -1.999982e-02 -2.000000e-02 -1.999921e-02
<VARIANCE> 75
 1.403813e-01 1.876866e-01 3.217954e-01 5.372326e-01 7.889861e-01 9.269763e-01 8.305820e-01 5.686998e-01 2.932369e-01 1.107761e-01 3.349854e-02 1.459004e-02 1.104804e-02 1.097158e-02 1.420099e-02 1.987257e-02 2.512444e-02 2.680632e-02 2.315546e-02 1.501433e-02 1.000000e-02 1.000000e-02 1.000000e-02 1.000000e-02 1.000000e-02 1.000000e-02 1.000000e-02 1.000000e-02 1.000000e-02 1.000000e-02 1.000000e-02 1.000000e-02 1.000000e-02 1.000000e-02 1.000000e-02 1.000000e-02 1.000000e-02 1.000000e-02 1.000000e-02 1.000000e-02 1.000000e-02 1.000000e-02 1.000000e-02 1.000000e-02 1.000000e-02 1.000000e-02 1.000000e-02 1.000000e-02 1.000000e-02 1.000000e-02 1.000000e-02 1.000000e-02 1.000000e-02 1.000000e-02 1.000000e-02 1.000000e-02 1.000000e-02 1.000000e-02 1.000000e-02 1.000000e-02 1.000000e-02 1.000000e-02 1.000000e-02 1.000000e-02 1.000000e-02 1.000000e-02 1.000000e-02 1.000000e-02 1.000000e-02 1.000000e-02 1.000000e-02 1.000000e-02 1.000000e-02 1.000000e-02 1.000000e-02
<GCONST> -1.654068e+02
<TRANSP> 5
 0.000000e+00 1.000000e+00 0.000000e+00 0.000000e+00 0.000000e+00
 0.000000e+00 9.255645e-01 7.443547e-02 0.000000e+00 0.000000e+00
 0.000000e+00 0.000000e+00 8.302680e-01 1.697320e-01 0.000000e+00
 0.000000e+00 0.000000e+00 0.000000e+00 9.639521e-01 3.604789e-02
 0.000000e+00 0.000000e+00 0.000000e+00 0.000000e+00 0.000000e+00
<ENDHMM>
~h "ne"
<BEGINHMM>
<NUMSTATES> 5
<STATE> 2
<NUMMIXES> 2
<MIXTURE> 1 5.000000e-01
<MEAN> 75
 2.048370e+00 2.175236e+00 2.290471e+00 2.385312e+00 2.456214e+00 2.502753e+00 2.525287e+00 2.524692e+00 2.506779e+00 2.471695e+00 2.423986e+00 2.376997e+00 2.350971e+00 2.355845e+00 2.371589e+00 2.360883e+00 2.294340e+00 2.157893e+00 1.951537e+00 1.692288e+00 1.423787e+00 1.212219e+00 1.094954e+00 1.020000e+00 1.029767e+00 2.113191e-02 1.920906e-02 1.854020e-02 1.869760e-02 1.897418e-02 1.917674e-02 1.930554e-02 1.940007e-02 1.942672e-02 1.942618e-02 1.937312e-02 1.930820e-02 1.918888e-02 1.906543e-02 1.896142e-02 1.887988e-02 1.880912e-02 1.873043e-02 1.868312e-02 1.873646e-02 1.893638e-02 1.931866e-02 1.966025e-02 2.000000e-02 1.993941e-02 2.071885e-02 2.041766e-02 2.009872e-02 1.999464e-02 1.998402e-02 1.999696e-02 2.000198e-02 2.000374e-02 2.000714e-02 2.000757e-02 2.000698e-02 2.000169e-02 1.999731e-02 1.999575e-02 1.999332e-02 1.999295e-02 1.999254e-02 1.999117e-02 1.999582e-02 1.999495e-02 1.999849e-02 1.999690e-02 1.999885e-02 2.000000e-02 2.000089e-02
<VARIANCE> 75
 8.735170e-02 7.529422e-02 6.314393e-02 5.083671e-02 3.912752e-02 2.845205e-02 1.922121e-02 1.176505e-02 1.000000e-02 1.000000e-02 1.000000e-02 1.000000e-02 1.000000e-02 1.000000e-02 1.000000e-02 1.000000e-02 1.000000e-02 1.000000e-02 1.000000e-02 1.000000e-02 1.000000e-02 1.000000e-02 1.000000e-02 1.000000e-02 1.000000e-02 1.000000e-02 1.000000e-02 1.000000e-02 1.000000e-02 1.000000e-02 1.000000e-02 1.000000e-02 1.000000e-02 1.000000e-02 1.000000e-02 1.000000e-02 1.000000e-02 1.000000e-02 1.000000e-02 1.000000e-02 1.000000e-02 1.000000e-02 1.000000e-02 1.000000e-02 1.000000e-02 1.000000e-02 1.000000e-02 1.000000e-02 1.000000e-02 1.000000e-02 1.000000e-02 1.000000e-02 1.000000e-02 1.000000e-02 1.000000e-02 1.000000e-02 1.000000e-02 1.000000e-02 1.000000e-02 1.000000e-02 1.000000e-02 1.000000e-02 1.000000e-02 1.000000e-02 1.000000e-02 1.000000e-02 1.000000e-02 1.000000e-02 1.000000e-02 1.000000e-02 1.000000e-02 1.000000e-02 1.000000e-02 1.000000e-02 1.000000e-02
<GCONST> -1.966660e+02
<MIXTURE> 2 5.000000e-01
<MEAN> 75
 1.930148e+00 2.065476e+00 2.189957e+00 2.295124e+00 2.377092e+00 2.435282e+00 2.469831e+00 2.481305e+00 2.466779e+00 2.431695e+00 2.383986e+00 2.336997e+00 2.310971e+00 2.315845e+00 2.331589e+00 2.320883e+00 2.254340e+00 2.117893e+00 1.911537e+00 1.652288e+00 1.383787e+00 1.172219e+00 1.054954e+00 9.800000e-01 9.897671e-01 -1.886808e-02 -2.079094e-02 -2.145980e-02 -2.130239e-02 -2.102581e-02 -2.082326e-02 -2.069446e-02 -2.059993e-02 -2.057328e-02 -2.057382e-02 -2.062688e-02 -2.069180e-02 -2.081112e-02 -2.093457e-02 -2.103858e-02 -2.112012e-02 -2.119088e-02 -2.126957e-02 -2.131688e-02 -2.126353e-02 -2.106362e-02 -2.068133e-02 -2.033975e-02 -2.000000e-02 -2.006059e-02 -1.928115e-02 -1.958233e-02 -1.990128e-02 -2.000536e-02 -2.001598e-02 -2.000304e-02 -1.999802e-02 -1.999626e-02 -1.999285e-02 -1.999243e-02 -1.999302e-02 -1.999831e-02 -2.000269e-02 -2.000425e-02 -2.000668e-02 -2.000705e-02 -2.000746e-02 -2.000883e-02 -2.000418e-02 -2.000505e-02 -2.000151e-02 -2.000310e-02 -2.000115e-02 -2.000000e-02 -1.999911e-02
<VARIANCE> 75
 8.735170e-02 7.529422e-02 6.314393e-02 5.083671e-02 3.912752e-02 2.845205e-02 1.922121e-02 1.176505e-02 1.000000e-02 1.000000e-02 1.000000e-02 1.000000e-02 1.000000e-02 1.000000e-02 1.000000e-02 1.000000e-02 1.000000e-02 1.000000e-02 1.000000e-02 1.000000e-02 1.000000e-02 1.000000e-02 1.000000e-02 1.000000e-02 1.000000e-02 1.000000e-02 1.000000e-02 1.000000e-02 1.000000e-02 1.000000e-02 1.000000e-02 1.000000e-02 1.000000e-02 1.000000e-02 1.000000e-02 1.000000e-02 1.000000e-02 1.000000e-02 1.000000e-02 1.000000e-02 1.000000e-02 1.000000e-02 1.000000e-02 1.000000e-02 1.000000e-02 1.000000e-02 1.000000e-02 1.000000e-02 1.000000e-02 1.000000e-02 1.000000e-02 1.000000e-02 1.000000e-02 1.000000e-02 1.000000e-02 1.000000e-02 1.000000e-02 1.000000e-02 1.000000e-02 1.000000e-02 1.000000e-02 1.000000e-02 1.000000e-02 1.000000e-02 1.000000e-02 1.000000e-02 1.000000e-02 1.000000e-02 1.000000e-02 1.000000e-02 1.000000e-02 1.000000e-02 1.000000e-02 1.000000e-02 1.000000e-02
<GCONST> -1.966660e+02
<STATE> 3
<NUMMIXES> 2
<MIXTURE> 1 5.000000e-01
<MEAN> 75
 2.109654e+00 2.176407e+00 2.253831e+00 2.327269e+00 2.389121e+00 2.430404e+00 2.447780e+00 2.441613e+00 2.417985e+00 2.378573e+00 2.330813e+00 2.289997e+00 2.269771e+00 2.267551e+00 2.260698e+00 2.220911e+00 2.128940e+00 1.976980e+00 1.769883e+00 1.530091e+00 1.303651e+00 1.143885e+00 1.064320e+00 1.020000e+00 1.022086e+00 2.432751e-02 2.263954e-02 2.041916e-02 1.923879e-02 1.899916e-02 1.915755e-02 1.928107e-02 1.935167e-02 1.939314e-02 1.938141e-02 1.930781e-02 1.928290e-02 1.916926e-02 1.906030e-02 1.895977e-02 1.890305e-02 1.882041e-02 1.872873e-02 1.873741e-02 1.888061e-02 1.915776e-02 1.951352e-02 1.978472e-02 2.000000e-02 1.998097e-02 2.036303e-02 2.051030e-02 2.038234e-02 2.010508e-02 2.000171e-02 1.998962e-02 1.999383e-02 1.999698e-02 1.999847e-02 1.999278e-02 2.001973e-02 1.999578e-02 1.999667e-02 1.999286e-02 1.998179e-02 1.999403e-02 1.998178e-02 2.000199e-02 2.001314e-02 1.999733e-02 1.999799e-02 1.999960e-02 1.999857e-02 2.000000e-02 2.000049e-02
<VARIANCE> 75
 1.443943e-01 7.529422e-02 6.314393e-02 5.083671e-02 3.912752e-02 2.845205e-02 1.922121e-02 1.176505e-02 1.000000e-02 1.000000e-02 1.000000e-02 1.000000e-02 1.000000e-02 1.000000e-02 1.000000e-02 1.000000e-02 1.000000e-02 1.000000e-02 1.000000e-02 1.000000e-02 1.000000e-02 1.000000e-02 1.000000e-02 1.000000e-02 1.000000e-02 1.000000e-02 1.000000e-02 1.000000e-02 1.000000e-02 1.000000e-02 1.000000e-02 1.000000e-02 1.000000e-02 1.000000e-02 1.000000e-02 1.000000e-02 1.000000e-02 1.000000e-02 1.000000e-02 1.000000e-02 1.000000e-02 1.000000e-02 1.000000e-02 1.000000e-02 1.000000e-02 1.000000e-02 1.000000e-02 1.000000e-02 1.000000e-02 1.000000e-02 1.000000e-02 1.000000e-02 1.000000e-02 1.000000e-02 1.000000e-02 1.000000e-02 1.000000e-02 1.000000e-02 1.000000e-02 1.000000e-02 1.000000e-02 1.000000e-02 1.000000e-02 1.000000e-02 1.000000e-02 1.000000e-02 1.000000e-02 1.000000e-02 1.000000e-02 1.000000e-02 1.000000e-02 1.000000e-02 1.000000e-02 1.000000e-02 1.000000e-02
<GCONST> -1.961634e+02
<MIXTURE> 2 5.000000e-01
<MEAN> 75
 1.957657e+00 2.066647e+00 2.153317e+00 2.237081e+00 2.309999e+00 2.362933e+00 2.392324e+00 2.398226e+00 2.377985e+00 2.338573e+00 2.290813e+00 2.249997e+00 2.229771e+00 2.227551e+00 2.220698e+00 2.180911e+00 2.088940e+00 1.936980e+00 1.729883e+00 1.490091e+00 1.263651e+00 1.103885e+00 1.024320e+00 9.800000e-01 9.820861e-01 -1.567249e-02 -1.736045e-02 -1.958084e-02 -2.076121e-02 -2.100084e-02 -2.084245e-02 -2.071893e-02 -2.064833e-02 -2.060686e-02 -2.061859e-02 -2.069219e-02 -2.071710e-02 -2.083074e-02 -2.093969e-02 -2.104023e-02 -2.109695e-02 -2.117959e-02 -2.127127e-02 -2.126258e-02 -2.111939e-02 -2.084224e-02 -2.048648e-02 -2.021528e-02 -2.000000e-02 -2.001903e-02 -1.963697e-02 -1.948970e-02 -1.961766e-02 -1.989492e-02 -1.999829e-02 -2.001038e-02 -2.000617e-02 -2.000302e-02 -2.000153e-02 -2.000722e-02 -1.998027e-02 -2.000421e-02 -2.000333e-02 -2.000714e-02 -2.001821e-02 -2.000597e-02 -2.001822e-02 -1.999801e-02 -1.998686e-02 -2.000267e-02 -2.000201e-02 -2.000039e-02 -2.000143e-02 -2.000000e-02 -1.999951e-02
<VARIANCE> 75
 1.443943e-01 7.529422e-02 6.314393e-02 5.083671e-02 3.912752e-02 2.845205e-02 1.922121e-02 1.176505e-02 1.000000e-02 1.000000e-02 1.000000e-02 1.000000e-02 1.000000e-02 1.000000e-02 1.000000e-02 1.000000e-02 1.000000e-02 1.000000e-02 1.000000e-02 1.000000e-02 1.000000e-02 1.000000e-02 1.000000e-02 1.000000e-02 1.000000e-02 1.000000e-02 1.000000e-02 1.000000e-02 1.000000e-02 1.000000e-02 1.000000e-02 1.000000e-02 1.000000e-02 1.000000e-02 1.000000e-02 1.000000e-02 1.000000e-02 1.000000e-02 1.000000e-02 1.000000e-02 1.000000e-02 1.000000e-02 1.000000e-02 1.000000e-02 1.000000e-02 1.000000e-02 1.000000e-02 1.000000e-02 1.000000e-02 1.000000e-02 1.000000e-02 1.000000e-02 1.000000e-02 1.000000e-02 1.000000e-02 1.000000e-02 1.000000e-02 1.000000e-02 1.000000e-02 1.000000e-02 1.000000e-02 1.000000e-02 1.000000e-02 1.000000e-02 1.000000e-02 1.000000e-02 1.000000e-02 1.000000e-02 1.000000e-02 1.000000e-02 1.000000e-02 1.000000e-02 1.000000e-02 1.000000e-02 1.000000e-02
<GCONST> -1.961634e+02
<STATE> 4
<NUMMIXES> 2
<MIXTURE> 1 5.000000e-01
<MEAN> 75
 1.999456e+00 2.098060e+00 2.186797e+00 2.260647e+00 2.313357e+00 2.342067e+00 2.346877e+00 2.329251e+00 2.296451e+00 2.251848e+00 2.204549e+00 2.167901e+00 2.148860e+00 2.138757e+00 2.117137e+00 2.063974e+00 1.966875e+00 1.822602e+00 1.638312e+00 1.435366e+00 1.251309e+00 1.123274e+00 1.057668e+00 1.020000e+00 1.021279e+00 2.256083e-02 2.101637e-02 1.968164e-02 1.907000e-02 1.910502e-02 1.925966e-02 1.936894e-02 1.942810e-02 1.944033e-02 1.941174e-02 1.935212e-02 1.925769e-02 1.915607e-02 1.906367e-02 1.898393e-02 1.891651e-02 1.885219e-02 1.881536e-02 1.883632e-02 1.896521e-02 1.923905e-02 1.956980e-02 1.979816e-02 2.000000e-02 1.997033e-02 2.039981e-02 2.042658e-02 2.032539e-02 2.012075e-02 2.002446e-02 2.000719e-02 2.000882e-02 2.001093e-02 2.001094e-02 2.001065e-02 2.001045e-02 2.000649e-02 2.000597e-02 2.000530e-02 2.000568e-02 2.000434e-02 2.000614e-02 2.000715e-02 2.000598e-02 2.000373e-02 2.000238e-02 2.000132e-02 2.000101e-02 2.000000e-02 2.000023e-02
<VARIANCE> 75
 8.735170e-02 7.529422e-02 6.314393e-02 5.083671e-02 3.912752e-02 2.845205e-02 1.922121e-02 1.176505e-02 1.000000e-02 1.000000e-02 1.000000e-02 1.000000e-02 1.000000e-02 1.000000e-02 1.000000e-02 1.000000e-02 1.000000e-02 1.000000e-02 1.000000e-02 1.000000e-02 1.000000e-02 1.000000e-02 1.000000e-02 1.000000e-02 1.000000e-02 1.000000e-02 1.000000e-02 1.000000e-02 1.000000e-02 1.000000e-02 1.000000e-02 1.000000e-02 1.000000e-02 1.000000e-02 1.000000e-02 1.000000e-02 1.000000e-02 1.000000e-02 1.000000e-02 1.000000e-02 1.000000e-02 1.000000e-02 1.000000e-02 1.000000e-02 1.000000e-02 1.000000e-02 1.000000e-02 1.000000e-02 1.000000e-02 1.000000e-02 1.000000e-02 1.000000e-02 1.000000e-02 1.000000e-02 1.000000e-02 1.000000e-02 1.000000e-02 1.000000e-02 1.000000e-02 1.000000e-02 1.000000e-02 1.000000e-02 1.000000e-02 1.000000e-02 1.000000e-02 1.000000e-02 1.000000e-02 1.000000e-02 1.000000e-02 1.000000e-02 1.000000e-02 1.000000e-02 1.000000e-02 1.000000e-02 1.000000e-02
<GCONST> -1.966660e+02
<MIXTURE> 2 5.000000e-01
<MEAN> 75
 1.881234e+00 1.988300e+00 2.086283e+00 2.170459e+00 2.234235e+00 2.274595e+00 2.291421e+00 2.285864e+00 2.256451e+00 2.211848e+00 2.164549e+00 2.127901e+00 2.108860e+00 2.098757e+00 2.077137e+00 2.023974e+00 1.926875e+00 1.782602e+00 1.598312e+00 1.395366e+00 1.211309e+00 1.083274e+00 1.017668e+00 9.800000e-01 9.812790e-01 -1.743917e-02 -1.898363e-02 -2.031836e-02 -2.093000e-02 -2.089497e-02 -2.074034e-02 -2.063106e-02 -2.057190e-02 -2.055967e-02 -2.058826e-02 -2.064788e-02 -2.074231e-02 -2.084393e-02 -2.093633e-02 -2.101607e-02 -2.108349e-02 -2.114781e-02 -2.118464e-02 -2.116368e-02 -2.103479e-02 -2.076095e-02 -2.043020e-02 -2.020184e-02 -2.000000e-02 -2.002967e-02 -1.960019e-02 -1.957342e-02 -1.967460e-02 -1.987925e-02 -1.997554e-02 -1.999281e-02 -1.999118e-02 -1.998907e-02 -1.998906e-02 -1.998935e-02 -1.998955e-02 -1.999351e-02 -1.999403e-02 -1.999470e-02 -1.999432e-02 -1.999566e-02 -1.999386e-02 -1.999285e-02 -1.999401e-02 -1.999627e-02 -1.999762e-02 -1.999868e-02 -1.999898e-02 -2.000000e-02 -1.999977e-02
<VARIANCE> 75
 8.735170e-02 7.529422e-02 6.314393e-02 5.083671e-02 3.912752e-02 2.845205e-02 1.922121e-02 1.176505e-02 1.000000e-02 1.000000e-02 1.000000e-02 1.000000e-02 1.000000e-02 1.000000e-02 1.000000e-02 1.000000e-02 1.000000e-02 1.000000e-02 1.000000e-02 1.000000e-02 1.000000e-02 1.000000e-02 1.000000e-02 1.000000e-02 1.000000e-02 1.000000e-02 1.000000e-02 1.000000e-02 1.000000e-02 1.000000e-02 1.000000e-02 1.000000e-02 1.000000e-02 1.000000e-02 1.000000e-02 1.000000e-02 1.000000e-02 1.000000e-02 1.000000e-02 1.000000e-02 1.000000e-02 1.000000e-02 1.000000e-02 1.000000e-02 1.000000e-02 1.000000e-02 1.000000e-02 1.000000e-02 1.000000e-02 1.000000e-02 1.000000e-02 1.000000e-02 1.000000e-02 1.000000e-02 1.000000e-02 1.000000e-02 1.000000e-02 1.000000e-02 1.000000e-02 1.000000e-02 1.000000e-02 1.000000e-02 1.000000e-02 1.000000e-02 1.000000e-02 1.000000e-02 1.000000e-02 1.000000e-02 1.000000e-02 1.000000e-02 1.000000e-02 1.000000e-02 1.000000e-02 1.000000e-02 1.000000e-02
<GCONST> -1.966660e+02
<TRANSP> 5
 0.000000e+00 1.000000e+00 0.000000e+00 0.000000e+00 0.000000e+00
 0.000000e+00 9.643288e-01 3.567122e-02 0.000000e+00 0.000000e+00
 0.000000e+00 0.000000e+00 9.225646e-01 7.743538e-02 0.000000e+00
 0.000000e+00 0.000000e+00 0.000000e+00 9.871214e-01 1.287865e-02
 0.000000e+00 0.000000e+00 0.000000e+00 0.000000e+00 0.000000e+00
<ENDHMM>
