~o
<STREAMINFO> 1 75
<VECSIZE> 75<NULLD><USER_D_A><DIAGC>
~h "e"
<BEGINHMM>
<NUMSTATES> 5
<STATE> 2
<NUMMIXES> 2
<MIXTURE> 1 5.000000e-01
<MEAN> 75
 4.193299e+00 3.813528e+00 3.355845e+00 2.908053e+00 2.613265e+00 2.523370e+00 2.533569e+00 2.540724e+00 2.522215e+00 2.482050e+00 2.429988e+00 2.378961e+00 2.341930e+00 2.322534e+00 2.305644e+00 2.263353e+00 2.172758e+00 2.022727e+00 1.815445e+00 1.569702e+00 1.329906e+00 1.159068e+00 1.070185e+00 1.020000e+00 1.023673e+00 9.767255e-02 1.117543e-01 1.104911e-01 8.772960e-02 5.256085e-02 2.902360e-02 2.175935e-02 2.125406e-02 2.155874e-02 2.163961e-02 2.141907e-02 2.097533e-02 2.037730e-02 1.985346e-02 1.954592e-02 1.944934e-02 1.939874e-02 1.940434e-02 1.935280e-02 1.935307e-02 1.944490e-02 1.964721e-02 1.982028e-02 2.000000e-02 1.996671e-02 1.098572e-02 1.348269e-02 1.936996e-02 2.539452e-02 2.604698e-02 2.298776e-02 2.065072e-02 2.002861e-02 1.996902e-02 1.997321e-02 1.998281e-02 1.999060e-02 1.999822e-02 1.999832e-02 1.999474e-02 1.999966e-02 1.998856e-02 1.999391e-02 1.999402e-02 1.999789e-02 2.000087e-02 1.999880e-02 2.000020e-02 2.000000e-02 2.000053e-02
<VARIANCE> 75
 7.386390e-01 5.133487e-01 3.426712e-01 1.890638e-01 6.889249e-02 2.941946e-02 2.518214e-02 2.381758e-02 2.370381e-02 2.497735e-02 2.798058e-02 3.231682e-02 3.627595e-02 3.772466e-02 3.693139e-02 3.611872e-02 3.549663e-02 3.331983e-02 2.770348e-02 1.864337e-02 1.000000e-02 1.000000e-02 1.000000e-02 1.000000e-02 1.000000e-02 1.091562e-02 1.195465e-02 1.000000e-02 1.000000e-02 1.000000e-02 1.000000e-02 1.000000e-02 1.000000e-02 1.000000e-02 1.000000e-02 1.000000e-02 1.000000e-02 1.000000e-02 1.000000e-02 1.000000e-02 1.000000e-02 1.000000e-02 1.000000e-02 1.000000e-02 1.000000e-02 1.000000e-02 1.000000e-02 1.000000e-02 1.000000e-02 1.000000e-02 1.000000e-02 1.000000e-02 1.000000e-02 1.000000e-02 1.000000e-02 1.000000e-02 1.000000e-02 1.000000e-02 1.000000e-02 1.000000e-02 1.000000e-02 1.000000e-02 1.000000e-02 1.000000e-02 1.000000e-02 1.000000e-02 1.000000e-02 1.000000e-02 1.000000e-02 1.000000e-02 1.000000e-02 1.000000e-02 1.000000e-02 1.000000e-02 1.000000e-02
<GCONST> -1.744664e+02
<MIXTURE> 2 5.000000e-01
<MEAN> 75
 3.849523e+00 3.526934e+00 3.121693e+00 2.734127e+00 2.508275e+00 2.454762e+00 2.470093e+00 2.478992e+00 2.460631e+00 2.418834e+00 2.363078e+00 2.307053e+00 2.265746e+00 2.244842e+00 2.228774e+00 2.187333e+00 2.097396e+00 1.949713e+00 1.748867e+00 1.515086e+00 1.289906e+00 1.119068e+00 1.030185e+00 9.800000e-01 9.836730e-01 5.588141e-02 6.801935e-02 7.049105e-02 4.772961e-02 1.256085e-02 -1.097640e-02 -1.824065e-02 -1.874594e-02 -1.844126e-02 -1.836039e-02 -1.858093e-02 -1.902467e-02 -1.962270e-02 -2.014654e-02 -2.045408e-02 -2.055066e-02 -2.060126e-02 -2.059566e-02 -2.064720e-02 -2.064693e-02 -2.055510e-02 -2.035279e-02 -2.017972e-02 -2.000000e-02 -2.003329e-02 -2.901428e-02 -2.651731e-02 -2.063004e-02 -1.460548e-02 -1.395302e-02 -1.701224e-02 -1.934928e-02 -1.997139e-02 -2.003098e-02 -2.002679e-02 -2.001719e-02 -2.000940e-02 -2.000178e-02 -2.000168e-02 -2.000526e-02 -2.000034e-02 -2.001143e-02 -2.000609e-02 -2.000598e-02 -2.000211e-02 -1.999912e-02 -2.000120e-02 -1.999980e-02 -2.000000e-02 -1.999947e-02
<VARIANCE> 75
 7.386390e-01 5.133487e-01 3.426712e-01 1.890638e-01 6.889249e-02 2.941946e-02 2.518214e-02 2.381758e-02 2.370381e-02 2.497735e-02 2.798058e-02 3.231682e-02 3.627595e-02 3.772466e-02 3.693139e-02 3.611872e-02 3.549663e-02 3.331983e-02 2.770348e-02 1.864337e-02 1.000000e-02 1.000000e-02 1.000000e-02 1.000000e-02 1.000000e-02 1.091562e-02 1.195465e-02 1.000000e-02 1.000000e-02 1.000000e-02 1.000000e-02 1.000000e-02 1.000000e-02 1.000000e-02 1.000000e-02 1.000000e-02 1.000000e-02 1.000000e-02 1.000000e-02 1.000000e-02 1.000000e-02 1.000000e-02 1.000000e-02 1.000000e-02 1.000000e-02 1.000000e-02 1.000000e-02 1.000000e-02 1.000000e-02 1.000000e-02 1.000000e-02 1.000000e-02 1.000000e-02 1.000000e-02 1.000000e-02 1.000000e-02 1.000000e-02 1.000000e-02 1.000000e-02 1.000000e-02 1.000000e-02 1.000000e-02 1.000000e-02 1.000000e-02 1.000000e-02 1.000000e-02 1.000000e-02 1.000000e-02 1.000000e-02 1.000000e-02 1.000000e-02 1.000000e-02 1.000000e-02 1.000000e-02 1.000000e-02
<GCONST> -1.744664e+02
<STATE> 3
<NUMMIXES> 2
<MIXTURE> 1 5.000000e-01
<MEAN> 75
 4.944496e+00 5.104026e+00 5.167319e+00 5.124508e+00 4.975851e+00 4.743215e+00 4.447604e+00 4.091619e+00 3.686307e+00 3.264522e+00 2.881543e+00 2.592051e+00 2.419954e+00 2.345880e+00 2.315768e+00 2.281713e+00 2.207462e+00 2.072566e+00 1.874350e+00 1.627824e+00 1.373214e+00 1.180652e+00 1.077444e+00 1.020000e+00 1.024159e+00 1.701159e-02 3.004136e-02 4.286561e-02 5.449694e-02 6.079270e-02 5.853808e-02 5.248606e-02 4.719186e-02 4.197627e-02 3.611207e-02 3.010951e-02 2.519454e-02 2.195699e-02 2.039517e-02 1.976016e-02 1.955192e-02 1.946972e-02 1.945626e-02 1.942065e-02 1.940241e-02 1.946892e-02 1.960576e-02 1.980316e-02 2.000000e-02 1.995575e-02 1.613779e-02 1.529106e-02 1.466888e-02 1.500241e-02 1.714511e-02 1.944223e-02 2.015225e-02 2.001749e-02 1.994936e-02 1.993395e-02 1.994091e-02 1.994941e-02 1.996131e-02 1.996723e-02 1.997215e-02 1.997309e-02 1.997651e-02 1.997788e-02 1.997676e-02 1.997990e-02 1.998329e-02 1.998471e-02 1.999859e-02 2.000000e-02 1.999965e-02
<VARIANCE> 75
 6.189083e-01 5.007087e-01 5.960987e-01 8.543524e-01 1.175848e+00 1.369482e+00 1.328312e+00 1.114382e+00 8.093002e-01 4.824080e-01 2.178927e-01 7.007933e-02 2.652817e-02 2.310201e-02 2.568668e-02 2.993370e-02 3.488228e-02 3.732829e-02 3.410142e-02 2.464148e-02 1.236114e-02 1.000000e-02 1.000000e-02 1.000000e-02 1.000000e-02 1.000000e-02 1.000000e-02 1.000000e-02 1.000000e-02 1.000000e-02 1.000000e-02 1.000000e-02 1.000000e-02 1.000000e-02 1.000000e-02 1.000000e-02 1.000000e-02 1.000000e-02 1.000000e-02 1.000000e-02 1.000000e-02 1.000000e-02 1.000000e-02 1.000000e-02 1.000000e-02 1.000000e-02 1.000000e-02 1.000000e-02 1.000000e-02 1.000000e-02 1.000000e-02 1.000000e-02 1.000000e-02 1.000000e-02 1.000000e-02 1.000000e-02 1.000000e-02 1.000000e-02 1.000000e-02 1.000000e-02 1.000000e-02 1.000000e-02 1.000000e-02 1.000000e-02 1.000000e-02 1.000000e-02 1.000000e-02 1.000000e-02 1.000000e-02 1.000000e-02 1.000000e-02 1.000000e-02 1.000000e-02 1.000000e-02 1.000000e-02
<GCONST> -1.496252e+02
<MIXTURE> 2 5.000000e-01
<MEAN> 75
 4.629813e+00 4.820983e+00 4.858490e+00 4.754784e+00 4.542105e+00 4.275115e+00 3.986594e+00 3.669363e+00 3.326463e+00 2.986700e+00 2.694827e+00 2.486161e+00 2.354804e+00 2.285082e+00 2.251660e+00 2.212507e+00 2.132755e+00 1.995284e+00 1.800484e+00 1.565034e+00 1.328742e+00 1.140652e+00 1.037444e+00 9.800000e-01 9.841590e-01 -2.298841e-02 -9.958640e-03 2.865611e-03 1.449694e-02 2.079270e-02 1.853808e-02 1.248606e-02 7.191861e-03 1.976270e-03 -3.887929e-03 -9.890489e-03 -1.480546e-02 -1.804301e-02 -1.960483e-02 -2.023984e-02 -2.044808e-02 -2.053028e-02 -2.054374e-02 -2.057935e-02 -2.059759e-02 -2.053108e-02 -2.039424e-02 -2.019684e-02 -2.000000e-02 -2.004425e-02 -2.386221e-02 -2.470894e-02 -2.533112e-02 -2.499759e-02 -2.285489e-02 -2.055777e-02 -1.984775e-02 -1.998251e-02 -2.005064e-02 -2.006605e-02 -2.005909e-02 -2.005059e-02 -2.003868e-02 -2.003277e-02 -2.002785e-02 -2.002691e-02 -2.002349e-02 -2.002212e-02 -2.002324e-02 -2.002010e-02 -2.001671e-02 -2.001529e-02 -2.000141e-02 -2.000000e-02 -2.000035e-02
<VARIANCE> 75
 6.189083e-01 5.007087e-01 5.960987e-01 8.543524e-01 1.175848e+00 1.369482e+00 1.328312e+00 1.114382e+00 8.093002e-01 4.824080e-01 2.178927e-01 7.007933e-02 2.652817e-02 2.310201e-02 2.568668e-02 2.993370e-02 3.488228e-02 3.732829e-02 3.410142e-02 2.464148e-02 1.236114e-02 1.000000e-02 1.000000e-02 1.000000e-02 1.000000e-02 1.000000e-02 1.000000e-02 1.000000e-02 1.000000e-02 1.000000e-02 1.000000e-02 1.000000e-02 1.000000e-02 1.000000e-02 1.000000e-02 1.000000e-02 1.000000e-02 1.000000e-02 1.000000e-02 1.000000e-02 1.000000e-02 1.000000e-02 1.000000e-02 1.000000e-02 1.000000e-02 1.000000e-02 1.000000e-02 1.000000e-02 1.000000e-02 1.000000e-02 1.000000e-02 1.000000e-02 1.000000e-02 1.000000e-02 1.000000e-02 1.000000e-02 1.000000e-02 1.000000e-02 1.000000e-02 1.000000e-02 1.000000e-02 1.000000e-02 1.000000e-02 1.000000e-02 1.000000e-02 1.000000e-02 1.000000e-02 1.000000e-02 1.000000e-02 1.000000e-02 1.000000e-02 1.000000e-02 1.000000e-02 1.000000e-02 1.000000e-02
<GCONST> -1.496252e+02
<STATE> 4
<NUMMIXES> 2
<MIXTURE> 1 5.000000e-01
<MEAN> 75
 5.231149e+00 5.225080e+00 5.120896e+00 4.904029e+00 4.572669e+00 4.152931e+00 3.702188e+00 3.273562e+00 2.904486e+00 2.621561e+00 2.430072e+00 2.311522e+00 2.237217e+00 2.192654e+00 2.163498e+00 2.120495e+00 2.036683e+00 1.899364e+00 1.710871e+00 1.491175e+00 1.283329e+00 1.138500e+00 1.063431e+00 1.020000e+00 1.022285e+00 2.175367e-02 2.985073e-02 3.817995e-02 4.636177e-02 5.272617e-02 5.319119e-02 4.725239e-02 3.900668e-02 3.152390e-02 2.590004e-02 2.255586e-02 2.097607e-02 2.023554e-02 1.976823e-02 1.949031e-02 1.935707e-02 1.929535e-02 1.925043e-02 1.922317e-02 1.926576e-02 1.940982e-02 1.962979e-02 1.982635e-02 2.000000e-02 1.998181e-02 1.849853e-02 1.800870e-02 1.752691e-02 1.718744e-02 1.752717e-02 1.870572e-02 1.967152e-02 1.996139e-02 1.997878e-02 1.996128e-02 1.994814e-02 1.995176e-02 1.996663e-02 1.997903e-02 1.998967e-02 1.999187e-02 1.999467e-02 1.999236e-02 1.999376e-02 1.999706e-02 1.999870e-02 2.000071e-02 1.999965e-02 2.000000e-02 2.000084e-02
<VARIANCE> 75
 1.356098e-01 1.759289e-01 2.982128e-01 4.983584e-01 7.415919e-01 8.943391e-01 8.157709e-01 5.602528e-01 2.862921e-01 1.055414e-01 3.157545e-02 1.465425e-02 1.144476e-02 1.143151e-02 1.497540e-02 2.134388e-02 2.747247e-02 2.982924e-02 2.622830e-02 1.735733e-02 1.000000e-02 1.000000e-02 1.000000e-02 1.000000e-02 1.000000e-02 1.000000e-02 1.000000e-02 1.000000e-02 1.000000e-02 1.000000e-02 1.000000e-02 1.000000e-02 1.000000e-02 1.000000e-02 1.000000e-02 1.000000e-02 1.000000e-02 1.000000e-02 1.000000e-02 1.000000e-02 1.000000e-02 1.000000e-02 1.000000e-02 1.000000e-02 1.000000e-02 1.000000e-02 1.000000e-02 1.000000e-02 1.000000e-02 1.000000e-02 1.000000e-02 1.000000e-02 1.000000e-02 1.000000e-02 1.000000e-02 1.000000e-02 1.000000e-02 1.000000e-02 1.000000e-02 1.000000e-02 1.000000e-02 1.000000e-02 1.000000e-02 1.000000e-02 1.000000e-02 1.000000e-02 1.000000e-02 1.000000e-02 1.000000e-02 1.000000e-02 1.000000e-02 1.000000e-02 1.000000e-02 1.000000e-02 1.000000e-02
<GCONST> -1.652484e+02
<MIXTURE> 2 5.000000e-01
<MEAN> 75
 5.083848e+00 5.057304e+00 4.902461e+00 4.621651e+00 4.228205e+00 3.774653e+00 3.340908e+00 2.974162e+00 2.690461e+00 2.491613e+00 2.358994e+00 2.263100e+00 2.194425e+00 2.149886e+00 2.114548e+00 2.062057e+00 1.970383e+00 1.830280e+00 1.646091e+00 1.438477e+00 1.243329e+00 1.098500e+00 1.023431e+00 9.800000e-01 9.822850e-01 -1.824632e-02 -1.014926e-02 -1.820050e-03 6.361771e-03 1.272617e-02 1.319119e-02 7.252390e-03 -9.933189e-04 -8.476100e-03 -1.409996e-02 -1.744414e-02 -1.902393e-02 -1.976446e-02 -2.023177e-02 -2.050969e-02 -2.064293e-02 -2.070465e-02 -2.074957e-02 -2.077683e-02 -2.073424e-02 -2.059018e-02 -2.037021e-02 -2.017365e-02 -2.000000e-02 -2.001819e-02 -2.150147e-02 -2.199130e-02 -2.247309e-02 -2.281255e-02 -2.247283e-02 -2.129428e-02 -2.032848e-02 -2.003860e-02 -2.002122e-02 -2.003872e-02 -2.005186e-02 -2.004824e-02 -2.003337e-02 -2.002097e-02 -2.001032e-02 -2.000813e-02 -2.000533e-02 -2.000764e-02 -2.000624e-02 -2.000294e-02 -2.000130e-02 -1.999928e-02 -2.000035e-02 -2.000000e-02 -1.999916e-02
<VARIANCE> 75
 1.356098e-01 1.759289e-01 2.982128e-01 4.983584e-01 7.415919e-01 8.943391e-01 8.157709e-01 5.602528e-01 2.862921e-01 1.055414e-01 3.157545e-02 1.465425e-02 1.144476e-02 1.143151e-02 1.497540e-02 2.134388e-02 2.747247e-02 2.982924e-02 2.622830e-02 1.735733e-02 1.000000e-02 1.000000e-02 1.000000e-02 1.000000e-02 1.000000e-02 1.000000e-02 1.000000e-02 1.000000e-02 1.000000e-02 1.000000e-02 1.000000e-02 1.000000e-02 1.000000e-02 1.000000e-02 1.000000e-02 1.000000e-02 1.000000e-02 1.000000e-02 1.000000e-02 1.000000e-02 1.000000e-02 1.000000e-02 1.000000e-02 1.000000e-02 1.000000e-02 1.000000e-02 1.000000e-02 1.000000e-02 1.000000e-02 1.000000e-02 1.000000e-02 1.000000e-02 1.000000e-02 1.000000e-02 1.000000e-02 1.000000e-02 1.000000e-02 1.000000e-02 1.000000e-02 1.000000e-02 1.000000e-02 1.000000e-02 1.000000e-02 1.000000e-02 1.000000e-02 1.000000e-02 1.000000e-02 1.000000e-02 1.000000e-02 1.000000e-02 1.000000e-02 1.000000e-02 1.000000e-02 1.000000e-02 1.000000e-02
<GCONST> -1.652484e+02
<TRANSP> 5
 0.000000e+00 1.000000e+00 0.000000e+00 0.000000e+00 0.000000e+00
 0.000000e+00 9.260788e-01 7.392118e-02 0.000000e+00 0.000000e+00
 0.000000e+00 0.000000e+00 8.129144e-01 1.870856e-01 0.000000e+00
 0.000000e+00 0.000000e+00 0.000000e+00 9.637281e-01 3.627194e-02
 0.000000e+00 0.000000e+00 0.000000e+00 0.000000e+00 0.000000e+00
<ENDHMM>
~h "ne"
<BEGINHMM>
<NUMSTATES> 5
<STATE> 2
<NUMMIXES> 2
<MIXTURE> 1 5.000000e-01
<MEAN> 75
 2.049336e+00 2.176367e+00 2.291471e+00 2.386105e+00 2.456814e+00 2.503170e+00 2.525534e+00 2.524792e+00 2.507002e+00 2.471882e+00 2.424208e+00 2.377243e+00 2.351093e+00 2.355788e+00 2.371556e+00 2.361176e+00 2.295221e+00 2.159525e+00 1.953928e+00 1.695142e+00 1.426315e+00 1.213572e+00 1.095222e+00 1.020000e+00 1.029638e+00 2.107706e-02 1.919292e-02 1.853803e-02 1.869906e-02 1.897388e-02 1.917691e-02 1.930517e-02 1.939774e-02 1.942540e-02 1.942506e-02 1.937108e-02 1.930616e-02 1.918738e-02 1.906365e-02 1.895786e-02 1.887699e-02 1.880687e-02 1.872781e-02 1.868058e-02 1.873230e-02 1.893140e-02 1.931370e-02 1.965956e-02 2.000000e-02 1.993966e-02 2.072474e-02 2.042123e-02 2.009898e-02 1.999379e-02 1.998369e-02 1.999720e-02 2.000173e-02 2.000422e-02 2.000731e-02 2.000760e-02 2.000704e-02 2.000218e-02 1.999761e-02 1.999585e-02 1.999361e-02 1.999325e-02 1.999280e-02 1.999184e-02 1.999573e-02 1.999516e-02 1.999789e-02 1.999707e-02 1.999914e-02 2.000000e-02 2.000098e-02
<VARIANCE> 75
 8.703106e-02 7.490857e-02 6.273318e-02 5.043118e-02 3.875412e-02 2.812354e-02 1.891963e-02 1.152333e-02 1.000000e-02 1.000000e-02 1.000000e-02 1.000000e-02 1.000000e-02 1.000000e-02 1.000000e-02 1.000000e-02 1.000000e-02 1.000000e-02 1.000000e-02 1.000000e-02 1.000000e-02 1.000000e-02 1.000000e-02 1.000000e-02 1.000000e-02 1.000000e-02 1.000000e-02 1.000000e-02 1.000000e-02 1.000000e-02 1.000000e-02 1.000000e-02 1.000000e-02 1.000000e-02 1.000000e-02 1.000000e-02 1.000000e-02 1.000000e-02 1.000000e-02 1.000000e-02 1.000000e-02 1.000000e-02 1.000000e-02 1.000000e-02 1.000000e-02 1.000000e-02 1.000000e-02 1.000000e-02 1.000000e-02 1.000000e-02 1.000000e-02 1.000000e-02 1.000000e-02 1.000000e-02 1.000000e-02 1.000000e-02 1.000000e-02 1.000000e-02 1.000000e-02 1.000000e-02 1.000000e-02 1.000000e-02 1.000000e-02 1.000000e-02 1.000000e-02 1.000000e-02 1.000000e-02 1.000000e-02 1.000000e-02 1.000000e-02 1.000000e-02 1.000000e-02 1.000000e-02 1.000000e-02 1.000000e-02
<GCONST> -1.967472e+02
<MIXTURE> 2 5.000000e-01
<MEAN> 75
 1.931332e+00 2.066889e+00 2.191285e+00 2.296277e+00 2.378070e+00 2.436090e+00 2.470514e+00 2.481854e+00 2.467002e+00 2.431882e+00 2.384208e+00 2.337243e+00 2.311093e+00 2.315788e+00 2.331556e+00 2.321176e+00 2.255221e+00 2.119525e+00 1.913928e+00 1.655142e+00 1.386315e+00 1.173572e+00 1.055222e+00 9.800000e-01 9.896380e-01 -1.892294e-02 -2.080708e-02 -2.146197e-02 -2.130094e-02 -2.102612e-02 -2.082309e-02 -2.069483e-02 -2.060226e-02 -2.057460e-02 -2.057493e-02 -2.062892e-02 -2.069384e-02 -2.081262e-02 -2.093635e-02 -2.104214e-02 -2.112301e-02 -2.119313e-02 -2.127219e-02 -2.131942e-02 -2.126770e-02 -2.106860e-02 -2.068630e-02 -2.034044e-02 -2.000000e-02 -2.006034e-02 -1.927526e-02 -1.957877e-02 -1.990101e-02 -2.000621e-02 -2.001631e-02 -2.000280e-02 -1.999827e-02 -1.999578e-02 -1.999269e-02 -1.999239e-02 -1.999296e-02 -1.999781e-02 -2.000239e-02 -2.000415e-02 -2.000639e-02 -2.000675e-02 -2.000720e-02 -2.000816e-02 -2.000427e-02 -2.000484e-02 -2.000211e-02 -2.000293e-02 -2.000085e-02 -2.000000e-02 -1.999902e-02
<VARIANCE> 75
 8.703106e-02 7.490857e-02 6.273318e-02 5.043118e-02 3.875412e-02 2.812354e-02 1.891963e-02 1.152333e-02 1.000000e-02 1.000000e-02 1.000000e-02 1.000000e-02 1.000000e-02 1.000000e-02 1.000000e-02 1.000000e-02 1.000000e-02 1.000000e-02 1.000000e-02 1.000000e-02 1.000000e-02 1.000000e-02 1.000000e-02 1.000000e-02 1.000000e-02 1.000000e-02 1.000000e-02 1.000000e-02 1.000000e-02 1.000000e-02 1.000000e-02 1.000000e-02 1.000000e-02 1.000000e-02 1.000000e-02 1.000000e-02 1.000000e-02 1.000000e-02 1.000000e-02 1.000000e-02 1.000000e-02 1.000000e-02 1.000000e-02 1.000000e-02 1.000000e-02 1.000000e-02 1.000000e-02 1.000000e-02 1.000000e-02 1.000000e-02 1.000000e-02 1.000000e-02 1.000000e-02 1.000000e-02 1.000000e-02 1.000000e-02 1.000000e-02 1.000000e-02 1.000000e-02 1.000000e-02 1.000000e-02 1.000000e-02 1.000000e-02 1.000000e-02 1.000000e-02 1.000000e-02 1.000000e-02 1.000000e-02 1.000000e-02 1.000000e-02 1.000000e-02 1.000000e-02 1.000000e-02 1.000000e-02 1.000000e-02
<GCONST> -1.967472e+02
<STATE> 3
<NUMMIXES> 2
<MIXTURE> 1 5.000000e-01
<MEAN> 75
 2.100610e+00 2.171916e+00 2.251791e+00 2.326623e+00 2.389301e+00 2.430979e+00 2.448619e+00 2.442643e+00 2.419354e+00 2.379960e+00 2.332009e+00 2.290859e+00 2.270370e+00 2.268165e+00 2.261587e+00 2.222182e+00 2.130500e+00 1.978652e+00 1.771372e+00 1.531087e+00 1.303982e+00 1.143761e+00 1.064101e+00 1.020000e+00 1.022068e+00 2.437408e-02 2.264006e-02 2.040782e-02 1.921521e-02 1.899037e-02 1.915966e-02 1.928228e-02 1.935642e-02 1.939881e-02 1.938926e-02 1.931071e-02 1.928414e-02 1.917045e-02 1.906129e-02 1.896373e-02 1.890128e-02 1.882003e-02 1.873191e-02 1.873652e-02 1.887883e-02 1.915748e-02 1.951274e-02 1.977989e-02 2.000000e-02 1.998101e-02 2.036858e-02 2.051653e-02 2.038582e-02 2.010741e-02 2.000134e-02 1.999011e-02 1.999525e-02 1.999781e-02 2.000015e-02 1.999263e-02 2.001841e-02 1.999647e-02 1.999689e-02 1.999360e-02 1.998344e-02 1.999540e-02 1.998189e-02 2.000077e-02 2.001267e-02 1.999774e-02 1.999860e-02 1.999962e-02 1.999832e-02 2.000000e-02 2.000057e-02
<VARIANCE> 75
 1.384158e-01 7.490857e-02 6.273318e-02 5.043118e-02 3.875412e-02 2.812354e-02 1.891963e-02 1.152333e-02 1.000000e-02 1.000000e-02 1.000000e-02 1.000000e-02 1.000000e-02 1.000000e-02 1.000000e-02 1.000000e-02 1.000000e-02 1.000000e-02 1.000000e-02 1.000000e-02 1.000000e-02 1.000000e-02 1.000000e-02 1.000000e-02 1.000000e-02 1.000000e-02 1.000000e-02 1.000000e-02 1.000000e-02 1.000000e-02 1.000000e-02 1.000000e-02 1.000000e-02 1.000000e-02 1.000000e-02 1.000000e-02 1.000000e-02 1.000000e-02 1.000000e-02 1.000000e-02 1.000000e-02 1.000000e-02 1.000000e-02 1.000000e-02 1.000000e-02 1.000000e-02 1.000000e-02 1.000000e-02 1.000000e-02 1.000000e-02 1.000000e-02 1.000000e-02 1.000000e-02 1.000000e-02 1.000000e-02 1.000000e-02 1.000000e-02 1.000000e-02 1.000000e-02 1.000000e-02 1.000000e-02 1.000000e-02 1.000000e-02 1.000000e-02 1.000000e-02 1.000000e-02 1.000000e-02 1.000000e-02 1.000000e-02 1.000000e-02 1.000000e-02 1.000000e-02 1.000000e-02 1.000000e-02 1.000000e-02
<GCONST> -1.962832e+02
<MIXTURE> 2 5.000000e-01
<MEAN> 75
 1.951792e+00 2.062438e+00 2.151605e+00 2.236795e+00 2.310557e+00 2.363899e+00 2.393599e+00 2.399705e+00 2.379354e+00 2.339960e+00 2.292009e+00 2.250859e+00 2.230370e+00 2.228165e+00 2.221587e+00 2.182182e+00 2.090500e+00 1.938652e+00 1.731372e+00 1.491087e+00 1.263982e+00 1.103761e+00 1.024101e+00 9.800000e-01 9.820681e-01 -1.562592e-02 -1.735993e-02 -1.959218e-02 -2.078479e-02 -2.100963e-02 -2.084034e-02 -2.071772e-02 -2.064358e-02 -2.060119e-02 -2.061074e-02 -2.068929e-02 -2.071586e-02 -2.082955e-02 -2.093871e-02 -2.103627e-02 -2.109872e-02 -2.117997e-02 -2.126809e-02 -2.126348e-02 -2.112117e-02 -2.084251e-02 -2.048726e-02 -2.022010e-02 -2.000000e-02 -2.001899e-02 -1.963142e-02 -1.948347e-02 -1.961418e-02 -1.989258e-02 -1.999866e-02 -2.000989e-02 -2.000475e-02 -2.000219e-02 -1.999985e-02 -2.000737e-02 -1.998159e-02 -2.000353e-02 -2.000310e-02 -2.000640e-02 -2.001655e-02 -2.000460e-02 -2.001810e-02 -1.999923e-02 -1.998732e-02 -2.000226e-02 -2.000140e-02 -2.000038e-02 -2.000168e-02 -2.000000e-02 -1.999943e-02
<VARIANCE> 75
 1.384158e-01 7.490857e-02 6.273318e-02 5.043118e-02 3.875412e-02 2.812354e-02 1.891963e-02 1.152333e-02 1.000000e-02 1.000000e-02 1.000000e-02 1.000000e-02 1.000000e-02 1.000000e-02 1.000000e-02 1.000000e-02 1.000000e-02 1.000000e-02 1.000000e-02 1.000000e-02 1.000000e-02 1.000000e-02 1.000000e-02 1.000000e-02 1.000000e-02 1.000000e-02 1.000000e-02 1.000000e-02 1.000000e-02 1.000000e-02 1.000000e-02 1.000000e-02 1.000000e-02 1.000000e-02 1.000000e-02 1.000000e-02 1.000000e-02 1.000000e-02 1.000000e-02 1.000000e-02 1.000000e-02 1.000000e-02 1.000000e-02 1.000000e-02 1.000000e-02 1.000000e-02 1.000000e-02 1.000000e-02 1.000000e-02 1.000000e-02 1.000000e-02 1.000000e-02 1.000000e-02 1.000000e-02 1.000000e-02 1.000000e-02 1.000000e-02 1.000000e-02 1.000000e-02 1.000000e-02 1.000000e-02 1.000000e-02 1.000000e-02 1.000000e-02 1.000000e-02 1.000000e-02 1.000000e-02 1.000000e-02 1.000000e-02 1.000000e-02 1.000000e-02 1.000000e-02 1.000000e-02 1.000000e-02 1.000000e-02
<GCONST> -1.962832e+02
<STATE> 4
<NUMMIXES> 2
<MIXTURE> 1 5.000000e-01
<MEAN> 75
 1.999031e+00 2.097754e+00 2.186223e+00 2.259882e+00 2.312527e+00 2.341234e+00 2.346054e+00 2.328479e+00 2.295982e+00 2.251459e+00 2.204235e+00 2.167632e+00 2.148603e+00 2.138496e+00 2.116890e+00 2.063754e+00 1.966700e+00 1.822487e+00 1.638268e+00 1.435379e+00 1.251353e+00 1.123310e+00 1.057690e+00 1.020000e+00 1.021272e+00 2.248013e-02 2.097375e-02 1.966118e-02 1.906443e-02 1.910342e-02 1.925721e-02 1.936604e-02 1.942428e-02 1.943602e-02 1.940763e-02 1.934893e-02 1.925543e-02 1.915472e-02 1.906210e-02 1.898252e-02 1.891538e-02 1.885010e-02 1.881378e-02 1.883512e-02 1.896502e-02 1.923830e-02 1.956971e-02 1.979900e-02 2.000000e-02 1.996998e-02 2.040074e-02 2.042466e-02 2.032028e-02 2.011675e-02 2.002382e-02 2.000675e-02 2.000884e-02 2.001073e-02 2.001062e-02 2.001054e-02 2.001058e-02 2.000642e-02 2.000567e-02 2.000507e-02 2.000538e-02 2.000416e-02 2.000568e-02 2.000710e-02 2.000597e-02 2.000375e-02 2.000221e-02 2.000135e-02 2.000104e-02 2.000000e-02 2.000022e-02
<VARIANCE> 75
 8.703106e-02 7.490857e-02 6.273318e-02 5.043118e-02 3.875412e-02 2.812354e-02 1.891963e-02 1.152333e-02 1.000000e-02 1.000000e-02 1.000000e-02 1.000000e-02 1.000000e-02 1.000000e-02 1.000000e-02 1.000000e-02 1.000000e-02 1.000000e-02 1.000000e-02 1.000000e-02 1.000000e-02 1.000000e-02 1.000000e-02 1.000000e-02 1.000000e-02 1.000000e-02 1.000000e-02 1.000000e-02 1.000000e-02 1.000000e-02 1.000000e-02 1.000000e-02 1.000000e-02 1.000000e-02 1.000000e-02 1.000000e-02 1.000000e-02 1.000000e-02 1.000000e-02 1.000000e-02 1.000000e-02 1.000000e-02 1.000000e-02 1.000000e-02 1.000000e-02 1.000000e-02 1.000000e-02 1.000000e-02 1.000000e-02 1.000000e-02 1.000000e-02 1.000000e-02 1.000000e-02 1.000000e-02 1.000000e-02 1.000000e-02 1.000000e-02 1.000000e-02 1.000000e-02 1.000000e-02 1.000000e-02 1.000000e-02 1.000000e-02 1.000000e-02 1.000000e-02 1.000000e-02 1.000000e-02 1.000000e-02 1.000000e-02 1.000000e-02 1.000000e-02 1.000000e-02 1.000000e-02 1.000000e-02 1.000000e-02
<GCONST> -1.967472e+02
<MIXTURE> 2 5.000000e-01
<MEAN> 75
 1.881027e+00 1.988276e+00 2.086037e+00 2.170054e+00 2.233783e+00 2.274154e+00 2.291034e+00 2.285541e+00 2.255982e+00 2.211459e+00 2.164235e+00 2.127632e+00 2.108603e+00 2.098496e+00 2.076890e+00 2.023754e+00 1.926700e+00 1.782487e+00 1.598268e+00 1.395379e+00 1.211353e+00 1.083310e+00 1.017690e+00 9.800000e-01 9.812720e-01 -1.751987e-02 -1.902625e-02 -2.033882e-02 -2.093557e-02 -2.089658e-02 -2.074279e-02 -2.063396e-02 -2.057572e-02 -2.056398e-02 -2.059237e-02 -2.065107e-02 -2.074457e-02 -2.084528e-02 -2.093790e-02 -2.101748e-02 -2.108462e-02 -2.114990e-02 -2.118622e-02 -2.116488e-02 -2.103498e-02 -2.076170e-02 -2.043029e-02 -2.020100e-02 -2.000000e-02 -2.003002e-02 -1.959926e-02 -1.957534e-02 -1.967972e-02 -1.988325e-02 -1.997618e-02 -1.999325e-02 -1.999116e-02 -1.998927e-02 -1.998938e-02 -1.998946e-02 -1.998942e-02 -1.999358e-02 -1.999433e-02 -1.999493e-02 -1.999462e-02 -1.999584e-02 -1.999432e-02 -1.999290e-02 -1.999403e-02 -1.999625e-02 -1.999779e-02 -1.999865e-02 -1.999895e-02 -2.000000e-02 -1.999978e-02
<VARIANCE> 75
 8.703106e-02 7.490857e-02 6.273318e-02 5.043118e-02 3.875412e-02 2.812354e-02 1.891963e-02 1.152333e-02 1.000000e-02 1.000000e-02 1.000000e-02 1.000000e-02 1.000000e-02 1.000000e-02 1.000000e-02 1.000000e-02 1.000000e-02 1.000000e-02 1.000000e-02 1.000000e-02 1.000000e-02 1.000000e-02 1.000000e-02 1.000000e-02 1.000000e-02 1.000000e-02 1.000000e-02 1.000000e-02 1.000000e-02 1.000000e-02 1.000000e-02 1.000000e-02 1.000000e-02 1.000000e-02 1.000000e-02 1.000000e-02 1.000000e-02 1.000000e-02 1.000000e-02 1.000000e-02 1.000000e-02 1.000000e-02 1.000000e-02 1.000000e-02 1.000000e-02 1.000000e-02 1.000000e-02 1.000000e-02 1.000000e-02 1.000000e-02 1.000000e-02 1.000000e-02 1.000000e-02 1.000000e-02 1.000000e-02 1.000000e-02 1.000000e-02 1.000000e-02 1.000000e-02 1.000000e-02 1.000000e-02 1.000000e-02 1.000000e-02 1.000000e-02 1.000000e-02 1.000000e-02 1.000000e-02 1.000000e-02 1.000000e-02 1.000000e-02 1.000000e-02 1.000000e-02 1.000000e-02 1.000000e-02 1.000000e-02
<GCONST> -1.967472e+02
<TRANSP> 5
 0.000000e+00 1.000000e+00 0.000000e+00 0.000000e+00 0.000000e+00
 0.000000e+00 9.649398e-01 3.506016e-02 0.000000e+00 0.000000e+00
 0.000000e+00 0.000000e+00 9.231486e-01 7.685140e-02 0.000000e+00
 0.000000e+00 0.000000e+00 0.000000e+00 9.870228e-01 1.297725e-02
 0.000000e+00 0.000000e+00 0.000000e+00 0.000000e+00 0.000000e+00
<ENDHMM>
