~o
<STREAMINFO> 1 75
<VECSIZE> 75<NULLD><USER_D_A><DIAGC>
~h "e"
<BEGINHMM>
<NUMSTATES> 5
<STATE> 2
<NUMMIXES> 2
<MIXTURE> 1 4.622276e-01
<MEAN> 75
 4.271348e+00 3.929838e+00 3.511532e+00 3.100502e+00 2.782586e+00 2.605242e+00 2.562377e+00 2.569984e+00 2.563282e+00 2.531485e+00 2.480654e+00 2.422564e+00 2.376054e+00 2.356994e+00 2.354211e+00 2.331571e+00 2.256237e+00 2.112160e+00 1.898961e+00 1.635386e+00 1.369012e+00 1.167215e+00 1.060935e+00 1.000000e+00 1.006472e+00 7.382851e-02 8.621209e-02 8.512056e-02 6.782074e-02 4.389044e-02 2.053690e-02 5.410834e-03 1.468342e-03 1.417900e-03 1.603931e-03 1.528218e-03 1.174343e-03 5.324914e-04 -9.425457e-05 -5.325961e-04 -6.336666e-04 -6.393791e-04 -6.071609e-04 -6.255891e-04 -6.384719e-04 -5.643282e-04 -3.856374e-04 -2.012449e-04 -8.520788e-14 -4.977758e-05 -8.724267e-03 -5.815862e-03 -8.190533e-04 2.645758e-03 3.711282e-03 3.342592e-03 1.543109e-03 2.388773e-04 -2.868915e-05 -3.803029e-05 -3.226909e-05 -2.245515e-05 -6.133916e-06 -4.221014e-06 -5.591244e-06 -8.998751e-06 -9.192596e-06 -8.650654e-06 -9.077430e-06 -3.636496e-06 -4.712755e-06 -5.496242e-06 1.350893e-06 -8.520788e-14 1.831628e-06
<VARIANCE> 75
 7.097968e-01 6.590366e-01 5.980986e-01 4.185148e-01 1.820295e-01 4.583327e-02 1.891963e-02 1.384151e-02 1.127744e-02 1.033612e-02 1.195759e-02 1.616387e-02 2.015325e-02 1.946157e-02 1.388649e-02 1.000000e-02 1.000000e-02 1.000000e-02 1.000000e-02 1.000000e-02 1.000000e-02 1.000000e-02 1.000000e-02 1.000000e-02 1.000000e-02 1.127797e-02 1.128105e-02 1.000000e-02 1.000000e-02 1.000000e-02 1.000000e-02 1.000000e-02 1.000000e-02 1.000000e-02 1.000000e-02 1.000000e-02 1.000000e-02 1.000000e-02 1.000000e-02 1.000000e-02 1.000000e-02 1.000000e-02 1.000000e-02 1.000000e-02 1.000000e-02 1.000000e-02 1.000000e-02 1.000000e-02 1.000000e-02 1.000000e-02 1.000000e-02 1.000000e-02 1.000000e-02 1.000000e-02 1.000000e-02 1.000000e-02 1.000000e-02 1.000000e-02 1.000000e-02 1.000000e-02 1.000000e-02 1.000000e-02 1.000000e-02 1.000000e-02 1.000000e-02 1.000000e-02 1.000000e-02 1.000000e-02 1.000000e-02 1.000000e-02 1.000000e-02 1.000000e-02 1.000000e-02 1.000000e-02 1.000000e-02
<GCONST> -1.831363e+02
<MIXTURE> 2 5.377703e-01
<MEAN> 75
 4.203818e+00 3.746531e+00 3.221468e+00 2.757149e+00 2.467424e+00 2.369303e+00 2.367616e+00 2.364261e+00 2.335124e+00 2.284333e+00 2.222879e+00 2.165862e+00 2.125581e+00 2.099051e+00 2.068131e+00 2.010553e+00 1.912134e+00 1.768720e+00 1.588038e+00 1.391307e+00 1.215800e+00 1.096029e+00 1.035349e+00 1.000000e+00 1.000559e+00 7.940367e-02 9.137562e-02 8.580223e-02 6.014602e-02 2.984929e-02 8.638362e-03 2.074394e-03 1.580402e-03 1.775645e-03 1.706247e-03 1.354566e-03 8.220631e-04 2.450295e-04 -1.433148e-04 -3.605609e-04 -4.454603e-04 -5.215977e-04 -5.695767e-04 -6.469628e-04 -5.980566e-04 -4.924386e-04 -2.834803e-04 -1.227500e-04 3.481775e-12 -1.459161e-05 -8.617482e-03 -5.362725e-03 6.100499e-04 4.355015e-03 4.563281e-03 2.385726e-03 4.827601e-04 1.721511e-06 -3.985396e-05 -3.199855e-05 -2.463889e-05 -1.855421e-05 -1.162938e-05 -2.649474e-06 -7.859770e-06 -1.256791e-05 -1.252353e-05 -6.323495e-06 -1.388184e-05 -7.661268e-06 1.937637e-06 -2.638448e-06 -1.674291e-06 3.481775e-12 6.108943e-07
<VARIANCE> 75
 2.801192e-01 3.634915e-01 3.786285e-01 2.262842e-01 5.740380e-02 2.812354e-02 1.891963e-02 1.152333e-02 1.000000e-02 1.000000e-02 1.000000e-02 1.000000e-02 1.000000e-02 1.000000e-02 1.000000e-02 1.000000e-02 1.000000e-02 1.000000e-02 1.000000e-02 1.000000e-02 1.000000e-02 1.000000e-02 1.000000e-02 1.000000e-02 1.000000e-02 1.000000e-02 1.000000e-02 1.000000e-02 1.000000e-02 1.000000e-02 1.000000e-02 1.000000e-02 1.000000e-02 1.000000e-02 1.000000e-02 1.000000e-02 1.000000e-02 1.000000e-02 1.000000e-02 1.000000e-02 1.000000e-02 1.000000e-02 1.000000e-02 1.000000e-02 1.000000e-02 1.000000e-02 1.000000e-02 1.000000e-02 1.000000e-02 1.000000e-02 1.000000e-02 1.000000e-02 1.000000e-02 1.000000e-02 1.000000e-02 1.000000e-02 1.000000e-02 1.000000e-02 1.000000e-02 1.000000e-02 1.000000e-02 1.000000e-02 1.000000e-02 1.000000e-02 1.000000e-02 1.000000e-02 1.000000e-02 1.000000e-02 1.000000e-02 1.000000e-02 1.000000e-02 1.000000e-02 1.000000e-02 1.000000e-02 1.000000e-02
<GCONST> -1.903070e+02
<STATE> 3
<NUMMIXES> 2
<MIXTURE> 1 7.621081e-01
<MEAN> 75
 5.208455e+00 5.343200e+00 5.363918e+00 5.262033e+00 5.032368e+00 4.674095e+00 4.204205e+00 3.688351e+00 3.221030e+00 2.867843e+00 2.640929e+00 2.501390e+00 2.409429e+00 2.359473e+00 2.348259e+00 2.338191e+00 2.284191e+00 2.159422e+00 1.957743e+00 1.693787e+00 1.412258e+00 1.187899e+00 1.066804e+00 1.000000e+00 1.006299e+00 -9.689717e-03 -8.689683e-04 8.134448e-03 1.726144e-02 2.632397e-02 3.413781e-02 3.618440e-02 2.936926e-02 1.907060e-02 1.009625e-02 4.445118e-03 1.840514e-03 6.397481e-04 -8.636774e-05 -5.469918e-04 -7.638406e-04 -8.041367e-04 -8.078779e-04 -8.194349e-04 -8.132160e-04 -7.238781e-04 -4.997335e-04 -2.409178e-04 -8.605676e-14 -3.457924e-05 -1.235507e-03 -1.804143e-03 -2.384405e-03 -2.946516e-03 -3.326428e-03 -2.995178e-03 -1.486350e-03 -2.592358e-04 -5.286986e-06 -2.051482e-05 -6.058584e-05 -6.845850e-05 -5.848412e-05 -3.081514e-05 -2.119253e-05 -1.844475e-05 -2.035186e-05 -1.903961e-05 -2.044923e-05 -1.910132e-05 -1.453200e-05 -8.363502e-06 -2.075121e-06 -8.605676e-14 1.656798e-06
<VARIANCE> 75
 1.272809e-01 7.490857e-02 6.273318e-02 9.957338e-02 2.104372e-01 3.701791e-01 5.249355e-01 5.347353e-01 3.650530e-01 1.622187e-01 4.608806e-02 1.091922e-02 1.000000e-02 1.000000e-02 1.000000e-02 1.000000e-02 1.000000e-02 1.000000e-02 1.000000e-02 1.000000e-02 1.000000e-02 1.000000e-02 1.000000e-02 1.000000e-02 1.000000e-02 1.000000e-02 1.000000e-02 1.000000e-02 1.000000e-02 1.000000e-02 1.000000e-02 1.000000e-02 1.000000e-02 1.000000e-02 1.000000e-02 1.000000e-02 1.000000e-02 1.000000e-02 1.000000e-02 1.000000e-02 1.000000e-02 1.000000e-02 1.000000e-02 1.000000e-02 1.000000e-02 1.000000e-02 1.000000e-02 1.000000e-02 1.000000e-02 1.000000e-02 1.000000e-02 1.000000e-02 1.000000e-02 1.000000e-02 1.000000e-02 1.000000e-02 1.000000e-02 1.000000e-02 1.000000e-02 1.000000e-02 1.000000e-02 1.000000e-02 1.000000e-02 1.000000e-02 1.000000e-02 1.000000e-02 1.000000e-02 1.000000e-02 1.000000e-02 1.000000e-02 1.000000e-02 1.000000e-02 1.000000e-02 1.000000e-02 1.000000e-02
<GCONST> -1.762572e+02
<MIXTURE> 2 2.378796e-01
<MEAN> 75
 4.462184e+00 4.621119e+00 4.652874e+00 4.563382e+00 4.374543e+00 4.135589e+00 3.910855e+00 3.692872e+00 3.436928e+00 3.132183e+00 2.800190e+00 2.492384e+00 2.283994e+00 2.189600e+00 2.139980e+00 2.080959e+00 1.985996e+00 1.844912e+00 1.662084e+00 1.455933e+00 1.262686e+00 1.122153e+00 1.046426e+00 1.000000e+00 1.003106e+00 -3.170332e-03 9.644560e-03 2.216488e-02 3.375194e-02 4.146574e-02 3.784678e-02 2.741291e-02 2.151553e-02 1.900345e-02 1.624165e-02 1.236717e-02 7.387521e-03 2.834489e-03 5.877276e-04 -1.102116e-04 -3.415752e-04 -4.093556e-04 -4.906712e-04 -5.489159e-04 -5.786633e-04 -4.914106e-04 -3.569821e-04 -1.963814e-04 -1.612004e-13 -5.144321e-05 -3.363216e-03 -4.219498e-03 -4.858399e-03 -4.940525e-03 -3.091631e-03 2.407127e-04 9.091303e-04 2.208578e-04 -4.930651e-05 -7.749378e-05 -3.850292e-05 -3.008930e-05 -1.011698e-05 -3.379774e-05 -2.148692e-05 -2.660495e-06 -1.881921e-05 -8.773430e-06 -8.512166e-06 3.265918e-06 -3.550459e-06 8.964927e-06 -2.363131e-08 -1.612004e-13 -2.981191e-06
<VARIANCE> 75
 9.536123e-01 7.301124e-01 8.031955e-01 1.100283e+00 1.510706e+00 1.853165e+00 1.888047e+00 1.630232e+00 1.236693e+00 8.046533e-01 4.082011e-01 1.356521e-01 2.801995e-02 1.000000e-02 1.118271e-02 1.523885e-02 1.883742e-02 1.958775e-02 1.646570e-02 1.041153e-02 1.000000e-02 1.000000e-02 1.000000e-02 1.000000e-02 1.000000e-02 1.000000e-02 1.000000e-02 1.000000e-02 1.000000e-02 1.000000e-02 1.000000e-02 1.000000e-02 1.000000e-02 1.000000e-02 1.000000e-02 1.000000e-02 1.000000e-02 1.000000e-02 1.000000e-02 1.000000e-02 1.000000e-02 1.000000e-02 1.000000e-02 1.000000e-02 1.000000e-02 1.000000e-02 1.000000e-02 1.000000e-02 1.000000e-02 1.000000e-02 1.000000e-02 1.000000e-02 1.000000e-02 1.000000e-02 1.000000e-02 1.000000e-02 1.000000e-02 1.000000e-02 1.000000e-02 1.000000e-02 1.000000e-02 1.000000e-02 1.000000e-02 1.000000e-02 1.000000e-02 1.000000e-02 1.000000e-02 1.000000e-02 1.000000e-02 1.000000e-02 1.000000e-02 1.000000e-02 1.000000e-02 1.000000e-02 1.000000e-02
<GCONST> -1.501075e+02
<STATE> 4
<NUMMIXES> 2
<MIXTURE> 1 4.098439e-01
<MEAN> 75
 5.118043e+00 5.277603e+00 5.324432e+00 5.250187e+00 5.050151e+00 4.724093e+00 4.289700e+00 3.803468e+00 3.315205e+00 2.867492e+00 2.539500e+00 2.354316e+00 2.256050e+00 2.199615e+00 2.160607e+00 2.108343e+00 2.016496e+00 1.873042e+00 1.681349e+00 1.462616e+00 1.258618e+00 1.115102e+00 1.042479e+00 1.000000e+00 1.002495e+00 -1.116383e-02 -5.457191e-03 2.467052e-04 5.929650e-03 1.160624e-02 1.680554e-02 1.961217e-02 1.874768e-02 1.648274e-02 1.166984e-02 5.285088e-03 1.454026e-03 1.575863e-04 -3.532227e-04 -5.858748e-04 -7.122884e-04 -7.932729e-04 -8.420176e-04 -8.615446e-04 -8.072376e-04 -6.356956e-04 -3.810998e-04 -1.824529e-04 -1.865595e-13 -2.118885e-05 -8.616824e-05 -4.032100e-04 -7.210200e-04 -1.055856e-03 -1.344087e-03 -1.480792e-03 -1.195989e-03 -8.923896e-04 -6.750185e-04 -2.734544e-04 -6.907430e-05 -4.466924e-05 -3.087214e-05 -1.854216e-05 -5.920994e-06 2.306796e-06 3.083515e-06 -2.648947e-06 1.256853e-06 1.835383e-06 2.410027e-06 1.296869e-06 1.399060e-06 -1.865595e-13 9.287986e-07
<VARIANCE> 75
 9.123023e-02 7.490857e-02 6.273318e-02 1.372514e-01 2.735540e-01 4.583582e-01 6.186308e-01 5.909932e-01 3.790833e-01 1.598471e-01 3.882365e-02 1.000000e-02 1.000000e-02 1.000000e-02 1.224394e-02 1.718512e-02 2.111281e-02 2.164755e-02 1.769177e-02 1.062843e-02 1.000000e-02 1.000000e-02 1.000000e-02 1.000000e-02 1.000000e-02 1.000000e-02 1.000000e-02 1.000000e-02 1.000000e-02 1.000000e-02 1.000000e-02 1.000000e-02 1.000000e-02 1.000000e-02 1.000000e-02 1.000000e-02 1.000000e-02 1.000000e-02 1.000000e-02 1.000000e-02 1.000000e-02 1.000000e-02 1.000000e-02 1.000000e-02 1.000000e-02 1.000000e-02 1.000000e-02 1.000000e-02 1.000000e-02 1.000000e-02 1.000000e-02 1.000000e-02 1.000000e-02 1.000000e-02 1.000000e-02 1.000000e-02 1.000000e-02 1.000000e-02 1.000000e-02 1.000000e-02 1.000000e-02 1.000000e-02 1.000000e-02 1.000000e-02 1.000000e-02 1.000000e-02 1.000000e-02 1.000000e-02 1.000000e-02 1.000000e-02 1.000000e-02 1.000000e-02 1.000000e-02 1.000000e-02 1.000000e-02
<GCONST> -1.728706e+02
<MIXTURE> 2 5.901524e-01
<MEAN> 75
 5.215450e+00 5.136786e+00 4.945701e+00 4.635711e+00 4.208852e+00 3.694877e+00 3.188911e+00 2.784208e+00 2.511940e+00 2.361662e+00 2.270940e+00 2.195959e+00 2.137734e+00 2.096270e+00 2.055484e+00 1.992891e+00 1.893074e+00 1.751154e+00 1.574004e+00 1.382964e+00 1.213003e+00 1.096090e+00 1.035482e+00 1.000000e+00 1.000290e+00 5.095175e-03 1.408589e-02 2.351185e-02 3.296310e-02 4.135416e-02 4.385560e-02 3.526861e-02 2.201824e-02 1.034408e-02 3.562673e-03 1.510862e-03 8.323138e-04 2.895365e-04 -1.558177e-04 -3.921459e-04 -5.062568e-04 -5.826849e-04 -6.408079e-04 -6.719237e-04 -6.391311e-04 -4.903278e-04 -3.120811e-04 -1.393146e-04 1.620261e-13 -1.120199e-05 -1.876992e-03 -2.437909e-03 -2.981434e-03 -3.431992e-03 -3.361362e-03 -1.848312e-03 -5.008972e-05 4.929503e-04 4.230855e-04 1.221557e-04 -3.480411e-05 -3.985966e-05 -2.687074e-05 -1.789141e-05 -1.221743e-05 -6.064164e-06 -8.431532e-06 -5.935786e-06 -3.795933e-06 8.359893e-07 1.041342e-08 8.453991e-07 4.233898e-07 1.620261e-13 4.768961e-07
<VARIANCE> 75
 2.008442e-01 2.343193e-01 2.977800e-01 3.879820e-01 4.876179e-01 5.378929e-01 4.179686e-01 1.893194e-01 4.250842e-02 1.000000e-02 1.000000e-02 1.000000e-02 1.000000e-02 1.000000e-02 1.000000e-02 1.000000e-02 1.000000e-02 1.000000e-02 1.000000e-02 1.000000e-02 1.000000e-02 1.000000e-02 1.000000e-02 1.000000e-02 1.000000e-02 1.000000e-02 1.000000e-02 1.000000e-02 1.000000e-02 1.000000e-02 1.000000e-02 1.000000e-02 1.000000e-02 1.000000e-02 1.000000e-02 1.000000e-02 1.000000e-02 1.000000e-02 1.000000e-02 1.000000e-02 1.000000e-02 1.000000e-02 1.000000e-02 1.000000e-02 1.000000e-02 1.000000e-02 1.000000e-02 1.000000e-02 1.000000e-02 1.000000e-02 1.000000e-02 1.000000e-02 1.000000e-02 1.000000e-02 1.000000e-02 1.000000e-02 1.000000e-02 1.000000e-02 1.000000e-02 1.000000e-02 1.000000e-02 1.000000e-02 1.000000e-02 1.000000e-02 1.000000e-02 1.000000e-02 1.000000e-02 1.000000e-02 1.000000e-02 1.000000e-02 1.000000e-02 1.000000e-02 1.000000e-02 1.000000e-02 1.000000e-02
<GCONST> -1.783479e+02
<TRANSP> 5
 0.000000e+00 1.000000e+00 0.000000e+00 0.000000e+00 0.000000e+00
 0.000000e+00 9.494362e-01 5.056374e-02 0.000000e+00 0.000000e+00
 0.000000e+00 0.000000e+00 8.957016e-01 1.042984e-01 0.000000e+00
 0.000000e+00 0.000000e+00 0.000000e+00 9.478400e-01 5.215998e-02
 0.000000e+00 0.000000e+00 0.000000e+00 0.000000e+00 0.000000e+00
<ENDHMM>
~h "ne"
<BEGINHMM>
<NUMSTATES> 5
<STATE> 2
<NUMMIXES> 2
<MIXTURE> 1 4.582349e-01
<MEAN> 75
 2.045591e+00 2.184544e+00 2.307173e+00 2.407225e+00 2.482266e+00 2.532117e+00 2.557236e+00 2.558820e+00 2.539274e+00 2.502290e+00 2.454476e+00 2.408942e+00 2.385055e+00 2.392663e+00 2.411383e+00 2.403412e+00 2.339100e+00 2.204112e+00 1.997240e+00 1.732785e+00 1.450690e+00 1.218840e+00 1.085013e+00 1.000000e+00 1.010221e+00 1.224133e-04 -1.162768e-03 -1.489953e-03 -1.287572e-03 -1.036211e-03 -8.632214e-04 -7.476597e-04 -6.563273e-04 -6.472429e-04 -6.567992e-04 -6.949062e-04 -7.709018e-04 -8.651697e-04 -9.700073e-04 -1.068681e-03 -1.146441e-03 -1.226760e-03 -1.307402e-03 -1.355297e-03 -1.334046e-03 -1.159526e-03 -7.658075e-04 -3.929149e-04 -4.050218e-12 -6.981810e-05 5.788508e-04 3.069512e-04 5.248945e-05 -1.520540e-05 -1.331192e-05 -1.412921e-06 -1.455744e-06 2.456600e-06 6.545741e-06 6.535764e-06 2.821696e-06 -1.977483e-06 -8.226001e-06 -8.029651e-06 -7.068827e-06 -1.224175e-05 -1.093879e-05 -1.164416e-05 -1.086566e-05 -1.263278e-05 -7.666552e-06 -7.524278e-06 -2.583936e-06 -4.050218e-12 1.592185e-06
<VARIANCE> 75
 8.703106e-02 7.490857e-02 6.273318e-02 5.043118e-02 3.875412e-02 2.812354e-02 1.891963e-02 1.152333e-02 1.000000e-02 1.000000e-02 1.000000e-02 1.215763e-02 1.456698e-02 1.259680e-02 1.000000e-02 1.000000e-02 1.000000e-02 1.000000e-02 1.000000e-02 1.000000e-02 1.000000e-02 1.000000e-02 1.000000e-02 1.000000e-02 1.000000e-02 1.000000e-02 1.000000e-02 1.000000e-02 1.000000e-02 1.000000e-02 1.000000e-02 1.000000e-02 1.000000e-02 1.000000e-02 1.000000e-02 1.000000e-02 1.000000e-02 1.000000e-02 1.000000e-02 1.000000e-02 1.000000e-02 1.000000e-02 1.000000e-02 1.000000e-02 1.000000e-02 1.000000e-02 1.000000e-02 1.000000e-02 1.000000e-02 1.000000e-02 1.000000e-02 1.000000e-02 1.000000e-02 1.000000e-02 1.000000e-02 1.000000e-02 1.000000e-02 1.000000e-02 1.000000e-02 1.000000e-02 1.000000e-02 1.000000e-02 1.000000e-02 1.000000e-02 1.000000e-02 1.000000e-02 1.000000e-02 1.000000e-02 1.000000e-02 1.000000e-02 1.000000e-02 1.000000e-02 1.000000e-02 1.000000e-02 1.000000e-02
<GCONST> -1.959447e+02
<MIXTURE> 2 5.417623e-01
<MEAN> 75
 1.956661e+00 2.081185e+00 2.198249e+00 2.298027e+00 2.375496e+00 2.429682e+00 2.460658e+00 2.468740e+00 2.454837e+00 2.421160e+00 2.373702e+00 2.325603e+00 2.297449e+00 2.299980e+00 2.314444e+00 2.303782e+00 2.238261e+00 2.103426e+00 1.899498e+00 1.644300e+00 1.382678e+00 1.180084e+00 1.070087e+00 1.000000e+00 1.009577e+00 1.383765e-03 -8.024724e-04 -1.514163e-03 -1.320813e-03 -1.012872e-03 -7.848536e-04 -6.465213e-04 -5.485652e-04 -5.082940e-04 -5.052006e-04 -5.754661e-04 -6.282154e-04 -7.677357e-04 -9.070619e-04 -1.015460e-03 -1.101692e-03 -1.165396e-03 -1.246076e-03 -1.295036e-03 -1.224070e-03 -1.011239e-03 -6.391057e-04 -3.108750e-04 -3.261833e-12 -4.646622e-05 7.754640e-04 3.981994e-04 6.741270e-05 -1.636762e-05 -2.090940e-05 -3.938326e-06 3.459921e-06 6.981038e-06 7.002419e-06 7.371726e-06 1.126747e-05 3.797963e-06 1.936738e-06 -1.609956e-06 -5.968539e-06 -2.775386e-06 -5.425830e-06 -5.982807e-06 -3.776455e-07 1.114738e-06 1.987465e-06 4.192106e-07 9.275433e-07 -3.261833e-12 -1.325713e-07
<VARIANCE> 75
 8.703106e-02 7.490857e-02 6.273318e-02 5.043118e-02 3.875412e-02 2.812354e-02 1.891963e-02 1.152333e-02 1.000000e-02 1.000000e-02 1.000000e-02 1.000000e-02 1.000000e-02 1.000000e-02 1.000000e-02 1.000000e-02 1.000000e-02 1.000000e-02 1.000000e-02 1.000000e-02 1.000000e-02 1.000000e-02 1.000000e-02 1.000000e-02 1.000000e-02 1.000000e-02 1.000000e-02 1.000000e-02 1.000000e-02 1.000000e-02 1.000000e-02 1.000000e-02 1.000000e-02 1.000000e-02 1.000000e-02 1.000000e-02 1.000000e-02 1.000000e-02 1.000000e-02 1.000000e-02 1.000000e-02 1.000000e-02 1.000000e-02 1.000000e-02 1.000000e-02 1.000000e-02 1.000000e-02 1.000000e-02 1.000000e-02 1.000000e-02 1.000000e-02 1.000000e-02 1.000000e-02 1.000000e-02 1.000000e-02 1.000000e-02 1.000000e-02 1.000000e-02 1.000000e-02 1.000000e-02 1.000000e-02 1.000000e-02 1.000000e-02 1.000000e-02 1.000000e-02 1.000000e-02 1.000000e-02 1.000000e-02 1.000000e-02 1.000000e-02 1.000000e-02 1.000000e-02 1.000000e-02 1.000000e-02 1.000000e-02
<GCONST> -1.967472e+02
<STATE> 3
<NUMMIXES> 2
<MIXTURE> 1 3.383141e-01
<MEAN> 75
 1.975438e+00 2.085538e+00 2.191789e+00 2.287542e+00 2.362406e+00 2.413458e+00 2.440428e+00 2.443864e+00 2.425154e+00 2.387959e+00 2.340559e+00 2.297878e+00 2.276017e+00 2.275416e+00 2.273346e+00 2.239097e+00 2.150505e+00 1.998426e+00 1.786896e+00 1.538336e+00 1.300882e+00 1.132323e+00 1.048182e+00 1.000000e+00 1.003796e+00 4.673186e-03 1.653365e-03 -7.662764e-04 -1.261641e-03 -1.064911e-03 -8.501071e-04 -7.056602e-04 -6.225843e-04 -5.787009e-04 -5.835228e-04 -6.262732e-04 -7.137648e-04 -8.263566e-04 -9.494210e-04 -1.041481e-03 -1.120055e-03 -1.194167e-03 -1.246173e-03 -1.263101e-03 -1.165267e-03 -9.008090e-04 -5.274230e-04 -2.347014e-04 -2.092880e-12 -4.340320e-05 9.010544e-04 9.130384e-04 4.442757e-04 6.681612e-05 -3.995907e-06 4.479115e-08 3.827891e-06 3.430215e-06 1.056145e-05 1.254443e-05 8.002966e-06 9.022837e-06 3.819010e-06 8.924926e-08 9.057229e-07 2.479636e-07 2.151355e-06 1.326924e-06 6.715857e-06 3.145060e-06 3.623026e-06 2.613706e-06 -1.910178e-07 -2.092880e-12 1.544127e-06
<VARIANCE> 75
 8.703106e-02 7.490857e-02 6.273318e-02 5.043118e-02 3.875412e-02 2.812354e-02 1.891963e-02 1.152333e-02 1.000000e-02 1.000000e-02 1.000000e-02 1.000000e-02 1.000000e-02 1.000000e-02 1.000000e-02 1.000000e-02 1.000000e-02 1.000000e-02 1.000000e-02 1.000000e-02 1.000000e-02 1.000000e-02 1.000000e-02 1.000000e-02 1.000000e-02 1.000000e-02 1.000000e-02 1.000000e-02 1.000000e-02 1.000000e-02 1.000000e-02 1.000000e-02 1.000000e-02 1.000000e-02 1.000000e-02 1.000000e-02 1.000000e-02 1.000000e-02 1.000000e-02 1.000000e-02 1.000000e-02 1.000000e-02 1.000000e-02 1.000000e-02 1.000000e-02 1.000000e-02 1.000000e-02 1.000000e-02 1.000000e-02 1.000000e-02 1.000000e-02 1.000000e-02 1.000000e-02 1.000000e-02 1.000000e-02 1.000000e-02 1.000000e-02 1.000000e-02 1.000000e-02 1.000000e-02 1.000000e-02 1.000000e-02 1.000000e-02 1.000000e-02 1.000000e-02 1.000000e-02 1.000000e-02 1.000000e-02 1.000000e-02 1.000000e-02 1.000000e-02 1.000000e-02 1.000000e-02 1.000000e-02 1.000000e-02
<GCONST> -1.967472e+02
<MIXTURE> 2 6.616901e-01
<MEAN> 75
 1.951698e+00 2.076060e+00 2.183115e+00 2.268809e+00 2.331381e+00 2.370672e+00 2.386773e+00 2.380320e+00 2.353433e+00 2.311231e+00 2.264183e+00 2.227575e+00 2.211639e+00 2.209325e+00 2.197526e+00 2.151809e+00 2.056628e+00 1.906473e+00 1.707029e+00 1.479779e+00 1.267084e+00 1.116713e+00 1.040959e+00 1.000000e+00 1.000394e+00 -1.154053e-03 -1.324578e-03 -1.307670e-03 -1.121879e-03 -9.979100e-04 -8.830153e-04 -8.126409e-04 -7.741582e-04 -7.504855e-04 -7.756842e-04 -8.057450e-04 -8.364073e-04 -9.327432e-04 -1.005949e-03 -1.088660e-03 -1.135116e-03 -1.228447e-03 -1.296595e-03 -1.280679e-03 -1.128383e-03 -8.554613e-04 -4.253263e-04 -2.577410e-04 6.728584e-13 -4.067691e-06 8.467869e-05 3.711441e-05 7.751853e-06 -1.314163e-05 -4.870767e-06 -8.296259e-06 -8.498354e-06 -7.363058e-06 -7.180631e-06 -1.089247e-05 1.559055e-05 -1.579801e-05 -8.305919e-06 -4.989378e-06 -1.193858e-05 -9.569558e-06 -1.961225e-05 2.875355e-06 6.912539e-06 -1.274466e-05 -1.347713e-05 -3.064822e-06 -3.037316e-07 6.728584e-13 2.164777e-07
<VARIANCE> 75
 8.703106e-02 7.490857e-02 6.273318e-02 5.043118e-02 3.875412e-02 2.812354e-02 1.891963e-02 1.152333e-02 1.000000e-02 1.000000e-02 1.000000e-02 1.000000e-02 1.000000e-02 1.000000e-02 1.000000e-02 1.000000e-02 1.000000e-02 1.000000e-02 1.000000e-02 1.000000e-02 1.000000e-02 1.000000e-02 1.000000e-02 1.000000e-02 1.000000e-02 1.000000e-02 1.000000e-02 1.000000e-02 1.000000e-02 1.000000e-02 1.000000e-02 1.000000e-02 1.000000e-02 1.000000e-02 1.000000e-02 1.000000e-02 1.000000e-02 1.000000e-02 1.000000e-02 1.000000e-02 1.000000e-02 1.000000e-02 1.000000e-02 1.000000e-02 1.000000e-02 1.000000e-02 1.000000e-02 1.000000e-02 1.000000e-02 1.000000e-02 1.000000e-02 1.000000e-02 1.000000e-02 1.000000e-02 1.000000e-02 1.000000e-02 1.000000e-02 1.000000e-02 1.000000e-02 1.000000e-02 1.000000e-02 1.000000e-02 1.000000e-02 1.000000e-02 1.000000e-02 1.000000e-02 1.000000e-02 1.000000e-02 1.000000e-02 1.000000e-02 1.000000e-02 1.000000e-02 1.000000e-02 1.000000e-02 1.000000e-02
<GCONST> -1.967472e+02
<STATE> 4
<NUMMIXES> 2
<MIXTURE> 1 4.400341e-01
<MEAN> 75
 1.966793e+00 2.069911e+00 2.161934e+00 2.238740e+00 2.294527e+00 2.327310e+00 2.337012e+00 2.324824e+00 2.293494e+00 2.249001e+00 2.202099e+00 2.166272e+00 2.148607e+00 2.140291e+00 2.120541e+00 2.068901e+00 1.972662e+00 1.828191e+00 1.642046e+00 1.434932e+00 1.244593e+00 1.110306e+00 1.040606e+00 1.000000e+00 1.002229e+00 2.221416e-03 6.962870e-04 -7.086630e-04 -1.067369e-03 -9.512564e-04 -7.931830e-04 -7.086957e-04 -6.562322e-04 -6.454535e-04 -6.634368e-04 -7.171547e-04 -7.948679e-04 -8.764644e-04 -9.694286e-04 -1.043454e-03 -1.121793e-03 -1.184609e-03 -1.220960e-03 -1.204154e-03 -1.082026e-03 -8.018175e-04 -4.747255e-04 -1.875218e-04 1.028759e-13 -3.530831e-05 4.192798e-04 5.442884e-04 3.331337e-04 8.261820e-05 1.108424e-05 1.128083e-06 7.855939e-06 7.906760e-06 8.002625e-06 6.476866e-06 4.724327e-06 6.571298e-06 2.873394e-06 -7.523759e-07 1.495213e-07 -3.184027e-07 2.610301e-06 1.105035e-06 5.191100e-07 1.856865e-06 2.829023e-06 -8.189277e-07 -7.882855e-07 1.028759e-13 -4.789969e-07
<VARIANCE> 75
 8.703106e-02 7.490857e-02 6.273318e-02 5.043118e-02 3.875412e-02 2.812354e-02 1.891963e-02 1.152333e-02 1.000000e-02 1.000000e-02 1.000000e-02 1.000000e-02 1.000000e-02 1.000000e-02 1.000000e-02 1.000000e-02 1.000000e-02 1.000000e-02 1.000000e-02 1.000000e-02 1.000000e-02 1.000000e-02 1.000000e-02 1.000000e-02 1.000000e-02 1.000000e-02 1.000000e-02 1.000000e-02 1.000000e-02 1.000000e-02 1.000000e-02 1.000000e-02 1.000000e-02 1.000000e-02 1.000000e-02 1.000000e-02 1.000000e-02 1.000000e-02 1.000000e-02 1.000000e-02 1.000000e-02 1.000000e-02 1.000000e-02 1.000000e-02 1.000000e-02 1.000000e-02 1.000000e-02 1.000000e-02 1.000000e-02 1.000000e-02 1.000000e-02 1.000000e-02 1.000000e-02 1.000000e-02 1.000000e-02 1.000000e-02 1.000000e-02 1.000000e-02 1.000000e-02 1.000000e-02 1.000000e-02 1.000000e-02 1.000000e-02 1.000000e-02 1.000000e-02 1.000000e-02 1.000000e-02 1.000000e-02 1.000000e-02 1.000000e-02 1.000000e-02 1.000000e-02 1.000000e-02 1.000000e-02 1.000000e-02
<GCONST> -1.967472e+02
<MIXTURE> 2 5.599483e-01
<MEAN> 75
 1.892843e+00 2.000034e+00 2.099806e+00 2.182868e+00 2.242685e+00 2.277602e+00 2.288256e+00 2.276222e+00 2.244654e+00 2.199740e+00 2.152209e+00 2.114814e+00 2.093749e+00 2.080323e+00 2.055087e+00 1.999182e+00 1.901115e+00 1.758372e+00 1.578888e+00 1.384665e+00 1.212146e+00 1.094381e+00 1.034595e+00 1.000000e+00 1.000881e+00 1.869573e-03 -1.696421e-04 -1.092585e-03 -1.100546e-03 -8.647691e-04 -6.718097e-04 -5.455223e-04 -4.826077e-04 -4.764925e-04 -5.092768e-04 -5.896894e-04 -6.929753e-04 -8.014711e-04 -8.964863e-04 -9.819850e-04 -1.045187e-03 -1.103872e-03 -1.140207e-03 -1.111780e-03 -9.745036e-04 -7.002153e-04 -4.052490e-04 -1.893936e-04 -4.208034e-12 -3.444166e-05 6.680297e-04 4.425262e-04 1.703811e-04 3.433749e-05 1.052781e-05 1.090224e-05 1.457929e-05 1.797001e-05 1.811600e-05 1.715031e-05 1.636662e-05 1.326847e-05 1.165895e-05 1.072188e-05 1.032804e-05 1.174671e-05 1.238297e-05 1.226507e-05 1.265415e-05 1.063674e-05 7.310862e-06 4.321575e-06 2.136542e-06 -4.208034e-12 7.561638e-07
<VARIANCE> 75
 8.703106e-02 7.490857e-02 6.273318e-02 5.043118e-02 3.875412e-02 2.812354e-02 1.891963e-02 1.152333e-02 1.000000e-02 1.000000e-02 1.000000e-02 1.000000e-02 1.000000e-02 1.000000e-02 1.000000e-02 1.000000e-02 1.000000e-02 1.000000e-02 1.000000e-02 1.000000e-02 1.000000e-02 1.000000e-02 1.000000e-02 1.000000e-02 1.000000e-02 1.000000e-02 1.000000e-02 1.000000e-02 1.000000e-02 1.000000e-02 1.000000e-02 1.000000e-02 1.000000e-02 1.000000e-02 1.000000e-02 1.000000e-02 1.000000e-02 1.000000e-02 1.000000e-02 1.000000e-02 1.000000e-02 1.000000e-02 1.000000e-02 1.000000e-02 1.000000e-02 1.000000e-02 1.000000e-02 1.000000e-02 1.000000e-02 1.000000e-02 1.000000e-02 1.000000e-02 1.000000e-02 1.000000e-02 1.000000e-02 1.000000e-02 1.000000e-02 1.000000e-02 1.000000e-02 1.000000e-02 1.000000e-02 1.000000e-02 1.000000e-02 1.000000e-02 1.000000e-02 1.000000e-02 1.000000e-02 1.000000e-02 1.000000e-02 1.000000e-02 1.000000e-02 1.000000e-02 1.000000e-02 1.000000e-02 1.000000e-02
<GCONST> -1.967472e+02
<TRANSP> 5
 0.000000e+00 1.000000e+00 0.000000e+00 0.000000e+00 0.000000e+00
 0.000000e+00 9.622189e-01 3.778109e-02 0.000000e+00 0.000000e+00
 0.000000e+00 0.000000e+00 9.606341e-01 3.936584e-02 0.000000e+00
 0.000000e+00 0.000000e+00 0.000000e+00 9.848686e-01 1.513128e-02
 0.000000e+00 0.000000e+00 0.000000e+00 0.000000e+00 0.000000e+00
<ENDHMM>
