~o
<STREAMINFO> 1 75
<VECSIZE> 75<NULLD><USER_D_A><DIAGC>
~h "e"
<BEGINHMM>
<NUMSTATES> 5
<STATE> 2
<NUMMIXES> 2
<MIXTURE> 1 4.672349e-01
<MEAN> 75
 4.192720e+00 3.870219e+00 3.471541e+00 3.077777e+00 2.772781e+00 2.604365e+00 2.565634e+00 2.573273e+00 2.565753e+00 2.533923e+00 2.484160e+00 2.427931e+00 2.383194e+00 2.364726e+00 2.360909e+00 2.336192e+00 2.258577e+00 2.112533e+00 1.897963e+00 1.633667e+00 1.367430e+00 1.166246e+00 1.060626e+00 1.000000e+00 1.006425e+00 7.107627e-02 8.298614e-02 8.198519e-02 6.540319e-02 4.238608e-02 1.974986e-02 5.110165e-03 1.362908e-03 1.331776e-03 1.511227e-03 1.440717e-03 1.091675e-03 4.717501e-04 -1.325424e-04 -5.555236e-04 -6.485978e-04 -6.644568e-04 -6.346782e-04 -6.547265e-04 -6.709139e-04 -5.787482e-04 -3.913742e-04 -2.023387e-04 -2.158569e-12 -5.186027e-05 -8.393421e-03 -5.605270e-03 -8.217238e-04 2.515129e-03 3.580617e-03 3.265042e-03 1.498820e-03 2.299457e-04 -2.626260e-05 -3.670406e-05 -3.169932e-05 -2.367396e-05 -5.559602e-06 -2.845932e-06 -6.296853e-06 -9.470995e-06 -8.744788e-06 -1.009654e-05 -9.052932e-06 -2.224824e-06 -3.890438e-06 -3.454463e-06 1.092212e-06 -2.158569e-12 1.661540e-06
<VARIANCE> 75
 8.397213e-01 7.158812e-01 6.020291e-01 4.015186e-01 1.692618e-01 4.278532e-02 1.922121e-02 1.392165e-02 1.109537e-02 1.021641e-02 1.218414e-02 1.701264e-02 2.167631e-02 2.108478e-02 1.504912e-02 1.000000e-02 1.000000e-02 1.000000e-02 1.000000e-02 1.000000e-02 1.000000e-02 1.000000e-02 1.000000e-02 1.000000e-02 1.000000e-02 1.123655e-02 1.124855e-02 1.000000e-02 1.000000e-02 1.000000e-02 1.000000e-02 1.000000e-02 1.000000e-02 1.000000e-02 1.000000e-02 1.000000e-02 1.000000e-02 1.000000e-02 1.000000e-02 1.000000e-02 1.000000e-02 1.000000e-02 1.000000e-02 1.000000e-02 1.000000e-02 1.000000e-02 1.000000e-02 1.000000e-02 1.000000e-02 1.000000e-02 1.000000e-02 1.000000e-02 1.000000e-02 1.000000e-02 1.000000e-02 1.000000e-02 1.000000e-02 1.000000e-02 1.000000e-02 1.000000e-02 1.000000e-02 1.000000e-02 1.000000e-02 1.000000e-02 1.000000e-02 1.000000e-02 1.000000e-02 1.000000e-02 1.000000e-02 1.000000e-02 1.000000e-02 1.000000e-02 1.000000e-02 1.000000e-02 1.000000e-02
<GCONST> -1.827715e+02
<MIXTURE> 2 5.327647e-01
<MEAN> 75
 4.189402e+00 3.725468e+00 3.193858e+00 2.727120e+00 2.446534e+00 2.363674e+00 2.368440e+00 2.366057e+00 2.336987e+00 2.286344e+00 2.225186e+00 2.168541e+00 2.128491e+00 2.102090e+00 2.071335e+00 2.014043e+00 1.915750e+00 1.772438e+00 1.591572e+00 1.394366e+00 1.218080e+00 1.097447e+00 1.036087e+00 1.000000e+00 1.000722e+00 8.219101e-02 9.463313e-02 8.884822e-02 6.164099e-02 2.949112e-02 7.966546e-03 1.938687e-03 1.608812e-03 1.820884e-03 1.759122e-03 1.403577e-03 8.515378e-04 2.701982e-04 -1.292252e-04 -3.477917e-04 -4.266171e-04 -5.101910e-04 -5.648050e-04 -6.326864e-04 -5.892578e-04 -4.890526e-04 -2.782692e-04 -1.365580e-04 -4.378243e-12 -1.564833e-05 -8.958199e-03 -5.598488e-03 7.286135e-04 4.765755e-03 4.853804e-03 2.375311e-03 4.462528e-04 -4.876029e-06 -4.091571e-05 -3.136286e-05 -2.572544e-05 -1.711809e-05 -9.725941e-06 -1.166629e-06 -9.473214e-06 -1.275197e-05 -8.395189e-06 -5.092826e-06 -1.206985e-05 -1.163750e-05 1.875203e-08 -8.490497e-07 -1.923769e-06 -4.378243e-12 7.178957e-07
<VARIANCE> 75
 2.626245e-01 3.372366e-01 3.467874e-01 1.982514e-01 4.509100e-02 2.845205e-02 1.922121e-02 1.176505e-02 1.000000e-02 1.000000e-02 1.000000e-02 1.000000e-02 1.000000e-02 1.000000e-02 1.000000e-02 1.000000e-02 1.000000e-02 1.000000e-02 1.000000e-02 1.000000e-02 1.000000e-02 1.000000e-02 1.000000e-02 1.000000e-02 1.000000e-02 1.000000e-02 1.000000e-02 1.000000e-02 1.000000e-02 1.000000e-02 1.000000e-02 1.000000e-02 1.000000e-02 1.000000e-02 1.000000e-02 1.000000e-02 1.000000e-02 1.000000e-02 1.000000e-02 1.000000e-02 1.000000e-02 1.000000e-02 1.000000e-02 1.000000e-02 1.000000e-02 1.000000e-02 1.000000e-02 1.000000e-02 1.000000e-02 1.000000e-02 1.000000e-02 1.000000e-02 1.000000e-02 1.000000e-02 1.000000e-02 1.000000e-02 1.000000e-02 1.000000e-02 1.000000e-02 1.000000e-02 1.000000e-02 1.000000e-02 1.000000e-02 1.000000e-02 1.000000e-02 1.000000e-02 1.000000e-02 1.000000e-02 1.000000e-02 1.000000e-02 1.000000e-02 1.000000e-02 1.000000e-02 1.000000e-02 1.000000e-02
<GCONST> -1.908598e+02
<STATE> 3
<NUMMIXES> 2
<MIXTURE> 1 7.117949e-01
<MEAN> 75
 5.216983e+00 5.344969e+00 5.359210e+00 5.250914e+00 5.014785e+00 4.649327e+00 4.169556e+00 3.643222e+00 3.179584e+00 2.842986e+00 2.629494e+00 2.496383e+00 2.407019e+00 2.357584e+00 2.344507e+00 2.331134e+00 2.273600e+00 2.146040e+00 1.942948e+00 1.679758e+00 1.402214e+00 1.183522e+00 1.066098e+00 1.000000e+00 1.006707e+00 -9.810707e-03 -1.471630e-03 7.030885e-03 1.565210e-02 2.423812e-02 3.183964e-02 3.458538e-02 2.849070e-02 1.811438e-02 9.341234e-03 4.051258e-03 1.646487e-03 5.297724e-04 -1.347108e-04 -5.660522e-04 -7.792595e-04 -8.232035e-04 -8.272734e-04 -8.438941e-04 -8.337552e-04 -7.378770e-04 -5.046978e-04 -2.542138e-04 -8.227297e-14 -4.261214e-05 -1.051366e-03 -1.576069e-03 -2.108565e-03 -2.630511e-03 -3.006595e-03 -2.826209e-03 -1.594731e-03 -3.449037e-04 -1.341299e-05 -1.872922e-05 -5.535788e-05 -6.334858e-05 -5.647619e-05 -3.032942e-05 -1.931788e-05 -1.717259e-05 -1.681420e-05 -1.736461e-05 -1.878101e-05 -1.668883e-05 -1.499660e-05 -9.122649e-06 -2.155987e-06 -8.227297e-14 1.866749e-06
<VARIANCE> 75
 1.172464e-01 7.529422e-02 6.314393e-02 9.257504e-02 1.953694e-01 3.447000e-01 4.968017e-01 5.186461e-01 3.549924e-01 1.550552e-01 4.336707e-02 1.022488e-02 1.000000e-02 1.000000e-02 1.000000e-02 1.000000e-02 1.000000e-02 1.000000e-02 1.000000e-02 1.000000e-02 1.000000e-02 1.000000e-02 1.000000e-02 1.000000e-02 1.000000e-02 1.000000e-02 1.000000e-02 1.000000e-02 1.000000e-02 1.000000e-02 1.000000e-02 1.000000e-02 1.000000e-02 1.000000e-02 1.000000e-02 1.000000e-02 1.000000e-02 1.000000e-02 1.000000e-02 1.000000e-02 1.000000e-02 1.000000e-02 1.000000e-02 1.000000e-02 1.000000e-02 1.000000e-02 1.000000e-02 1.000000e-02 1.000000e-02 1.000000e-02 1.000000e-02 1.000000e-02 1.000000e-02 1.000000e-02 1.000000e-02 1.000000e-02 1.000000e-02 1.000000e-02 1.000000e-02 1.000000e-02 1.000000e-02 1.000000e-02 1.000000e-02 1.000000e-02 1.000000e-02 1.000000e-02 1.000000e-02 1.000000e-02 1.000000e-02 1.000000e-02 1.000000e-02 1.000000e-02 1.000000e-02 1.000000e-02 1.000000e-02
<GCONST> -1.768315e+02
<MIXTURE> 2 2.881950e-01
<MEAN> 75
 4.682206e+00 4.764316e+00 4.722044e+00 4.556891e+00 4.284304e+00 3.948737e+00 3.631779e+00 3.396487e+00 3.193301e+00 2.962246e+00 2.706956e+00 2.466837e+00 2.301221e+00 2.224803e+00 2.187450e+00 2.140348e+00 2.053323e+00 1.913380e+00 1.723144e+00 1.501417e+00 1.288696e+00 1.133008e+00 1.050434e+00 1.000000e+00 1.004435e+00 -1.760525e-05 1.162289e-02 2.316700e-02 3.409583e-02 4.172872e-02 3.959071e-02 2.850791e-02 1.813631e-02 1.421520e-02 1.192240e-02 9.051824e-03 5.396924e-03 2.052674e-03 3.015651e-04 -2.692524e-04 -4.519198e-04 -4.968776e-04 -5.831929e-04 -6.243243e-04 -6.621401e-04 -5.537794e-04 -3.785577e-04 -1.914888e-04 1.790424e-14 -4.508655e-05 -3.003146e-03 -3.774177e-03 -4.399099e-03 -4.577257e-03 -3.170427e-03 -4.948265e-04 8.156524e-04 4.291454e-04 5.158990e-06 -6.467046e-05 -5.311803e-05 -3.625313e-05 -2.173294e-05 -3.170354e-05 -1.907355e-05 -1.069756e-05 -2.490228e-05 -9.506012e-06 -1.360633e-05 -2.253961e-06 -3.696204e-06 1.120877e-06 2.033610e-07 1.790424e-14 -8.445219e-07
<VARIANCE> 75
 8.023283e-01 5.736420e-01 5.919954e-01 8.038092e-01 1.134728e+00 1.457405e+00 1.588081e+00 1.414852e+00 1.046441e+00 6.497316e-01 3.118412e-01 9.788918e-02 2.069493e-02 1.005480e-02 1.354330e-02 1.959789e-02 2.484823e-02 2.611520e-02 2.189059e-02 1.367977e-02 1.000000e-02 1.000000e-02 1.000000e-02 1.000000e-02 1.000000e-02 1.000000e-02 1.000000e-02 1.000000e-02 1.000000e-02 1.000000e-02 1.000000e-02 1.000000e-02 1.000000e-02 1.000000e-02 1.000000e-02 1.000000e-02 1.000000e-02 1.000000e-02 1.000000e-02 1.000000e-02 1.000000e-02 1.000000e-02 1.000000e-02 1.000000e-02 1.000000e-02 1.000000e-02 1.000000e-02 1.000000e-02 1.000000e-02 1.000000e-02 1.000000e-02 1.000000e-02 1.000000e-02 1.000000e-02 1.000000e-02 1.000000e-02 1.000000e-02 1.000000e-02 1.000000e-02 1.000000e-02 1.000000e-02 1.000000e-02 1.000000e-02 1.000000e-02 1.000000e-02 1.000000e-02 1.000000e-02 1.000000e-02 1.000000e-02 1.000000e-02 1.000000e-02 1.000000e-02 1.000000e-02 1.000000e-02 1.000000e-02
<GCONST> -1.516901e+02
<STATE> 4
<NUMMIXES> 2
<MIXTURE> 1 4.026784e-01
<MEAN> 75
 5.108940e+00 5.314740e+00 5.408631e+00 5.382054e+00 5.229710e+00 4.947689e+00 4.536706e+00 4.016833e+00 3.438572e+00 2.903681e+00 2.527859e+00 2.321825e+00 2.216701e+00 2.155631e+00 2.108262e+00 2.045748e+00 1.946528e+00 1.801796e+00 1.616865e+00 1.413043e+00 1.228682e+00 1.101371e+00 1.036907e+00 1.000000e+00 1.000631e+00 -1.422662e-02 -8.365412e-03 -2.557392e-03 3.195730e-03 9.033168e-03 1.481589e-02 1.983969e-02 2.267521e-02 2.155066e-02 1.450319e-02 6.365995e-03 1.820066e-03 2.798487e-04 -2.630383e-04 -5.186676e-04 -6.551838e-04 -7.358344e-04 -7.899402e-04 -8.138146e-04 -7.444061e-04 -5.834725e-04 -3.493492e-04 -1.513283e-04 1.528426e-12 -9.613380e-06 6.082844e-05 -2.315680e-04 -5.316637e-04 -8.503752e-04 -1.149279e-03 -1.400517e-03 -1.455855e-03 -1.297172e-03 -7.798391e-04 -2.121123e-04 -4.878569e-05 -4.068284e-05 -3.032717e-05 -1.721188e-05 -1.027906e-05 -2.189126e-06 9.737078e-07 -4.431807e-06 2.045748e-06 1.417981e-06 5.074959e-06 3.750764e-06 2.057384e-06 1.528426e-12 6.609368e-07
<VARIANCE> 75
 1.088552e-01 7.529422e-02 6.314393e-02 5.365163e-02 1.128422e-01 2.077175e-01 3.168434e-01 3.719541e-01 3.178507e-01 1.787275e-01 5.265351e-02 1.029776e-02 1.000000e-02 1.000000e-02 1.000000e-02 1.000000e-02 1.066548e-02 1.031158e-02 1.000000e-02 1.000000e-02 1.000000e-02 1.000000e-02 1.000000e-02 1.000000e-02 1.000000e-02 1.000000e-02 1.000000e-02 1.000000e-02 1.000000e-02 1.000000e-02 1.000000e-02 1.000000e-02 1.000000e-02 1.000000e-02 1.000000e-02 1.000000e-02 1.000000e-02 1.000000e-02 1.000000e-02 1.000000e-02 1.000000e-02 1.000000e-02 1.000000e-02 1.000000e-02 1.000000e-02 1.000000e-02 1.000000e-02 1.000000e-02 1.000000e-02 1.000000e-02 1.000000e-02 1.000000e-02 1.000000e-02 1.000000e-02 1.000000e-02 1.000000e-02 1.000000e-02 1.000000e-02 1.000000e-02 1.000000e-02 1.000000e-02 1.000000e-02 1.000000e-02 1.000000e-02 1.000000e-02 1.000000e-02 1.000000e-02 1.000000e-02 1.000000e-02 1.000000e-02 1.000000e-02 1.000000e-02 1.000000e-02 1.000000e-02 1.000000e-02
<GCONST> -1.789611e+02
<MIXTURE> 2 5.973194e-01
<MEAN> 75
 5.179336e+00 5.072320e+00 4.851519e+00 4.511082e+00 4.055395e+00 3.525525e+00 3.034840e+00 2.675133e+00 2.458422e+00 2.343497e+00 2.263031e+00 2.191181e+00 2.135177e+00 2.095513e+00 2.055865e+00 1.993927e+00 1.894299e+00 1.752512e+00 1.575220e+00 1.383904e+00 1.213575e+00 1.096370e+00 1.035583e+00 1.000000e+00 1.000338e+00 7.387991e-03 1.653018e-02 2.611254e-02 3.567420e-02 4.383273e-02 4.484625e-02 3.398206e-02 1.931485e-02 7.839560e-03 2.626449e-03 1.335726e-03 7.773885e-04 2.650378e-04 -1.782369e-04 -4.039982e-04 -5.219320e-04 -5.865398e-04 -6.491338e-04 -6.775484e-04 -6.459574e-04 -4.918836e-04 -3.165524e-04 -1.398704e-04 7.806342e-13 -1.000680e-05 -2.051104e-03 -2.625471e-03 -3.174607e-03 -3.612185e-03 -3.409234e-03 -1.601676e-03 2.805593e-04 7.492434e-04 4.689171e-04 7.349653e-05 -4.441694e-05 -4.079566e-05 -2.297892e-05 -1.753684e-05 -8.907992e-06 -2.750611e-06 -8.135567e-06 -7.142683e-06 -4.795982e-06 2.935649e-06 -6.207374e-07 1.554607e-07 8.731305e-07 7.806342e-13 1.558451e-07
<VARIANCE> 75
 2.050591e-01 2.332200e-01 2.877902e-01 3.658279e-01 4.496378e-01 4.722398e-01 3.282914e-01 1.247403e-01 2.258144e-02 1.000000e-02 1.000000e-02 1.000000e-02 1.000000e-02 1.000000e-02 1.000000e-02 1.000000e-02 1.000000e-02 1.000000e-02 1.000000e-02 1.000000e-02 1.000000e-02 1.000000e-02 1.000000e-02 1.000000e-02 1.000000e-02 1.000000e-02 1.000000e-02 1.000000e-02 1.000000e-02 1.000000e-02 1.000000e-02 1.000000e-02 1.000000e-02 1.000000e-02 1.000000e-02 1.000000e-02 1.000000e-02 1.000000e-02 1.000000e-02 1.000000e-02 1.000000e-02 1.000000e-02 1.000000e-02 1.000000e-02 1.000000e-02 1.000000e-02 1.000000e-02 1.000000e-02 1.000000e-02 1.000000e-02 1.000000e-02 1.000000e-02 1.000000e-02 1.000000e-02 1.000000e-02 1.000000e-02 1.000000e-02 1.000000e-02 1.000000e-02 1.000000e-02 1.000000e-02 1.000000e-02 1.000000e-02 1.000000e-02 1.000000e-02 1.000000e-02 1.000000e-02 1.000000e-02 1.000000e-02 1.000000e-02 1.000000e-02 1.000000e-02 1.000000e-02 1.000000e-02 1.000000e-02
<GCONST> -1.799274e+02
<TRANSP> 5
 0.000000e+00 1.000000e+00 0.000000e+00 0.000000e+00 0.000000e+00
 0.000000e+00 9.485676e-01 5.143239e-02 0.000000e+00 0.000000e+00
 0.000000e+00 0.000000e+00 9.113851e-01 8.861496e-02 0.000000e+00
 0.000000e+00 0.000000e+00 0.000000e+00 9.455749e-01 5.442507e-02
 0.000000e+00 0.000000e+00 0.000000e+00 0.000000e+00 0.000000e+00
<ENDHMM>
~h "ne"
<BEGINHMM>
<NUMSTATES> 5
<STATE> 2
<NUMMIXES> 2
<MIXTURE> 1 4.595641e-01
<MEAN> 75
 2.043676e+00 2.182228e+00 2.304697e+00 2.404776e+00 2.479949e+00 2.530014e+00 2.555368e+00 2.557171e+00 2.537750e+00 2.500639e+00 2.452445e+00 2.406496e+00 2.382550e+00 2.390473e+00 2.409544e+00 2.401733e+00 2.337336e+00 2.202033e+00 1.994708e+00 1.729890e+00 1.447977e+00 1.217149e+00 1.084464e+00 1.000000e+00 1.010296e+00 1.695391e-04 -1.139325e-03 -1.483108e-03 -1.286890e-03 -1.035502e-03 -8.634714e-04 -7.490254e-04 -6.546208e-04 -6.477821e-04 -6.562566e-04 -6.922664e-04 -7.673928e-04 -8.637004e-04 -9.683947e-04 -1.066515e-03 -1.145321e-03 -1.226837e-03 -1.305983e-03 -1.352962e-03 -1.331108e-03 -1.154278e-03 -7.604443e-04 -3.899894e-04 -9.396111e-12 -6.971930e-05 5.865478e-04 3.086674e-04 5.377239e-05 -1.439486e-05 -1.319049e-05 -1.684958e-06 -6.722921e-07 2.338341e-06 7.086065e-06 7.838035e-06 3.175912e-06 -2.076236e-06 -7.791481e-06 -7.896098e-06 -7.745086e-06 -1.262490e-05 -1.107475e-05 -1.164253e-05 -1.088474e-05 -1.248373e-05 -6.991244e-06 -7.446469e-06 -2.654339e-06 -9.396111e-12 1.351558e-06
<VARIANCE> 75
 8.735170e-02 7.529422e-02 6.314393e-02 5.083671e-02 3.912752e-02 2.845205e-02 1.922121e-02 1.176505e-02 1.000000e-02 1.000000e-02 1.000000e-02 1.136940e-02 1.361890e-02 1.179714e-02 1.000000e-02 1.000000e-02 1.000000e-02 1.000000e-02 1.000000e-02 1.000000e-02 1.000000e-02 1.000000e-02 1.000000e-02 1.000000e-02 1.000000e-02 1.000000e-02 1.000000e-02 1.000000e-02 1.000000e-02 1.000000e-02 1.000000e-02 1.000000e-02 1.000000e-02 1.000000e-02 1.000000e-02 1.000000e-02 1.000000e-02 1.000000e-02 1.000000e-02 1.000000e-02 1.000000e-02 1.000000e-02 1.000000e-02 1.000000e-02 1.000000e-02 1.000000e-02 1.000000e-02 1.000000e-02 1.000000e-02 1.000000e-02 1.000000e-02 1.000000e-02 1.000000e-02 1.000000e-02 1.000000e-02 1.000000e-02 1.000000e-02 1.000000e-02 1.000000e-02 1.000000e-02 1.000000e-02 1.000000e-02 1.000000e-02 1.000000e-02 1.000000e-02 1.000000e-02 1.000000e-02 1.000000e-02 1.000000e-02 1.000000e-02 1.000000e-02 1.000000e-02 1.000000e-02 1.000000e-02 1.000000e-02
<GCONST> -1.960636e+02
<MIXTURE> 2 5.404304e-01
<MEAN> 75
 1.955025e+00 2.079817e+00 2.197285e+00 2.297370e+00 2.375042e+00 2.429370e+00 2.460425e+00 2.468577e+00 2.454720e+00 2.421104e+00 2.373785e+00 2.325930e+00 2.298104e+00 2.300684e+00 2.314580e+00 2.302807e+00 2.235860e+00 2.099542e+00 1.894371e+00 1.638666e+00 1.377989e+00 1.177602e+00 1.069435e+00 1.000000e+00 1.009671e+00 1.412576e-03 -7.807538e-04 -1.509189e-03 -1.321740e-03 -1.012580e-03 -7.873161e-04 -6.475248e-04 -5.487901e-04 -5.107269e-04 -5.079826e-04 -5.779910e-04 -6.307447e-04 -7.689014e-04 -9.065858e-04 -1.012437e-03 -1.098949e-03 -1.162422e-03 -1.242675e-03 -1.292684e-03 -1.218467e-03 -1.003467e-03 -6.320879e-04 -3.071882e-04 -4.029606e-12 -4.813533e-05 7.416552e-04 3.860165e-04 6.700554e-05 -1.580442e-05 -2.069365e-05 -4.326433e-06 3.612966e-06 5.523880e-06 6.561811e-06 7.521194e-06 1.076395e-05 3.167999e-06 1.313476e-06 -1.817999e-06 -5.998912e-06 -2.883419e-06 -5.246493e-06 -6.626221e-06 -1.698721e-07 8.944075e-07 1.824236e-06 -3.438836e-07 3.203176e-07 -4.029606e-12 -1.285635e-07
<VARIANCE> 75
 8.735170e-02 7.529422e-02 6.314393e-02 5.083671e-02 3.912752e-02 2.845205e-02 1.922121e-02 1.176505e-02 1.000000e-02 1.000000e-02 1.000000e-02 1.000000e-02 1.000000e-02 1.000000e-02 1.000000e-02 1.000000e-02 1.000000e-02 1.000000e-02 1.000000e-02 1.000000e-02 1.000000e-02 1.000000e-02 1.000000e-02 1.000000e-02 1.000000e-02 1.000000e-02 1.000000e-02 1.000000e-02 1.000000e-02 1.000000e-02 1.000000e-02 1.000000e-02 1.000000e-02 1.000000e-02 1.000000e-02 1.000000e-02 1.000000e-02 1.000000e-02 1.000000e-02 1.000000e-02 1.000000e-02 1.000000e-02 1.000000e-02 1.000000e-02 1.000000e-02 1.000000e-02 1.000000e-02 1.000000e-02 1.000000e-02 1.000000e-02 1.000000e-02 1.000000e-02 1.000000e-02 1.000000e-02 1.000000e-02 1.000000e-02 1.000000e-02 1.000000e-02 1.000000e-02 1.000000e-02 1.000000e-02 1.000000e-02 1.000000e-02 1.000000e-02 1.000000e-02 1.000000e-02 1.000000e-02 1.000000e-02 1.000000e-02 1.000000e-02 1.000000e-02 1.000000e-02 1.000000e-02 1.000000e-02 1.000000e-02
<GCONST> -1.966660e+02
<STATE> 3
<NUMMIXES> 2
<MIXTURE> 1 3.247263e-01
<MEAN> 75
 1.983897e+00 2.088434e+00 2.191115e+00 2.285883e+00 2.360591e+00 2.411621e+00 2.438552e+00 2.442002e+00 2.423315e+00 2.386245e+00 2.339064e+00 2.296692e+00 2.274992e+00 2.274263e+00 2.271806e+00 2.237064e+00 2.148044e+00 1.995698e+00 1.784203e+00 1.536138e+00 1.299634e+00 1.132002e+00 1.048277e+00 1.000000e+00 1.003775e+00 4.961090e-03 1.829172e-03 -7.171229e-04 -1.259980e-03 -1.065776e-03 -8.482644e-04 -7.008414e-04 -6.191238e-04 -5.717502e-04 -5.786894e-04 -6.195755e-04 -7.084542e-04 -8.233670e-04 -9.469857e-04 -1.040000e-03 -1.116331e-03 -1.189626e-03 -1.245481e-03 -1.258689e-03 -1.160148e-03 -8.970178e-04 -5.253631e-04 -2.368464e-04 -1.650554e-12 -4.121849e-05 9.300957e-04 9.468209e-04 4.629938e-04 6.980766e-05 -3.399156e-06 3.191915e-07 3.173318e-06 4.584987e-06 9.574779e-06 1.163351e-05 8.705300e-06 9.422417e-06 4.666183e-06 -2.257423e-08 2.960584e-07 2.453048e-07 1.837864e-06 1.786325e-06 6.541398e-06 2.282838e-06 4.345988e-06 3.417818e-06 3.263553e-07 -1.650554e-12 1.542587e-06
<VARIANCE> 75
 8.735170e-02 7.529422e-02 6.314393e-02 5.083671e-02 3.912752e-02 2.845205e-02 1.922121e-02 1.176505e-02 1.000000e-02 1.000000e-02 1.000000e-02 1.000000e-02 1.000000e-02 1.000000e-02 1.000000e-02 1.000000e-02 1.000000e-02 1.000000e-02 1.000000e-02 1.000000e-02 1.000000e-02 1.000000e-02 1.000000e-02 1.000000e-02 1.000000e-02 1.000000e-02 1.000000e-02 1.000000e-02 1.000000e-02 1.000000e-02 1.000000e-02 1.000000e-02 1.000000e-02 1.000000e-02 1.000000e-02 1.000000e-02 1.000000e-02 1.000000e-02 1.000000e-02 1.000000e-02 1.000000e-02 1.000000e-02 1.000000e-02 1.000000e-02 1.000000e-02 1.000000e-02 1.000000e-02 1.000000e-02 1.000000e-02 1.000000e-02 1.000000e-02 1.000000e-02 1.000000e-02 1.000000e-02 1.000000e-02 1.000000e-02 1.000000e-02 1.000000e-02 1.000000e-02 1.000000e-02 1.000000e-02 1.000000e-02 1.000000e-02 1.000000e-02 1.000000e-02 1.000000e-02 1.000000e-02 1.000000e-02 1.000000e-02 1.000000e-02 1.000000e-02 1.000000e-02 1.000000e-02 1.000000e-02 1.000000e-02
<GCONST> -1.966660e+02
<MIXTURE> 2 6.752599e-01
<MEAN> 75
 1.953229e+00 2.077327e+00 2.183960e+00 2.269238e+00 2.331424e+00 2.370353e+00 2.386145e+00 2.379453e+00 2.352413e+00 2.310155e+00 2.263212e+00 2.226835e+00 2.211099e+00 2.208805e+00 2.196871e+00 2.150980e+00 2.055713e+00 1.905628e+00 1.706432e+00 1.479551e+00 1.267176e+00 1.116917e+00 1.041059e+00 1.000000e+00 1.000398e+00 -1.205296e-03 -1.346561e-03 -1.311709e-03 -1.121778e-03 -9.963845e-04 -8.833493e-04 -8.147535e-04 -7.776240e-04 -7.544567e-04 -7.783542e-04 -8.050330e-04 -8.398742e-04 -9.340769e-04 -1.004187e-03 -1.090514e-03 -1.133969e-03 -1.228336e-03 -1.295786e-03 -1.280789e-03 -1.128131e-03 -8.583908e-04 -4.235912e-04 -2.586133e-04 -2.635195e-13 -3.921100e-06 8.303369e-05 3.292767e-05 6.568811e-06 -1.293425e-05 -6.107944e-06 -7.229478e-06 -7.968049e-06 -7.093689e-06 -7.513857e-06 -1.016331e-05 1.495830e-05 -1.629605e-05 -7.191030e-06 -4.447156e-06 -1.227258e-05 -1.015084e-05 -1.863796e-05 2.959403e-06 6.858403e-06 -1.267571e-05 -1.304795e-05 -3.738735e-06 -1.553097e-07 -2.635195e-13 2.178323e-07
<VARIANCE> 75
 8.735170e-02 7.529422e-02 6.314393e-02 5.083671e-02 3.912752e-02 2.845205e-02 1.922121e-02 1.176505e-02 1.000000e-02 1.000000e-02 1.000000e-02 1.000000e-02 1.000000e-02 1.000000e-02 1.000000e-02 1.000000e-02 1.000000e-02 1.000000e-02 1.000000e-02 1.000000e-02 1.000000e-02 1.000000e-02 1.000000e-02 1.000000e-02 1.000000e-02 1.000000e-02 1.000000e-02 1.000000e-02 1.000000e-02 1.000000e-02 1.000000e-02 1.000000e-02 1.000000e-02 1.000000e-02 1.000000e-02 1.000000e-02 1.000000e-02 1.000000e-02 1.000000e-02 1.000000e-02 1.000000e-02 1.000000e-02 1.000000e-02 1.000000e-02 1.000000e-02 1.000000e-02 1.000000e-02 1.000000e-02 1.000000e-02 1.000000e-02 1.000000e-02 1.000000e-02 1.000000e-02 1.000000e-02 1.000000e-02 1.000000e-02 1.000000e-02 1.000000e-02 1.000000e-02 1.000000e-02 1.000000e-02 1.000000e-02 1.000000e-02 1.000000e-02 1.000000e-02 1.000000e-02 1.000000e-02 1.000000e-02 1.000000e-02 1.000000e-02 1.000000e-02 1.000000e-02 1.000000e-02 1.000000e-02 1.000000e-02
<GCONST> -1.966660e+02
<STATE> 4
<NUMMIXES> 2
<MIXTURE> 1 4.404235e-01
<MEAN> 75
 1.967263e+00 2.069894e+00 2.161899e+00 2.238866e+00 2.294800e+00 2.327667e+00 2.337381e+00 2.325158e+00 2.293762e+00 2.249180e+00 2.202188e+00 2.166279e+00 2.148568e+00 2.140212e+00 2.120405e+00 2.068701e+00 1.972379e+00 1.827817e+00 1.641600e+00 1.434473e+00 1.244220e+00 1.110085e+00 1.040529e+00 1.000000e+00 1.002213e+00 2.351255e-03 7.696301e-04 -6.874236e-04 -1.067847e-03 -9.497994e-04 -7.903293e-04 -7.023948e-04 -6.491879e-04 -6.378072e-04 -6.563923e-04 -7.128099e-04 -7.895268e-04 -8.738581e-04 -9.678097e-04 -1.041358e-03 -1.119594e-03 -1.181605e-03 -1.218257e-03 -1.201378e-03 -1.080213e-03 -7.983314e-04 -4.741240e-04 -1.864944e-04 -2.527110e-12 -3.389054e-05 4.266101e-04 5.574971e-04 3.434032e-04 8.464901e-05 1.158024e-05 1.055599e-06 7.530959e-06 8.275008e-06 8.692742e-06 6.777213e-06 5.211363e-06 6.801637e-06 2.567225e-06 -6.670287e-07 8.075907e-07 -4.460828e-08 2.372328e-06 1.329712e-06 7.246225e-07 2.093661e-06 2.973556e-06 -5.214868e-07 -8.503103e-07 -2.527110e-12 -4.481076e-07
<VARIANCE> 75
 8.735170e-02 7.529422e-02 6.314393e-02 5.083671e-02 3.912752e-02 2.845205e-02 1.922121e-02 1.176505e-02 1.000000e-02 1.000000e-02 1.000000e-02 1.000000e-02 1.000000e-02 1.000000e-02 1.000000e-02 1.000000e-02 1.000000e-02 1.000000e-02 1.000000e-02 1.000000e-02 1.000000e-02 1.000000e-02 1.000000e-02 1.000000e-02 1.000000e-02 1.000000e-02 1.000000e-02 1.000000e-02 1.000000e-02 1.000000e-02 1.000000e-02 1.000000e-02 1.000000e-02 1.000000e-02 1.000000e-02 1.000000e-02 1.000000e-02 1.000000e-02 1.000000e-02 1.000000e-02 1.000000e-02 1.000000e-02 1.000000e-02 1.000000e-02 1.000000e-02 1.000000e-02 1.000000e-02 1.000000e-02 1.000000e-02 1.000000e-02 1.000000e-02 1.000000e-02 1.000000e-02 1.000000e-02 1.000000e-02 1.000000e-02 1.000000e-02 1.000000e-02 1.000000e-02 1.000000e-02 1.000000e-02 1.000000e-02 1.000000e-02 1.000000e-02 1.000000e-02 1.000000e-02 1.000000e-02 1.000000e-02 1.000000e-02 1.000000e-02 1.000000e-02 1.000000e-02 1.000000e-02 1.000000e-02 1.000000e-02
<GCONST> -1.966660e+02
<MIXTURE> 2 5.595682e-01
<MEAN> 75
 1.893415e+00 2.000263e+00 2.100356e+00 2.183649e+00 2.243538e+00 2.278459e+00 2.289085e+00 2.276993e+00 2.245341e+00 2.200323e+00 2.152679e+00 2.115203e+00 2.094091e+00 2.080659e+00 2.055423e+00 1.999509e+00 1.901413e+00 1.758615e+00 1.579053e+00 1.384751e+00 1.212163e+00 1.094374e+00 1.034583e+00 1.000000e+00 1.000910e+00 1.930225e-03 -1.651734e-04 -1.099950e-03 -1.102183e-03 -8.645637e-04 -6.697419e-04 -5.435540e-04 -4.796182e-04 -4.727108e-04 -5.068377e-04 -5.869460e-04 -6.905774e-04 -7.997270e-04 -8.954863e-04 -9.807149e-04 -1.044010e-03 -1.102006e-03 -1.139359e-03 -1.110882e-03 -9.748968e-04 -7.002440e-04 -4.056849e-04 -1.897771e-04 -3.452270e-12 -3.491328e-05 6.689476e-04 4.416807e-04 1.684433e-04 3.305166e-05 9.763956e-06 1.079790e-05 1.451293e-05 1.773656e-05 1.816326e-05 1.693698e-05 1.639240e-05 1.333819e-05 1.173993e-05 1.076304e-05 1.055038e-05 1.182867e-05 1.295651e-05 1.231717e-05 1.278838e-05 1.041106e-05 7.377627e-06 4.295681e-06 2.182677e-06 -3.452270e-12 7.252572e-07
<VARIANCE> 75
 8.735170e-02 7.529422e-02 6.314393e-02 5.083671e-02 3.912752e-02 2.845205e-02 1.922121e-02 1.176505e-02 1.000000e-02 1.000000e-02 1.000000e-02 1.000000e-02 1.000000e-02 1.000000e-02 1.000000e-02 1.000000e-02 1.000000e-02 1.000000e-02 1.000000e-02 1.000000e-02 1.000000e-02 1.000000e-02 1.000000e-02 1.000000e-02 1.000000e-02 1.000000e-02 1.000000e-02 1.000000e-02 1.000000e-02 1.000000e-02 1.000000e-02 1.000000e-02 1.000000e-02 1.000000e-02 1.000000e-02 1.000000e-02 1.000000e-02 1.000000e-02 1.000000e-02 1.000000e-02 1.000000e-02 1.000000e-02 1.000000e-02 1.000000e-02 1.000000e-02 1.000000e-02 1.000000e-02 1.000000e-02 1.000000e-02 1.000000e-02 1.000000e-02 1.000000e-02 1.000000e-02 1.000000e-02 1.000000e-02 1.000000e-02 1.000000e-02 1.000000e-02 1.000000e-02 1.000000e-02 1.000000e-02 1.000000e-02 1.000000e-02 1.000000e-02 1.000000e-02 1.000000e-02 1.000000e-02 1.000000e-02 1.000000e-02 1.000000e-02 1.000000e-02 1.000000e-02 1.000000e-02 1.000000e-02 1.000000e-02
<GCONST> -1.966660e+02
<TRANSP> 5
 0.000000e+00 1.000000e+00 0.000000e+00 0.000000e+00 0.000000e+00
 0.000000e+00 9.619691e-01 3.803084e-02 0.000000e+00 0.000000e+00
 0.000000e+00 0.000000e+00 9.603286e-01 3.967137e-02 0.000000e+00
 0.000000e+00 0.000000e+00 0.000000e+00 9.849576e-01 1.504237e-02
 0.000000e+00 0.000000e+00 0.000000e+00 0.000000e+00 0.000000e+00
<ENDHMM>
