~o
<STREAMINFO> 1 75
<VECSIZE> 75<NULLD><USER_D_A><DIAGC>
~h "e"
<BEGINHMM>
<NUMSTATES> 5
<STATE> 2
<MEAN> 75
 4.021411e+00 3.670231e+00 3.238769e+00 2.821090e+00 2.560770e+00 2.489066e+00 2.501831e+00 2.509858e+00 2.491423e+00 2.450442e+00 2.396533e+00 2.343007e+00 2.303838e+00 2.283688e+00 2.267209e+00 2.225343e+00 2.135077e+00 1.986220e+00 1.782156e+00 1.542394e+00 1.309906e+00 1.139068e+00 1.050185e+00 1.000000e+00 1.003673e+00 7.677698e-02 8.988681e-02 9.049105e-02 6.772961e-02 3.256085e-02 9.023604e-03 1.759346e-03 1.254063e-03 1.558741e-03 1.639613e-03 1.419067e-03 9.753331e-04 3.773006e-04 -1.465378e-04 -4.540826e-04 -5.506584e-04 -6.012641e-04 -5.956572e-04 -6.471995e-04 -6.469321e-04 -5.550975e-04 -3.527871e-04 -1.797161e-04 0.000000e+00 -3.328887e-05 -9.014279e-03 -6.517310e-03 -6.300374e-04 5.394519e-03 6.046984e-03 2.987759e-03 6.507194e-04 2.861457e-05 -3.098060e-05 -2.678918e-05 -1.719327e-05 -9.404429e-06 -1.781059e-06 -1.679745e-06 -5.255730e-06 -3.426908e-07 -1.143400e-05 -6.086243e-06 -5.982600e-06 -2.106575e-06 8.750091e-07 -1.200567e-06 2.024214e-07 0.000000e+00 5.264247e-07
<VARIANCE> 75
 7.386390e-01 5.133487e-01 3.426712e-01 1.890638e-01 6.889249e-02 2.941946e-02 2.518214e-02 2.381758e-02 2.370381e-02 2.497735e-02 2.798058e-02 3.231682e-02 3.627595e-02 3.772466e-02 3.693139e-02 3.611872e-02 3.549663e-02 3.331983e-02 2.770348e-02 1.864337e-02 1.000000e-02 1.000000e-02 1.000000e-02 1.000000e-02 1.000000e-02 1.091562e-02 1.195465e-02 1.000000e-02 1.000000e-02 1.000000e-02 1.000000e-02 1.000000e-02 1.000000e-02 1.000000e-02 1.000000e-02 1.000000e-02 1.000000e-02 1.000000e-02 1.000000e-02 1.000000e-02 1.000000e-02 1.000000e-02 1.000000e-02 1.000000e-02 1.000000e-02 1.000000e-02 1.000000e-02 1.000000e-02 1.000000e-02 1.000000e-02 1.000000e-02 1.000000e-02 1.000000e-02 1.000000e-02 1.000000e-02 1.000000e-02 1.000000e-02 1.000000e-02 1.000000e-02 1.000000e-02 1.000000e-02 1.000000e-02 1.000000e-02 1.000000e-02 1.000000e-02 1.000000e-02 1.000000e-02 1.000000e-02 1.000000e-02 1.000000e-02 1.000000e-02 1.000000e-02 1.000000e-02 1.000000e-02 1.000000e-02
<GCONST> -1.744664e+02
<STATE> 3
<MEAN> 75
 4.787154e+00 4.962505e+00 5.012904e+00 4.939646e+00 4.758978e+00 4.509165e+00 4.217099e+00 3.880491e+00 3.506385e+00 3.125611e+00 2.788185e+00 2.539106e+00 2.387379e+00 2.315481e+00 2.283714e+00 2.247110e+00 2.170108e+00 2.033925e+00 1.837417e+00 1.596429e+00 1.350978e+00 1.160652e+00 1.057444e+00 1.000000e+00 1.004159e+00 -2.988409e-03 1.004136e-02 2.286561e-02 3.449694e-02 4.079270e-02 3.853808e-02 3.248606e-02 2.719186e-02 2.197627e-02 1.611207e-02 1.010951e-02 5.194537e-03 1.956989e-03 3.951719e-04 -2.398414e-04 -4.480843e-04 -5.302785e-04 -5.437428e-04 -5.793506e-04 -5.975952e-04 -5.310763e-04 -3.942428e-04 -1.968384e-04 0.000000e+00 -4.425122e-05 -3.862211e-03 -4.708940e-03 -5.331120e-03 -4.997589e-03 -2.854888e-03 -5.577735e-04 1.522476e-04 1.749053e-05 -5.063621e-05 -6.604601e-05 -5.908751e-05 -5.059202e-05 -3.868484e-05 -3.276495e-05 -2.784948e-05 -2.691191e-05 -2.349226e-05 -2.212218e-05 -2.324093e-05 -2.010434e-05 -1.670940e-05 -1.529246e-05 -1.414459e-06 0.000000e+00 -3.541375e-07
<VARIANCE> 75
 6.189083e-01 5.007087e-01 5.960987e-01 8.543524e-01 1.175848e+00 1.369482e+00 1.328312e+00 1.114382e+00 8.093002e-01 4.824080e-01 2.178927e-01 7.007933e-02 2.652817e-02 2.310201e-02 2.568668e-02 2.993370e-02 3.488228e-02 3.732829e-02 3.410142e-02 2.464148e-02 1.236114e-02 1.000000e-02 1.000000e-02 1.000000e-02 1.000000e-02 1.000000e-02 1.000000e-02 1.000000e-02 1.000000e-02 1.000000e-02 1.000000e-02 1.000000e-02 1.000000e-02 1.000000e-02 1.000000e-02 1.000000e-02 1.000000e-02 1.000000e-02 1.000000e-02 1.000000e-02 1.000000e-02 1.000000e-02 1.000000e-02 1.000000e-02 1.000000e-02 1.000000e-02 1.000000e-02 1.000000e-02 1.000000e-02 1.000000e-02 1.000000e-02 1.000000e-02 1.000000e-02 1.000000e-02 1.000000e-02 1.000000e-02 1.000000e-02 1.000000e-02 1.000000e-02 1.000000e-02 1.000000e-02 1.000000e-02 1.000000e-02 1.000000e-02 1.000000e-02 1.000000e-02 1.000000e-02 1.000000e-02 1.000000e-02 1.000000e-02 1.000000e-02 1.000000e-02 1.000000e-02 1.000000e-02 1.000000e-02
<GCONST> -1.496252e+02
<STATE> 4
<MEAN> 75
 5.157499e+00 5.141192e+00 5.011678e+00 4.762840e+00 4.400437e+00 3.963792e+00 3.521548e+00 3.123862e+00 2.797474e+00 2.556587e+00 2.394533e+00 2.287311e+00 2.215821e+00 2.171270e+00 2.139023e+00 2.091276e+00 2.003533e+00 1.864822e+00 1.678481e+00 1.464826e+00 1.263329e+00 1.118500e+00 1.043431e+00 1.000000e+00 1.002285e+00 1.753675e-03 9.850735e-03 1.817995e-02 2.636177e-02 3.272617e-02 3.319119e-02 2.725239e-02 1.900668e-02 1.152390e-02 5.900038e-03 2.555857e-03 9.760683e-04 2.355368e-04 -2.317738e-04 -5.096921e-04 -6.429296e-04 -7.046457e-04 -7.495692e-04 -7.768329e-04 -7.342421e-04 -5.901812e-04 -3.702119e-04 -1.736499e-04 0.000000e+00 -1.819407e-05 -1.501471e-03 -1.991300e-03 -2.473094e-03 -2.812555e-03 -2.472833e-03 -1.294279e-03 -3.284829e-04 -3.860431e-05 -2.122223e-05 -3.871961e-05 -5.186356e-05 -4.824104e-05 -3.337365e-05 -2.096969e-05 -1.032405e-05 -8.132855e-06 -5.330508e-06 -7.636414e-06 -6.235823e-06 -2.939342e-06 -1.303632e-06 7.158891e-07 -3.506982e-07 0.000000e+00 8.358638e-07
<VARIANCE> 75
 1.356098e-01 1.759289e-01 2.982128e-01 4.983584e-01 7.415919e-01 8.943391e-01 8.157709e-01 5.602528e-01 2.862921e-01 1.055414e-01 3.157545e-02 1.465425e-02 1.144476e-02 1.143151e-02 1.497540e-02 2.134388e-02 2.747247e-02 2.982924e-02 2.622830e-02 1.735733e-02 1.000000e-02 1.000000e-02 1.000000e-02 1.000000e-02 1.000000e-02 1.000000e-02 1.000000e-02 1.000000e-02 1.000000e-02 1.000000e-02 1.000000e-02 1.000000e-02 1.000000e-02 1.000000e-02 1.000000e-02 1.000000e-02 1.000000e-02 1.000000e-02 1.000000e-02 1.000000e-02 1.000000e-02 1.000000e-02 1.000000e-02 1.000000e-02 1.000000e-02 1.000000e-02 1.000000e-02 1.000000e-02 1.000000e-02 1.000000e-02 1.000000e-02 1.000000e-02 1.000000e-02 1.000000e-02 1.000000e-02 1.000000e-02 1.000000e-02 1.000000e-02 1.000000e-02 1.000000e-02 1.000000e-02 1.000000e-02 1.000000e-02 1.000000e-02 1.000000e-02 1.000000e-02 1.000000e-02 1.000000e-02 1.000000e-02 1.000000e-02 1.000000e-02 1.000000e-02 1.000000e-02 1.000000e-02 1.000000e-02
<GCONST> -1.652484e+02
<TRANSP> 5
 0.000000e+00 1.000000e+00 0.000000e+00 0.000000e+00 0.000000e+00
 0.000000e+00 9.260788e-01 7.392119e-02 0.000000e+00 0.000000e+00
 0.000000e+00 0.000000e+00 8.129144e-01 1.870856e-01 0.000000e+00
 0.000000e+00 0.000000e+00 0.000000e+00 9.637281e-01 3.627195e-02
 0.000000e+00 0.000000e+00 0.000000e+00 0.000000e+00 0.000000e+00
<ENDHMM>
~h "ne"
<BEGINHMM>
<NUMSTATES> 5
<STATE> 2
<MEAN> 75
 1.990334e+00 2.121628e+00 2.241378e+00 2.341191e+00 2.417442e+00 2.469630e+00 2.498024e+00 2.503323e+00 2.487002e+00 2.451882e+00 2.404208e+00 2.357243e+00 2.331093e+00 2.335788e+00 2.351556e+00 2.341176e+00 2.275221e+00 2.139525e+00 1.933928e+00 1.675142e+00 1.406315e+00 1.193572e+00 1.075222e+00 1.000000e+00 1.009638e+00 1.077059e-03 -8.070809e-04 -1.461971e-03 -1.300943e-03 -1.026117e-03 -8.230910e-04 -6.948300e-04 -6.022629e-04 -5.745971e-04 -5.749356e-04 -6.289194e-04 -6.938368e-04 -8.126224e-04 -9.363470e-04 -1.042142e-03 -1.123009e-03 -1.193129e-03 -1.272186e-03 -1.319419e-03 -1.267695e-03 -1.068595e-03 -6.862973e-04 -3.404420e-04 0.000000e+00 -6.034011e-05 7.247396e-04 4.212293e-04 9.898516e-05 -6.210323e-06 -1.630556e-05 -2.800071e-06 1.726058e-06 4.219712e-06 7.311807e-06 7.605140e-06 7.041221e-06 2.184582e-06 -2.389478e-06 -4.152410e-06 -6.387847e-06 -6.752324e-06 -7.197990e-06 -8.162540e-06 -4.269537e-06 -4.843213e-06 -2.112671e-06 -2.928375e-06 -8.540633e-07 0.000000e+00 9.790289e-07
<VARIANCE> 75
 8.703106e-02 7.490857e-02 6.273318e-02 5.043118e-02 3.875412e-02 2.812354e-02 1.891963e-02 1.152333e-02 1.000000e-02 1.000000e-02 1.000000e-02 1.000000e-02 1.000000e-02 1.000000e-02 1.000000e-02 1.000000e-02 1.000000e-02 1.000000e-02 1.000000e-02 1.000000e-02 1.000000e-02 1.000000e-02 1.000000e-02 1.000000e-02 1.000000e-02 1.000000e-02 1.000000e-02 1.000000e-02 1.000000e-02 1.000000e-02 1.000000e-02 1.000000e-02 1.000000e-02 1.000000e-02 1.000000e-02 1.000000e-02 1.000000e-02 1.000000e-02 1.000000e-02 1.000000e-02 1.000000e-02 1.000000e-02 1.000000e-02 1.000000e-02 1.000000e-02 1.000000e-02 1.000000e-02 1.000000e-02 1.000000e-02 1.000000e-02 1.000000e-02 1.000000e-02 1.000000e-02 1.000000e-02 1.000000e-02 1.000000e-02 1.000000e-02 1.000000e-02 1.000000e-02 1.000000e-02 1.000000e-02 1.000000e-02 1.000000e-02 1.000000e-02 1.000000e-02 1.000000e-02 1.000000e-02 1.000000e-02 1.000000e-02 1.000000e-02 1.000000e-02 1.000000e-02 1.000000e-02 1.000000e-02 1.000000e-02
<GCONST> -1.967472e+02
<STATE> 3
<MEAN> 75
 2.026201e+00 2.117177e+00 2.201698e+00 2.281709e+00 2.349929e+00 2.397439e+00 2.421109e+00 2.421174e+00 2.399354e+00 2.359960e+00 2.312009e+00 2.270859e+00 2.250370e+00 2.248165e+00 2.241587e+00 2.202182e+00 2.110500e+00 1.958652e+00 1.751372e+00 1.511087e+00 1.283982e+00 1.123761e+00 1.044101e+00 1.000000e+00 1.002068e+00 4.374079e-03 2.640064e-03 4.078221e-04 -7.847887e-04 -1.009628e-03 -8.403385e-04 -7.177188e-04 -6.435792e-04 -6.011910e-04 -6.107386e-04 -6.892877e-04 -7.158566e-04 -8.295538e-04 -9.387069e-04 -1.036273e-03 -1.098716e-03 -1.179971e-03 -1.268092e-03 -1.263484e-03 -1.121170e-03 -8.425161e-04 -4.872642e-04 -2.201058e-04 0.000000e+00 -1.899418e-05 3.685805e-04 5.165322e-04 3.858191e-04 1.074158e-04 1.342974e-06 -9.888139e-06 -4.753923e-06 -2.186277e-06 1.480580e-07 -7.371648e-06 1.841365e-05 -3.533397e-06 -3.105126e-06 -6.402061e-06 -1.655561e-05 -4.596772e-06 -1.810407e-05 7.696453e-07 1.267441e-05 -2.258416e-06 -1.403282e-06 -3.808333e-07 -1.684756e-06 0.000000e+00 5.671517e-07
<VARIANCE> 75
 1.384158e-01 7.490857e-02 6.273318e-02 5.043118e-02 3.875412e-02 2.812354e-02 1.891963e-02 1.152333e-02 1.000000e-02 1.000000e-02 1.000000e-02 1.000000e-02 1.000000e-02 1.000000e-02 1.000000e-02 1.000000e-02 1.000000e-02 1.000000e-02 1.000000e-02 1.000000e-02 1.000000e-02 1.000000e-02 1.000000e-02 1.000000e-02 1.000000e-02 1.000000e-02 1.000000e-02 1.000000e-02 1.000000e-02 1.000000e-02 1.000000e-02 1.000000e-02 1.000000e-02 1.000000e-02 1.000000e-02 1.000000e-02 1.000000e-02 1.000000e-02 1.000000e-02 1.000000e-02 1.000000e-02 1.000000e-02 1.000000e-02 1.000000e-02 1.000000e-02 1.000000e-02 1.000000e-02 1.000000e-02 1.000000e-02 1.000000e-02 1.000000e-02 1.000000e-02 1.000000e-02 1.000000e-02 1.000000e-02 1.000000e-02 1.000000e-02 1.000000e-02 1.000000e-02 1.000000e-02 1.000000e-02 1.000000e-02 1.000000e-02 1.000000e-02 1.000000e-02 1.000000e-02 1.000000e-02 1.000000e-02 1.000000e-02 1.000000e-02 1.000000e-02 1.000000e-02 1.000000e-02 1.000000e-02 1.000000e-02
<GCONST> -1.962832e+02
<STATE> 4
<MEAN> 75
 1.940029e+00 2.043015e+00 2.136130e+00 2.214968e+00 2.273155e+00 2.307694e+00 2.318544e+00 2.307010e+00 2.275982e+00 2.231459e+00 2.184235e+00 2.147632e+00 2.128603e+00 2.118496e+00 2.096890e+00 2.043754e+00 1.946700e+00 1.802487e+00 1.618268e+00 1.415379e+00 1.231353e+00 1.103310e+00 1.037690e+00 1.000000e+00 1.001272e+00 2.480134e-03 9.737487e-04 -3.388163e-04 -9.355670e-04 -8.965770e-04 -7.427935e-04 -6.339562e-04 -5.757148e-04 -5.639838e-04 -5.923678e-04 -6.510678e-04 -7.445737e-04 -8.452789e-04 -9.379038e-04 -1.017480e-03 -1.084620e-03 -1.149901e-03 -1.186218e-03 -1.164877e-03 -1.034979e-03 -7.616962e-04 -4.302866e-04 -2.010009e-04 0.000000e+00 -3.001898e-05 4.007420e-04 4.246653e-04 3.202796e-04 1.167465e-04 2.381867e-05 6.751958e-06 8.839437e-06 1.072964e-05 1.062327e-05 1.053900e-05 1.058179e-05 6.416906e-06 5.670792e-06 5.072395e-06 5.376914e-06 4.158170e-06 5.676246e-06 7.096657e-06 5.971089e-06 3.749424e-06 2.208370e-06 1.348299e-06 1.045380e-06 0.000000e+00 2.203745e-07
<VARIANCE> 75
 8.703106e-02 7.490857e-02 6.273318e-02 5.043118e-02 3.875412e-02 2.812354e-02 1.891963e-02 1.152333e-02 1.000000e-02 1.000000e-02 1.000000e-02 1.000000e-02 1.000000e-02 1.000000e-02 1.000000e-02 1.000000e-02 1.000000e-02 1.000000e-02 1.000000e-02 1.000000e-02 1.000000e-02 1.000000e-02 1.000000e-02 1.000000e-02 1.000000e-02 1.000000e-02 1.000000e-02 1.000000e-02 1.000000e-02 1.000000e-02 1.000000e-02 1.000000e-02 1.000000e-02 1.000000e-02 1.000000e-02 1.000000e-02 1.000000e-02 1.000000e-02 1.000000e-02 1.000000e-02 1.000000e-02 1.000000e-02 1.000000e-02 1.000000e-02 1.000000e-02 1.000000e-02 1.000000e-02 1.000000e-02 1.000000e-02 1.000000e-02 1.000000e-02 1.000000e-02 1.000000e-02 1.000000e-02 1.000000e-02 1.000000e-02 1.000000e-02 1.000000e-02 1.000000e-02 1.000000e-02 1.000000e-02 1.000000e-02 1.000000e-02 1.000000e-02 1.000000e-02 1.000000e-02 1.000000e-02 1.000000e-02 1.000000e-02 1.000000e-02 1.000000e-02 1.000000e-02 1.000000e-02 1.000000e-02 1.000000e-02
<GCONST> -1.967472e+02
<TRANSP> 5
 0.000000e+00 1.000000e+00 0.000000e+00 0.000000e+00 0.000000e+00
 0.000000e+00 9.649398e-01 3.506016e-02 0.000000e+00 0.000000e+00
 0.000000e+00 0.000000e+00 9.231486e-01 7.685139e-02 0.000000e+00
 0.000000e+00 0.000000e+00 0.000000e+00 9.870227e-01 1.297725e-02
 0.000000e+00 0.000000e+00 0.000000e+00 0.000000e+00 0.000000e+00
<ENDHMM>
