~o
<STREAMINFO> 1 75
<VECSIZE> 75<NULLD><USER_D_A><DIAGC>
~h "e"
<BEGINHMM>
<NUMSTATES> 5
<STATE> 2
<MEAN> 75
 1.415436e+00 2.334732e+00 2.438962e+00 2.525132e+00 2.604168e+00 2.653911e+00 2.676475e+00 2.675011e+00 2.608862e+00 2.499910e+00 2.371619e+00 2.266825e+00 2.208316e+00 2.177589e+00 2.129133e+00 2.023334e+00 1.858123e+00 1.619928e+00 1.385467e+00 1.219380e+00 1.162662e+00 1.121227e+00 1.126978e+00 1.092772e+00 1.083446e+00 -2.748124e-03 7.025850e-03 7.887843e-03 6.803704e-03 4.444273e-03 2.414034e-03 6.626135e-04 4.688242e-04 5.868245e-04 6.115193e-04 2.571627e-04 -1.831335e-04 -4.150273e-04 -9.026317e-04 -7.209360e-04 -8.077401e-04 -1.172790e-03 -9.338955e-04 -1.021822e-03 -1.048885e-03 -8.910927e-04 -4.780911e-04 -4.083980e-04 1.736136e-04 -5.877530e-05 1.174710e-04 6.312151e-04 8.111491e-04 5.958986e-04 3.974243e-04 1.584235e-04 -1.020536e-04 -2.609120e-04 -3.218191e-04 -3.748169e-04 -3.555040e-04 -2.686235e-04 -9.824363e-05 -6.940741e-05 -2.783669e-04 -1.760227e-04 -1.431781e-05 9.917050e-06 -2.119567e-05 1.902415e-04 1.215741e-04 2.704241e-04 2.239274e-04 2.481257e-04 2.788350e-04
<VARIANCE> 75
 2.271021e-01 3.711319e-01 2.828445e-01 1.914298e-01 1.140228e-01 7.602722e-02 6.981059e-02 7.097819e-02 8.713108e-02 8.697663e-02 6.864509e-02 4.997876e-02 4.153128e-02 3.865388e-02 4.355463e-02 5.067463e-02 6.125291e-02 5.756225e-02 3.889431e-02 2.059137e-02 1.427879e-02 1.128178e-02 1.180457e-02 1.000000e-02 1.071037e-02 1.000000e-02 1.000000e-02 1.000000e-02 1.000000e-02 1.000000e-02 1.000000e-02 1.000000e-02 1.000000e-02 1.000000e-02 1.000000e-02 1.000000e-02 1.000000e-02 1.000000e-02 1.000000e-02 1.000000e-02 1.000000e-02 1.000000e-02 1.000000e-02 1.000000e-02 1.000000e-02 1.000000e-02 1.000000e-02 1.000000e-02 1.000000e-02 1.000000e-02 1.000000e-02 1.000000e-02 1.000000e-02 1.000000e-02 1.000000e-02 1.000000e-02 1.000000e-02 1.000000e-02 1.000000e-02 1.000000e-02 1.000000e-02 1.000000e-02 1.000000e-02 1.000000e-02 1.000000e-02 1.000000e-02 1.000000e-02 1.000000e-02 1.000000e-02 1.000000e-02 1.000000e-02 1.000000e-02 1.000000e-02 1.000000e-02 1.000000e-02
<GCONST> -1.660626e+02
<STATE> 3
<MEAN> 75
 1.663019e+00 2.405881e+00 2.505016e+00 2.552327e+00 2.576554e+00 2.572329e+00 2.543178e+00 2.486738e+00 2.403260e+00 2.304740e+00 2.217896e+00 2.177901e+00 2.144548e+00 2.112310e+00 2.067511e+00 1.996501e+00 1.854431e+00 1.648188e+00 1.475516e+00 1.340843e+00 1.359842e+00 1.321191e+00 1.395396e+00 1.325312e+00 1.307166e+00 3.422312e-05 1.131183e-02 1.410507e-02 1.217238e-02 1.002667e-02 7.280244e-03 4.059917e-03 1.816686e-03 1.289472e-03 1.253643e-03 9.967089e-04 6.656313e-04 1.878587e-04 -7.307476e-04 -1.299468e-03 -4.976763e-04 -3.063691e-04 -1.047435e-03 -1.009686e-03 -1.061415e-04 -3.725443e-04 1.687620e-04 2.996239e-04 5.244834e-04 1.626203e-04 -4.564836e-04 -1.271501e-03 -3.410551e-05 7.305333e-04 8.380073e-04 5.234866e-04 8.300762e-04 1.016736e-03 7.108368e-04 2.728811e-04 2.744299e-04 1.776757e-04 1.568040e-05 -1.711532e-04 -2.111571e-04 -1.441827e-04 -1.323253e-04 5.208131e-05 2.518781e-05 -1.160044e-04 -7.343495e-04 -9.661611e-04 -1.465725e-03 -1.382920e-03 -1.098234e-03
<VARIANCE> 75
 5.311624e-01 3.090564e-01 2.244017e-01 1.594306e-01 1.013966e-01 8.299421e-02 9.277455e-02 1.011217e-01 9.828938e-02 7.529207e-02 5.710505e-02 5.595902e-02 6.002488e-02 6.397238e-02 6.952143e-02 8.176395e-02 8.916028e-02 7.688995e-02 5.201931e-02 3.838906e-02 4.046737e-02 3.901539e-02 4.312219e-02 3.874919e-02 4.476459e-02 1.000000e-02 1.041523e-02 1.000000e-02 1.000000e-02 1.000000e-02 1.000000e-02 1.000000e-02 1.000000e-02 1.000000e-02 1.000000e-02 1.000000e-02 1.000000e-02 1.000000e-02 1.000000e-02 1.000000e-02 1.000000e-02 1.000000e-02 1.000000e-02 1.000000e-02 1.000000e-02 1.000000e-02 1.000000e-02 1.000000e-02 1.000000e-02 1.000000e-02 1.000000e-02 1.000000e-02 1.000000e-02 1.000000e-02 1.000000e-02 1.000000e-02 1.000000e-02 1.000000e-02 1.000000e-02 1.000000e-02 1.000000e-02 1.000000e-02 1.000000e-02 1.000000e-02 1.000000e-02 1.000000e-02 1.000000e-02 1.000000e-02 1.000000e-02 1.000000e-02 1.000000e-02 1.000000e-02 1.000000e-02 1.000000e-02 1.000000e-02
<GCONST> -1.554963e+02
<STATE> 4
<MEAN> 75
 1.590765e+00 2.757748e+00 2.996412e+00 3.088483e+00 3.121647e+00 3.080612e+00 3.009529e+00 2.927189e+00 2.833502e+00 2.704108e+00 2.548240e+00 2.408875e+00 2.338154e+00 2.329207e+00 2.316435e+00 2.279128e+00 2.188151e+00 1.997469e+00 1.726383e+00 1.443395e+00 1.269135e+00 1.160143e+00 1.148028e+00 1.116553e+00 1.107404e+00 7.309563e-04 -4.668189e-03 -2.215726e-03 7.603456e-04 2.681290e-03 2.805042e-03 2.787157e-03 2.407877e-03 2.154745e-03 1.999444e-03 1.516389e-03 1.084022e-03 1.072913e-03 8.362190e-04 7.787416e-04 5.311337e-04 5.015898e-04 7.423170e-04 3.062558e-04 1.152812e-05 -7.115550e-04 -8.333984e-04 -1.690510e-03 -1.497292e-03 -1.433568e-03 9.310552e-05 -1.852117e-03 -2.310403e-03 -2.298892e-03 -2.081431e-03 -1.691914e-03 -1.052501e-03 -8.595191e-04 -7.109157e-04 -7.694933e-04 -8.745177e-04 -8.665603e-04 -8.125947e-04 -6.131023e-04 -3.987291e-04 -5.795370e-04 -6.021095e-04 -5.610472e-04 -4.652240e-04 -3.430218e-04 -1.508922e-05 -4.047757e-05 1.078077e-05 3.147880e-05 5.622208e-05
<VARIANCE> 75
 6.140331e-01 7.197290e-01 4.867353e-01 3.656984e-01 2.703802e-01 2.199064e-01 2.119994e-01 1.898377e-01 1.712609e-01 1.730213e-01 1.680700e-01 1.351582e-01 9.318872e-02 6.505325e-02 5.555526e-02 5.994305e-02 9.510970e-02 1.342559e-01 1.478213e-01 1.189522e-01 7.455309e-02 3.582043e-02 3.510290e-02 3.045493e-02 3.292232e-02 1.000000e-02 1.000000e-02 1.000000e-02 1.000000e-02 1.000000e-02 1.000000e-02 1.000000e-02 1.000000e-02 1.000000e-02 1.000000e-02 1.000000e-02 1.000000e-02 1.000000e-02 1.000000e-02 1.000000e-02 1.000000e-02 1.000000e-02 1.000000e-02 1.000000e-02 1.000000e-02 1.000000e-02 1.000000e-02 1.000000e-02 1.000000e-02 1.000000e-02 1.000000e-02 1.000000e-02 1.000000e-02 1.000000e-02 1.000000e-02 1.000000e-02 1.000000e-02 1.000000e-02 1.000000e-02 1.000000e-02 1.000000e-02 1.000000e-02 1.000000e-02 1.000000e-02 1.000000e-02 1.000000e-02 1.000000e-02 1.000000e-02 1.000000e-02 1.000000e-02 1.000000e-02 1.000000e-02 1.000000e-02 1.000000e-02 1.000000e-02
<GCONST> -1.436912e+02
<TRANSP> 5
 0.000000e+00 1.000000e+00 0.000000e+00 0.000000e+00 0.000000e+00
 0.000000e+00 9.661501e-01 3.384988e-02 0.000000e+00 0.000000e+00
 0.000000e+00 0.000000e+00 9.303507e-01 6.964931e-02 0.000000e+00
 0.000000e+00 0.000000e+00 0.000000e+00 9.697624e-01 3.023759e-02
 0.000000e+00 0.000000e+00 0.000000e+00 0.000000e+00 0.000000e+00
<ENDHMM>
~h "ne"
<BEGINHMM>
<NUMSTATES> 5
<STATE> 2
<MEAN> 75
 1.463623e+00 1.921784e+00 2.056641e+00 2.164161e+00 2.239712e+00 2.285564e+00 2.294586e+00 2.263464e+00 2.195218e+00 2.104148e+00 2.011996e+00 1.946831e+00 1.917171e+00 1.894934e+00 1.849000e+00 1.764393e+00 1.633711e+00 1.473003e+00 1.328391e+00 1.211442e+00 1.175663e+00 1.139198e+00 1.154124e+00 1.118491e+00 1.108136e+00 1.674638e-04 -1.569996e-03 -1.981320e-03 -1.349286e-03 -9.111708e-04 -7.696328e-04 -5.359944e-04 -5.434155e-04 -6.721849e-04 -4.937153e-04 -3.597114e-04 -3.957972e-04 -2.748224e-04 -2.123927e-04 -2.450444e-04 -2.429221e-04 -2.156911e-04 -2.653776e-04 -3.927407e-04 -2.436908e-04 -2.716848e-04 -2.178908e-04 -1.603652e-04 -1.067268e-04 1.169157e-04 -3.606938e-05 -7.178203e-05 -8.986219e-05 -1.349574e-04 -9.725718e-05 -4.688414e-05 -2.238640e-05 2.781686e-05 7.514235e-05 1.031596e-04 1.502105e-04 1.870084e-04 1.606674e-04 1.255738e-04 1.238722e-04 8.844519e-05 2.054983e-05 1.505075e-05 3.738918e-05 -6.394992e-06 1.457127e-05 1.554019e-05 -1.850472e-05 -4.969649e-05 -8.203440e-05
<VARIANCE> 75
 3.189602e-01 4.637589e-01 4.331579e-01 4.238985e-01 4.215320e-01 4.203973e-01 4.319645e-01 4.251028e-01 4.014288e-01 3.587109e-01 3.103172e-01 2.736701e-01 2.570398e-01 2.539646e-01 2.471514e-01 2.338503e-01 2.011965e-01 1.430497e-01 7.828486e-02 3.626076e-02 2.644886e-02 2.172703e-02 2.749447e-02 2.052340e-02 2.007229e-02 1.000000e-02 1.000000e-02 1.000000e-02 1.000000e-02 1.000000e-02 1.000000e-02 1.000000e-02 1.000000e-02 1.000000e-02 1.000000e-02 1.000000e-02 1.000000e-02 1.000000e-02 1.000000e-02 1.000000e-02 1.000000e-02 1.000000e-02 1.000000e-02 1.000000e-02 1.000000e-02 1.000000e-02 1.000000e-02 1.000000e-02 1.000000e-02 1.000000e-02 1.000000e-02 1.000000e-02 1.000000e-02 1.000000e-02 1.000000e-02 1.000000e-02 1.000000e-02 1.000000e-02 1.000000e-02 1.000000e-02 1.000000e-02 1.000000e-02 1.000000e-02 1.000000e-02 1.000000e-02 1.000000e-02 1.000000e-02 1.000000e-02 1.000000e-02 1.000000e-02 1.000000e-02 1.000000e-02 1.000000e-02 1.000000e-02 1.000000e-02
<GCONST> -1.376954e+02
<STATE> 3
<MEAN> 75
 1.390366e+00 2.038151e+00 2.156974e+00 2.220516e+00 2.272055e+00 2.301747e+00 2.293379e+00 2.233130e+00 2.139812e+00 2.042648e+00 1.970899e+00 1.930941e+00 1.909856e+00 1.880396e+00 1.815130e+00 1.701690e+00 1.545239e+00 1.380953e+00 1.259346e+00 1.172997e+00 1.142436e+00 1.110034e+00 1.112728e+00 1.081296e+00 1.073123e+00 1.574232e-04 -3.336080e-04 -4.703387e-04 -5.372186e-04 -5.990390e-04 -6.844955e-04 -5.745354e-04 -3.175974e-04 -6.305115e-05 1.359372e-04 2.941821e-04 4.974659e-04 6.257746e-04 6.277220e-04 6.624229e-04 6.452308e-04 5.926851e-04 6.193681e-04 4.764438e-04 3.397583e-04 2.963000e-04 1.786453e-04 2.210920e-04 1.329918e-04 2.404067e-04 2.207356e-04 -5.650088e-05 -1.116137e-04 -1.173494e-04 -1.006315e-04 -8.377199e-05 -4.365405e-05 -2.002093e-05 1.553813e-05 2.788653e-05 6.208289e-05 8.067177e-05 7.520148e-05 1.276650e-04 2.059950e-04 2.177908e-04 2.019955e-04 2.294960e-04 2.316846e-04 2.016681e-04 2.281447e-04 2.098692e-04 1.951639e-04 1.537535e-04 1.760570e-04
<VARIANCE> 75
 2.876863e-01 3.565459e-01 2.420634e-01 1.805738e-01 1.403171e-01 1.206664e-01 1.114830e-01 1.066737e-01 9.855947e-02 8.312258e-02 6.931589e-02 6.596229e-02 7.156564e-02 7.942306e-02 8.183341e-02 8.021217e-02 7.223777e-02 5.203968e-02 2.995189e-02 1.709398e-02 1.275729e-02 1.005939e-02 1.057263e-02 1.000000e-02 1.000000e-02 1.000000e-02 1.000000e-02 1.000000e-02 1.000000e-02 1.000000e-02 1.000000e-02 1.000000e-02 1.000000e-02 1.000000e-02 1.000000e-02 1.000000e-02 1.000000e-02 1.000000e-02 1.000000e-02 1.000000e-02 1.000000e-02 1.000000e-02 1.000000e-02 1.000000e-02 1.000000e-02 1.000000e-02 1.000000e-02 1.000000e-02 1.000000e-02 1.000000e-02 1.000000e-02 1.000000e-02 1.000000e-02 1.000000e-02 1.000000e-02 1.000000e-02 1.000000e-02 1.000000e-02 1.000000e-02 1.000000e-02 1.000000e-02 1.000000e-02 1.000000e-02 1.000000e-02 1.000000e-02 1.000000e-02 1.000000e-02 1.000000e-02 1.000000e-02 1.000000e-02 1.000000e-02 1.000000e-02 1.000000e-02 1.000000e-02 1.000000e-02
<GCONST> -1.626055e+02
<STATE> 4
<MEAN> 75
 1.567926e+00 1.534158e+00 1.622253e+00 1.700802e+00 1.790691e+00 1.883857e+00 1.970286e+00 2.034063e+00 2.063357e+00 2.056312e+00 2.041022e+00 2.045545e+00 2.063967e+00 2.073303e+00 2.052576e+00 1.992034e+00 1.885180e+00 1.744554e+00 1.608613e+00 1.463776e+00 1.376391e+00 1.280532e+00 1.261966e+00 1.187913e+00 1.162281e+00 1.472529e-04 -1.425845e-04 -4.111354e-04 -4.791373e-04 -4.092243e-04 -3.883613e-04 -2.816969e-04 -7.497439e-05 -7.780610e-07 2.109231e-05 -1.255468e-05 -4.962996e-05 -2.787846e-05 3.454324e-05 1.099674e-04 1.036751e-04 1.898269e-04 2.326735e-04 3.220038e-04 3.315044e-04 1.391531e-04 9.649209e-05 5.726817e-05 7.442129e-05 -9.469588e-05 -1.114639e-04 2.762465e-04 2.776663e-04 2.761760e-04 2.753710e-04 2.175890e-04 1.559224e-04 1.050404e-04 5.949544e-06 -1.242594e-05 -4.902503e-05 -7.885785e-05 -8.697431e-05 -9.879842e-05 -1.388925e-04 -1.942476e-04 -1.639268e-04 -1.736194e-04 -1.403831e-04 -1.154309e-04 -1.431878e-04 -1.134222e-04 -1.076563e-04 -4.423177e-05 -1.018118e-04
<VARIANCE> 75
 1.885839e-01 2.587988e-01 2.241270e-01 1.972850e-01 1.672305e-01 1.426361e-01 1.337716e-01 1.393329e-01 1.432180e-01 1.329988e-01 1.159713e-01 1.095019e-01 1.143115e-01 1.230521e-01 1.360309e-01 1.507563e-01 1.576994e-01 1.462848e-01 1.153752e-01 8.571706e-02 6.308006e-02 4.815488e-02 4.507176e-02 3.275538e-02 3.162006e-02 1.000000e-02 1.000000e-02 1.000000e-02 1.000000e-02 1.000000e-02 1.000000e-02 1.000000e-02 1.000000e-02 1.000000e-02 1.000000e-02 1.000000e-02 1.000000e-02 1.000000e-02 1.000000e-02 1.000000e-02 1.000000e-02 1.000000e-02 1.000000e-02 1.000000e-02 1.000000e-02 1.000000e-02 1.000000e-02 1.000000e-02 1.000000e-02 1.000000e-02 1.000000e-02 1.000000e-02 1.000000e-02 1.000000e-02 1.000000e-02 1.000000e-02 1.000000e-02 1.000000e-02 1.000000e-02 1.000000e-02 1.000000e-02 1.000000e-02 1.000000e-02 1.000000e-02 1.000000e-02 1.000000e-02 1.000000e-02 1.000000e-02 1.000000e-02 1.000000e-02 1.000000e-02 1.000000e-02 1.000000e-02 1.000000e-02 1.000000e-02
<GCONST> -1.469070e+02
<TRANSP> 5
 0.000000e+00 1.000000e+00 0.000000e+00 0.000000e+00 0.000000e+00
 0.000000e+00 9.597830e-01 4.021697e-02 0.000000e+00 0.000000e+00
 0.000000e+00 0.000000e+00 9.746551e-01 2.534496e-02 0.000000e+00
 0.000000e+00 0.000000e+00 0.000000e+00 9.819018e-01 1.809818e-02
 0.000000e+00 0.000000e+00 0.000000e+00 0.000000e+00 0.000000e+00
<ENDHMM>
