~o
<STREAMINFO> 1 75
<VECSIZE> 75<NULLD><USER_D_A><DIAGC>
~h "e"
<BEGINHMM>
<NUMSTATES> 5
<STATE> 2
<MEAN> 75
 3.971145e+00 3.635709e+00 3.221030e+00 2.819798e+00 2.571663e+00 2.501174e+00 2.511710e+00 2.519158e+00 2.500746e+00 2.460076e+00 2.406821e+00 2.354161e+00 2.315779e+00 2.296259e+00 2.280110e+00 2.238272e+00 2.147477e+00 1.997531e+00 1.791651e+00 1.549290e+00 1.313916e+00 1.140806e+00 1.050811e+00 1.000000e+00 1.003855e+00 7.519350e-02 8.811399e-02 8.879800e-02 6.629633e-02 3.190707e-02 9.174651e-03 1.827200e-03 1.217821e-03 1.498123e-03 1.587071e-03 1.380670e-03 9.367118e-04 3.522267e-04 -1.668014e-04 -4.702379e-04 -5.646144e-04 -6.184530e-04 -6.112700e-04 -6.636789e-04 -6.687361e-04 -5.710644e-04 -3.600947e-04 -1.839887e-04 0.000000e+00 -3.392399e-05 -8.888451e-03 -6.487939e-03 -6.878746e-04 5.315210e-03 5.865151e-03 2.920603e-03 6.683941e-04 3.202766e-05 -3.093329e-05 -2.557354e-05 -1.644893e-05 -1.046487e-05 -1.073845e-06 -1.178662e-06 -3.397221e-06 7.829549e-09 -1.013570e-05 -7.399218e-06 -5.801750e-06 -2.811988e-06 -1.216772e-06 -8.408468e-07 5.724715e-07 0.000000e+00 7.548742e-08
<VARIANCE> 75
 8.243532e-01 5.578478e-01 3.608784e-01 1.981685e-01 7.403334e-02 3.019397e-02 2.494662e-02 2.317561e-02 2.280704e-02 2.400246e-02 2.708983e-02 3.169462e-02 3.600138e-02 3.748815e-02 3.633115e-02 3.493821e-02 3.387386e-02 3.150814e-02 2.604602e-02 1.748036e-02 1.000000e-02 1.000000e-02 1.000000e-02 1.000000e-02 1.000000e-02 1.077836e-02 1.185855e-02 1.000000e-02 1.000000e-02 1.000000e-02 1.000000e-02 1.000000e-02 1.000000e-02 1.000000e-02 1.000000e-02 1.000000e-02 1.000000e-02 1.000000e-02 1.000000e-02 1.000000e-02 1.000000e-02 1.000000e-02 1.000000e-02 1.000000e-02 1.000000e-02 1.000000e-02 1.000000e-02 1.000000e-02 1.000000e-02 1.000000e-02 1.000000e-02 1.000000e-02 1.000000e-02 1.000000e-02 1.000000e-02 1.000000e-02 1.000000e-02 1.000000e-02 1.000000e-02 1.000000e-02 1.000000e-02 1.000000e-02 1.000000e-02 1.000000e-02 1.000000e-02 1.000000e-02 1.000000e-02 1.000000e-02 1.000000e-02 1.000000e-02 1.000000e-02 1.000000e-02 1.000000e-02 1.000000e-02 1.000000e-02
<GCONST> -1.745567e+02
<STATE> 3
<MEAN> 75
 4.828001e+00 5.003134e+00 5.053726e+00 4.980540e+00 4.798969e+00 4.541596e+00 4.232263e+00 3.879065e+00 3.492342e+00 3.105568e+00 2.772149e+00 2.531475e+00 2.384988e+00 2.314587e+00 2.284387e+00 2.250484e+00 2.176545e+00 2.042905e+00 1.847701e+00 1.606389e+00 1.358866e+00 1.165321e+00 1.059454e+00 1.000000e+00 1.004493e+00 -3.291985e-03 9.557703e-03 2.221303e-02 3.365357e-02 4.000673e-02 3.912754e-02 3.365480e-02 2.774280e-02 2.201250e-02 1.576759e-02 9.645226e-03 4.891525e-03 1.861078e-03 3.662322e-04 -2.556095e-04 -4.623468e-04 -5.380994e-04 -5.650489e-04 -5.937797e-04 -6.111855e-04 -5.480003e-04 -4.054987e-04 -2.087177e-04 0.000000e+00 -4.483739e-05 -3.663210e-03 -4.495206e-03 -5.133837e-03 -4.857863e-03 -3.010002e-03 -9.908343e-04 2.460881e-05 2.486850e-05 -4.023420e-05 -6.109392e-05 -6.138720e-05 -5.236733e-05 -4.014614e-05 -3.202048e-05 -3.052060e-05 -2.603641e-05 -2.301182e-05 -2.319597e-05 -2.434990e-05 -1.687078e-05 -1.743027e-05 -1.494389e-05 -2.037382e-06 0.000000e+00 7.028734e-07
<VARIANCE> 75
 5.949746e-01 4.808167e-01 5.679814e-01 8.082517e-01 1.103766e+00 1.285167e+00 1.265746e+00 1.069076e+00 7.731695e-01 4.561468e-01 2.027877e-01 6.404655e-02 2.346747e-02 2.017070e-02 2.277259e-02 2.720186e-02 3.246717e-02 3.546366e-02 3.303934e-02 2.441832e-02 1.258143e-02 1.000000e-02 1.000000e-02 1.000000e-02 1.000000e-02 1.000000e-02 1.000000e-02 1.000000e-02 1.000000e-02 1.000000e-02 1.000000e-02 1.000000e-02 1.000000e-02 1.000000e-02 1.000000e-02 1.000000e-02 1.000000e-02 1.000000e-02 1.000000e-02 1.000000e-02 1.000000e-02 1.000000e-02 1.000000e-02 1.000000e-02 1.000000e-02 1.000000e-02 1.000000e-02 1.000000e-02 1.000000e-02 1.000000e-02 1.000000e-02 1.000000e-02 1.000000e-02 1.000000e-02 1.000000e-02 1.000000e-02 1.000000e-02 1.000000e-02 1.000000e-02 1.000000e-02 1.000000e-02 1.000000e-02 1.000000e-02 1.000000e-02 1.000000e-02 1.000000e-02 1.000000e-02 1.000000e-02 1.000000e-02 1.000000e-02 1.000000e-02 1.000000e-02 1.000000e-02 1.000000e-02 1.000000e-02
<GCONST> -1.509095e+02
<STATE> 4
<MEAN> 75
 5.138836e+00 5.116034e+00 4.979851e+00 4.724635e+00 4.358935e+00 3.926957e+00 3.493797e+00 3.105103e+00 2.786175e+00 2.549222e+00 2.387503e+00 2.279628e+00 2.208406e+00 2.163992e+00 2.130398e+00 2.080312e+00 1.990323e+00 1.850459e+00 1.664508e+00 1.453107e+00 1.255577e+00 1.114851e+00 1.042225e+00 1.000000e+00 1.002092e+00 2.186243e-03 1.026794e-02 1.855266e-02 2.659695e-02 3.244041e-02 3.221888e-02 2.635103e-02 1.847950e-02 1.129760e-02 5.870646e-03 2.591657e-03 9.848258e-04 2.223940e-04 -2.377095e-04 -5.088224e-04 -6.380142e-04 -6.998496e-04 -7.485232e-04 -7.752227e-04 -7.313286e-04 -5.847243e-04 -3.648641e-04 -1.710016e-04 0.000000e+00 -1.791825e-05 -1.492141e-03 -1.964663e-03 -2.426086e-03 -2.718383e-03 -2.275521e-03 -1.144272e-03 -3.109301e-04 -4.507085e-05 -2.262865e-05 -3.815281e-05 -4.970658e-05 -4.532949e-05 -3.164237e-05 -2.000277e-05 -1.011285e-05 -8.772257e-06 -5.928241e-06 -7.543129e-06 -5.964230e-06 -3.689456e-06 -6.878321e-07 1.102297e-06 1.771465e-07 0.000000e+00 7.879880e-07
<VARIANCE> 75
 1.403813e-01 1.876866e-01 3.217954e-01 5.372326e-01 7.889861e-01 9.269763e-01 8.305820e-01 5.686998e-01 2.932369e-01 1.107761e-01 3.349854e-02 1.459004e-02 1.104804e-02 1.097158e-02 1.420099e-02 1.987257e-02 2.512444e-02 2.680632e-02 2.315546e-02 1.501433e-02 1.000000e-02 1.000000e-02 1.000000e-02 1.000000e-02 1.000000e-02 1.000000e-02 1.000000e-02 1.000000e-02 1.000000e-02 1.000000e-02 1.000000e-02 1.000000e-02 1.000000e-02 1.000000e-02 1.000000e-02 1.000000e-02 1.000000e-02 1.000000e-02 1.000000e-02 1.000000e-02 1.000000e-02 1.000000e-02 1.000000e-02 1.000000e-02 1.000000e-02 1.000000e-02 1.000000e-02 1.000000e-02 1.000000e-02 1.000000e-02 1.000000e-02 1.000000e-02 1.000000e-02 1.000000e-02 1.000000e-02 1.000000e-02 1.000000e-02 1.000000e-02 1.000000e-02 1.000000e-02 1.000000e-02 1.000000e-02 1.000000e-02 1.000000e-02 1.000000e-02 1.000000e-02 1.000000e-02 1.000000e-02 1.000000e-02 1.000000e-02 1.000000e-02 1.000000e-02 1.000000e-02 1.000000e-02 1.000000e-02
<GCONST> -1.654068e+02
<TRANSP> 5
 0.000000e+00 1.000000e+00 0.000000e+00 0.000000e+00 0.000000e+00
 0.000000e+00 9.255645e-01 7.443547e-02 0.000000e+00 0.000000e+00
 0.000000e+00 0.000000e+00 8.302680e-01 1.697320e-01 0.000000e+00
 0.000000e+00 0.000000e+00 0.000000e+00 9.639522e-01 3.604790e-02
 0.000000e+00 0.000000e+00 0.000000e+00 0.000000e+00 0.000000e+00
<ENDHMM>
~h "ne"
<BEGINHMM>
<NUMSTATES> 5
<STATE> 2
<MEAN> 75
 1.989259e+00 2.120356e+00 2.240214e+00 2.340218e+00 2.416653e+00 2.469018e+00 2.497559e+00 2.502998e+00 2.486779e+00 2.451695e+00 2.403986e+00 2.356997e+00 2.330971e+00 2.335845e+00 2.351589e+00 2.340883e+00 2.274340e+00 2.137893e+00 1.931537e+00 1.672288e+00 1.403787e+00 1.192219e+00 1.074954e+00 1.000000e+00 1.009767e+00 1.131915e-03 -7.909450e-04 -1.459799e-03 -1.302395e-03 -1.025814e-03 -8.232624e-04 -6.944633e-04 -5.999280e-04 -5.732785e-04 -5.738208e-04 -6.268778e-04 -6.917976e-04 -8.111218e-04 -9.345664e-04 -1.038580e-03 -1.120119e-03 -1.190882e-03 -1.269573e-03 -1.316879e-03 -1.263534e-03 -1.063625e-03 -6.813353e-04 -3.397528e-04 0.000000e+00 -6.058673e-05 7.188501e-04 4.176644e-04 9.871635e-05 -5.358142e-06 -1.598023e-05 -3.040023e-06 1.979741e-06 3.738140e-06 7.144545e-06 7.568095e-06 6.980115e-06 1.688690e-06 -2.688156e-06 -4.247387e-06 -6.679568e-06 -7.052896e-06 -7.458775e-06 -8.833583e-06 -4.178174e-06 -5.048412e-06 -1.515186e-06 -3.099673e-06 -1.146787e-06 0.000000e+00 8.875977e-07
<VARIANCE> 75
 8.735170e-02 7.529422e-02 6.314393e-02 5.083671e-02 3.912752e-02 2.845205e-02 1.922121e-02 1.176505e-02 1.000000e-02 1.000000e-02 1.000000e-02 1.000000e-02 1.000000e-02 1.000000e-02 1.000000e-02 1.000000e-02 1.000000e-02 1.000000e-02 1.000000e-02 1.000000e-02 1.000000e-02 1.000000e-02 1.000000e-02 1.000000e-02 1.000000e-02 1.000000e-02 1.000000e-02 1.000000e-02 1.000000e-02 1.000000e-02 1.000000e-02 1.000000e-02 1.000000e-02 1.000000e-02 1.000000e-02 1.000000e-02 1.000000e-02 1.000000e-02 1.000000e-02 1.000000e-02 1.000000e-02 1.000000e-02 1.000000e-02 1.000000e-02 1.000000e-02 1.000000e-02 1.000000e-02 1.000000e-02 1.000000e-02 1.000000e-02 1.000000e-02 1.000000e-02 1.000000e-02 1.000000e-02 1.000000e-02 1.000000e-02 1.000000e-02 1.000000e-02 1.000000e-02 1.000000e-02 1.000000e-02 1.000000e-02 1.000000e-02 1.000000e-02 1.000000e-02 1.000000e-02 1.000000e-02 1.000000e-02 1.000000e-02 1.000000e-02 1.000000e-02 1.000000e-02 1.000000e-02 1.000000e-02 1.000000e-02
<GCONST> -1.966660e+02
<STATE> 3
<MEAN> 75
 2.033656e+00 2.121527e+00 2.203574e+00 2.282175e+00 2.349560e+00 2.396669e+00 2.420052e+00 2.419920e+00 2.397985e+00 2.358573e+00 2.310813e+00 2.269997e+00 2.249771e+00 2.247551e+00 2.240698e+00 2.200911e+00 2.108940e+00 1.956980e+00 1.749883e+00 1.510091e+00 1.283651e+00 1.123885e+00 1.044320e+00 1.000000e+00 1.002086e+00 4.327514e-03 2.639545e-03 4.191572e-04 -7.612121e-04 -1.000840e-03 -8.424526e-04 -7.189331e-04 -6.483294e-04 -6.068566e-04 -6.185941e-04 -6.921860e-04 -7.170973e-04 -8.307365e-04 -9.396959e-04 -1.040232e-03 -1.096952e-03 -1.179588e-03 -1.271266e-03 -1.262584e-03 -1.119394e-03 -8.422392e-04 -4.864765e-04 -2.152779e-04 0.000000e+00 -1.903392e-05 3.630257e-04 5.103025e-04 3.823384e-04 1.050759e-04 1.706096e-06 -1.037833e-05 -6.170256e-06 -3.020206e-06 -1.527603e-06 -7.221659e-06 1.973048e-05 -4.214881e-06 -3.327344e-06 -7.138121e-06 -1.820599e-05 -5.971221e-06 -1.821635e-05 1.987522e-06 1.313910e-05 -2.666530e-06 -2.007197e-06 -3.952515e-07 -1.434513e-06 0.000000e+00 4.944170e-07
<VARIANCE> 75
 1.443943e-01 7.529422e-02 6.314393e-02 5.083671e-02 3.912752e-02 2.845205e-02 1.922121e-02 1.176505e-02 1.000000e-02 1.000000e-02 1.000000e-02 1.000000e-02 1.000000e-02 1.000000e-02 1.000000e-02 1.000000e-02 1.000000e-02 1.000000e-02 1.000000e-02 1.000000e-02 1.000000e-02 1.000000e-02 1.000000e-02 1.000000e-02 1.000000e-02 1.000000e-02 1.000000e-02 1.000000e-02 1.000000e-02 1.000000e-02 1.000000e-02 1.000000e-02 1.000000e-02 1.000000e-02 1.000000e-02 1.000000e-02 1.000000e-02 1.000000e-02 1.000000e-02 1.000000e-02 1.000000e-02 1.000000e-02 1.000000e-02 1.000000e-02 1.000000e-02 1.000000e-02 1.000000e-02 1.000000e-02 1.000000e-02 1.000000e-02 1.000000e-02 1.000000e-02 1.000000e-02 1.000000e-02 1.000000e-02 1.000000e-02 1.000000e-02 1.000000e-02 1.000000e-02 1.000000e-02 1.000000e-02 1.000000e-02 1.000000e-02 1.000000e-02 1.000000e-02 1.000000e-02 1.000000e-02 1.000000e-02 1.000000e-02 1.000000e-02 1.000000e-02 1.000000e-02 1.000000e-02 1.000000e-02 1.000000e-02
<GCONST> -1.961634e+02
<STATE> 4
<MEAN> 75
 1.940345e+00 2.043180e+00 2.136540e+00 2.215553e+00 2.273796e+00 2.308331e+00 2.319149e+00 2.307557e+00 2.276451e+00 2.231848e+00 2.184549e+00 2.147901e+00 2.128860e+00 2.118757e+00 2.097137e+00 2.043974e+00 1.946875e+00 1.802602e+00 1.618312e+00 1.415366e+00 1.231309e+00 1.103274e+00 1.037668e+00 1.000000e+00 1.001279e+00 2.560829e-03 1.016372e-03 -3.183627e-04 -9.300010e-04 -8.949748e-04 -7.403439e-04 -6.310632e-04 -5.718984e-04 -5.596691e-04 -5.882579e-04 -6.478790e-04 -7.423084e-04 -8.439279e-04 -9.363275e-04 -1.016065e-03 -1.083489e-03 -1.147807e-03 -1.184643e-03 -1.163677e-03 -1.034787e-03 -7.609534e-04 -4.301966e-04 -2.018422e-04 0.000000e+00 -2.967166e-05 3.998062e-04 4.265768e-04 3.253957e-04 1.207492e-04 2.446475e-05 7.187662e-06 8.820185e-06 1.092830e-05 1.094314e-05 1.065487e-05 1.044961e-05 6.485505e-06 5.967925e-06 5.300271e-06 5.679184e-06 4.339790e-06 6.138455e-06 7.148664e-06 5.984775e-06 3.726676e-06 2.384800e-06 1.320206e-06 1.014454e-06 0.000000e+00 2.288313e-07
<VARIANCE> 75
 8.735170e-02 7.529422e-02 6.314393e-02 5.083671e-02 3.912752e-02 2.845205e-02 1.922121e-02 1.176505e-02 1.000000e-02 1.000000e-02 1.000000e-02 1.000000e-02 1.000000e-02 1.000000e-02 1.000000e-02 1.000000e-02 1.000000e-02 1.000000e-02 1.000000e-02 1.000000e-02 1.000000e-02 1.000000e-02 1.000000e-02 1.000000e-02 1.000000e-02 1.000000e-02 1.000000e-02 1.000000e-02 1.000000e-02 1.000000e-02 1.000000e-02 1.000000e-02 1.000000e-02 1.000000e-02 1.000000e-02 1.000000e-02 1.000000e-02 1.000000e-02 1.000000e-02 1.000000e-02 1.000000e-02 1.000000e-02 1.000000e-02 1.000000e-02 1.000000e-02 1.000000e-02 1.000000e-02 1.000000e-02 1.000000e-02 1.000000e-02 1.000000e-02 1.000000e-02 1.000000e-02 1.000000e-02 1.000000e-02 1.000000e-02 1.000000e-02 1.000000e-02 1.000000e-02 1.000000e-02 1.000000e-02 1.000000e-02 1.000000e-02 1.000000e-02 1.000000e-02 1.000000e-02 1.000000e-02 1.000000e-02 1.000000e-02 1.000000e-02 1.000000e-02 1.000000e-02 1.000000e-02 1.000000e-02 1.000000e-02
<GCONST> -1.966660e+02
<TRANSP> 5
 0.000000e+00 1.000000e+00 0.000000e+00 0.000000e+00 0.000000e+00
 0.000000e+00 9.643287e-01 3.567122e-02 0.000000e+00 0.000000e+00
 0.000000e+00 0.000000e+00 9.225646e-01 7.743539e-02 0.000000e+00
 0.000000e+00 0.000000e+00 0.000000e+00 9.871214e-01 1.287865e-02
 0.000000e+00 0.000000e+00 0.000000e+00 0.000000e+00 0.000000e+00
<ENDHMM>
