~o
<STREAMINFO> 1 75
<VECSIZE> 75<NULLD><USER_D_A><DIAGC>
~h "e"
<BEGINHMM>
<NUMSTATES> 5
<STATE> 2
<MEAN> 75
 1.682020e+00 2.435567e+00 2.417269e+00 2.372912e+00 2.311625e+00 2.272712e+00 2.239670e+00 2.198166e+00 2.135546e+00 2.079287e+00 2.024974e+00 1.986377e+00 1.940313e+00 1.871595e+00 1.757817e+00 1.604055e+00 1.438061e+00 1.315135e+00 1.265358e+00 1.226792e+00 1.187459e+00 1.134766e+00 1.086795e+00 1.028499e+00 1.006835e+00 1.324433e-04 2.863065e-03 3.662742e-03 3.603097e-03 2.008697e-03 2.072149e-03 1.557128e-03 1.108848e-03 8.262343e-04 7.581678e-04 9.639327e-04 8.533922e-04 9.268321e-04 1.490819e-03 1.472236e-03 8.609036e-04 2.985426e-04 5.792333e-04 1.289058e-04 -4.229239e-05 -6.099430e-05 3.680245e-04 2.548854e-05 2.367358e-04 -5.794847e-05 -9.092953e-04 -1.385769e-03 -1.236576e-03 -5.882748e-04 -4.139377e-04 -2.520150e-04 -9.751967e-05 1.029254e-05 -1.729323e-05 -6.430578e-05 1.778759e-04 4.434989e-04 2.759953e-04 3.698393e-04 2.081495e-04 2.832762e-04 4.775436e-04 4.428529e-04 5.516232e-04 1.697656e-04 2.937513e-04 3.895524e-04 1.522973e-04 6.476817e-05 1.340307e-04
<VARIANCE> 75
 4.949707e-01 1.466722e-01 1.376663e-01 1.289842e-01 1.322190e-01 1.474991e-01 1.487709e-01 1.059831e-01 7.296829e-02 4.780098e-02 3.288877e-02 3.160765e-02 3.993245e-02 4.661955e-02 4.320595e-02 3.695630e-02 2.979679e-02 3.065110e-02 3.081181e-02 2.684530e-02 2.145811e-02 1.242521e-02 6.874341e-03 1.297531e-03 2.136282e-04 8.463627e-03 3.604617e-03 2.565653e-03 1.706554e-03 1.152841e-03 9.555837e-04 7.628191e-04 5.598277e-04 5.237692e-04 4.581753e-04 3.752745e-04 3.842124e-04 4.077861e-04 4.309703e-04 4.341457e-04 5.985082e-04 7.858468e-04 8.151952e-04 8.085022e-04 6.886084e-04 6.130661e-04 5.887607e-04 4.318987e-04 1.051334e-04 5.000000e-05 1.615466e-03 5.445000e-04 3.936290e-04 2.453923e-04 1.655631e-04 1.565767e-04 1.239110e-04 8.830376e-05 8.440831e-05 8.111457e-05 6.948909e-05 6.601306e-05 6.926673e-05 7.464444e-05 7.664366e-05 1.047523e-04 1.483069e-04 1.514486e-04 1.673668e-04 1.286841e-04 1.169205e-04 1.135873e-04 8.497267e-05 5.000000e-05 5.000000e-05
<GCONST> -3.518965e+02
<STATE> 3
<MEAN> 75
 1.716224e+00 1.842171e+00 1.897224e+00 1.958577e+00 1.932142e+00 1.866081e+00 1.852206e+00 1.909043e+00 2.047580e+00 2.121191e+00 2.063712e+00 2.008884e+00 2.111956e+00 2.214535e+00 2.246962e+00 2.276287e+00 2.220890e+00 2.167481e+00 2.158209e+00 2.081142e+00 1.875282e+00 1.562150e+00 1.252143e+00 1.042977e+00 1.008825e+00 -1.292374e-03 1.332804e-02 1.891666e-02 2.248396e-02 2.055800e-02 1.370394e-02 7.427675e-03 1.070944e-02 1.196533e-02 1.169174e-02 8.209504e-03 5.388578e-03 5.848046e-03 5.109794e-03 4.433669e-03 5.035176e-03 4.981236e-03 6.626482e-03 6.213049e-03 6.350843e-03 5.781372e-03 6.541363e-03 3.501023e-03 1.098406e-03 -4.689441e-04 3.658992e-03 3.382172e-04 3.538421e-05 -5.905624e-04 -1.607678e-04 1.517686e-04 -6.801461e-04 4.191908e-04 3.839574e-04 1.014903e-03 1.278127e-03 8.963945e-04 4.928912e-04 -8.303106e-04 -1.338131e-03 -3.575561e-04 -1.432701e-04 -8.523246e-04 -7.206635e-04 -1.039117e-04 6.631336e-04 -1.044999e-03 -5.531755e-04 -2.513429e-04 -7.852141e-05
<VARIANCE> 75
 2.271040e-01 2.957050e-01 3.800514e-01 3.819992e-01 3.698254e-01 3.244660e-01 2.838046e-01 2.554092e-01 1.827779e-01 1.003205e-01 8.344141e-02 1.011389e-01 8.507832e-02 1.046919e-01 1.535987e-01 2.633725e-01 3.145828e-01 3.129622e-01 3.121663e-01 2.969939e-01 2.196220e-01 1.100563e-01 3.754622e-02 3.270875e-03 6.755515e-04 9.706439e-03 6.664579e-03 9.505924e-03 9.952709e-03 1.141051e-02 7.889977e-03 5.563154e-03 4.099300e-03 3.422519e-03 2.440341e-03 2.634463e-03 3.371635e-03 2.112525e-03 1.449632e-03 1.974329e-03 1.935642e-03 2.296094e-03 1.798295e-03 1.217786e-03 1.396012e-03 1.799448e-03 1.303502e-03 1.445592e-03 2.962108e-04 6.278782e-05 2.123035e-03 1.034870e-03 1.271955e-03 1.396476e-03 1.656987e-03 1.348648e-03 7.558264e-04 5.769524e-04 3.864138e-04 3.365046e-04 3.960117e-04 5.136453e-04 3.626366e-04 2.498156e-04 3.533898e-04 3.566763e-04 4.260191e-04 2.934307e-04 1.886518e-04 2.320501e-04 3.354652e-04 2.163275e-04 2.464552e-04 5.126427e-05 5.000000e-05
<GCONST> -2.580179e+02
<STATE> 4
<MEAN> 75
 1.394142e+00 1.739511e+00 1.793626e+00 1.804582e+00 1.798978e+00 1.780437e+00 1.781119e+00 1.799080e+00 1.830546e+00 1.853742e+00 1.877891e+00 1.878751e+00 1.861112e+00 1.814220e+00 1.740768e+00 1.633341e+00 1.538809e+00 1.503248e+00 1.500247e+00 1.478109e+00 1.439301e+00 1.349712e+00 1.231238e+00 1.075476e+00 1.006356e+00 -2.137796e-03 -6.070918e-03 -5.829356e-03 -3.688743e-03 -2.375832e-03 -2.595480e-04 3.518938e-04 1.177058e-03 1.151098e-03 8.436950e-04 7.388905e-04 8.062039e-04 7.503913e-04 7.690052e-04 9.508008e-04 1.200620e-03 1.334246e-03 1.045477e-03 8.747693e-04 1.023117e-03 9.264649e-04 9.847907e-04 6.480927e-04 4.170369e-05 -2.160561e-05 2.326733e-04 1.383059e-05 1.692110e-04 -2.128095e-05 3.251404e-05 4.124445e-05 2.210520e-05 -1.809926e-04 -1.186285e-04 -1.470838e-04 -4.068056e-05 -1.114544e-04 -9.510580e-05 -6.871024e-05 -2.341172e-04 1.206841e-05 1.064354e-06 -2.224723e-04 -1.230369e-04 -7.534229e-05 -7.516619e-05 -5.584013e-06 2.475680e-05 4.044902e-05 -5.764046e-06
<VARIANCE> 75
 2.492829e-01 2.492485e-01 1.569636e-01 1.040203e-01 7.423964e-02 5.812603e-02 4.980014e-02 4.731508e-02 4.835287e-02 4.737528e-02 4.210514e-02 4.019155e-02 4.346583e-02 4.756469e-02 4.521886e-02 4.463606e-02 4.217050e-02 4.263261e-02 4.469736e-02 4.494949e-02 4.331885e-02 3.318353e-02 2.388177e-02 4.809461e-03 2.661915e-04 7.112660e-03 5.522174e-03 3.455353e-03 2.666405e-03 1.854510e-03 1.467786e-03 1.303213e-03 9.733515e-04 7.882667e-04 5.441874e-04 4.646929e-04 4.522312e-04 4.504253e-04 4.279003e-04 4.913736e-04 6.188831e-04 7.969791e-04 9.420685e-04 7.604936e-04 8.243321e-04 8.183770e-04 8.608004e-04 1.033655e-03 3.246579e-04 5.000000e-05 1.473909e-03 1.039549e-03 6.046793e-04 5.074218e-04 3.357872e-04 2.522714e-04 2.203860e-04 1.584253e-04 1.314964e-04 8.282848e-05 7.073140e-05 7.604840e-05 7.226914e-05 6.875927e-05 8.983385e-05 1.093313e-04 1.455985e-04 1.652784e-04 1.332691e-04 1.543993e-04 1.458988e-04 1.626581e-04 2.040830e-04 6.543536e-05 5.000000e-05
<GCONST> -3.353815e+02
<TRANSP> 5
 0.000000e+00 1.000000e+00 0.000000e+00 0.000000e+00 0.000000e+00
 0.000000e+00 9.636855e-01 3.631446e-02 0.000000e+00 0.000000e+00
 0.000000e+00 0.000000e+00 8.099751e-01 1.900250e-01 0.000000e+00
 0.000000e+00 0.000000e+00 0.000000e+00 9.600292e-01 3.997076e-02
 0.000000e+00 0.000000e+00 0.000000e+00 0.000000e+00 0.000000e+00
<ENDHMM>
~h "ne"
<BEGINHMM>
<NUMSTATES> 5
<STATE> 2
<MEAN> 75
 1.149829e+00 1.785278e+00 1.943665e+00 2.105391e+00 2.242854e+00 2.356877e+00 2.436966e+00 2.454560e+00 2.409296e+00 2.318675e+00 2.230984e+00 2.171869e+00 2.140246e+00 2.114893e+00 2.066444e+00 1.982894e+00 1.843493e+00 1.669363e+00 1.507935e+00 1.378866e+00 1.288684e+00 1.211240e+00 1.138011e+00 1.044118e+00 1.009250e+00 1.413610e-04 -5.500905e-04 -2.615032e-04 -9.195302e-04 -7.624428e-04 -5.226030e-04 -1.720931e-04 -1.739889e-04 -3.202655e-04 -8.887924e-04 -6.231500e-04 -1.401320e-04 -2.789639e-04 -6.417335e-04 -1.249366e-03 -1.194900e-03 -9.137109e-04 -8.008953e-04 -5.151356e-04 -2.868309e-04 -3.055566e-04 -3.596349e-04 -3.909772e-04 -1.863191e-05 -4.074879e-06 4.374873e-04 1.203169e-05 -1.749670e-04 9.183158e-05 -5.170105e-05 -6.573815e-05 -2.254687e-04 -1.290904e-04 -1.297008e-04 -1.684466e-04 -2.093471e-04 -3.703292e-04 -2.351448e-04 -2.040384e-04 -7.092205e-05 -1.544951e-04 -2.330565e-05 1.871360e-05 3.950411e-05 -1.893205e-04 3.465713e-05 -9.200060e-05 -1.566589e-04 -9.172973e-05 3.647377e-05
<VARIANCE> 75
 7.756902e-02 5.589575e-01 5.252441e-01 4.437341e-01 3.742522e-01 3.140905e-01 2.747865e-01 2.442634e-01 1.993620e-01 1.352793e-01 8.290814e-02 5.696853e-02 5.323905e-02 5.948284e-02 7.196479e-02 9.243581e-02 1.042273e-01 9.666467e-02 7.509519e-02 5.734630e-02 4.829165e-02 3.559760e-02 2.077392e-02 3.462170e-03 6.954094e-04 3.960798e-03 7.811208e-03 6.277897e-03 3.845945e-03 2.388211e-03 1.573378e-03 1.095537e-03 9.593875e-04 8.970395e-04 7.972758e-04 8.289562e-04 8.432654e-04 7.870108e-04 8.513632e-04 8.843865e-04 8.253023e-04 9.525243e-04 1.094889e-03 1.173088e-03 1.144331e-03 1.040400e-03 9.111580e-04 9.602755e-04 2.444989e-04 7.463225e-05 7.234647e-04 1.204265e-03 9.390723e-04 5.629527e-04 3.676850e-04 2.538808e-04 1.762807e-04 1.537175e-04 1.423672e-04 1.305293e-04 1.372699e-04 1.380029e-04 1.220288e-04 1.309349e-04 1.427142e-04 1.311569e-04 1.496301e-04 1.851660e-04 2.044859e-04 2.131020e-04 1.931854e-04 1.681788e-04 1.700109e-04 5.000000e-05 5.000000e-05
<GCONST> -3.078535e+02
<STATE> 3
<MEAN> 75
 1.307458e+00 1.700214e+00 1.795138e+00 1.861843e+00 1.906831e+00 1.930560e+00 1.939748e+00 1.903940e+00 1.838161e+00 1.771461e+00 1.717597e+00 1.694853e+00 1.695749e+00 1.693751e+00 1.666751e+00 1.622890e+00 1.554805e+00 1.469967e+00 1.366095e+00 1.263867e+00 1.187141e+00 1.120750e+00 1.076743e+00 1.023027e+00 1.008372e+00 2.430636e-03 -4.547841e-03 -6.645694e-03 -5.427162e-03 -4.701507e-03 -4.213272e-03 -3.812663e-03 -3.160272e-03 -2.198018e-03 -1.478623e-03 -1.440497e-03 -1.510547e-03 -1.096471e-03 -6.392539e-04 -6.725291e-05 1.386658e-04 -9.352326e-05 5.759202e-04 7.647811e-04 3.522490e-04 2.687015e-04 -1.266603e-05 -2.168041e-04 1.296193e-04 2.360981e-04 -3.843002e-04 3.033810e-04 4.356931e-04 8.822784e-05 1.473463e-04 1.485849e-04 2.815289e-04 3.519710e-04 4.597601e-04 5.710789e-04 5.145272e-04 5.137994e-04 5.631333e-04 2.557650e-04 3.799663e-04 4.996462e-04 3.170507e-04 3.199619e-04 4.162416e-04 5.283166e-04 2.064435e-04 2.091612e-04 3.440333e-04 5.535133e-05 5.583639e-05
<VARIANCE> 75
 2.068222e-01 4.332028e-01 3.743885e-01 3.132147e-01 2.710730e-01 2.704752e-01 2.639645e-01 2.390122e-01 2.083709e-01 1.633768e-01 1.309097e-01 1.204791e-01 1.246761e-01 1.271649e-01 1.395584e-01 1.680281e-01 1.948235e-01 1.676117e-01 1.102430e-01 6.211962e-02 3.467027e-02 1.813748e-02 9.148220e-03 1.874370e-03 9.688941e-04 7.413162e-03 8.539450e-03 7.178087e-03 6.396576e-03 5.247798e-03 4.472043e-03 3.772747e-03 3.388063e-03 3.486891e-03 3.409076e-03 3.478448e-03 3.770479e-03 3.764443e-03 3.740775e-03 3.576547e-03 3.155728e-03 2.749673e-03 2.510323e-03 2.120939e-03 1.689575e-03 1.181501e-03 8.030381e-04 6.723384e-04 1.585722e-04 1.313198e-04 1.372547e-03 1.564788e-03 1.296096e-03 1.143461e-03 9.561352e-04 8.114698e-04 6.425584e-04 5.801535e-04 6.207082e-04 6.118478e-04 6.314523e-04 6.812064e-04 6.591631e-04 6.337569e-04 6.166497e-04 5.145992e-04 4.781511e-04 4.367708e-04 3.676402e-04 2.944183e-04 2.062956e-04 1.479152e-04 1.322344e-04 5.000000e-05 5.000000e-05
<GCONST> -2.631217e+02
<STATE> 4
<MEAN> 75
 1.418317e+00 1.437912e+00 1.542700e+00 1.701224e+00 1.876160e+00 2.028843e+00 2.163928e+00 2.258751e+00 2.297866e+00 2.297467e+00 2.282165e+00 2.273569e+00 2.274695e+00 2.266435e+00 2.234179e+00 2.173380e+00 2.060138e+00 1.911777e+00 1.747654e+00 1.572471e+00 1.415596e+00 1.265021e+00 1.145250e+00 1.038112e+00 1.009598e+00 -1.381081e-05 2.066363e-03 1.257336e-03 1.003516e-03 4.294591e-04 2.913483e-04 5.944680e-04 5.653271e-04 5.104053e-04 4.405431e-04 3.396249e-04 3.811792e-04 3.277748e-04 -5.633448e-05 6.302023e-05 4.565764e-05 8.032077e-05 2.159474e-04 3.295415e-04 1.105825e-04 -9.231997e-06 -5.040973e-05 2.227469e-04 -3.235842e-05 5.283268e-05 -4.106233e-05 2.482476e-04 5.481975e-05 6.157398e-05 -3.221205e-05 4.278953e-05 1.789912e-05 8.859995e-06 -2.914693e-05 -8.155400e-05 -8.441185e-05 -4.234885e-05 1.319788e-06 -6.858412e-05 -6.071377e-07 -2.893364e-05 -4.908929e-05 -2.503826e-05 1.341794e-05 -3.411259e-05 -3.034281e-05 -1.107146e-06 4.341539e-05 -1.885449e-05 -2.331494e-06
<VARIANCE> 75
 1.884895e-01 3.652851e-01 3.215267e-01 2.609248e-01 1.980144e-01 1.536788e-01 1.344590e-01 1.355593e-01 1.310157e-01 1.034410e-01 8.731294e-02 8.404023e-02 8.446608e-02 9.107138e-02 1.080858e-01 1.457238e-01 1.748504e-01 1.737794e-01 1.478530e-01 1.206726e-01 8.450317e-02 4.549896e-02 1.790940e-02 2.347589e-03 1.317102e-03 4.994114e-03 5.549791e-03 4.533370e-03 3.351245e-03 2.157669e-03 1.339998e-03 9.073273e-04 6.523974e-04 5.576144e-04 4.712641e-04 3.904677e-04 3.497654e-04 3.309887e-04 2.864753e-04 2.664401e-04 2.980590e-04 3.579355e-04 4.516222e-04 5.634812e-04 5.885448e-04 6.298241e-04 7.010850e-04 6.210847e-04 1.420293e-04 1.230801e-04 9.620021e-04 8.997380e-04 7.348374e-04 5.355640e-04 3.427502e-04 2.131279e-04 1.413437e-04 9.654667e-05 8.469177e-05 7.172167e-05 6.142789e-05 5.735442e-05 5.437363e-05 5.000000e-05 5.000000e-05 5.000000e-05 6.142258e-05 7.516659e-05 9.893211e-05 1.048073e-04 1.171421e-04 1.338362e-04 1.171445e-04 5.000000e-05 5.000000e-05
<GCONST> -3.310022e+02
<TRANSP> 5
 0.000000e+00 1.000000e+00 0.000000e+00 0.000000e+00 0.000000e+00
 0.000000e+00 9.544109e-01 4.558920e-02 0.000000e+00 0.000000e+00
 0.000000e+00 0.000000e+00 9.546979e-01 4.530212e-02 0.000000e+00
 0.000000e+00 0.000000e+00 0.000000e+00 9.813666e-01 1.863341e-02
 0.000000e+00 0.000000e+00 0.000000e+00 0.000000e+00 0.000000e+00
<ENDHMM>
