~o
<STREAMINFO> 1 75
<VECSIZE> 75<NULLD><USER_D_A><DIAGC>
~h "e"
<BEGINHMM>
<NUMSTATES> 5
<STATE> 2
<MEAN> 75
 1.363207e+00 2.079850e+00 2.281446e+00 2.431101e+00 2.510082e+00 2.531564e+00 2.545765e+00 2.529341e+00 2.497827e+00 2.451933e+00 2.354584e+00 2.249051e+00 2.207788e+00 2.217756e+00 2.247176e+00 2.233982e+00 2.135255e+00 1.973078e+00 1.775787e+00 1.591760e+00 1.419930e+00 1.245937e+00 1.116158e+00 1.026992e+00 1.015337e+00 1.733797e-03 1.606481e-03 -6.087971e-04 -2.391206e-03 -3.750003e-03 -3.578705e-03 -2.543982e-03 -1.768518e-03 -1.643520e-03 -1.287038e-03 -3.171296e-04 6.944448e-04 9.675930e-04 9.537036e-04 1.233796e-03 1.252315e-03 1.212963e-03 1.409722e-03 1.467592e-03 1.013889e-03 3.518518e-04 9.953763e-05 5.300923e-04 -5.092585e-05 2.314810e-05 2.303242e-04 -4.444444e-04 -6.259265e-04 -5.717594e-04 -3.842594e-04 -1.027778e-04 -4.583357e-05 -6.828698e-05 -1.708334e-04 -2.071761e-04 -1.581019e-04 -1.703704e-04 -1.861113e-04 -1.039352e-04 -7.847223e-05 -1.502314e-04 -1.236112e-04 -3.263879e-05 -1.763890e-04 -1.004629e-04 -2.935185e-04 5.601842e-05 -3.541667e-05 5.439814e-05 4.629608e-06
<VARIANCE> 75
 1.999224e-01 6.247803e-01 5.001605e-01 3.721787e-01 2.728300e-01 2.395055e-01 1.895571e-01 1.650165e-01 1.262849e-01 1.034555e-01 1.140289e-01 1.187209e-01 1.261645e-01 1.188918e-01 1.132942e-01 1.111820e-01 1.137010e-01 1.493350e-01 1.788118e-01 1.726011e-01 1.287404e-01 5.822875e-02 1.527761e-02 1.596965e-03 3.816500e-03 7.858001e-03 1.315734e-02 8.562178e-03 7.202021e-03 5.988087e-03 4.089366e-03 3.078545e-03 2.683230e-03 2.056564e-03 1.598857e-03 1.368045e-03 1.576709e-03 1.506255e-03 1.290629e-03 1.118964e-03 7.710387e-04 9.459044e-04 1.139627e-03 1.149571e-03 1.182413e-03 8.975355e-04 1.023196e-03 6.724594e-04 1.212960e-04 3.542703e-04 1.518223e-03 2.052825e-03 1.159840e-03 9.642935e-04 8.732249e-04 6.361549e-04 4.402208e-04 3.797588e-04 2.672720e-04 2.482812e-04 2.467925e-04 2.596336e-04 2.359031e-04 2.024466e-04 1.899456e-04 1.107850e-04 1.398948e-04 1.802955e-04 1.894966e-04 2.102599e-04 1.439518e-04 1.720699e-04 1.238439e-04 2.332965e-05 7.031522e-05
<GCONST> -2.826468e+02
<STATE> 3
<MEAN> 75
 1.363207e+00 2.079850e+00 2.281446e+00 2.431101e+00 2.510082e+00 2.531564e+00 2.545765e+00 2.529341e+00 2.497827e+00 2.451933e+00 2.354584e+00 2.249051e+00 2.207788e+00 2.217756e+00 2.247176e+00 2.233982e+00 2.135255e+00 1.973078e+00 1.775787e+00 1.591760e+00 1.419930e+00 1.245937e+00 1.116158e+00 1.026992e+00 1.015337e+00 1.733797e-03 1.606481e-03 -6.087971e-04 -2.391206e-03 -3.750003e-03 -3.578705e-03 -2.543982e-03 -1.768518e-03 -1.643520e-03 -1.287038e-03 -3.171296e-04 6.944448e-04 9.675930e-04 9.537036e-04 1.233796e-03 1.252315e-03 1.212963e-03 1.409722e-03 1.467592e-03 1.013889e-03 3.518518e-04 9.953763e-05 5.300923e-04 -5.092585e-05 2.314810e-05 2.303242e-04 -4.444444e-04 -6.259265e-04 -5.717594e-04 -3.842594e-04 -1.027778e-04 -4.583357e-05 -6.828698e-05 -1.708334e-04 -2.071761e-04 -1.581019e-04 -1.703704e-04 -1.861113e-04 -1.039352e-04 -7.847223e-05 -1.502314e-04 -1.236112e-04 -3.263879e-05 -1.763890e-04 -1.004629e-04 -2.935185e-04 5.601842e-05 -3.541667e-05 5.439814e-05 4.629608e-06
<VARIANCE> 75
 1.999224e-01 6.247803e-01 5.001605e-01 3.721787e-01 2.728300e-01 2.395055e-01 1.895571e-01 1.650165e-01 1.262849e-01 1.034555e-01 1.140289e-01 1.187209e-01 1.261645e-01 1.188918e-01 1.132942e-01 1.111820e-01 1.137010e-01 1.493350e-01 1.788118e-01 1.726011e-01 1.287404e-01 5.822875e-02 1.527761e-02 1.596965e-03 3.816500e-03 7.858001e-03 1.315734e-02 8.562178e-03 7.202021e-03 5.988087e-03 4.089366e-03 3.078545e-03 2.683230e-03 2.056564e-03 1.598857e-03 1.368045e-03 1.576709e-03 1.506255e-03 1.290629e-03 1.118964e-03 7.710387e-04 9.459044e-04 1.139627e-03 1.149571e-03 1.182413e-03 8.975355e-04 1.023196e-03 6.724594e-04 1.212960e-04 3.542703e-04 1.518223e-03 2.052825e-03 1.159840e-03 9.642935e-04 8.732249e-04 6.361549e-04 4.402208e-04 3.797588e-04 2.672720e-04 2.482812e-04 2.467925e-04 2.596336e-04 2.359031e-04 2.024466e-04 1.899456e-04 1.107850e-04 1.398948e-04 1.802955e-04 1.894966e-04 2.102599e-04 1.439518e-04 1.720699e-04 1.238439e-04 2.332965e-05 7.031522e-05
<GCONST> -2.826468e+02
<STATE> 4
<MEAN> 75
 1.363207e+00 2.079850e+00 2.281446e+00 2.431101e+00 2.510082e+00 2.531564e+00 2.545765e+00 2.529341e+00 2.497827e+00 2.451933e+00 2.354584e+00 2.249051e+00 2.207788e+00 2.217756e+00 2.247176e+00 2.233982e+00 2.135255e+00 1.973078e+00 1.775787e+00 1.591760e+00 1.419930e+00 1.245937e+00 1.116158e+00 1.026992e+00 1.015337e+00 1.733797e-03 1.606481e-03 -6.087971e-04 -2.391206e-03 -3.750003e-03 -3.578705e-03 -2.543982e-03 -1.768518e-03 -1.643520e-03 -1.287038e-03 -3.171296e-04 6.944448e-04 9.675930e-04 9.537036e-04 1.233796e-03 1.252315e-03 1.212963e-03 1.409722e-03 1.467592e-03 1.013889e-03 3.518518e-04 9.953763e-05 5.300923e-04 -5.092585e-05 2.314810e-05 2.303242e-04 -4.444444e-04 -6.259265e-04 -5.717594e-04 -3.842594e-04 -1.027778e-04 -4.583357e-05 -6.828698e-05 -1.708334e-04 -2.071761e-04 -1.581019e-04 -1.703704e-04 -1.861113e-04 -1.039352e-04 -7.847223e-05 -1.502314e-04 -1.236112e-04 -3.263879e-05 -1.763890e-04 -1.004629e-04 -2.935185e-04 5.601842e-05 -3.541667e-05 5.439814e-05 4.629608e-06
<VARIANCE> 75
 1.999224e-01 6.247803e-01 5.001605e-01 3.721787e-01 2.728300e-01 2.395055e-01 1.895571e-01 1.650165e-01 1.262849e-01 1.034555e-01 1.140289e-01 1.187209e-01 1.261645e-01 1.188918e-01 1.132942e-01 1.111820e-01 1.137010e-01 1.493350e-01 1.788118e-01 1.726011e-01 1.287404e-01 5.822875e-02 1.527761e-02 1.596965e-03 3.816500e-03 7.858001e-03 1.315734e-02 8.562178e-03 7.202021e-03 5.988087e-03 4.089366e-03 3.078545e-03 2.683230e-03 2.056564e-03 1.598857e-03 1.368045e-03 1.576709e-03 1.506255e-03 1.290629e-03 1.118964e-03 7.710387e-04 9.459044e-04 1.139627e-03 1.149571e-03 1.182413e-03 8.975355e-04 1.023196e-03 6.724594e-04 1.212960e-04 3.542703e-04 1.518223e-03 2.052825e-03 1.159840e-03 9.642935e-04 8.732249e-04 6.361549e-04 4.402208e-04 3.797588e-04 2.672720e-04 2.482812e-04 2.467925e-04 2.596336e-04 2.359031e-04 2.024466e-04 1.899456e-04 1.107850e-04 1.398948e-04 1.802955e-04 1.894966e-04 2.102599e-04 1.439518e-04 1.720699e-04 1.238439e-04 2.332965e-05 7.031522e-05
<GCONST> -2.826468e+02
<TRANSP> 5
 0.000000e+00 1.000000e+00 0.000000e+00 0.000000e+00 0.000000e+00
 0.000000e+00 6.000000e-01 4.000000e-01 0.000000e+00 0.000000e+00
 0.000000e+00 0.000000e+00 6.000000e-01 4.000000e-01 0.000000e+00
 0.000000e+00 0.000000e+00 0.000000e+00 7.000000e-01 3.000000e-01
 0.000000e+00 0.000000e+00 0.000000e+00 0.000000e+00 0.000000e+00
<ENDHMM>
~h "ne"
<BEGINHMM>
<NUMSTATES> 5
<STATE> 2
<MEAN> 75
 1.500101e+00 2.127545e+00 2.273577e+00 2.338726e+00 2.334522e+00 2.298697e+00 2.383735e+00 2.502158e+00 2.554509e+00 2.543074e+00 2.451844e+00 2.358710e+00 2.344243e+00 2.407659e+00 2.501668e+00 2.523879e+00 2.407602e+00 2.281807e+00 2.130868e+00 1.877419e+00 1.575734e+00 1.257475e+00 1.079140e+00 1.019714e+00 1.008149e+00 -3.250010e-03 1.066464e-02 6.708100e-03 3.417755e-03 7.605868e-04 3.120890e-04 -3.213401e-04 -8.377090e-04 -8.273771e-04 -3.448674e-04 3.855254e-04 4.511283e-04 7.973743e-04 8.010614e-04 8.521408e-04 6.026315e-04 5.300651e-04 -4.431182e-04 -1.581530e-03 -1.941870e-03 -2.336662e-03 -2.076432e-03 5.163932e-04 -1.823585e-05 -7.766317e-06 -1.396532e-05 -8.418471e-04 5.132965e-04 3.107282e-04 1.790221e-04 5.007879e-04 3.584181e-04 1.069209e-04 -1.984331e-05 6.415706e-05 4.806964e-05 -1.627230e-04 -1.666700e-04 1.182582e-04 2.342522e-04 1.732368e-05 2.444366e-05 4.189258e-05 -1.195293e-04 -9.263130e-05 -1.625330e-05 1.220785e-04 -9.736676e-05 3.004336e-05 1.365071e-04
<VARIANCE> 75
 1.435542e-01 4.895333e-01 4.015425e-01 2.427853e-01 1.122634e-01 1.341484e-01 9.894213e-02 5.329227e-02 2.974750e-02 1.646448e-02 4.558003e-02 6.805047e-02 5.133742e-02 2.722321e-02 8.187282e-03 2.220606e-02 3.651003e-02 5.767788e-02 7.205821e-02 6.810714e-02 3.765843e-02 1.329504e-02 3.965361e-03 5.181868e-04 3.073611e-04 7.938862e-03 1.511106e-02 8.754137e-03 5.003081e-03 2.887747e-03 1.498004e-03 8.954898e-04 7.165101e-04 4.536184e-04 3.008191e-04 3.026085e-04 5.356817e-04 3.479735e-04 2.068086e-04 1.598403e-04 1.554123e-04 1.989241e-04 2.255965e-04 2.197444e-04 3.505327e-04 4.328025e-04 4.885323e-04 3.482456e-04 4.692659e-05 3.424160e-05 1.459639e-03 2.316236e-03 9.782218e-04 4.604789e-04 3.508273e-04 2.475989e-04 1.343001e-04 8.499195e-05 5.275929e-05 4.066685e-05 4.218512e-05 9.124114e-05 5.615782e-05 3.493038e-05 2.810097e-05 2.565120e-05 2.742589e-05 3.719268e-05 2.933984e-05 4.921491e-05 7.583582e-05 8.598807e-05 6.445291e-05 8.950322e-06 9.803591e-06
<GCONST> -3.682896e+02
<STATE> 3
<MEAN> 75
 1.033409e+00 2.314935e+00 2.576456e+00 2.700266e+00 2.737585e+00 2.757105e+00 2.729282e+00 2.648363e+00 2.529954e+00 2.376598e+00 2.223363e+00 2.103595e+00 2.034527e+00 2.017125e+00 2.000734e+00 1.960763e+00 1.838567e+00 1.628897e+00 1.408066e+00 1.267727e+00 1.195357e+00 1.141027e+00 1.099166e+00 1.030026e+00 1.009957e+00 7.125664e-04 8.533088e-03 6.632192e-03 4.300378e-03 1.500963e-03 -5.397006e-04 4.136543e-04 4.634324e-03 5.712586e-03 1.992368e-03 -7.870774e-04 -6.356661e-05 5.631986e-04 5.474518e-04 1.375566e-03 8.561033e-04 -5.122980e-04 -7.229263e-05 6.092507e-04 9.069443e-04 1.771094e-04 8.489074e-04 -8.786206e-05 -7.194361e-05 6.743114e-05 1.267516e-04 -1.397433e-03 -1.361037e-03 -1.147264e-03 -6.279914e-04 -4.475832e-04 -5.107662e-04 -9.052478e-04 -9.105793e-04 -6.084190e-04 -2.424399e-04 -4.927071e-04 -5.022383e-04 -3.793659e-04 -2.474034e-04 -2.380226e-04 -3.184057e-04 -1.844206e-04 -1.049855e-04 3.985239e-04 -1.911907e-04 2.866961e-04 -1.456312e-04 4.608847e-05 1.191641e-04
<VARIANCE> 75
 1.065451e-02 5.528001e-01 3.131779e-01 2.673274e-01 2.653000e-01 1.936045e-01 1.531613e-01 1.965104e-01 1.918152e-01 1.513162e-01 1.128988e-01 9.717234e-02 1.123122e-01 1.143860e-01 1.036546e-01 7.334470e-02 5.081300e-02 5.028000e-02 3.834406e-02 2.670533e-02 2.178015e-02 1.558509e-02 9.753294e-03 1.455646e-03 3.698113e-04 8.228818e-04 8.891814e-03 6.012545e-03 4.503503e-03 4.080404e-03 3.352044e-03 2.166769e-03 1.625194e-03 1.620763e-03 1.590358e-03 1.171984e-03 1.251404e-03 1.308987e-03 1.096121e-03 1.249524e-03 9.176597e-04 1.146599e-03 1.211402e-03 9.349891e-04 9.007247e-04 6.300908e-04 5.679664e-04 5.696358e-04 1.099645e-04 3.951524e-05 1.771313e-04 1.306866e-03 7.852959e-04 4.540001e-04 4.107091e-04 4.499244e-04 2.867608e-04 2.186239e-04 2.506563e-04 2.632150e-04 1.830514e-04 2.182838e-04 2.490522e-04 2.022476e-04 2.403110e-04 1.467313e-04 2.050580e-04 2.126868e-04 1.630596e-04 1.837912e-04 1.199419e-04 1.058511e-04 1.112563e-04 2.016977e-05 8.263188e-06
<GCONST> -3.158342e+02
<STATE> 4
<MEAN> 75
 1.620939e+00 1.760526e+00 1.937863e+00 2.193592e+00 2.400437e+00 2.481348e+00 2.479899e+00 2.417301e+00 2.409832e+00 2.455636e+00 2.416723e+00 2.316256e+00 2.281896e+00 2.274351e+00 2.296174e+00 2.281780e+00 2.226100e+00 2.085843e+00 1.874655e+00 1.704033e+00 1.535863e+00 1.355801e+00 1.169392e+00 1.029867e+00 1.026786e+00 7.374383e-03 -1.457365e-02 -1.503271e-02 -1.455557e-02 -1.262702e-02 -8.413640e-03 -6.272402e-03 -8.750034e-03 -1.009395e-02 -5.356548e-03 -1.207802e-04 1.582394e-03 1.261296e-03 1.466565e-03 1.572283e-03 2.427893e-03 3.986675e-03 4.814925e-03 4.939983e-03 3.918770e-03 2.664956e-03 1.089990e-03 1.156550e-03 -1.180121e-04 2.187264e-04 5.790714e-05 4.082649e-05 -9.902613e-04 -1.048528e-03 -1.133544e-03 -1.059021e-03 -5.260397e-04 4.826616e-05 -6.493097e-05 -2.848399e-04 -3.315170e-04 1.002011e-04 6.313543e-05 -2.855390e-05 -1.501716e-04 -2.522331e-04 -1.153187e-04 -1.499637e-05 -3.441326e-04 -8.253941e-04 -6.263909e-04 -4.445064e-04 8.199672e-06 6.019862e-05 -4.888040e-05
<VARIANCE> 75
 2.601625e-01 6.369110e-01 5.691407e-01 4.494908e-01 3.182709e-01 2.712702e-01 2.458818e-01 2.001950e-01 1.271518e-01 1.134900e-01 1.443836e-01 1.481331e-01 1.521870e-01 1.250487e-01 8.867440e-02 7.124000e-02 7.990763e-02 1.118675e-01 1.582714e-01 2.276252e-01 2.397288e-01 1.220905e-01 2.729235e-02 2.669439e-03 1.042096e-02 1.580790e-02 1.595392e-02 1.114412e-02 1.204033e-02 1.070638e-02 6.927882e-03 5.824696e-03 5.462750e-03 3.827274e-03 2.734346e-03 2.548585e-03 2.883414e-03 2.768750e-03 2.485214e-03 1.834619e-03 1.153068e-03 1.375775e-03 1.863848e-03 2.210227e-03 2.233827e-03 1.608105e-03 1.997825e-03 1.082662e-03 2.012784e-04 9.768385e-04 3.102075e-03 2.644376e-03 1.763552e-03 1.990201e-03 1.839106e-03 1.145409e-03 8.385758e-04 7.848394e-04 4.348056e-04 3.951476e-04 5.002600e-04 4.582947e-04 3.823880e-04 3.526214e-04 2.786439e-04 1.454407e-04 1.664265e-04 2.713988e-04 3.629017e-04 3.836074e-04 2.328676e-04 3.214007e-04 1.913754e-04 3.974772e-05 1.900923e-04
<GCONST> -2.505237e+02
<TRANSP> 5
 0.000000e+00 1.000000e+00 0.000000e+00 0.000000e+00 0.000000e+00
 0.000000e+00 9.678718e-01 3.212817e-02 0.000000e+00 0.000000e+00
 0.000000e+00 0.000000e+00 9.752162e-01 2.478381e-02 0.000000e+00
 0.000000e+00 0.000000e+00 0.000000e+00 9.719365e-01 2.806355e-02
 0.000000e+00 0.000000e+00 0.000000e+00 0.000000e+00 0.000000e+00
<ENDHMM>
