~o
<STREAMINFO> 1 75
<VECSIZE> 75<NULLD><USER_D_A><DIAGC>
~v "varFloor1"
<VARIANCE> 75
 3.998447e-06 1.249561e-05 1.000321e-05 7.443574e-06 5.456601e-06 4.790109e-06 3.791141e-06 3.300331e-06 2.525698e-06 2.069111e-06 2.280578e-06 2.374418e-06 2.523290e-06 2.377837e-06 2.265883e-06 2.223640e-06 2.274020e-06 2.986701e-06 3.576237e-06 3.452021e-06 2.574809e-06 1.164575e-06 3.055522e-07 3.193929e-08 7.632999e-08 1.571600e-07 2.631467e-07 1.712436e-07 1.440404e-07 1.197617e-07 8.178732e-08 6.157090e-08 5.366460e-08 4.113129e-08 3.197713e-08 2.736089e-08 3.153417e-08 3.012511e-08 2.581258e-08 2.237928e-08 1.542077e-08 1.891809e-08 2.279253e-08 2.299141e-08 2.364827e-08 1.795071e-08 2.046393e-08 1.344919e-08 2.425920e-09 7.085406e-09 3.036445e-08 4.105650e-08 2.319680e-08 1.928587e-08 1.746450e-08 1.272310e-08 8.804416e-09 7.595175e-09 5.345441e-09 4.965623e-09 4.935850e-09 5.192672e-09 4.718061e-09 4.048932e-09 3.798911e-09 2.215699e-09 2.797895e-09 3.605910e-09 3.789932e-09 4.205198e-09 2.879036e-09 3.441397e-09 2.476877e-09 4.665931e-10 1.406304e-09
