~o
<STREAMINFO> 1 75
<VECSIZE> 75<NULLD><USER_D_A><DIAGC>
~v "varFloor1"
<VARIANCE> 75
 2.132582e-02 4.604792e-02 4.078287e-02 3.314073e-02 2.657999e-02 2.324145e-02 2.191373e-02 2.130686e-02 1.985987e-02 1.637616e-02 1.394005e-02 1.314171e-02 1.326348e-02 1.397789e-02 1.560376e-02 1.878585e-02 2.059606e-02 1.883830e-02 1.489412e-02 1.116291e-02 7.631614e-03 4.194767e-03 1.825939e-03 2.804785e-04 1.058473e-04 5.672220e-04 6.471564e-04 5.277177e-04 3.992120e-04 2.847842e-04 2.066731e-04 1.578850e-04 1.305631e-04 1.245650e-04 1.138942e-04 1.111696e-04 1.160627e-04 1.125383e-04 1.103984e-04 1.079215e-04 1.018018e-04 1.018534e-04 1.048370e-04 1.022289e-04 9.424367e-05 8.422082e-05 7.719426e-05 7.192880e-05 5.000000e-05 5.000000e-05 1.082372e-04 1.076064e-04 8.614453e-05 6.500351e-05 5.000000e-05 5.000000e-05 5.000000e-05 5.000000e-05 5.000000e-05 5.000000e-05 5.000000e-05 5.000000e-05 5.000000e-05 5.000000e-05 5.000000e-05 5.000000e-05 5.000000e-05 5.000000e-05 5.000000e-05 5.000000e-05 5.000000e-05 5.000000e-05 5.000000e-05 5.000000e-05 5.000000e-05
