~h "e"
<BEGINHMM>
<NUMSTATES> 5
<STATE> 2
<MEAN> 75
 2.262563e+00 2.349690e+00 2.416726e+00 2.462294e+00 2.486063e+00 2.489167e+00 2.472671e+00 2.438051e+00 2.388168e+00 2.328993e+00 2.270164e+00 2.223556e+00 2.197574e+00 2.188335e+00 2.175338e+00 2.133156e+00 2.043557e+00 1.900700e+00 1.708596e+00 1.487750e+00 1.278551e+00 1.126586e+00 1.047772e+00 1.000000e+00 1.003653e+00 4.549329e-03 4.154928e-03 3.731631e-03 3.265906e-03 2.724031e-03 2.151578e-03 1.586017e-03 1.052494e-03 5.476905e-04 1.057162e-04 -2.428972e-04 -4.929700e-04 -6.953850e-04 -8.511826e-04 -9.643846e-04 -1.040410e-03 -1.107612e-03 -1.157933e-03 -1.158492e-03 -1.055482e-03 -8.129369e-04 -4.818993e-04 -2.298204e-04 0.000000e+00 -3.474860e-05 5.476139e-06 4.288009e-06 5.076436e-06 5.392191e-06 6.402365e-06 6.320251e-06 6.110384e-06 5.350232e-06 4.841954e-06 3.112686e-06 5.033582e-06 -1.478282e-07 2.829104e-08 -2.208331e-07 -1.012007e-06 -4.352819e-07 -7.501051e-07 1.493834e-06 3.013213e-06 3.084370e-07 5.648586e-07 -7.756365e-08 2.126230e-07 0.000000e+00 4.307195e-07
<VARIANCE> 75
 8.735170e-01 7.529421e-01 6.314393e-01 5.083671e-01 3.912752e-01 2.845205e-01 1.922121e-01 1.176505e-01 1.000000e-01 1.000000e-01 1.000000e-01 1.000000e-01 1.000000e-01 1.000000e-01 1.000000e-01 1.000000e-01 1.000000e-01 1.000000e-01 1.000000e-01 1.000000e-01 1.000000e-01 1.000000e-01 1.000000e-01 1.000000e-01 1.000000e-01 1.000000e-01 1.000000e-01 1.000000e-01 1.000000e-01 1.000000e-01 1.000000e-01 1.000000e-01 1.000000e-01 1.000000e-01 1.000000e-01 1.000000e-01 1.000000e-01 1.000000e-01 1.000000e-01 1.000000e-01 1.000000e-01 1.000000e-01 1.000000e-01 1.000000e-01 1.000000e-01 1.000000e-01 1.000000e-01 1.000000e-01 1.000000e-01 1.000000e-01 1.000000e-01 1.000000e-01 1.000000e-01 1.000000e-01 1.000000e-01 1.000000e-01 1.000000e-01 1.000000e-01 1.000000e-01 1.000000e-01 1.000000e-01 1.000000e-01 1.000000e-01 1.000000e-01 1.000000e-01 1.000000e-01 1.000000e-01 1.000000e-01 1.000000e-01 1.000000e-01 1.000000e-01 1.000000e-01 1.000000e-01 1.000000e-01 1.000000e-01
<GCONST> -2.397210e+01
<STATE> 3
<MEAN> 75
 2.262563e+00 2.349690e+00 2.416726e+00 2.462294e+00 2.486063e+00 2.489167e+00 2.472671e+00 2.438051e+00 2.388168e+00 2.328993e+00 2.270164e+00 2.223556e+00 2.197574e+00 2.188335e+00 2.175338e+00 2.133156e+00 2.043557e+00 1.900700e+00 1.708596e+00 1.487750e+00 1.278551e+00 1.126586e+00 1.047772e+00 1.000000e+00 1.003653e+00 4.549329e-03 4.154928e-03 3.731631e-03 3.265906e-03 2.724031e-03 2.151578e-03 1.586017e-03 1.052494e-03 5.476905e-04 1.057162e-04 -2.428972e-04 -4.929700e-04 -6.953850e-04 -8.511826e-04 -9.643846e-04 -1.040410e-03 -1.107612e-03 -1.157933e-03 -1.158492e-03 -1.055482e-03 -8.129369e-04 -4.818993e-04 -2.298204e-04 0.000000e+00 -3.474860e-05 5.476139e-06 4.288009e-06 5.076436e-06 5.392191e-06 6.402365e-06 6.320251e-06 6.110384e-06 5.350232e-06 4.841954e-06 3.112686e-06 5.033582e-06 -1.478282e-07 2.829104e-08 -2.208331e-07 -1.012007e-06 -4.352819e-07 -7.501051e-07 1.493834e-06 3.013213e-06 3.084370e-07 5.648586e-07 -7.756365e-08 2.126230e-07 0.000000e+00 4.307195e-07
<VARIANCE> 75
 8.735170e-01 7.529421e-01 6.314393e-01 5.083671e-01 3.912752e-01 2.845205e-01 1.922121e-01 1.176505e-01 1.000000e-01 1.000000e-01 1.000000e-01 1.000000e-01 1.000000e-01 1.000000e-01 1.000000e-01 1.000000e-01 1.000000e-01 1.000000e-01 1.000000e-01 1.000000e-01 1.000000e-01 1.000000e-01 1.000000e-01 1.000000e-01 1.000000e-01 1.000000e-01 1.000000e-01 1.000000e-01 1.000000e-01 1.000000e-01 1.000000e-01 1.000000e-01 1.000000e-01 1.000000e-01 1.000000e-01 1.000000e-01 1.000000e-01 1.000000e-01 1.000000e-01 1.000000e-01 1.000000e-01 1.000000e-01 1.000000e-01 1.000000e-01 1.000000e-01 1.000000e-01 1.000000e-01 1.000000e-01 1.000000e-01 1.000000e-01 1.000000e-01 1.000000e-01 1.000000e-01 1.000000e-01 1.000000e-01 1.000000e-01 1.000000e-01 1.000000e-01 1.000000e-01 1.000000e-01 1.000000e-01 1.000000e-01 1.000000e-01 1.000000e-01 1.000000e-01 1.000000e-01 1.000000e-01 1.000000e-01 1.000000e-01 1.000000e-01 1.000000e-01 1.000000e-01 1.000000e-01 1.000000e-01 1.000000e-01
<GCONST> -2.397210e+01
<STATE> 4
<MEAN> 75
 2.262563e+00 2.349690e+00 2.416726e+00 2.462294e+00 2.486063e+00 2.489167e+00 2.472671e+00 2.438051e+00 2.388168e+00 2.328993e+00 2.270164e+00 2.223556e+00 2.197574e+00 2.188335e+00 2.175338e+00 2.133156e+00 2.043557e+00 1.900700e+00 1.708596e+00 1.487750e+00 1.278551e+00 1.126586e+00 1.047772e+00 1.000000e+00 1.003653e+00 4.549329e-03 4.154928e-03 3.731631e-03 3.265906e-03 2.724031e-03 2.151578e-03 1.586017e-03 1.052494e-03 5.476905e-04 1.057162e-04 -2.428972e-04 -4.929700e-04 -6.953850e-04 -8.511826e-04 -9.643846e-04 -1.040410e-03 -1.107612e-03 -1.157933e-03 -1.158492e-03 -1.055482e-03 -8.129369e-04 -4.818993e-04 -2.298204e-04 0.000000e+00 -3.474860e-05 5.476139e-06 4.288009e-06 5.076436e-06 5.392191e-06 6.402365e-06 6.320251e-06 6.110384e-06 5.350232e-06 4.841954e-06 3.112686e-06 5.033582e-06 -1.478282e-07 2.829104e-08 -2.208331e-07 -1.012007e-06 -4.352819e-07 -7.501051e-07 1.493834e-06 3.013213e-06 3.084370e-07 5.648586e-07 -7.756365e-08 2.126230e-07 0.000000e+00 4.307195e-07
<VARIANCE> 75
 8.735170e-01 7.529421e-01 6.314393e-01 5.083671e-01 3.912752e-01 2.845205e-01 1.922121e-01 1.176505e-01 1.000000e-01 1.000000e-01 1.000000e-01 1.000000e-01 1.000000e-01 1.000000e-01 1.000000e-01 1.000000e-01 1.000000e-01 1.000000e-01 1.000000e-01 1.000000e-01 1.000000e-01 1.000000e-01 1.000000e-01 1.000000e-01 1.000000e-01 1.000000e-01 1.000000e-01 1.000000e-01 1.000000e-01 1.000000e-01 1.000000e-01 1.000000e-01 1.000000e-01 1.000000e-01 1.000000e-01 1.000000e-01 1.000000e-01 1.000000e-01 1.000000e-01 1.000000e-01 1.000000e-01 1.000000e-01 1.000000e-01 1.000000e-01 1.000000e-01 1.000000e-01 1.000000e-01 1.000000e-01 1.000000e-01 1.000000e-01 1.000000e-01 1.000000e-01 1.000000e-01 1.000000e-01 1.000000e-01 1.000000e-01 1.000000e-01 1.000000e-01 1.000000e-01 1.000000e-01 1.000000e-01 1.000000e-01 1.000000e-01 1.000000e-01 1.000000e-01 1.000000e-01 1.000000e-01 1.000000e-01 1.000000e-01 1.000000e-01 1.000000e-01 1.000000e-01 1.000000e-01 1.000000e-01 1.000000e-01
<GCONST> -2.397210e+01
<TRANSP> 5
 0.000000e+00 1.000000e+00 0.000000e+00 0.000000e+00 0.000000e+00
 0.000000e+00 6.000000e-01 4.000000e-01 0.000000e+00 0.000000e+00
 0.000000e+00 0.000000e+00 6.000000e-01 4.000000e-01 0.000000e+00
 0.000000e+00 0.000000e+00 0.000000e+00 7.000000e-01 3.000000e-01
 0.000000e+00 0.000000e+00 0.000000e+00 0.000000e+00 0.000000e+00
<ENDHMM>
~h "ne"
<BEGINHMM>
<NUMSTATES> 5
<STATE> 2
<MEAN> 75
 2.262563e+00 2.349690e+00 2.416726e+00 2.462294e+00 2.486063e+00 2.489167e+00 2.472671e+00 2.438051e+00 2.388168e+00 2.328993e+00 2.270164e+00 2.223556e+00 2.197574e+00 2.188335e+00 2.175338e+00 2.133156e+00 2.043557e+00 1.900700e+00 1.708596e+00 1.487750e+00 1.278551e+00 1.126586e+00 1.047772e+00 1.000000e+00 1.003653e+00 4.549329e-03 4.154928e-03 3.731631e-03 3.265906e-03 2.724031e-03 2.151578e-03 1.586017e-03 1.052494e-03 5.476905e-04 1.057162e-04 -2.428972e-04 -4.929700e-04 -6.953850e-04 -8.511826e-04 -9.643846e-04 -1.040410e-03 -1.107612e-03 -1.157933e-03 -1.158492e-03 -1.055482e-03 -8.129369e-04 -4.818993e-04 -2.298204e-04 0.000000e+00 -3.474860e-05 5.476139e-06 4.288009e-06 5.076436e-06 5.392191e-06 6.402365e-06 6.320251e-06 6.110384e-06 5.350232e-06 4.841954e-06 3.112686e-06 5.033582e-06 -1.478282e-07 2.829104e-08 -2.208331e-07 -1.012007e-06 -4.352819e-07 -7.501051e-07 1.493834e-06 3.013213e-06 3.084370e-07 5.648586e-07 -7.756365e-08 2.126230e-07 0.000000e+00 4.307195e-07
<VARIANCE> 75
 8.735170e-01 7.529421e-01 6.314393e-01 5.083671e-01 3.912752e-01 2.845205e-01 1.922121e-01 1.176505e-01 1.000000e-01 1.000000e-01 1.000000e-01 1.000000e-01 1.000000e-01 1.000000e-01 1.000000e-01 1.000000e-01 1.000000e-01 1.000000e-01 1.000000e-01 1.000000e-01 1.000000e-01 1.000000e-01 1.000000e-01 1.000000e-01 1.000000e-01 1.000000e-01 1.000000e-01 1.000000e-01 1.000000e-01 1.000000e-01 1.000000e-01 1.000000e-01 1.000000e-01 1.000000e-01 1.000000e-01 1.000000e-01 1.000000e-01 1.000000e-01 1.000000e-01 1.000000e-01 1.000000e-01 1.000000e-01 1.000000e-01 1.000000e-01 1.000000e-01 1.000000e-01 1.000000e-01 1.000000e-01 1.000000e-01 1.000000e-01 1.000000e-01 1.000000e-01 1.000000e-01 1.000000e-01 1.000000e-01 1.000000e-01 1.000000e-01 1.000000e-01 1.000000e-01 1.000000e-01 1.000000e-01 1.000000e-01 1.000000e-01 1.000000e-01 1.000000e-01 1.000000e-01 1.000000e-01 1.000000e-01 1.000000e-01 1.000000e-01 1.000000e-01 1.000000e-01 1.000000e-01 1.000000e-01 1.000000e-01
<GCONST> -2.397210e+01
<STATE> 3
<MEAN> 75
 2.262563e+00 2.349690e+00 2.416726e+00 2.462294e+00 2.486063e+00 2.489167e+00 2.472671e+00 2.438051e+00 2.388168e+00 2.328993e+00 2.270164e+00 2.223556e+00 2.197574e+00 2.188335e+00 2.175338e+00 2.133156e+00 2.043557e+00 1.900700e+00 1.708596e+00 1.487750e+00 1.278551e+00 1.126586e+00 1.047772e+00 1.000000e+00 1.003653e+00 4.549329e-03 4.154928e-03 3.731631e-03 3.265906e-03 2.724031e-03 2.151578e-03 1.586017e-03 1.052494e-03 5.476905e-04 1.057162e-04 -2.428972e-04 -4.929700e-04 -6.953850e-04 -8.511826e-04 -9.643846e-04 -1.040410e-03 -1.107612e-03 -1.157933e-03 -1.158492e-03 -1.055482e-03 -8.129369e-04 -4.818993e-04 -2.298204e-04 0.000000e+00 -3.474860e-05 5.476139e-06 4.288009e-06 5.076436e-06 5.392191e-06 6.402365e-06 6.320251e-06 6.110384e-06 5.350232e-06 4.841954e-06 3.112686e-06 5.033582e-06 -1.478282e-07 2.829104e-08 -2.208331e-07 -1.012007e-06 -4.352819e-07 -7.501051e-07 1.493834e-06 3.013213e-06 3.084370e-07 5.648586e-07 -7.756365e-08 2.126230e-07 0.000000e+00 4.307195e-07
<VARIANCE> 75
 8.735170e-01 7.529421e-01 6.314393e-01 5.083671e-01 3.912752e-01 2.845205e-01 1.922121e-01 1.176505e-01 1.000000e-01 1.000000e-01 1.000000e-01 1.000000e-01 1.000000e-01 1.000000e-01 1.000000e-01 1.000000e-01 1.000000e-01 1.000000e-01 1.000000e-01 1.000000e-01 1.000000e-01 1.000000e-01 1.000000e-01 1.000000e-01 1.000000e-01 1.000000e-01 1.000000e-01 1.000000e-01 1.000000e-01 1.000000e-01 1.000000e-01 1.000000e-01 1.000000e-01 1.000000e-01 1.000000e-01 1.000000e-01 1.000000e-01 1.000000e-01 1.000000e-01 1.000000e-01 1.000000e-01 1.000000e-01 1.000000e-01 1.000000e-01 1.000000e-01 1.000000e-01 1.000000e-01 1.000000e-01 1.000000e-01 1.000000e-01 1.000000e-01 1.000000e-01 1.000000e-01 1.000000e-01 1.000000e-01 1.000000e-01 1.000000e-01 1.000000e-01 1.000000e-01 1.000000e-01 1.000000e-01 1.000000e-01 1.000000e-01 1.000000e-01 1.000000e-01 1.000000e-01 1.000000e-01 1.000000e-01 1.000000e-01 1.000000e-01 1.000000e-01 1.000000e-01 1.000000e-01 1.000000e-01 1.000000e-01
<GCONST> -2.397210e+01
<STATE> 4
<MEAN> 75
 2.262563e+00 2.349690e+00 2.416726e+00 2.462294e+00 2.486063e+00 2.489167e+00 2.472671e+00 2.438051e+00 2.388168e+00 2.328993e+00 2.270164e+00 2.223556e+00 2.197574e+00 2.188335e+00 2.175338e+00 2.133156e+00 2.043557e+00 1.900700e+00 1.708596e+00 1.487750e+00 1.278551e+00 1.126586e+00 1.047772e+00 1.000000e+00 1.003653e+00 4.549329e-03 4.154928e-03 3.731631e-03 3.265906e-03 2.724031e-03 2.151578e-03 1.586017e-03 1.052494e-03 5.476905e-04 1.057162e-04 -2.428972e-04 -4.929700e-04 -6.953850e-04 -8.511826e-04 -9.643846e-04 -1.040410e-03 -1.107612e-03 -1.157933e-03 -1.158492e-03 -1.055482e-03 -8.129369e-04 -4.818993e-04 -2.298204e-04 0.000000e+00 -3.474860e-05 5.476139e-06 4.288009e-06 5.076436e-06 5.392191e-06 6.402365e-06 6.320251e-06 6.110384e-06 5.350232e-06 4.841954e-06 3.112686e-06 5.033582e-06 -1.478282e-07 2.829104e-08 -2.208331e-07 -1.012007e-06 -4.352819e-07 -7.501051e-07 1.493834e-06 3.013213e-06 3.084370e-07 5.648586e-07 -7.756365e-08 2.126230e-07 0.000000e+00 4.307195e-07
<VARIANCE> 75
 8.735170e-01 7.529421e-01 6.314393e-01 5.083671e-01 3.912752e-01 2.845205e-01 1.922121e-01 1.176505e-01 1.000000e-01 1.000000e-01 1.000000e-01 1.000000e-01 1.000000e-01 1.000000e-01 1.000000e-01 1.000000e-01 1.000000e-01 1.000000e-01 1.000000e-01 1.000000e-01 1.000000e-01 1.000000e-01 1.000000e-01 1.000000e-01 1.000000e-01 1.000000e-01 1.000000e-01 1.000000e-01 1.000000e-01 1.000000e-01 1.000000e-01 1.000000e-01 1.000000e-01 1.000000e-01 1.000000e-01 1.000000e-01 1.000000e-01 1.000000e-01 1.000000e-01 1.000000e-01 1.000000e-01 1.000000e-01 1.000000e-01 1.000000e-01 1.000000e-01 1.000000e-01 1.000000e-01 1.000000e-01 1.000000e-01 1.000000e-01 1.000000e-01 1.000000e-01 1.000000e-01 1.000000e-01 1.000000e-01 1.000000e-01 1.000000e-01 1.000000e-01 1.000000e-01 1.000000e-01 1.000000e-01 1.000000e-01 1.000000e-01 1.000000e-01 1.000000e-01 1.000000e-01 1.000000e-01 1.000000e-01 1.000000e-01 1.000000e-01 1.000000e-01 1.000000e-01 1.000000e-01 1.000000e-01 1.000000e-01
<GCONST> -2.397210e+01
<TRANSP> 5
 0.000000e+00 1.000000e+00 0.000000e+00 0.000000e+00 0.000000e+00
 0.000000e+00 6.000000e-01 4.000000e-01 0.000000e+00 0.000000e+00
 0.000000e+00 0.000000e+00 6.000000e-01 4.000000e-01 0.000000e+00
 0.000000e+00 0.000000e+00 0.000000e+00 7.000000e-01 3.000000e-01
 0.000000e+00 0.000000e+00 0.000000e+00 0.000000e+00 0.000000e+00
<ENDHMM>
