~h "e"
<BEGINHMM>
<NUMSTATES> 5
<STATE> 2
<MEAN> 75
 2.260400e+00 2.347807e+00 2.414910e+00 2.460632e+00 2.484652e+00 2.488057e+00 2.471910e+00 2.437599e+00 2.387998e+00 2.329202e+00 2.270734e+00 2.224278e+00 2.198296e+00 2.189095e+00 2.176374e+00 2.134562e+00 2.045364e+00 1.902811e+00 1.710815e+00 1.489755e+00 1.280012e+00 1.127315e+00 1.047976e+00 1.000000e+00 1.003675e+00 4.542513e-03 4.164405e-03 3.740077e-03 3.265486e-03 2.717423e-03 2.142897e-03 1.574751e-03 1.037562e-03 5.302646e-04 9.009236e-05 -2.533655e-04 -4.970497e-04 -6.968019e-04 -8.526506e-04 -9.660069e-04 -1.042494e-03 -1.109979e-03 -1.159587e-03 -1.160635e-03 -1.057515e-03 -8.156617e-04 -4.841507e-04 -2.304024e-04 0.000000e+00 -3.498917e-05 5.363866e-06 4.421892e-06 5.344788e-06 5.719035e-06 6.734583e-06 6.348530e-06 6.317689e-06 5.595522e-06 4.851570e-06 2.971266e-06 4.957848e-06 -8.810740e-08 -1.480624e-07 -3.433597e-07 -1.024633e-06 -3.370012e-07 -1.000106e-06 1.506070e-06 2.934925e-06 4.205708e-07 4.323758e-07 -6.176643e-08 2.252754e-07 0.000000e+00 4.587235e-07
<VARIANCE> 75
 8.703106e-01 7.490857e-01 6.273318e-01 5.043118e-01 3.875411e-01 2.812354e-01 1.891963e-01 1.152333e-01 1.000000e-01 1.000000e-01 1.000000e-01 1.000000e-01 1.000000e-01 1.000000e-01 1.000000e-01 1.000000e-01 1.000000e-01 1.000000e-01 1.000000e-01 1.000000e-01 1.000000e-01 1.000000e-01 1.000000e-01 1.000000e-01 1.000000e-01 1.000000e-01 1.000000e-01 1.000000e-01 1.000000e-01 1.000000e-01 1.000000e-01 1.000000e-01 1.000000e-01 1.000000e-01 1.000000e-01 1.000000e-01 1.000000e-01 1.000000e-01 1.000000e-01 1.000000e-01 1.000000e-01 1.000000e-01 1.000000e-01 1.000000e-01 1.000000e-01 1.000000e-01 1.000000e-01 1.000000e-01 1.000000e-01 1.000000e-01 1.000000e-01 1.000000e-01 1.000000e-01 1.000000e-01 1.000000e-01 1.000000e-01 1.000000e-01 1.000000e-01 1.000000e-01 1.000000e-01 1.000000e-01 1.000000e-01 1.000000e-01 1.000000e-01 1.000000e-01 1.000000e-01 1.000000e-01 1.000000e-01 1.000000e-01 1.000000e-01 1.000000e-01 1.000000e-01 1.000000e-01 1.000000e-01 1.000000e-01
<GCONST> -2.405325e+01
<STATE> 3
<MEAN> 75
 2.260400e+00 2.347807e+00 2.414910e+00 2.460632e+00 2.484652e+00 2.488057e+00 2.471910e+00 2.437599e+00 2.387998e+00 2.329202e+00 2.270734e+00 2.224278e+00 2.198296e+00 2.189095e+00 2.176374e+00 2.134562e+00 2.045364e+00 1.902811e+00 1.710815e+00 1.489755e+00 1.280012e+00 1.127315e+00 1.047976e+00 1.000000e+00 1.003675e+00 4.542513e-03 4.164405e-03 3.740077e-03 3.265486e-03 2.717423e-03 2.142897e-03 1.574751e-03 1.037562e-03 5.302646e-04 9.009236e-05 -2.533655e-04 -4.970497e-04 -6.968019e-04 -8.526506e-04 -9.660069e-04 -1.042494e-03 -1.109979e-03 -1.159587e-03 -1.160635e-03 -1.057515e-03 -8.156617e-04 -4.841507e-04 -2.304024e-04 0.000000e+00 -3.498917e-05 5.363866e-06 4.421892e-06 5.344788e-06 5.719035e-06 6.734583e-06 6.348530e-06 6.317689e-06 5.595522e-06 4.851570e-06 2.971266e-06 4.957848e-06 -8.810740e-08 -1.480624e-07 -3.433597e-07 -1.024633e-06 -3.370012e-07 -1.000106e-06 1.506070e-06 2.934925e-06 4.205708e-07 4.323758e-07 -6.176643e-08 2.252754e-07 0.000000e+00 4.587235e-07
<VARIANCE> 75
 8.703106e-01 7.490857e-01 6.273318e-01 5.043118e-01 3.875411e-01 2.812354e-01 1.891963e-01 1.152333e-01 1.000000e-01 1.000000e-01 1.000000e-01 1.000000e-01 1.000000e-01 1.000000e-01 1.000000e-01 1.000000e-01 1.000000e-01 1.000000e-01 1.000000e-01 1.000000e-01 1.000000e-01 1.000000e-01 1.000000e-01 1.000000e-01 1.000000e-01 1.000000e-01 1.000000e-01 1.000000e-01 1.000000e-01 1.000000e-01 1.000000e-01 1.000000e-01 1.000000e-01 1.000000e-01 1.000000e-01 1.000000e-01 1.000000e-01 1.000000e-01 1.000000e-01 1.000000e-01 1.000000e-01 1.000000e-01 1.000000e-01 1.000000e-01 1.000000e-01 1.000000e-01 1.000000e-01 1.000000e-01 1.000000e-01 1.000000e-01 1.000000e-01 1.000000e-01 1.000000e-01 1.000000e-01 1.000000e-01 1.000000e-01 1.000000e-01 1.000000e-01 1.000000e-01 1.000000e-01 1.000000e-01 1.000000e-01 1.000000e-01 1.000000e-01 1.000000e-01 1.000000e-01 1.000000e-01 1.000000e-01 1.000000e-01 1.000000e-01 1.000000e-01 1.000000e-01 1.000000e-01 1.000000e-01 1.000000e-01
<GCONST> -2.405325e+01
<STATE> 4
<MEAN> 75
 2.260400e+00 2.347807e+00 2.414910e+00 2.460632e+00 2.484652e+00 2.488057e+00 2.471910e+00 2.437599e+00 2.387998e+00 2.329202e+00 2.270734e+00 2.224278e+00 2.198296e+00 2.189095e+00 2.176374e+00 2.134562e+00 2.045364e+00 1.902811e+00 1.710815e+00 1.489755e+00 1.280012e+00 1.127315e+00 1.047976e+00 1.000000e+00 1.003675e+00 4.542513e-03 4.164405e-03 3.740077e-03 3.265486e-03 2.717423e-03 2.142897e-03 1.574751e-03 1.037562e-03 5.302646e-04 9.009236e-05 -2.533655e-04 -4.970497e-04 -6.968019e-04 -8.526506e-04 -9.660069e-04 -1.042494e-03 -1.109979e-03 -1.159587e-03 -1.160635e-03 -1.057515e-03 -8.156617e-04 -4.841507e-04 -2.304024e-04 0.000000e+00 -3.498917e-05 5.363866e-06 4.421892e-06 5.344788e-06 5.719035e-06 6.734583e-06 6.348530e-06 6.317689e-06 5.595522e-06 4.851570e-06 2.971266e-06 4.957848e-06 -8.810740e-08 -1.480624e-07 -3.433597e-07 -1.024633e-06 -3.370012e-07 -1.000106e-06 1.506070e-06 2.934925e-06 4.205708e-07 4.323758e-07 -6.176643e-08 2.252754e-07 0.000000e+00 4.587235e-07
<VARIANCE> 75
 8.703106e-01 7.490857e-01 6.273318e-01 5.043118e-01 3.875411e-01 2.812354e-01 1.891963e-01 1.152333e-01 1.000000e-01 1.000000e-01 1.000000e-01 1.000000e-01 1.000000e-01 1.000000e-01 1.000000e-01 1.000000e-01 1.000000e-01 1.000000e-01 1.000000e-01 1.000000e-01 1.000000e-01 1.000000e-01 1.000000e-01 1.000000e-01 1.000000e-01 1.000000e-01 1.000000e-01 1.000000e-01 1.000000e-01 1.000000e-01 1.000000e-01 1.000000e-01 1.000000e-01 1.000000e-01 1.000000e-01 1.000000e-01 1.000000e-01 1.000000e-01 1.000000e-01 1.000000e-01 1.000000e-01 1.000000e-01 1.000000e-01 1.000000e-01 1.000000e-01 1.000000e-01 1.000000e-01 1.000000e-01 1.000000e-01 1.000000e-01 1.000000e-01 1.000000e-01 1.000000e-01 1.000000e-01 1.000000e-01 1.000000e-01 1.000000e-01 1.000000e-01 1.000000e-01 1.000000e-01 1.000000e-01 1.000000e-01 1.000000e-01 1.000000e-01 1.000000e-01 1.000000e-01 1.000000e-01 1.000000e-01 1.000000e-01 1.000000e-01 1.000000e-01 1.000000e-01 1.000000e-01 1.000000e-01 1.000000e-01
<GCONST> -2.405325e+01
<TRANSP> 5
 0.000000e+00 1.000000e+00 0.000000e+00 0.000000e+00 0.000000e+00
 0.000000e+00 6.000000e-01 4.000000e-01 0.000000e+00 0.000000e+00
 0.000000e+00 0.000000e+00 6.000000e-01 4.000000e-01 0.000000e+00
 0.000000e+00 0.000000e+00 0.000000e+00 7.000000e-01 3.000000e-01
 0.000000e+00 0.000000e+00 0.000000e+00 0.000000e+00 0.000000e+00
<ENDHMM>
~h "ne"
<BEGINHMM>
<NUMSTATES> 5
<STATE> 2
<MEAN> 75
 2.260400e+00 2.347807e+00 2.414910e+00 2.460632e+00 2.484652e+00 2.488057e+00 2.471910e+00 2.437599e+00 2.387998e+00 2.329202e+00 2.270734e+00 2.224278e+00 2.198296e+00 2.189095e+00 2.176374e+00 2.134562e+00 2.045364e+00 1.902811e+00 1.710815e+00 1.489755e+00 1.280012e+00 1.127315e+00 1.047976e+00 1.000000e+00 1.003675e+00 4.542513e-03 4.164405e-03 3.740077e-03 3.265486e-03 2.717423e-03 2.142897e-03 1.574751e-03 1.037562e-03 5.302646e-04 9.009236e-05 -2.533655e-04 -4.970497e-04 -6.968019e-04 -8.526506e-04 -9.660069e-04 -1.042494e-03 -1.109979e-03 -1.159587e-03 -1.160635e-03 -1.057515e-03 -8.156617e-04 -4.841507e-04 -2.304024e-04 0.000000e+00 -3.498917e-05 5.363866e-06 4.421892e-06 5.344788e-06 5.719035e-06 6.734583e-06 6.348530e-06 6.317689e-06 5.595522e-06 4.851570e-06 2.971266e-06 4.957848e-06 -8.810740e-08 -1.480624e-07 -3.433597e-07 -1.024633e-06 -3.370012e-07 -1.000106e-06 1.506070e-06 2.934925e-06 4.205708e-07 4.323758e-07 -6.176643e-08 2.252754e-07 0.000000e+00 4.587235e-07
<VARIANCE> 75
 8.703106e-01 7.490857e-01 6.273318e-01 5.043118e-01 3.875411e-01 2.812354e-01 1.891963e-01 1.152333e-01 1.000000e-01 1.000000e-01 1.000000e-01 1.000000e-01 1.000000e-01 1.000000e-01 1.000000e-01 1.000000e-01 1.000000e-01 1.000000e-01 1.000000e-01 1.000000e-01 1.000000e-01 1.000000e-01 1.000000e-01 1.000000e-01 1.000000e-01 1.000000e-01 1.000000e-01 1.000000e-01 1.000000e-01 1.000000e-01 1.000000e-01 1.000000e-01 1.000000e-01 1.000000e-01 1.000000e-01 1.000000e-01 1.000000e-01 1.000000e-01 1.000000e-01 1.000000e-01 1.000000e-01 1.000000e-01 1.000000e-01 1.000000e-01 1.000000e-01 1.000000e-01 1.000000e-01 1.000000e-01 1.000000e-01 1.000000e-01 1.000000e-01 1.000000e-01 1.000000e-01 1.000000e-01 1.000000e-01 1.000000e-01 1.000000e-01 1.000000e-01 1.000000e-01 1.000000e-01 1.000000e-01 1.000000e-01 1.000000e-01 1.000000e-01 1.000000e-01 1.000000e-01 1.000000e-01 1.000000e-01 1.000000e-01 1.000000e-01 1.000000e-01 1.000000e-01 1.000000e-01 1.000000e-01 1.000000e-01
<GCONST> -2.405325e+01
<STATE> 3
<MEAN> 75
 2.260400e+00 2.347807e+00 2.414910e+00 2.460632e+00 2.484652e+00 2.488057e+00 2.471910e+00 2.437599e+00 2.387998e+00 2.329202e+00 2.270734e+00 2.224278e+00 2.198296e+00 2.189095e+00 2.176374e+00 2.134562e+00 2.045364e+00 1.902811e+00 1.710815e+00 1.489755e+00 1.280012e+00 1.127315e+00 1.047976e+00 1.000000e+00 1.003675e+00 4.542513e-03 4.164405e-03 3.740077e-03 3.265486e-03 2.717423e-03 2.142897e-03 1.574751e-03 1.037562e-03 5.302646e-04 9.009236e-05 -2.533655e-04 -4.970497e-04 -6.968019e-04 -8.526506e-04 -9.660069e-04 -1.042494e-03 -1.109979e-03 -1.159587e-03 -1.160635e-03 -1.057515e-03 -8.156617e-04 -4.841507e-04 -2.304024e-04 0.000000e+00 -3.498917e-05 5.363866e-06 4.421892e-06 5.344788e-06 5.719035e-06 6.734583e-06 6.348530e-06 6.317689e-06 5.595522e-06 4.851570e-06 2.971266e-06 4.957848e-06 -8.810740e-08 -1.480624e-07 -3.433597e-07 -1.024633e-06 -3.370012e-07 -1.000106e-06 1.506070e-06 2.934925e-06 4.205708e-07 4.323758e-07 -6.176643e-08 2.252754e-07 0.000000e+00 4.587235e-07
<VARIANCE> 75
 8.703106e-01 7.490857e-01 6.273318e-01 5.043118e-01 3.875411e-01 2.812354e-01 1.891963e-01 1.152333e-01 1.000000e-01 1.000000e-01 1.000000e-01 1.000000e-01 1.000000e-01 1.000000e-01 1.000000e-01 1.000000e-01 1.000000e-01 1.000000e-01 1.000000e-01 1.000000e-01 1.000000e-01 1.000000e-01 1.000000e-01 1.000000e-01 1.000000e-01 1.000000e-01 1.000000e-01 1.000000e-01 1.000000e-01 1.000000e-01 1.000000e-01 1.000000e-01 1.000000e-01 1.000000e-01 1.000000e-01 1.000000e-01 1.000000e-01 1.000000e-01 1.000000e-01 1.000000e-01 1.000000e-01 1.000000e-01 1.000000e-01 1.000000e-01 1.000000e-01 1.000000e-01 1.000000e-01 1.000000e-01 1.000000e-01 1.000000e-01 1.000000e-01 1.000000e-01 1.000000e-01 1.000000e-01 1.000000e-01 1.000000e-01 1.000000e-01 1.000000e-01 1.000000e-01 1.000000e-01 1.000000e-01 1.000000e-01 1.000000e-01 1.000000e-01 1.000000e-01 1.000000e-01 1.000000e-01 1.000000e-01 1.000000e-01 1.000000e-01 1.000000e-01 1.000000e-01 1.000000e-01 1.000000e-01 1.000000e-01
<GCONST> -2.405325e+01
<STATE> 4
<MEAN> 75
 2.260400e+00 2.347807e+00 2.414910e+00 2.460632e+00 2.484652e+00 2.488057e+00 2.471910e+00 2.437599e+00 2.387998e+00 2.329202e+00 2.270734e+00 2.224278e+00 2.198296e+00 2.189095e+00 2.176374e+00 2.134562e+00 2.045364e+00 1.902811e+00 1.710815e+00 1.489755e+00 1.280012e+00 1.127315e+00 1.047976e+00 1.000000e+00 1.003675e+00 4.542513e-03 4.164405e-03 3.740077e-03 3.265486e-03 2.717423e-03 2.142897e-03 1.574751e-03 1.037562e-03 5.302646e-04 9.009236e-05 -2.533655e-04 -4.970497e-04 -6.968019e-04 -8.526506e-04 -9.660069e-04 -1.042494e-03 -1.109979e-03 -1.159587e-03 -1.160635e-03 -1.057515e-03 -8.156617e-04 -4.841507e-04 -2.304024e-04 0.000000e+00 -3.498917e-05 5.363866e-06 4.421892e-06 5.344788e-06 5.719035e-06 6.734583e-06 6.348530e-06 6.317689e-06 5.595522e-06 4.851570e-06 2.971266e-06 4.957848e-06 -8.810740e-08 -1.480624e-07 -3.433597e-07 -1.024633e-06 -3.370012e-07 -1.000106e-06 1.506070e-06 2.934925e-06 4.205708e-07 4.323758e-07 -6.176643e-08 2.252754e-07 0.000000e+00 4.587235e-07
<VARIANCE> 75
 8.703106e-01 7.490857e-01 6.273318e-01 5.043118e-01 3.875411e-01 2.812354e-01 1.891963e-01 1.152333e-01 1.000000e-01 1.000000e-01 1.000000e-01 1.000000e-01 1.000000e-01 1.000000e-01 1.000000e-01 1.000000e-01 1.000000e-01 1.000000e-01 1.000000e-01 1.000000e-01 1.000000e-01 1.000000e-01 1.000000e-01 1.000000e-01 1.000000e-01 1.000000e-01 1.000000e-01 1.000000e-01 1.000000e-01 1.000000e-01 1.000000e-01 1.000000e-01 1.000000e-01 1.000000e-01 1.000000e-01 1.000000e-01 1.000000e-01 1.000000e-01 1.000000e-01 1.000000e-01 1.000000e-01 1.000000e-01 1.000000e-01 1.000000e-01 1.000000e-01 1.000000e-01 1.000000e-01 1.000000e-01 1.000000e-01 1.000000e-01 1.000000e-01 1.000000e-01 1.000000e-01 1.000000e-01 1.000000e-01 1.000000e-01 1.000000e-01 1.000000e-01 1.000000e-01 1.000000e-01 1.000000e-01 1.000000e-01 1.000000e-01 1.000000e-01 1.000000e-01 1.000000e-01 1.000000e-01 1.000000e-01 1.000000e-01 1.000000e-01 1.000000e-01 1.000000e-01 1.000000e-01 1.000000e-01 1.000000e-01
<GCONST> -2.405325e+01
<TRANSP> 5
 0.000000e+00 1.000000e+00 0.000000e+00 0.000000e+00 0.000000e+00
 0.000000e+00 6.000000e-01 4.000000e-01 0.000000e+00 0.000000e+00
 0.000000e+00 0.000000e+00 6.000000e-01 4.000000e-01 0.000000e+00
 0.000000e+00 0.000000e+00 0.000000e+00 7.000000e-01 3.000000e-01
 0.000000e+00 0.000000e+00 0.000000e+00 0.000000e+00 0.000000e+00
<ENDHMM>
