~h "e"
<BEGINHMM>
<NUMSTATES> 5
<STATE> 2
<MEAN> 75
 1.363207e+00 2.079850e+00 2.281446e+00 2.431101e+00 2.510082e+00 2.531564e+00 2.545765e+00 2.529341e+00 2.497827e+00 2.451933e+00 2.354584e+00 2.249051e+00 2.207788e+00 2.217756e+00 2.247176e+00 2.233982e+00 2.135255e+00 1.973078e+00 1.775787e+00 1.591760e+00 1.419930e+00 1.245937e+00 1.116158e+00 1.026992e+00 1.015337e+00 1.733797e-03 1.606481e-03 -6.087971e-04 -2.391206e-03 -3.750003e-03 -3.578705e-03 -2.543982e-03 -1.768518e-03 -1.643520e-03 -1.287038e-03 -3.171296e-04 6.944448e-04 9.675930e-04 9.537036e-04 1.233796e-03 1.252315e-03 1.212963e-03 1.409722e-03 1.467592e-03 1.013889e-03 3.518518e-04 9.953763e-05 5.300923e-04 -5.092585e-05 2.314810e-05 2.303242e-04 -4.444444e-04 -6.259265e-04 -5.717594e-04 -3.842594e-04 -1.027778e-04 -4.583357e-05 -6.828698e-05 -1.708334e-04 -2.071761e-04 -1.581019e-04 -1.703704e-04 -1.861113e-04 -1.039352e-04 -7.847223e-05 -1.502314e-04 -1.236112e-04 -3.263879e-05 -1.763890e-04 -1.004629e-04 -2.935185e-04 5.601842e-05 -3.541667e-05 5.439814e-05 4.629608e-06
<VARIANCE> 75
 1.999224e-01 6.247803e-01 5.001605e-01 3.721787e-01 2.728300e-01 2.395055e-01 1.895571e-01 1.650165e-01 1.262849e-01 1.034555e-01 1.140289e-01 1.187209e-01 1.261645e-01 1.188918e-01 1.132942e-01 1.111820e-01 1.137010e-01 1.493350e-01 1.788118e-01 1.726011e-01 1.287404e-01 5.822875e-02 1.527761e-02 1.596965e-03 3.816500e-03 7.858001e-03 1.315734e-02 8.562178e-03 7.202021e-03 5.988087e-03 4.089366e-03 3.078545e-03 2.683230e-03 2.056564e-03 1.598857e-03 1.368045e-03 1.576709e-03 1.506255e-03 1.290629e-03 1.118964e-03 7.710387e-04 9.459044e-04 1.139627e-03 1.149571e-03 1.182413e-03 8.975356e-04 1.023196e-03 6.724594e-04 1.212960e-04 3.542703e-04 1.518223e-03 2.052825e-03 1.159840e-03 9.642935e-04 8.732249e-04 6.361549e-04 4.402208e-04 3.797588e-04 2.672720e-04 2.482812e-04 2.467925e-04 2.596336e-04 2.359031e-04 2.024466e-04 1.899456e-04 1.107850e-04 1.398948e-04 1.802955e-04 1.894966e-04 2.102599e-04 1.439518e-04 1.720699e-04 1.238439e-04 2.332965e-05 7.031522e-05
<GCONST> -2.826468e+02
<STATE> 3
<MEAN> 75
 1.363207e+00 2.079850e+00 2.281446e+00 2.431101e+00 2.510082e+00 2.531564e+00 2.545765e+00 2.529341e+00 2.497827e+00 2.451933e+00 2.354584e+00 2.249051e+00 2.207788e+00 2.217756e+00 2.247176e+00 2.233982e+00 2.135255e+00 1.973078e+00 1.775787e+00 1.591760e+00 1.419930e+00 1.245937e+00 1.116158e+00 1.026992e+00 1.015337e+00 1.733797e-03 1.606481e-03 -6.087971e-04 -2.391206e-03 -3.750003e-03 -3.578705e-03 -2.543982e-03 -1.768518e-03 -1.643520e-03 -1.287038e-03 -3.171296e-04 6.944448e-04 9.675930e-04 9.537036e-04 1.233796e-03 1.252315e-03 1.212963e-03 1.409722e-03 1.467592e-03 1.013889e-03 3.518518e-04 9.953763e-05 5.300923e-04 -5.092585e-05 2.314810e-05 2.303242e-04 -4.444444e-04 -6.259265e-04 -5.717594e-04 -3.842594e-04 -1.027778e-04 -4.583357e-05 -6.828698e-05 -1.708334e-04 -2.071761e-04 -1.581019e-04 -1.703704e-04 -1.861113e-04 -1.039352e-04 -7.847223e-05 -1.502314e-04 -1.236112e-04 -3.263879e-05 -1.763890e-04 -1.004629e-04 -2.935185e-04 5.601842e-05 -3.541667e-05 5.439814e-05 4.629608e-06
<VARIANCE> 75
 1.999224e-01 6.247803e-01 5.001605e-01 3.721787e-01 2.728300e-01 2.395055e-01 1.895571e-01 1.650165e-01 1.262849e-01 1.034555e-01 1.140289e-01 1.187209e-01 1.261645e-01 1.188918e-01 1.132942e-01 1.111820e-01 1.137010e-01 1.493350e-01 1.788118e-01 1.726011e-01 1.287404e-01 5.822875e-02 1.527761e-02 1.596965e-03 3.816500e-03 7.858001e-03 1.315734e-02 8.562178e-03 7.202021e-03 5.988087e-03 4.089366e-03 3.078545e-03 2.683230e-03 2.056564e-03 1.598857e-03 1.368045e-03 1.576709e-03 1.506255e-03 1.290629e-03 1.118964e-03 7.710387e-04 9.459044e-04 1.139627e-03 1.149571e-03 1.182413e-03 8.975356e-04 1.023196e-03 6.724594e-04 1.212960e-04 3.542703e-04 1.518223e-03 2.052825e-03 1.159840e-03 9.642935e-04 8.732249e-04 6.361549e-04 4.402208e-04 3.797588e-04 2.672720e-04 2.482812e-04 2.467925e-04 2.596336e-04 2.359031e-04 2.024466e-04 1.899456e-04 1.107850e-04 1.398948e-04 1.802955e-04 1.894966e-04 2.102599e-04 1.439518e-04 1.720699e-04 1.238439e-04 2.332965e-05 7.031522e-05
<GCONST> -2.826468e+02
<STATE> 4
<MEAN> 75
 1.363207e+00 2.079850e+00 2.281446e+00 2.431101e+00 2.510082e+00 2.531564e+00 2.545765e+00 2.529341e+00 2.497827e+00 2.451933e+00 2.354584e+00 2.249051e+00 2.207788e+00 2.217756e+00 2.247176e+00 2.233982e+00 2.135255e+00 1.973078e+00 1.775787e+00 1.591760e+00 1.419930e+00 1.245937e+00 1.116158e+00 1.026992e+00 1.015337e+00 1.733797e-03 1.606481e-03 -6.087971e-04 -2.391206e-03 -3.750003e-03 -3.578705e-03 -2.543982e-03 -1.768518e-03 -1.643520e-03 -1.287038e-03 -3.171296e-04 6.944448e-04 9.675930e-04 9.537036e-04 1.233796e-03 1.252315e-03 1.212963e-03 1.409722e-03 1.467592e-03 1.013889e-03 3.518518e-04 9.953763e-05 5.300923e-04 -5.092585e-05 2.314810e-05 2.303242e-04 -4.444444e-04 -6.259265e-04 -5.717594e-04 -3.842594e-04 -1.027778e-04 -4.583357e-05 -6.828698e-05 -1.708334e-04 -2.071761e-04 -1.581019e-04 -1.703704e-04 -1.861113e-04 -1.039352e-04 -7.847223e-05 -1.502314e-04 -1.236112e-04 -3.263879e-05 -1.763890e-04 -1.004629e-04 -2.935185e-04 5.601842e-05 -3.541667e-05 5.439814e-05 4.629608e-06
<VARIANCE> 75
 1.999224e-01 6.247803e-01 5.001605e-01 3.721787e-01 2.728300e-01 2.395055e-01 1.895571e-01 1.650165e-01 1.262849e-01 1.034555e-01 1.140289e-01 1.187209e-01 1.261645e-01 1.188918e-01 1.132942e-01 1.111820e-01 1.137010e-01 1.493350e-01 1.788118e-01 1.726011e-01 1.287404e-01 5.822875e-02 1.527761e-02 1.596965e-03 3.816500e-03 7.858001e-03 1.315734e-02 8.562178e-03 7.202021e-03 5.988087e-03 4.089366e-03 3.078545e-03 2.683230e-03 2.056564e-03 1.598857e-03 1.368045e-03 1.576709e-03 1.506255e-03 1.290629e-03 1.118964e-03 7.710387e-04 9.459044e-04 1.139627e-03 1.149571e-03 1.182413e-03 8.975356e-04 1.023196e-03 6.724594e-04 1.212960e-04 3.542703e-04 1.518223e-03 2.052825e-03 1.159840e-03 9.642935e-04 8.732249e-04 6.361549e-04 4.402208e-04 3.797588e-04 2.672720e-04 2.482812e-04 2.467925e-04 2.596336e-04 2.359031e-04 2.024466e-04 1.899456e-04 1.107850e-04 1.398948e-04 1.802955e-04 1.894966e-04 2.102599e-04 1.439518e-04 1.720699e-04 1.238439e-04 2.332965e-05 7.031522e-05
<GCONST> -2.826468e+02
<TRANSP> 5
 0.000000e+00 1.000000e+00 0.000000e+00 0.000000e+00 0.000000e+00
 0.000000e+00 6.000000e-01 4.000000e-01 0.000000e+00 0.000000e+00
 0.000000e+00 0.000000e+00 6.000000e-01 4.000000e-01 0.000000e+00
 0.000000e+00 0.000000e+00 0.000000e+00 7.000000e-01 3.000000e-01
 0.000000e+00 0.000000e+00 0.000000e+00 0.000000e+00 0.000000e+00
<ENDHMM>
~h "ne"
<BEGINHMM>
<NUMSTATES> 5
<STATE> 2
<MEAN> 75
 1.363207e+00 2.079850e+00 2.281446e+00 2.431101e+00 2.510082e+00 2.531564e+00 2.545765e+00 2.529341e+00 2.497827e+00 2.451933e+00 2.354584e+00 2.249051e+00 2.207788e+00 2.217756e+00 2.247176e+00 2.233982e+00 2.135255e+00 1.973078e+00 1.775787e+00 1.591760e+00 1.419930e+00 1.245937e+00 1.116158e+00 1.026992e+00 1.015337e+00 1.733797e-03 1.606481e-03 -6.087971e-04 -2.391206e-03 -3.750003e-03 -3.578705e-03 -2.543982e-03 -1.768518e-03 -1.643520e-03 -1.287038e-03 -3.171296e-04 6.944448e-04 9.675930e-04 9.537036e-04 1.233796e-03 1.252315e-03 1.212963e-03 1.409722e-03 1.467592e-03 1.013889e-03 3.518518e-04 9.953763e-05 5.300923e-04 -5.092585e-05 2.314810e-05 2.303242e-04 -4.444444e-04 -6.259265e-04 -5.717594e-04 -3.842594e-04 -1.027778e-04 -4.583357e-05 -6.828698e-05 -1.708334e-04 -2.071761e-04 -1.581019e-04 -1.703704e-04 -1.861113e-04 -1.039352e-04 -7.847223e-05 -1.502314e-04 -1.236112e-04 -3.263879e-05 -1.763890e-04 -1.004629e-04 -2.935185e-04 5.601842e-05 -3.541667e-05 5.439814e-05 4.629608e-06
<VARIANCE> 75
 1.999224e-01 6.247803e-01 5.001605e-01 3.721787e-01 2.728300e-01 2.395055e-01 1.895571e-01 1.650165e-01 1.262849e-01 1.034555e-01 1.140289e-01 1.187209e-01 1.261645e-01 1.188918e-01 1.132942e-01 1.111820e-01 1.137010e-01 1.493350e-01 1.788118e-01 1.726011e-01 1.287404e-01 5.822875e-02 1.527761e-02 1.596965e-03 3.816500e-03 7.858001e-03 1.315734e-02 8.562178e-03 7.202021e-03 5.988087e-03 4.089366e-03 3.078545e-03 2.683230e-03 2.056564e-03 1.598857e-03 1.368045e-03 1.576709e-03 1.506255e-03 1.290629e-03 1.118964e-03 7.710387e-04 9.459044e-04 1.139627e-03 1.149571e-03 1.182413e-03 8.975356e-04 1.023196e-03 6.724594e-04 1.212960e-04 3.542703e-04 1.518223e-03 2.052825e-03 1.159840e-03 9.642935e-04 8.732249e-04 6.361549e-04 4.402208e-04 3.797588e-04 2.672720e-04 2.482812e-04 2.467925e-04 2.596336e-04 2.359031e-04 2.024466e-04 1.899456e-04 1.107850e-04 1.398948e-04 1.802955e-04 1.894966e-04 2.102599e-04 1.439518e-04 1.720699e-04 1.238439e-04 2.332965e-05 7.031522e-05
<GCONST> -2.826468e+02
<STATE> 3
<MEAN> 75
 1.363207e+00 2.079850e+00 2.281446e+00 2.431101e+00 2.510082e+00 2.531564e+00 2.545765e+00 2.529341e+00 2.497827e+00 2.451933e+00 2.354584e+00 2.249051e+00 2.207788e+00 2.217756e+00 2.247176e+00 2.233982e+00 2.135255e+00 1.973078e+00 1.775787e+00 1.591760e+00 1.419930e+00 1.245937e+00 1.116158e+00 1.026992e+00 1.015337e+00 1.733797e-03 1.606481e-03 -6.087971e-04 -2.391206e-03 -3.750003e-03 -3.578705e-03 -2.543982e-03 -1.768518e-03 -1.643520e-03 -1.287038e-03 -3.171296e-04 6.944448e-04 9.675930e-04 9.537036e-04 1.233796e-03 1.252315e-03 1.212963e-03 1.409722e-03 1.467592e-03 1.013889e-03 3.518518e-04 9.953763e-05 5.300923e-04 -5.092585e-05 2.314810e-05 2.303242e-04 -4.444444e-04 -6.259265e-04 -5.717594e-04 -3.842594e-04 -1.027778e-04 -4.583357e-05 -6.828698e-05 -1.708334e-04 -2.071761e-04 -1.581019e-04 -1.703704e-04 -1.861113e-04 -1.039352e-04 -7.847223e-05 -1.502314e-04 -1.236112e-04 -3.263879e-05 -1.763890e-04 -1.004629e-04 -2.935185e-04 5.601842e-05 -3.541667e-05 5.439814e-05 4.629608e-06
<VARIANCE> 75
 1.999224e-01 6.247803e-01 5.001605e-01 3.721787e-01 2.728300e-01 2.395055e-01 1.895571e-01 1.650165e-01 1.262849e-01 1.034555e-01 1.140289e-01 1.187209e-01 1.261645e-01 1.188918e-01 1.132942e-01 1.111820e-01 1.137010e-01 1.493350e-01 1.788118e-01 1.726011e-01 1.287404e-01 5.822875e-02 1.527761e-02 1.596965e-03 3.816500e-03 7.858001e-03 1.315734e-02 8.562178e-03 7.202021e-03 5.988087e-03 4.089366e-03 3.078545e-03 2.683230e-03 2.056564e-03 1.598857e-03 1.368045e-03 1.576709e-03 1.506255e-03 1.290629e-03 1.118964e-03 7.710387e-04 9.459044e-04 1.139627e-03 1.149571e-03 1.182413e-03 8.975356e-04 1.023196e-03 6.724594e-04 1.212960e-04 3.542703e-04 1.518223e-03 2.052825e-03 1.159840e-03 9.642935e-04 8.732249e-04 6.361549e-04 4.402208e-04 3.797588e-04 2.672720e-04 2.482812e-04 2.467925e-04 2.596336e-04 2.359031e-04 2.024466e-04 1.899456e-04 1.107850e-04 1.398948e-04 1.802955e-04 1.894966e-04 2.102599e-04 1.439518e-04 1.720699e-04 1.238439e-04 2.332965e-05 7.031522e-05
<GCONST> -2.826468e+02
<STATE> 4
<MEAN> 75
 1.363207e+00 2.079850e+00 2.281446e+00 2.431101e+00 2.510082e+00 2.531564e+00 2.545765e+00 2.529341e+00 2.497827e+00 2.451933e+00 2.354584e+00 2.249051e+00 2.207788e+00 2.217756e+00 2.247176e+00 2.233982e+00 2.135255e+00 1.973078e+00 1.775787e+00 1.591760e+00 1.419930e+00 1.245937e+00 1.116158e+00 1.026992e+00 1.015337e+00 1.733797e-03 1.606481e-03 -6.087971e-04 -2.391206e-03 -3.750003e-03 -3.578705e-03 -2.543982e-03 -1.768518e-03 -1.643520e-03 -1.287038e-03 -3.171296e-04 6.944448e-04 9.675930e-04 9.537036e-04 1.233796e-03 1.252315e-03 1.212963e-03 1.409722e-03 1.467592e-03 1.013889e-03 3.518518e-04 9.953763e-05 5.300923e-04 -5.092585e-05 2.314810e-05 2.303242e-04 -4.444444e-04 -6.259265e-04 -5.717594e-04 -3.842594e-04 -1.027778e-04 -4.583357e-05 -6.828698e-05 -1.708334e-04 -2.071761e-04 -1.581019e-04 -1.703704e-04 -1.861113e-04 -1.039352e-04 -7.847223e-05 -1.502314e-04 -1.236112e-04 -3.263879e-05 -1.763890e-04 -1.004629e-04 -2.935185e-04 5.601842e-05 -3.541667e-05 5.439814e-05 4.629608e-06
<VARIANCE> 75
 1.999224e-01 6.247803e-01 5.001605e-01 3.721787e-01 2.728300e-01 2.395055e-01 1.895571e-01 1.650165e-01 1.262849e-01 1.034555e-01 1.140289e-01 1.187209e-01 1.261645e-01 1.188918e-01 1.132942e-01 1.111820e-01 1.137010e-01 1.493350e-01 1.788118e-01 1.726011e-01 1.287404e-01 5.822875e-02 1.527761e-02 1.596965e-03 3.816500e-03 7.858001e-03 1.315734e-02 8.562178e-03 7.202021e-03 5.988087e-03 4.089366e-03 3.078545e-03 2.683230e-03 2.056564e-03 1.598857e-03 1.368045e-03 1.576709e-03 1.506255e-03 1.290629e-03 1.118964e-03 7.710387e-04 9.459044e-04 1.139627e-03 1.149571e-03 1.182413e-03 8.975356e-04 1.023196e-03 6.724594e-04 1.212960e-04 3.542703e-04 1.518223e-03 2.052825e-03 1.159840e-03 9.642935e-04 8.732249e-04 6.361549e-04 4.402208e-04 3.797588e-04 2.672720e-04 2.482812e-04 2.467925e-04 2.596336e-04 2.359031e-04 2.024466e-04 1.899456e-04 1.107850e-04 1.398948e-04 1.802955e-04 1.894966e-04 2.102599e-04 1.439518e-04 1.720699e-04 1.238439e-04 2.332965e-05 7.031522e-05
<GCONST> -2.826468e+02
<TRANSP> 5
 0.000000e+00 1.000000e+00 0.000000e+00 0.000000e+00 0.000000e+00
 0.000000e+00 6.000000e-01 4.000000e-01 0.000000e+00 0.000000e+00
 0.000000e+00 0.000000e+00 6.000000e-01 4.000000e-01 0.000000e+00
 0.000000e+00 0.000000e+00 0.000000e+00 7.000000e-01 3.000000e-01
 0.000000e+00 0.000000e+00 0.000000e+00 0.000000e+00 0.000000e+00
<ENDHMM>
