~o
<STREAMINFO> 1 75
<VECSIZE> 75<NULLD><USER_D_A><DIAGC>
~h "proto"
<BEGINHMM>
<NUMSTATES> 5
<STATE> 2
<MEAN> 75
 1.490036e+00 1.816932e+00 1.927398e+00 2.007121e+00 2.080206e+00 2.139609e+00 2.175484e+00 2.176209e+00 2.142396e+00 2.085186e+00 2.031338e+00 2.002709e+00 1.995508e+00 1.984919e+00 1.944649e+00 1.862281e+00 1.734054e+00 1.578611e+00 1.440546e+00 1.316475e+00 1.256887e+00 1.193969e+00 1.190133e+00 1.138712e+00 1.122290e+00 1.122339e-04 -3.442323e-04 -4.955059e-04 -3.972543e-04 -3.221886e-04 -3.711457e-04 -3.047453e-04 -1.659574e-04 -8.658414e-05 1.782324e-05 6.051462e-05 8.097327e-05 1.460445e-04 1.644376e-04 1.991365e-04 1.918581e-04 2.130364e-04 2.331589e-04 1.920905e-04 1.843490e-04 6.616733e-05 3.100612e-05 2.328620e-05 3.045791e-05 2.788437e-05 1.316179e-05 5.170617e-05 3.636784e-05 2.809345e-05 4.224225e-05 3.290245e-05 3.433444e-05 3.203123e-05 8.181843e-06 3.431739e-06 5.595878e-06 6.492411e-06 -1.217008e-06 6.080979e-06 1.292560e-05 -1.597756e-05 -1.842867e-05 -1.220423e-05 8.687968e-06 6.707450e-06 6.926695e-06 1.461504e-05 1.529266e-06 1.185834e-05 -9.253356e-06
<VARIANCE> 75
 2.646061e-01 4.210616e-01 3.699016e-01 3.321246e-01 2.925948e-01 2.565320e-01 2.316847e-01 2.135789e-01 1.971059e-01 1.738453e-01 1.485909e-01 1.352398e-01 1.358635e-01 1.436724e-01 1.528021e-01 1.623376e-01 1.638295e-01 1.440506e-01 1.070439e-01 7.218558e-02 5.111518e-02 3.620743e-02 3.467104e-02 2.429223e-02 2.359226e-02 4.224311e-03 4.439356e-03 3.490238e-03 2.647124e-03 1.985932e-03 1.557407e-03 1.291684e-03 1.175615e-03 1.161046e-03 1.200379e-03 1.226445e-03 1.238474e-03 1.242674e-03 1.211029e-03 1.133921e-03 1.090478e-03 1.077723e-03 1.077203e-03 1.032676e-03 9.585500e-04 8.383290e-04 7.842169e-04 6.361684e-04 5.176893e-04 8.253850e-04 7.911116e-04 7.299031e-04 5.603221e-04 4.199274e-04 3.125774e-04 2.484435e-04 2.059933e-04 1.864997e-04 1.877245e-04 1.985345e-04 2.049150e-04 2.051174e-04 2.047852e-04 1.995432e-04 1.842176e-04 1.797317e-04 1.830329e-04 1.878762e-04 1.845019e-04 1.740218e-04 1.534614e-04 1.459870e-04 1.159450e-04 9.454500e-05 1.555838e-04
<GCONST> -2.894423e+02
<STATE> 3
<MEAN> 75
 1.490036e+00 1.816932e+00 1.927398e+00 2.007121e+00 2.080206e+00 2.139609e+00 2.175484e+00 2.176209e+00 2.142396e+00 2.085186e+00 2.031338e+00 2.002709e+00 1.995508e+00 1.984919e+00 1.944649e+00 1.862281e+00 1.734054e+00 1.578611e+00 1.440546e+00 1.316475e+00 1.256887e+00 1.193969e+00 1.190133e+00 1.138712e+00 1.122290e+00 1.122339e-04 -3.442323e-04 -4.955059e-04 -3.972543e-04 -3.221886e-04 -3.711457e-04 -3.047453e-04 -1.659574e-04 -8.658414e-05 1.782324e-05 6.051462e-05 8.097327e-05 1.460445e-04 1.644376e-04 1.991365e-04 1.918581e-04 2.130364e-04 2.331589e-04 1.920905e-04 1.843490e-04 6.616733e-05 3.100612e-05 2.328620e-05 3.045791e-05 2.788437e-05 1.316179e-05 5.170617e-05 3.636784e-05 2.809345e-05 4.224225e-05 3.290245e-05 3.433444e-05 3.203123e-05 8.181843e-06 3.431739e-06 5.595878e-06 6.492411e-06 -1.217008e-06 6.080979e-06 1.292560e-05 -1.597756e-05 -1.842867e-05 -1.220423e-05 8.687968e-06 6.707450e-06 6.926695e-06 1.461504e-05 1.529266e-06 1.185834e-05 -9.253356e-06
<VARIANCE> 75
 2.646061e-01 4.210616e-01 3.699016e-01 3.321246e-01 2.925948e-01 2.565320e-01 2.316847e-01 2.135789e-01 1.971059e-01 1.738453e-01 1.485909e-01 1.352398e-01 1.358635e-01 1.436724e-01 1.528021e-01 1.623376e-01 1.638295e-01 1.440506e-01 1.070439e-01 7.218558e-02 5.111518e-02 3.620743e-02 3.467104e-02 2.429223e-02 2.359226e-02 4.224311e-03 4.439356e-03 3.490238e-03 2.647124e-03 1.985932e-03 1.557407e-03 1.291684e-03 1.175615e-03 1.161046e-03 1.200379e-03 1.226445e-03 1.238474e-03 1.242674e-03 1.211029e-03 1.133921e-03 1.090478e-03 1.077723e-03 1.077203e-03 1.032676e-03 9.585500e-04 8.383290e-04 7.842169e-04 6.361684e-04 5.176893e-04 8.253850e-04 7.911116e-04 7.299031e-04 5.603221e-04 4.199274e-04 3.125774e-04 2.484435e-04 2.059933e-04 1.864997e-04 1.877245e-04 1.985345e-04 2.049150e-04 2.051174e-04 2.047852e-04 1.995432e-04 1.842176e-04 1.797317e-04 1.830329e-04 1.878762e-04 1.845019e-04 1.740218e-04 1.534614e-04 1.459870e-04 1.159450e-04 9.454500e-05 1.555838e-04
<GCONST> -2.894423e+02
<STATE> 4
<MEAN> 75
 1.490036e+00 1.816932e+00 1.927398e+00 2.007121e+00 2.080206e+00 2.139609e+00 2.175484e+00 2.176209e+00 2.142396e+00 2.085186e+00 2.031338e+00 2.002709e+00 1.995508e+00 1.984919e+00 1.944649e+00 1.862281e+00 1.734054e+00 1.578611e+00 1.440546e+00 1.316475e+00 1.256887e+00 1.193969e+00 1.190133e+00 1.138712e+00 1.122290e+00 1.122339e-04 -3.442323e-04 -4.955059e-04 -3.972543e-04 -3.221886e-04 -3.711457e-04 -3.047453e-04 -1.659574e-04 -8.658414e-05 1.782324e-05 6.051462e-05 8.097327e-05 1.460445e-04 1.644376e-04 1.991365e-04 1.918581e-04 2.130364e-04 2.331589e-04 1.920905e-04 1.843490e-04 6.616733e-05 3.100612e-05 2.328620e-05 3.045791e-05 2.788437e-05 1.316179e-05 5.170617e-05 3.636784e-05 2.809345e-05 4.224225e-05 3.290245e-05 3.433444e-05 3.203123e-05 8.181843e-06 3.431739e-06 5.595878e-06 6.492411e-06 -1.217008e-06 6.080979e-06 1.292560e-05 -1.597756e-05 -1.842867e-05 -1.220423e-05 8.687968e-06 6.707450e-06 6.926695e-06 1.461504e-05 1.529266e-06 1.185834e-05 -9.253356e-06
<VARIANCE> 75
 2.646061e-01 4.210616e-01 3.699016e-01 3.321246e-01 2.925948e-01 2.565320e-01 2.316847e-01 2.135789e-01 1.971059e-01 1.738453e-01 1.485909e-01 1.352398e-01 1.358635e-01 1.436724e-01 1.528021e-01 1.623376e-01 1.638295e-01 1.440506e-01 1.070439e-01 7.218558e-02 5.111518e-02 3.620743e-02 3.467104e-02 2.429223e-02 2.359226e-02 4.224311e-03 4.439356e-03 3.490238e-03 2.647124e-03 1.985932e-03 1.557407e-03 1.291684e-03 1.175615e-03 1.161046e-03 1.200379e-03 1.226445e-03 1.238474e-03 1.242674e-03 1.211029e-03 1.133921e-03 1.090478e-03 1.077723e-03 1.077203e-03 1.032676e-03 9.585500e-04 8.383290e-04 7.842169e-04 6.361684e-04 5.176893e-04 8.253850e-04 7.911116e-04 7.299031e-04 5.603221e-04 4.199274e-04 3.125774e-04 2.484435e-04 2.059933e-04 1.864997e-04 1.877245e-04 1.985345e-04 2.049150e-04 2.051174e-04 2.047852e-04 1.995432e-04 1.842176e-04 1.797317e-04 1.830329e-04 1.878762e-04 1.845019e-04 1.740218e-04 1.534614e-04 1.459870e-04 1.159450e-04 9.454500e-05 1.555838e-04
<GCONST> -2.894423e+02
<TRANSP> 5
 0.000000e+00 1.000000e+00 0.000000e+00 0.000000e+00 0.000000e+00
 0.000000e+00 6.000000e-01 4.000000e-01 0.000000e+00 0.000000e+00
 0.000000e+00 0.000000e+00 6.000000e-01 4.000000e-01 0.000000e+00
 0.000000e+00 0.000000e+00 0.000000e+00 7.000000e-01 3.000000e-01
 0.000000e+00 0.000000e+00 0.000000e+00 0.000000e+00 0.000000e+00
<ENDHMM>
