~o
<STREAMINFO> 1 75
<VECSIZE> 75<NULLD><USER_D_A><DIAGC>
~h "proto"
<BEGINHMM>
<NUMSTATES> 5
<STATE> 2
<MEAN> 75
 1.363683e+00 1.643374e+00 1.745161e+00 1.863502e+00 1.977556e+00 2.072530e+00 2.151830e+00 2.192391e+00 2.188839e+00 2.156658e+00 2.119030e+00 2.095902e+00 2.087748e+00 2.072614e+00 2.031392e+00 1.961890e+00 1.850804e+00 1.719243e+00 1.586087e+00 1.453050e+00 1.338641e+00 1.226583e+00 1.133012e+00 1.037910e+00 1.008884e+00 3.638609e-04 -2.059642e-05 -6.250165e-04 -4.702731e-04 -6.202115e-04 -5.003429e-04 -2.843610e-04 -1.113544e-04 1.798726e-05 -1.070997e-05 -3.528765e-05 2.677499e-05 6.247469e-05 -7.290985e-05 -2.128282e-05 3.981935e-06 6.866809e-07 2.393240e-04 3.417555e-04 2.007416e-04 1.099820e-04 6.522019e-05 7.002636e-05 3.748456e-05 5.972809e-05 -9.570223e-06 9.552379e-05 8.073625e-06 1.804178e-05 -2.323207e-05 2.468770e-05 6.412244e-06 4.318274e-05 4.750801e-05 3.990125e-05 4.455588e-05 4.138401e-05 8.327579e-05 -1.267336e-05 4.348489e-05 6.843327e-05 6.311972e-05 5.928873e-05 1.148429e-04 5.552657e-05 5.530679e-05 3.436761e-05 6.189767e-05 -1.252226e-05 2.420706e-05
<VARIANCE> 75
 2.132582e-01 4.604792e-01 4.078287e-01 3.314073e-01 2.657999e-01 2.324145e-01 2.191373e-01 2.130686e-01 1.985987e-01 1.637616e-01 1.394005e-01 1.314171e-01 1.326348e-01 1.397789e-01 1.560376e-01 1.878585e-01 2.059606e-01 1.883830e-01 1.489412e-01 1.116291e-01 7.631614e-02 4.194767e-02 1.825939e-02 2.804785e-03 1.058473e-03 5.672220e-03 6.471564e-03 5.277177e-03 3.992120e-03 2.847841e-03 2.066731e-03 1.578850e-03 1.305631e-03 1.245650e-03 1.138942e-03 1.111696e-03 1.160627e-03 1.125383e-03 1.103984e-03 1.079215e-03 1.018018e-03 1.018534e-03 1.048370e-03 1.022289e-03 9.424367e-04 8.422082e-04 7.719425e-04 7.192880e-04 5.000000e-04 5.000000e-04 1.082372e-03 1.076064e-03 8.614453e-04 6.500351e-04 5.000000e-04 5.000000e-04 5.000000e-04 5.000000e-04 5.000000e-04 5.000000e-04 5.000000e-04 5.000000e-04 5.000000e-04 5.000000e-04 5.000000e-04 5.000000e-04 5.000000e-04 5.000000e-04 5.000000e-04 5.000000e-04 5.000000e-04 5.000000e-04 5.000000e-04 5.000000e-04 5.000000e-04
<GCONST> -2.695206e+02
<STATE> 3
<MEAN> 75
 1.363683e+00 1.643374e+00 1.745161e+00 1.863502e+00 1.977556e+00 2.072530e+00 2.151830e+00 2.192391e+00 2.188839e+00 2.156658e+00 2.119030e+00 2.095902e+00 2.087748e+00 2.072614e+00 2.031392e+00 1.961890e+00 1.850804e+00 1.719243e+00 1.586087e+00 1.453050e+00 1.338641e+00 1.226583e+00 1.133012e+00 1.037910e+00 1.008884e+00 3.638609e-04 -2.059642e-05 -6.250165e-04 -4.702731e-04 -6.202115e-04 -5.003429e-04 -2.843610e-04 -1.113544e-04 1.798726e-05 -1.070997e-05 -3.528765e-05 2.677499e-05 6.247469e-05 -7.290985e-05 -2.128282e-05 3.981935e-06 6.866809e-07 2.393240e-04 3.417555e-04 2.007416e-04 1.099820e-04 6.522019e-05 7.002636e-05 3.748456e-05 5.972809e-05 -9.570223e-06 9.552379e-05 8.073625e-06 1.804178e-05 -2.323207e-05 2.468770e-05 6.412244e-06 4.318274e-05 4.750801e-05 3.990125e-05 4.455588e-05 4.138401e-05 8.327579e-05 -1.267336e-05 4.348489e-05 6.843327e-05 6.311972e-05 5.928873e-05 1.148429e-04 5.552657e-05 5.530679e-05 3.436761e-05 6.189767e-05 -1.252226e-05 2.420706e-05
<VARIANCE> 75
 2.132582e-01 4.604792e-01 4.078287e-01 3.314073e-01 2.657999e-01 2.324145e-01 2.191373e-01 2.130686e-01 1.985987e-01 1.637616e-01 1.394005e-01 1.314171e-01 1.326348e-01 1.397789e-01 1.560376e-01 1.878585e-01 2.059606e-01 1.883830e-01 1.489412e-01 1.116291e-01 7.631614e-02 4.194767e-02 1.825939e-02 2.804785e-03 1.058473e-03 5.672220e-03 6.471564e-03 5.277177e-03 3.992120e-03 2.847841e-03 2.066731e-03 1.578850e-03 1.305631e-03 1.245650e-03 1.138942e-03 1.111696e-03 1.160627e-03 1.125383e-03 1.103984e-03 1.079215e-03 1.018018e-03 1.018534e-03 1.048370e-03 1.022289e-03 9.424367e-04 8.422082e-04 7.719425e-04 7.192880e-04 5.000000e-04 5.000000e-04 1.082372e-03 1.076064e-03 8.614453e-04 6.500351e-04 5.000000e-04 5.000000e-04 5.000000e-04 5.000000e-04 5.000000e-04 5.000000e-04 5.000000e-04 5.000000e-04 5.000000e-04 5.000000e-04 5.000000e-04 5.000000e-04 5.000000e-04 5.000000e-04 5.000000e-04 5.000000e-04 5.000000e-04 5.000000e-04 5.000000e-04 5.000000e-04 5.000000e-04
<GCONST> -2.695206e+02
<STATE> 4
<MEAN> 75
 1.363683e+00 1.643374e+00 1.745161e+00 1.863502e+00 1.977556e+00 2.072530e+00 2.151830e+00 2.192391e+00 2.188839e+00 2.156658e+00 2.119030e+00 2.095902e+00 2.087748e+00 2.072614e+00 2.031392e+00 1.961890e+00 1.850804e+00 1.719243e+00 1.586087e+00 1.453050e+00 1.338641e+00 1.226583e+00 1.133012e+00 1.037910e+00 1.008884e+00 3.638609e-04 -2.059642e-05 -6.250165e-04 -4.702731e-04 -6.202115e-04 -5.003429e-04 -2.843610e-04 -1.113544e-04 1.798726e-05 -1.070997e-05 -3.528765e-05 2.677499e-05 6.247469e-05 -7.290985e-05 -2.128282e-05 3.981935e-06 6.866809e-07 2.393240e-04 3.417555e-04 2.007416e-04 1.099820e-04 6.522019e-05 7.002636e-05 3.748456e-05 5.972809e-05 -9.570223e-06 9.552379e-05 8.073625e-06 1.804178e-05 -2.323207e-05 2.468770e-05 6.412244e-06 4.318274e-05 4.750801e-05 3.990125e-05 4.455588e-05 4.138401e-05 8.327579e-05 -1.267336e-05 4.348489e-05 6.843327e-05 6.311972e-05 5.928873e-05 1.148429e-04 5.552657e-05 5.530679e-05 3.436761e-05 6.189767e-05 -1.252226e-05 2.420706e-05
<VARIANCE> 75
 2.132582e-01 4.604792e-01 4.078287e-01 3.314073e-01 2.657999e-01 2.324145e-01 2.191373e-01 2.130686e-01 1.985987e-01 1.637616e-01 1.394005e-01 1.314171e-01 1.326348e-01 1.397789e-01 1.560376e-01 1.878585e-01 2.059606e-01 1.883830e-01 1.489412e-01 1.116291e-01 7.631614e-02 4.194767e-02 1.825939e-02 2.804785e-03 1.058473e-03 5.672220e-03 6.471564e-03 5.277177e-03 3.992120e-03 2.847841e-03 2.066731e-03 1.578850e-03 1.305631e-03 1.245650e-03 1.138942e-03 1.111696e-03 1.160627e-03 1.125383e-03 1.103984e-03 1.079215e-03 1.018018e-03 1.018534e-03 1.048370e-03 1.022289e-03 9.424367e-04 8.422082e-04 7.719425e-04 7.192880e-04 5.000000e-04 5.000000e-04 1.082372e-03 1.076064e-03 8.614453e-04 6.500351e-04 5.000000e-04 5.000000e-04 5.000000e-04 5.000000e-04 5.000000e-04 5.000000e-04 5.000000e-04 5.000000e-04 5.000000e-04 5.000000e-04 5.000000e-04 5.000000e-04 5.000000e-04 5.000000e-04 5.000000e-04 5.000000e-04 5.000000e-04 5.000000e-04 5.000000e-04 5.000000e-04 5.000000e-04
<GCONST> -2.695206e+02
<TRANSP> 5
 0.000000e+00 1.000000e+00 0.000000e+00 0.000000e+00 0.000000e+00
 0.000000e+00 6.000000e-01 4.000000e-01 0.000000e+00 0.000000e+00
 0.000000e+00 0.000000e+00 6.000000e-01 4.000000e-01 0.000000e+00
 0.000000e+00 0.000000e+00 0.000000e+00 7.000000e-01 3.000000e-01
 0.000000e+00 0.000000e+00 0.000000e+00 0.000000e+00 0.000000e+00
<ENDHMM>
