~o
<STREAMINFO> 1 75
<VECSIZE> 75<NULLD><USER_D_A><DIAGC>
~h "e"
<BEGINHMM>
<NUMSTATES> 5
<STATE> 2
<MEAN> 75
 3.949941e+00 3.626709e+00 3.215187e+00 2.802588e+00 2.566661e+00 2.523344e+00 2.545344e+00 2.556279e+00 2.541427e+00 2.505566e+00 2.457120e+00 2.406799e+00 2.368062e+00 2.348524e+00 2.335394e+00 2.298594e+00 2.212043e+00 2.063353e+00 1.854299e+00 1.602705e+00 1.351464e+00 1.160555e+00 1.058256e+00 1.000000e+00 1.005030e+00 7.332467e-02 8.747233e-02 9.170932e-02 6.976432e-02 3.017118e-02 7.546429e-03 1.574343e-03 1.114687e-03 1.407446e-03 1.525768e-03 1.356722e-03 9.580122e-04 3.868395e-04 -1.779292e-04 -5.199223e-04 -6.238272e-04 -6.675748e-04 -6.338321e-04 -6.701300e-04 -6.902614e-04 -6.134164e-04 -4.091515e-04 -2.035688e-04 0.000000e+00 -3.919418e-05 -9.193525e-03 -7.293701e-03 -1.548758e-03 6.334239e-03 6.770418e-03 2.787014e-03 6.073000e-04 5.713230e-05 -2.690158e-05 -3.292828e-05 -2.182063e-05 -6.923445e-06 1.393235e-07 -1.593461e-05 -1.401581e-07 1.003068e-06 -5.307228e-06 5.855852e-06 -7.348156e-06 -9.909293e-06 -3.206267e-06 -5.969824e-06 1.892728e-07 0.000000e+00 4.388116e-07
<VARIANCE> 75
 8.132796e-01 4.931595e-01 2.730186e-01 1.465953e-01 6.536756e-02 3.566635e-02 2.896339e-02 2.503274e-02 2.321993e-02 2.416091e-02 2.859450e-02 3.572889e-02 4.163238e-02 4.137194e-02 3.549636e-02 2.940620e-02 2.602809e-02 2.417084e-02 2.129549e-02 1.587779e-02 1.000000e-02 1.000000e-02 1.000000e-02 1.000000e-02 1.000000e-02 1.083359e-02 1.279499e-02 1.133231e-02 1.000000e-02 1.000000e-02 1.000000e-02 1.000000e-02 1.000000e-02 1.000000e-02 1.000000e-02 1.000000e-02 1.000000e-02 1.000000e-02 1.000000e-02 1.000000e-02 1.000000e-02 1.000000e-02 1.000000e-02 1.000000e-02 1.000000e-02 1.000000e-02 1.000000e-02 1.000000e-02 1.000000e-02 1.000000e-02 1.000000e-02 1.000000e-02 1.000000e-02 1.000000e-02 1.000000e-02 1.000000e-02 1.000000e-02 1.000000e-02 1.000000e-02 1.000000e-02 1.000000e-02 1.000000e-02 1.000000e-02 1.000000e-02 1.000000e-02 1.000000e-02 1.000000e-02 1.000000e-02 1.000000e-02 1.000000e-02 1.000000e-02 1.000000e-02 1.000000e-02 1.000000e-02 1.000000e-02
<GCONST> -1.753787e+02
<STATE> 3
<MEAN> 75
 4.427848e+00 4.387434e+00 4.224626e+00 3.969028e+00 3.729005e+00 3.578691e+00 3.466393e+00 3.331229e+00 3.150769e+00 2.931182e+00 2.695621e+00 2.484933e+00 2.341635e+00 2.273771e+00 2.240454e+00 2.196244e+00 2.110576e+00 1.969886e+00 1.775769e+00 1.545576e+00 1.318414e+00 1.146968e+00 1.054197e+00 1.000000e+00 1.004201e+00 3.718168e-02 5.533170e-02 7.035153e-02 7.122560e-02 4.983190e-02 2.837501e-02 1.869099e-02 1.594265e-02 1.446595e-02 1.230863e-02 9.277562e-03 5.652117e-03 2.383059e-03 5.406491e-04 -8.424526e-05 -2.786978e-04 -3.665001e-04 -3.589874e-04 -4.227584e-04 -4.798499e-04 -4.368490e-04 -3.260493e-04 -1.774414e-04 0.000000e+00 -3.719820e-05 -9.080932e-03 -9.273870e-03 -6.959454e-03 -5.163868e-04 4.138697e-03 2.850393e-03 7.883633e-04 1.466739e-05 -7.257910e-05 -7.965267e-05 -4.916059e-05 -2.819823e-05 -2.273989e-05 -2.691120e-05 -2.712540e-05 -2.012808e-05 -1.780620e-05 -2.181537e-05 -2.468587e-05 -1.456410e-05 -5.796848e-06 -6.043336e-06 -4.204786e-06 0.000000e+00 -2.844623e-06
<VARIANCE> 75
 6.832576e-01 6.327696e-01 9.420461e-01 1.493760e+00 1.923465e+00 1.971067e+00 1.754939e+00 1.414533e+00 1.027920e+00 6.432578e-01 3.200615e-01 1.149525e-01 3.792471e-02 2.662588e-02 2.825897e-02 3.211812e-02 3.613006e-02 3.725316e-02 3.284192e-02 2.283978e-02 1.097662e-02 1.000000e-02 1.000000e-02 1.000000e-02 1.000000e-02 1.000000e-02 1.098470e-02 1.279264e-02 1.022419e-02 1.000000e-02 1.000000e-02 1.000000e-02 1.000000e-02 1.000000e-02 1.000000e-02 1.000000e-02 1.000000e-02 1.000000e-02 1.000000e-02 1.000000e-02 1.000000e-02 1.000000e-02 1.000000e-02 1.000000e-02 1.000000e-02 1.000000e-02 1.000000e-02 1.000000e-02 1.000000e-02 1.000000e-02 1.000000e-02 1.000000e-02 1.000000e-02 1.000000e-02 1.000000e-02 1.000000e-02 1.000000e-02 1.000000e-02 1.000000e-02 1.000000e-02 1.000000e-02 1.000000e-02 1.000000e-02 1.000000e-02 1.000000e-02 1.000000e-02 1.000000e-02 1.000000e-02 1.000000e-02 1.000000e-02 1.000000e-02 1.000000e-02 1.000000e-02 1.000000e-02 1.000000e-02
<GCONST> -1.446678e+02
<STATE> 4
<MEAN> 75
 5.093170e+00 5.061696e+00 4.914881e+00 4.650334e+00 4.288543e+00 3.885916e+00 3.493547e+00 3.135086e+00 2.828673e+00 2.589954e+00 2.420510e+00 2.306427e+00 2.232178e+00 2.188038e+00 2.157666e+00 2.111943e+00 2.025432e+00 1.886416e+00 1.697811e+00 1.479728e+00 1.272328e+00 1.122312e+00 1.044530e+00 1.000000e+00 1.002485e+00 5.508432e-03 1.468151e-02 2.395269e-02 3.213991e-02 3.563793e-02 3.241969e-02 2.564148e-02 1.824871e-02 1.160531e-02 6.377172e-03 3.000543e-03 1.231733e-03 3.374453e-04 -1.861067e-04 -4.854623e-04 -6.232465e-04 -6.832570e-04 -7.236153e-04 -7.542694e-04 -7.190026e-04 -5.781662e-04 -3.679311e-04 -1.753111e-04 0.000000e+00 -2.251182e-05 -2.191053e-03 -2.755473e-03 -3.181645e-03 -3.022659e-03 -1.877212e-03 -7.068955e-04 -1.561500e-04 -2.590730e-05 -2.734450e-05 -4.272401e-05 -5.395125e-05 -4.932704e-05 -3.468435e-05 -1.981196e-05 -1.318921e-05 -1.018250e-05 -9.118556e-06 -1.211210e-05 -9.261482e-06 -5.394035e-06 -3.107826e-06 -1.615654e-06 3.811035e-08 0.000000e+00 7.667600e-07
<VARIANCE> 75
 1.637138e-01 2.314152e-01 4.138580e-01 6.951735e-01 9.818805e-01 1.082895e+00 9.339684e-01 6.435520e-01 3.496744e-01 1.450049e-01 4.878831e-02 2.057094e-02 1.484323e-02 1.463144e-02 1.822766e-02 2.466090e-02 3.082180e-02 3.305503e-02 2.903288e-02 1.938622e-02 1.000000e-02 1.000000e-02 1.000000e-02 1.000000e-02 1.000000e-02 1.000000e-02 1.000000e-02 1.000000e-02 1.000000e-02 1.000000e-02 1.000000e-02 1.000000e-02 1.000000e-02 1.000000e-02 1.000000e-02 1.000000e-02 1.000000e-02 1.000000e-02 1.000000e-02 1.000000e-02 1.000000e-02 1.000000e-02 1.000000e-02 1.000000e-02 1.000000e-02 1.000000e-02 1.000000e-02 1.000000e-02 1.000000e-02 1.000000e-02 1.000000e-02 1.000000e-02 1.000000e-02 1.000000e-02 1.000000e-02 1.000000e-02 1.000000e-02 1.000000e-02 1.000000e-02 1.000000e-02 1.000000e-02 1.000000e-02 1.000000e-02 1.000000e-02 1.000000e-02 1.000000e-02 1.000000e-02 1.000000e-02 1.000000e-02 1.000000e-02 1.000000e-02 1.000000e-02 1.000000e-02 1.000000e-02 1.000000e-02
<GCONST> -1.608099e+02
<TRANSP> 5
 0.000000e+00 1.000000e+00 0.000000e+00 0.000000e+00 0.000000e+00
 0.000000e+00 8.253102e-01 1.746899e-01 0.000000e+00 0.000000e+00
 0.000000e+00 0.000000e+00 6.734390e-01 3.265610e-01 0.000000e+00
 0.000000e+00 0.000000e+00 0.000000e+00 9.708714e-01 2.912855e-02
 0.000000e+00 0.000000e+00 0.000000e+00 0.000000e+00 0.000000e+00
<ENDHMM>
~h "ne"
<BEGINHMM>
<NUMSTATES> 5
<STATE> 2
<MEAN> 75
 2.002229e+00 2.124865e+00 2.238539e+00 2.336604e+00 2.412830e+00 2.465117e+00 2.493459e+00 2.498542e+00 2.481910e+00 2.446532e+00 2.398954e+00 2.352609e+00 2.327032e+00 2.330902e+00 2.344238e+00 2.330667e+00 2.261712e+00 2.123819e+00 1.917319e+00 1.659546e+00 1.394200e+00 1.186443e+00 1.071983e+00 1.000000e+00 1.008909e+00 2.615259e-03 4.679857e-04 -9.227404e-04 -1.232207e-03 -1.035133e-03 -8.263044e-04 -6.867220e-04 -5.897365e-04 -5.574269e-04 -5.588142e-04 -6.131548e-04 -6.820349e-04 -8.043867e-04 -9.321484e-04 -1.037528e-03 -1.119128e-03 -1.188849e-03 -1.265233e-03 -1.307932e-03 -1.252534e-03 -1.045268e-03 -6.680156e-04 -3.279686e-04 0.000000e+00 -5.695835e-05 6.860350e-04 5.345629e-04 2.518256e-04 4.356154e-05 -1.006727e-05 -2.720331e-06 1.733822e-06 5.174929e-06 7.841321e-06 8.178898e-06 7.966037e-06 2.418221e-06 -1.269102e-06 -3.467358e-06 -5.869350e-06 -5.982565e-06 -6.286808e-06 -7.317524e-06 -3.543242e-06 -4.072800e-06 -1.920234e-06 -2.583988e-06 -2.500736e-07 0.000000e+00 8.830582e-07
<VARIANCE> 75
 8.703106e-02 7.490857e-02 6.273318e-02 5.043118e-02 3.875412e-02 2.812354e-02 1.891963e-02 1.152333e-02 1.000000e-02 1.000000e-02 1.000000e-02 1.000000e-02 1.000000e-02 1.000000e-02 1.000000e-02 1.000000e-02 1.000000e-02 1.000000e-02 1.000545e-02 1.000000e-02 1.000000e-02 1.000000e-02 1.000000e-02 1.000000e-02 1.000000e-02 1.000000e-02 1.000000e-02 1.000000e-02 1.000000e-02 1.000000e-02 1.000000e-02 1.000000e-02 1.000000e-02 1.000000e-02 1.000000e-02 1.000000e-02 1.000000e-02 1.000000e-02 1.000000e-02 1.000000e-02 1.000000e-02 1.000000e-02 1.000000e-02 1.000000e-02 1.000000e-02 1.000000e-02 1.000000e-02 1.000000e-02 1.000000e-02 1.000000e-02 1.000000e-02 1.000000e-02 1.000000e-02 1.000000e-02 1.000000e-02 1.000000e-02 1.000000e-02 1.000000e-02 1.000000e-02 1.000000e-02 1.000000e-02 1.000000e-02 1.000000e-02 1.000000e-02 1.000000e-02 1.000000e-02 1.000000e-02 1.000000e-02 1.000000e-02 1.000000e-02 1.000000e-02 1.000000e-02 1.000000e-02 1.000000e-02 1.000000e-02
<GCONST> -1.967466e+02
<STATE> 3
<MEAN> 75
 2.361078e+00 2.317213e+00 2.281882e+00 2.297772e+00 2.351969e+00 2.399148e+00 2.424075e+00 2.424560e+00 2.402946e+00 2.363658e+00 2.315478e+00 2.272519e+00 2.247625e+00 2.241465e+00 2.235635e+00 2.200640e+00 2.116532e+00 1.973366e+00 1.773605e+00 1.538769e+00 1.310426e+00 1.141603e+00 1.053507e+00 1.000000e+00 1.004839e+00 3.190789e-02 2.791074e-02 1.544261e-02 3.058398e-03 -8.172967e-04 -6.599705e-04 -4.692848e-04 -2.397377e-04 -1.174198e-04 -4.185101e-05 -3.889805e-04 -2.046412e-04 -4.763213e-04 -6.432202e-04 -7.156364e-04 -8.489621e-04 -8.909226e-04 -1.209358e-03 -1.187927e-03 -8.656852e-04 -6.334315e-04 -3.805922e-04 -1.794525e-04 0.000000e+00 -4.032206e-05 2.963837e-04 2.753284e-03 4.010845e-03 2.138373e-03 2.727775e-04 -2.573574e-05 -1.757962e-05 -4.975384e-06 -7.656957e-06 -3.502198e-05 5.972880e-05 -3.979391e-05 -3.224652e-05 -1.979613e-05 -1.002805e-04 -2.950156e-05 -1.171974e-04 -3.891530e-05 3.562438e-05 -2.772882e-05 -2.034077e-05 -1.654762e-05 -1.170883e-05 0.000000e+00 3.157297e-06
<VARIANCE> 75
 5.099138e-01 2.006014e-01 6.273318e-02 5.043118e-02 3.875412e-02 2.812354e-02 1.891963e-02 1.152333e-02 1.000000e-02 1.000000e-02 1.000000e-02 1.000000e-02 1.000000e-02 1.000000e-02 1.000000e-02 1.004446e-02 1.156413e-02 1.165373e-02 1.000000e-02 1.000000e-02 1.000000e-02 1.000000e-02 1.000000e-02 1.000000e-02 1.000000e-02 1.000000e-02 1.000000e-02 1.000000e-02 1.000000e-02 1.000000e-02 1.000000e-02 1.000000e-02 1.000000e-02 1.000000e-02 1.000000e-02 1.000000e-02 1.000000e-02 1.000000e-02 1.000000e-02 1.000000e-02 1.000000e-02 1.000000e-02 1.000000e-02 1.000000e-02 1.000000e-02 1.000000e-02 1.000000e-02 1.000000e-02 1.000000e-02 1.000000e-02 1.000000e-02 1.000000e-02 1.000000e-02 1.000000e-02 1.000000e-02 1.000000e-02 1.000000e-02 1.000000e-02 1.000000e-02 1.000000e-02 1.000000e-02 1.000000e-02 1.000000e-02 1.000000e-02 1.000000e-02 1.000000e-02 1.000000e-02 1.000000e-02 1.000000e-02 1.000000e-02 1.000000e-02 1.000000e-02 1.000000e-02 1.000000e-02 1.000000e-02
<GCONST> -1.936913e+02
<STATE> 4
<MEAN> 75
 1.955499e+00 2.055673e+00 2.145253e+00 2.221706e+00 2.280045e+00 2.315704e+00 2.327689e+00 2.317105e+00 2.286783e+00 2.242558e+00 2.195135e+00 2.158067e+00 2.138916e+00 2.129473e+00 2.109046e+00 2.056885e+00 1.960072e+00 1.814994e+00 1.628655e+00 1.422532e+00 1.234973e+00 1.104481e+00 1.037921e+00 1.000000e+00 1.001218e+00 2.939995e-03 1.644934e-03 3.597604e-04 -6.028918e-04 -8.536998e-04 -7.461071e-04 -6.349835e-04 -5.723101e-04 -5.572900e-04 -5.849823e-04 -6.449828e-04 -7.379782e-04 -8.406900e-04 -9.356021e-04 -1.019777e-03 -1.083937e-03 -1.152061e-03 -1.190116e-03 -1.170652e-03 -1.040814e-03 -7.682013e-04 -4.333477e-04 -2.019189e-04 0.000000e+00 -2.791423e-05 2.919127e-04 3.377363e-04 3.354472e-04 1.994456e-04 5.559902e-05 9.870920e-06 7.572823e-06 8.624031e-06 9.316507e-06 8.814848e-06 1.114076e-05 6.065949e-06 5.271701e-06 4.153566e-06 4.293801e-06 3.710689e-06 4.298456e-06 7.397723e-06 6.829425e-06 3.703079e-06 2.263322e-06 1.559991e-06 6.891092e-07 0.000000e+00 2.484641e-07
<VARIANCE> 75
 8.703106e-02 7.490857e-02 6.273318e-02 5.043118e-02 3.875412e-02 2.812354e-02 1.891963e-02 1.152333e-02 1.000000e-02 1.000000e-02 1.000000e-02 1.000000e-02 1.000000e-02 1.000000e-02 1.000000e-02 1.000000e-02 1.000000e-02 1.000000e-02 1.000000e-02 1.000000e-02 1.000000e-02 1.000000e-02 1.000000e-02 1.000000e-02 1.000000e-02 1.000000e-02 1.000000e-02 1.000000e-02 1.000000e-02 1.000000e-02 1.000000e-02 1.000000e-02 1.000000e-02 1.000000e-02 1.000000e-02 1.000000e-02 1.000000e-02 1.000000e-02 1.000000e-02 1.000000e-02 1.000000e-02 1.000000e-02 1.000000e-02 1.000000e-02 1.000000e-02 1.000000e-02 1.000000e-02 1.000000e-02 1.000000e-02 1.000000e-02 1.000000e-02 1.000000e-02 1.000000e-02 1.000000e-02 1.000000e-02 1.000000e-02 1.000000e-02 1.000000e-02 1.000000e-02 1.000000e-02 1.000000e-02 1.000000e-02 1.000000e-02 1.000000e-02 1.000000e-02 1.000000e-02 1.000000e-02 1.000000e-02 1.000000e-02 1.000000e-02 1.000000e-02 1.000000e-02 1.000000e-02 1.000000e-02 1.000000e-02
<GCONST> -1.967472e+02
<TRANSP> 5
 0.000000e+00 1.000000e+00 0.000000e+00 0.000000e+00 0.000000e+00
 0.000000e+00 9.693657e-01 3.063425e-02 0.000000e+00 0.000000e+00
 0.000000e+00 0.000000e+00 3.280435e-01 6.719565e-01 0.000000e+00
 0.000000e+00 0.000000e+00 0.000000e+00 9.882995e-01 1.170053e-02
 0.000000e+00 0.000000e+00 0.000000e+00 0.000000e+00 0.000000e+00
<ENDHMM>
