~o
<STREAMINFO> 1 75
<VECSIZE> 75<NULLD><USER_D_A><DIAGC>
~h "e"
<BEGINHMM>
<NUMSTATES> 5
<STATE> 2
<MEAN> 75
 3.937247e+00 3.624686e+00 3.221834e+00 2.813769e+00 2.575981e+00 2.528265e+00 2.547822e+00 2.558166e+00 2.543329e+00 2.507701e+00 2.459610e+00 2.409612e+00 2.371079e+00 2.351809e+00 2.339065e+00 2.302408e+00 2.215675e+00 2.066417e+00 1.856453e+00 1.603654e+00 1.351457e+00 1.160247e+00 1.058131e+00 1.000000e+00 1.005120e+00 7.072795e-02 8.496148e-02 8.961626e-02 6.875268e-02 3.046484e-02 8.062575e-03 1.722790e-03 1.081002e-03 1.336316e-03 1.459596e-03 1.300274e-03 9.119812e-04 3.565018e-04 -2.052039e-04 -5.423250e-04 -6.434520e-04 -6.861499e-04 -6.546677e-04 -6.930181e-04 -7.087807e-04 -6.229931e-04 -4.000659e-04 -2.117569e-04 0.000000e+00 -3.787741e-05 -9.117013e-03 -7.308977e-03 -1.737951e-03 5.959786e-03 6.521400e-03 2.793377e-03 6.569634e-04 7.302195e-05 -2.652421e-05 -3.483281e-05 -2.737176e-05 -1.207081e-05 -2.330232e-06 -1.440322e-05 -1.702536e-06 3.161235e-07 -7.584998e-06 4.306002e-06 -8.213879e-06 -9.287678e-06 -3.886690e-06 -6.542464e-06 9.149633e-07 0.000000e+00 5.647607e-07
<VARIANCE> 75
 8.614147e-01 5.195261e-01 2.874324e-01 1.559302e-01 7.002550e-02 3.628366e-02 2.827383e-02 2.402687e-02 2.212454e-02 2.308692e-02 2.758012e-02 3.483390e-02 4.085526e-02 4.048504e-02 3.439404e-02 2.814324e-02 2.473648e-02 2.293978e-02 2.023697e-02 1.513436e-02 1.000000e-02 1.000000e-02 1.000000e-02 1.000000e-02 1.000000e-02 1.060492e-02 1.259802e-02 1.125167e-02 1.000000e-02 1.000000e-02 1.000000e-02 1.000000e-02 1.000000e-02 1.000000e-02 1.000000e-02 1.000000e-02 1.000000e-02 1.000000e-02 1.000000e-02 1.000000e-02 1.000000e-02 1.000000e-02 1.000000e-02 1.000000e-02 1.000000e-02 1.000000e-02 1.000000e-02 1.000000e-02 1.000000e-02 1.000000e-02 1.000000e-02 1.000000e-02 1.000000e-02 1.000000e-02 1.000000e-02 1.000000e-02 1.000000e-02 1.000000e-02 1.000000e-02 1.000000e-02 1.000000e-02 1.000000e-02 1.000000e-02 1.000000e-02 1.000000e-02 1.000000e-02 1.000000e-02 1.000000e-02 1.000000e-02 1.000000e-02 1.000000e-02 1.000000e-02 1.000000e-02 1.000000e-02 1.000000e-02
<GCONST> -1.756524e+02
<STATE> 3
<MEAN> 75
 4.450054e+00 4.433971e+00 4.294733e+00 4.060006e+00 3.831265e+00 3.674623e+00 3.544526e+00 3.390275e+00 3.192185e+00 2.956453e+00 2.707603e+00 2.489469e+00 2.343971e+00 2.275354e+00 2.242620e+00 2.200363e+00 2.117206e+00 1.978651e+00 1.785665e+00 1.555204e+00 1.326182e+00 1.151661e+00 1.056307e+00 1.000000e+00 1.004543e+00 3.383589e-02 5.178076e-02 6.681589e-02 6.839969e-02 4.910871e-02 2.979447e-02 2.046574e-02 1.724313e-02 1.534235e-02 1.286936e-02 9.541838e-03 5.694028e-03 2.377358e-03 5.511011e-04 -8.797567e-05 -2.831100e-04 -3.763419e-04 -3.745315e-04 -4.302447e-04 -4.865110e-04 -4.476351e-04 -3.404941e-04 -1.776902e-04 0.000000e+00 -3.893266e-05 -8.699387e-03 -8.986055e-03 -6.879815e-03 -8.254485e-04 3.488299e-03 2.440330e-03 7.226506e-04 2.670226e-05 -6.676652e-05 -7.966214e-05 -5.136749e-05 -3.327934e-05 -2.765763e-05 -2.219376e-05 -2.650840e-05 -2.033261e-05 -2.029771e-05 -2.346642e-05 -2.364179e-05 -1.723109e-05 -9.661956e-06 -1.119496e-05 -2.342172e-06 0.000000e+00 -2.049734e-06
<VARIANCE> 75
 7.055031e-01 6.621603e-01 9.798537e-01 1.539210e+00 1.969044e+00 2.012397e+00 1.791330e+00 1.440792e+00 1.041206e+00 6.453398e-01 3.164329e-01 1.116094e-01 3.556452e-02 2.439196e-02 2.645447e-02 3.099163e-02 3.580825e-02 3.766891e-02 3.378042e-02 2.396739e-02 1.183218e-02 1.000000e-02 1.000000e-02 1.000000e-02 1.000000e-02 1.000000e-02 1.051881e-02 1.227986e-02 1.000000e-02 1.000000e-02 1.000000e-02 1.000000e-02 1.000000e-02 1.000000e-02 1.000000e-02 1.000000e-02 1.000000e-02 1.000000e-02 1.000000e-02 1.000000e-02 1.000000e-02 1.000000e-02 1.000000e-02 1.000000e-02 1.000000e-02 1.000000e-02 1.000000e-02 1.000000e-02 1.000000e-02 1.000000e-02 1.000000e-02 1.000000e-02 1.000000e-02 1.000000e-02 1.000000e-02 1.000000e-02 1.000000e-02 1.000000e-02 1.000000e-02 1.000000e-02 1.000000e-02 1.000000e-02 1.000000e-02 1.000000e-02 1.000000e-02 1.000000e-02 1.000000e-02 1.000000e-02 1.000000e-02 1.000000e-02 1.000000e-02 1.000000e-02 1.000000e-02 1.000000e-02 1.000000e-02
<GCONST> -1.446693e+02
<STATE> 4
<MEAN> 75
 5.086298e+00 5.054679e+00 4.907643e+00 4.642858e+00 4.281623e+00 3.880636e+00 3.490059e+00 3.133388e+00 2.827974e+00 2.588589e+00 2.417781e+00 2.302896e+00 2.228595e+00 2.184320e+00 2.153030e+00 2.105962e+00 2.018214e+00 1.878640e+00 1.690337e+00 1.473570e+00 1.268407e+00 1.120614e+00 1.044054e+00 1.000000e+00 1.002425e+00 5.437208e-03 1.458375e-02 2.381591e-02 3.192278e-02 3.525718e-02 3.198947e-02 2.535690e-02 1.813493e-02 1.161297e-02 6.434214e-03 3.042705e-03 1.237299e-03 3.315211e-04 -1.872383e-04 -4.842124e-04 -6.202546e-04 -6.794655e-04 -7.232768e-04 -7.531054e-04 -7.196094e-04 -5.789537e-04 -3.682337e-04 -1.751909e-04 0.000000e+00 -2.308028e-05 -2.140162e-03 -2.691341e-03 -3.107802e-03 -2.937474e-03 -1.801092e-03 -6.845380e-04 -1.636833e-04 -3.147433e-05 -2.775738e-05 -4.158054e-05 -5.194071e-05 -4.744005e-05 -3.332622e-05 -1.918509e-05 -1.308383e-05 -1.036268e-05 -8.688714e-06 -1.192127e-05 -8.880327e-06 -5.531566e-06 -3.026546e-06 -1.026428e-06 9.074599e-08 0.000000e+00 6.611987e-07
<VARIANCE> 75
 1.636196e-01 2.323837e-01 4.175142e-01 7.027937e-01 9.917290e-01 1.092319e+00 9.434848e-01 6.526206e-01 3.561574e-01 1.483181e-01 4.961425e-02 2.041708e-02 1.453746e-02 1.427880e-02 1.774402e-02 2.386746e-02 2.962785e-02 3.154957e-02 2.752426e-02 1.825677e-02 1.000000e-02 1.000000e-02 1.000000e-02 1.000000e-02 1.000000e-02 1.000000e-02 1.000000e-02 1.000000e-02 1.000000e-02 1.000000e-02 1.000000e-02 1.000000e-02 1.000000e-02 1.000000e-02 1.000000e-02 1.000000e-02 1.000000e-02 1.000000e-02 1.000000e-02 1.000000e-02 1.000000e-02 1.000000e-02 1.000000e-02 1.000000e-02 1.000000e-02 1.000000e-02 1.000000e-02 1.000000e-02 1.000000e-02 1.000000e-02 1.000000e-02 1.000000e-02 1.000000e-02 1.000000e-02 1.000000e-02 1.000000e-02 1.000000e-02 1.000000e-02 1.000000e-02 1.000000e-02 1.000000e-02 1.000000e-02 1.000000e-02 1.000000e-02 1.000000e-02 1.000000e-02 1.000000e-02 1.000000e-02 1.000000e-02 1.000000e-02 1.000000e-02 1.000000e-02 1.000000e-02 1.000000e-02 1.000000e-02
<GCONST> -1.609980e+02
<TRANSP> 5
 0.000000e+00 1.000000e+00 0.000000e+00 0.000000e+00 0.000000e+00
 0.000000e+00 8.296117e-01 1.703883e-01 0.000000e+00 0.000000e+00
 0.000000e+00 0.000000e+00 6.827666e-01 3.172334e-01 0.000000e+00
 0.000000e+00 0.000000e+00 0.000000e+00 9.710898e-01 2.891012e-02
 0.000000e+00 0.000000e+00 0.000000e+00 0.000000e+00 0.000000e+00
<ENDHMM>
~h "ne"
<BEGINHMM>
<NUMSTATES> 5
<STATE> 2
<MEAN> 75
 2.003524e+00 2.124998e+00 2.238064e+00 2.336119e+00 2.412513e+00 2.464971e+00 2.493433e+00 2.498640e+00 2.482075e+00 2.446704e+00 2.399089e+00 2.352824e+00 2.327395e+00 2.331402e+00 2.344585e+00 2.330540e+00 2.260880e+00 2.122163e+00 1.914886e+00 1.656693e+00 1.391717e+00 1.185125e+00 1.071702e+00 1.000000e+00 1.009010e+00 2.684337e-03 5.110306e-04 -9.053658e-04 -1.230141e-03 -1.035133e-03 -8.274427e-04 -6.864744e-04 -5.884355e-04 -5.565240e-04 -5.591258e-04 -6.120369e-04 -6.808515e-04 -8.038030e-04 -9.308215e-04 -1.034668e-03 -1.116677e-03 -1.187157e-03 -1.262832e-03 -1.305404e-03 -1.248740e-03 -1.040428e-03 -6.640748e-04 -3.253493e-04 0.000000e+00 -5.737138e-05 6.786945e-04 5.294813e-04 2.504489e-04 4.366026e-05 -1.010534e-05 -3.079857e-06 1.829272e-06 4.786213e-06 7.669951e-06 8.429771e-06 7.837938e-06 2.054089e-06 -1.386692e-06 -3.654154e-06 -6.119917e-06 -6.417097e-06 -6.460991e-06 -7.714518e-06 -3.482391e-06 -4.222608e-06 -1.595198e-06 -2.780992e-06 -4.649057e-07 0.000000e+00 7.642111e-07
<VARIANCE> 75
 8.735170e-02 7.529422e-02 6.314393e-02 5.083671e-02 3.912752e-02 2.845205e-02 1.922121e-02 1.176505e-02 1.000000e-02 1.000000e-02 1.000000e-02 1.000000e-02 1.000000e-02 1.000000e-02 1.000000e-02 1.000000e-02 1.000000e-02 1.000000e-02 1.000000e-02 1.000000e-02 1.000000e-02 1.000000e-02 1.000000e-02 1.000000e-02 1.000000e-02 1.000000e-02 1.000000e-02 1.000000e-02 1.000000e-02 1.000000e-02 1.000000e-02 1.000000e-02 1.000000e-02 1.000000e-02 1.000000e-02 1.000000e-02 1.000000e-02 1.000000e-02 1.000000e-02 1.000000e-02 1.000000e-02 1.000000e-02 1.000000e-02 1.000000e-02 1.000000e-02 1.000000e-02 1.000000e-02 1.000000e-02 1.000000e-02 1.000000e-02 1.000000e-02 1.000000e-02 1.000000e-02 1.000000e-02 1.000000e-02 1.000000e-02 1.000000e-02 1.000000e-02 1.000000e-02 1.000000e-02 1.000000e-02 1.000000e-02 1.000000e-02 1.000000e-02 1.000000e-02 1.000000e-02 1.000000e-02 1.000000e-02 1.000000e-02 1.000000e-02 1.000000e-02 1.000000e-02 1.000000e-02 1.000000e-02 1.000000e-02
<GCONST> -1.966660e+02
<STATE> 3
<MEAN> 75
 2.355485e+00 2.314072e+00 2.281102e+00 2.298259e+00 2.352428e+00 2.399325e+00 2.423949e+00 2.424188e+00 2.402393e+00 2.362981e+00 2.314874e+00 2.272168e+00 2.247615e+00 2.241519e+00 2.235455e+00 2.199953e+00 2.115376e+00 1.971819e+00 1.771954e+00 1.537292e+00 1.309432e+00 1.141175e+00 1.053538e+00 1.000000e+00 1.004835e+00 3.112111e-02 2.719939e-02 1.503435e-02 2.965269e-03 -8.161874e-04 -6.739486e-04 -4.680430e-04 -2.547097e-04 -1.447773e-04 -5.727604e-05 -4.034601e-04 -2.144985e-04 -4.885393e-04 -6.576540e-04 -7.261346e-04 -8.489550e-04 -8.925308e-04 -1.228792e-03 -1.202626e-03 -8.726947e-04 -6.343329e-04 -3.810119e-04 -1.754152e-04 0.000000e+00 -4.086403e-05 3.002366e-04 2.663908e-03 3.880316e-03 2.067685e-03 2.597639e-04 -2.269904e-05 -1.709683e-05 -6.660798e-06 -1.005344e-05 -3.380369e-05 6.533143e-05 -3.973777e-05 -3.002521e-05 -1.826164e-05 -1.063050e-04 -3.136118e-05 -1.148767e-04 -3.507853e-05 3.577066e-05 -3.035666e-05 -1.991330e-05 -1.614961e-05 -1.279617e-05 0.000000e+00 2.800498e-06
<VARIANCE> 75
 5.003094e-01 1.962200e-01 6.314393e-02 5.083671e-02 3.912752e-02 2.845205e-02 1.922121e-02 1.176505e-02 1.000000e-02 1.000000e-02 1.000000e-02 1.000000e-02 1.000000e-02 1.000000e-02 1.000000e-02 1.000000e-02 1.142162e-02 1.142437e-02 1.000000e-02 1.000000e-02 1.000000e-02 1.000000e-02 1.000000e-02 1.000000e-02 1.000000e-02 1.000000e-02 1.000000e-02 1.000000e-02 1.000000e-02 1.000000e-02 1.000000e-02 1.000000e-02 1.000000e-02 1.000000e-02 1.000000e-02 1.000000e-02 1.000000e-02 1.000000e-02 1.000000e-02 1.000000e-02 1.000000e-02 1.000000e-02 1.000000e-02 1.000000e-02 1.000000e-02 1.000000e-02 1.000000e-02 1.000000e-02 1.000000e-02 1.000000e-02 1.000000e-02 1.000000e-02 1.000000e-02 1.000000e-02 1.000000e-02 1.000000e-02 1.000000e-02 1.000000e-02 1.000000e-02 1.000000e-02 1.000000e-02 1.000000e-02 1.000000e-02 1.000000e-02 1.000000e-02 1.000000e-02 1.000000e-02 1.000000e-02 1.000000e-02 1.000000e-02 1.000000e-02 1.000000e-02 1.000000e-02 1.000000e-02 1.000000e-02
<GCONST> -1.936969e+02
<STATE> 4
<MEAN> 75
 1.955611e+00 2.055701e+00 2.145580e+00 2.222220e+00 2.280550e+00 2.316137e+00 2.328043e+00 2.317363e+00 2.286917e+00 2.242615e+00 2.195155e+00 2.158083e+00 2.138955e+00 2.129516e+00 2.109032e+00 2.056814e+00 1.959927e+00 1.814797e+00 1.628478e+00 1.422397e+00 1.234887e+00 1.104455e+00 1.037929e+00 1.000000e+00 1.001224e+00 2.993067e-03 1.658576e-03 3.576599e-04 -6.048597e-04 -8.530041e-04 -7.441653e-04 -6.316256e-04 -5.693790e-04 -5.537031e-04 -5.821161e-04 -6.423062e-04 -7.358714e-04 -8.392722e-04 -9.343129e-04 -1.018815e-03 -1.082531e-03 -1.149997e-03 -1.188891e-03 -1.169239e-03 -1.040275e-03 -7.672581e-04 -4.327485e-04 -2.026209e-04 0.000000e+00 -2.748858e-05 2.941806e-04 3.405581e-04 3.374707e-04 1.999392e-04 5.502886e-05 9.870964e-06 7.398858e-06 8.613704e-06 9.444043e-06 8.894574e-06 1.117042e-05 6.073139e-06 5.490039e-06 4.216010e-06 4.480195e-06 3.751298e-06 4.672846e-06 7.421673e-06 6.854674e-06 3.634084e-06 2.367907e-06 1.585883e-06 7.205624e-07 0.000000e+00 2.616860e-07
<VARIANCE> 75
 8.735170e-02 7.529422e-02 6.314393e-02 5.083671e-02 3.912752e-02 2.845205e-02 1.922121e-02 1.176505e-02 1.000000e-02 1.000000e-02 1.000000e-02 1.000000e-02 1.000000e-02 1.000000e-02 1.000000e-02 1.000000e-02 1.000000e-02 1.000000e-02 1.000000e-02 1.000000e-02 1.000000e-02 1.000000e-02 1.000000e-02 1.000000e-02 1.000000e-02 1.000000e-02 1.000000e-02 1.000000e-02 1.000000e-02 1.000000e-02 1.000000e-02 1.000000e-02 1.000000e-02 1.000000e-02 1.000000e-02 1.000000e-02 1.000000e-02 1.000000e-02 1.000000e-02 1.000000e-02 1.000000e-02 1.000000e-02 1.000000e-02 1.000000e-02 1.000000e-02 1.000000e-02 1.000000e-02 1.000000e-02 1.000000e-02 1.000000e-02 1.000000e-02 1.000000e-02 1.000000e-02 1.000000e-02 1.000000e-02 1.000000e-02 1.000000e-02 1.000000e-02 1.000000e-02 1.000000e-02 1.000000e-02 1.000000e-02 1.000000e-02 1.000000e-02 1.000000e-02 1.000000e-02 1.000000e-02 1.000000e-02 1.000000e-02 1.000000e-02 1.000000e-02 1.000000e-02 1.000000e-02 1.000000e-02 1.000000e-02
<GCONST> -1.966660e+02
<TRANSP> 5
 0.000000e+00 1.000000e+00 0.000000e+00 0.000000e+00 0.000000e+00
 0.000000e+00 9.689255e-01 3.107453e-02 0.000000e+00 0.000000e+00
 0.000000e+00 0.000000e+00 3.244568e-01 6.755432e-01 0.000000e+00
 0.000000e+00 0.000000e+00 0.000000e+00 9.883693e-01 1.163062e-02
 0.000000e+00 0.000000e+00 0.000000e+00 0.000000e+00 0.000000e+00
<ENDHMM>
