~o
<STREAMINFO> 1 75
<VECSIZE> 75<NULLD><USER_D_A><DIAGC>
~h "e"
<BEGINHMM>
<NUMSTATES> 5
<STATE> 2
<MEAN> 75
 1.595071e+00 2.283312e+00 2.295674e+00 2.317966e+00 2.334359e+00 2.292224e+00 2.232008e+00 2.163990e+00 2.092313e+00 2.042875e+00 2.002121e+00 1.970521e+00 1.933689e+00 1.864776e+00 1.750781e+00 1.599231e+00 1.436220e+00 1.327824e+00 1.275928e+00 1.237160e+00 1.202610e+00 1.135693e+00 1.086019e+00 1.024999e+00 1.006696e+00 7.498484e-03 8.302741e-03 6.778643e-03 5.166401e-03 2.944247e-03 4.369319e-03 3.776458e-03 3.314224e-03 2.901154e-03 1.879150e-03 9.691078e-04 5.908285e-04 1.520341e-03 1.479514e-03 1.293188e-03 3.693881e-04 -2.068026e-04 8.440654e-04 1.166296e-03 6.492373e-04 5.914947e-04 -1.712099e-04 9.277086e-04 1.292850e-04 -1.673430e-04 -1.150894e-03 -9.539078e-04 -4.226227e-04 1.054986e-04 8.244863e-05 3.665212e-04 3.897981e-04 6.621093e-04 1.903479e-04 -9.459464e-05 2.473491e-04 4.140629e-04 6.040302e-04 4.512541e-04 2.698466e-04 4.195957e-04 5.137388e-04 4.751894e-04 9.039915e-04 4.114798e-04 9.337947e-05 4.539106e-04 3.247907e-04 -6.187926e-05 2.790265e-04
<VARIANCE> 75
 4.011975e-01 2.230558e-01 1.912665e-01 1.637782e-01 1.308430e-01 1.287075e-01 1.096432e-01 7.548247e-02 5.843885e-02 4.403878e-02 3.416477e-02 4.110758e-02 5.073753e-02 6.046068e-02 6.629115e-02 8.019220e-02 8.437079e-02 8.738712e-02 8.789460e-02 7.053324e-02 4.554706e-02 1.993715e-02 8.508936e-03 1.333401e-03 2.108077e-04 8.259297e-03 4.048972e-03 2.851770e-03 2.293465e-03 1.795182e-03 1.486532e-03 1.365843e-03 1.267324e-03 1.391041e-03 1.104853e-03 7.627719e-04 6.529622e-04 6.771792e-04 6.886714e-04 7.190190e-04 7.743612e-04 9.917265e-04 8.175059e-04 7.936940e-04 6.891335e-04 6.958299e-04 5.427994e-04 4.790323e-04 8.899203e-05 5.000000e-05 1.306386e-03 5.872207e-04 3.909710e-04 3.389767e-04 2.810469e-04 2.275149e-04 2.075570e-04 1.818812e-04 2.221810e-04 1.685084e-04 1.166850e-04 1.030556e-04 1.063096e-04 1.067824e-04 1.243606e-04 1.286935e-04 1.802548e-04 1.480167e-04 1.568338e-04 1.253377e-04 1.146622e-04 9.853287e-05 9.399430e-05 5.000000e-05 5.000000e-05
<GCONST> -3.303646e+02
<STATE> 3
<MEAN> 75
 1.576021e+00 2.137916e+00 2.191507e+00 2.210184e+00 2.161565e+00 2.115115e+00 2.092565e+00 2.059510e+00 2.058895e+00 2.054797e+00 2.007442e+00 1.955204e+00 1.978444e+00 1.975598e+00 1.903640e+00 1.822673e+00 1.705300e+00 1.622296e+00 1.591488e+00 1.543777e+00 1.452281e+00 1.296161e+00 1.153429e+00 1.029231e+00 1.007057e+00 -1.125323e-03 1.079827e-02 1.323914e-02 1.380953e-02 1.281024e-02 1.117192e-02 9.235668e-03 6.479769e-03 4.698511e-03 2.462846e-03 1.189334e-03 1.284144e-03 3.667334e-03 3.872809e-03 4.263039e-03 3.949750e-03 2.668201e-03 3.152905e-03 3.349091e-03 2.532508e-03 2.110549e-03 2.895045e-03 2.465606e-03 4.042695e-04 2.052805e-06 -9.248568e-04 -1.371396e-03 -1.072229e-03 -4.519511e-04 -5.956305e-05 -1.525414e-04 -2.521386e-04 -3.522529e-04 -2.616277e-04 2.773071e-05 -1.187565e-04 -6.005474e-06 -4.282353e-04 -5.441477e-04 -5.804828e-04 -2.784194e-04 7.763745e-06 -2.844548e-04 -3.920726e-04 -1.734951e-04 -5.557928e-04 2.262628e-05 -2.919031e-04 -7.814406e-05 4.007692e-05
<VARIANCE> 75
 3.271146e-01 3.418255e-01 3.646502e-01 3.398054e-01 2.907187e-01 2.886124e-01 2.709472e-01 1.963340e-01 1.188399e-01 7.063871e-02 4.969605e-02 6.103450e-02 7.285534e-02 1.162288e-01 1.610267e-01 2.646406e-01 3.178121e-01 3.307900e-01 3.496607e-01 3.260074e-01 2.250042e-01 9.772934e-02 2.537426e-02 1.659127e-03 4.172721e-04 1.280606e-02 4.593659e-03 5.274732e-03 5.602235e-03 5.766890e-03 4.983264e-03 4.164553e-03 2.825831e-03 2.682637e-03 1.981282e-03 1.797429e-03 2.567548e-03 1.837387e-03 1.844393e-03 2.109174e-03 1.879604e-03 2.052610e-03 2.717322e-03 1.804943e-03 1.572738e-03 1.530690e-03 1.254679e-03 1.237592e-03 1.594261e-04 5.000000e-05 2.684925e-03 7.038729e-04 7.786062e-04 8.066344e-04 8.989694e-04 8.182239e-04 6.061140e-04 4.088204e-04 3.674272e-04 3.098287e-04 3.011012e-04 4.160684e-04 3.306720e-04 3.354683e-04 3.975171e-04 3.349422e-04 3.822582e-04 5.313830e-04 3.180848e-04 2.828049e-04 3.084257e-04 2.248643e-04 2.303056e-04 5.000000e-05 5.000000e-05
<GCONST> -2.680909e+02
<STATE> 4
<MEAN> 75
 1.543817e+00 1.914846e+00 1.939732e+00 1.917814e+00 1.880785e+00 1.862504e+00 1.871610e+00 1.910242e+00 1.941311e+00 1.947805e+00 1.941261e+00 1.923805e+00 1.903862e+00 1.872930e+00 1.822484e+00 1.743465e+00 1.656598e+00 1.613411e+00 1.592879e+00 1.542868e+00 1.464961e+00 1.342956e+00 1.214266e+00 1.069337e+00 1.007423e+00 -2.351921e-03 -4.490031e-03 -3.787315e-03 -2.754218e-03 -2.690391e-03 -1.757705e-03 -1.212763e-03 -3.412295e-06 2.185322e-04 3.227815e-04 6.071591e-04 5.086779e-04 3.519103e-04 4.477261e-04 7.289452e-04 9.934120e-04 9.795827e-04 6.022624e-04 3.818472e-04 5.611515e-04 3.108649e-04 4.964146e-04 3.464856e-05 1.438360e-04 -2.832992e-05 2.389227e-04 -3.253382e-04 -1.736415e-04 -4.672347e-05 -7.909930e-05 -3.303900e-05 -1.613611e-04 -2.026957e-04 -1.275921e-04 -4.250600e-05 1.630061e-05 -9.390684e-05 -6.619592e-05 -9.610581e-06 -9.237727e-05 -5.482457e-05 -5.589127e-05 -1.935883e-04 -9.902191e-05 -1.378305e-04 -9.136991e-05 -1.101845e-04 -5.291518e-05 -1.810252e-05 -1.520644e-05
<VARIANCE> 75
 3.648727e-01 3.342803e-01 2.535743e-01 1.868836e-01 1.267221e-01 7.877143e-02 7.274509e-02 8.011867e-02 8.051670e-02 6.916939e-02 5.348130e-02 4.858396e-02 5.536941e-02 7.445043e-02 1.037250e-01 1.422829e-01 1.542154e-01 1.551700e-01 1.410754e-01 1.103983e-01 7.400354e-02 4.677477e-02 2.822791e-02 4.887609e-03 4.139383e-04 7.359811e-03 4.982453e-03 3.291424e-03 2.854503e-03 2.503885e-03 1.606707e-03 1.224630e-03 9.009208e-04 7.279793e-04 5.356842e-04 4.980362e-04 4.494082e-04 4.142469e-04 3.980762e-04 4.482912e-04 5.941098e-04 7.100370e-04 8.089777e-04 6.993993e-04 7.303773e-04 7.486687e-04 8.052951e-04 8.388723e-04 2.986001e-04 5.000000e-05 1.522363e-03 8.883174e-04 5.272971e-04 4.762808e-04 4.114958e-04 2.867758e-04 2.074494e-04 1.474698e-04 1.160479e-04 8.319930e-05 7.836774e-05 8.000823e-05 7.120990e-05 6.680534e-05 8.188844e-05 1.092206e-04 1.311953e-04 1.455884e-04 1.308957e-04 1.353758e-04 1.368818e-04 1.555968e-04 1.647616e-04 5.836580e-05 5.000000e-05
<GCONST> -3.238471e+02
<TRANSP> 5
 0.000000e+00 1.000000e+00 0.000000e+00 0.000000e+00 0.000000e+00
 0.000000e+00 9.125095e-01 8.749054e-02 0.000000e+00 0.000000e+00
 0.000000e+00 0.000000e+00 8.861908e-01 1.138092e-01 0.000000e+00
 0.000000e+00 0.000000e+00 0.000000e+00 9.770104e-01 2.298966e-02
 0.000000e+00 0.000000e+00 0.000000e+00 0.000000e+00 0.000000e+00
<ENDHMM>
~h "ne"
<BEGINHMM>
<NUMSTATES> 5
<STATE> 2
<MEAN> 75
 1.118754e+00 1.611268e+00 1.825559e+00 1.988980e+00 2.118319e+00 2.216869e+00 2.271377e+00 2.270305e+00 2.235374e+00 2.187174e+00 2.135247e+00 2.101608e+00 2.082775e+00 2.073124e+00 2.034809e+00 1.943179e+00 1.806051e+00 1.654668e+00 1.532751e+00 1.443581e+00 1.369650e+00 1.284517e+00 1.188674e+00 1.060357e+00 1.009768e+00 1.818711e-03 -2.368622e-03 -2.573299e-03 -1.529561e-03 -6.744671e-04 -1.284912e-03 -1.007315e-03 -8.102854e-04 -1.307303e-05 -1.730218e-03 -2.185405e-03 -2.349510e-03 -3.884490e-03 -4.128505e-03 -5.464910e-03 -5.856421e-03 -5.493392e-03 -5.343360e-03 -4.892556e-03 -4.503357e-03 -3.306248e-03 -1.891544e-03 -2.280090e-03 4.067727e-06 1.891772e-04 6.905523e-04 4.574867e-04 -2.237853e-04 -4.671353e-04 1.834824e-04 2.561265e-04 -1.735274e-05 -1.370082e-06 -2.551596e-05 7.686455e-05 -1.367046e-05 -1.629690e-04 1.617537e-05 -3.596512e-04 -2.375057e-04 -5.025632e-04 -4.030166e-04 -2.206184e-04 -1.786779e-04 -1.174385e-04 2.758226e-04 9.556686e-05 9.479743e-05 -1.758900e-04 8.975363e-05
<VARIANCE> 75
 7.814312e-02 4.065489e-01 4.307114e-01 4.091457e-01 3.472313e-01 3.021954e-01 2.521451e-01 2.252145e-01 1.964941e-01 1.413086e-01 9.704509e-02 7.939517e-02 7.003096e-02 7.031828e-02 7.718152e-02 8.611092e-02 8.674672e-02 7.672344e-02 6.517834e-02 5.695006e-02 5.001455e-02 3.865575e-02 2.607515e-02 4.656017e-03 5.905505e-04 3.839717e-03 8.228367e-03 6.344006e-03 4.641413e-03 3.331073e-03 2.025967e-03 1.383104e-03 1.265755e-03 1.219496e-03 1.244316e-03 1.118928e-03 1.295915e-03 1.301953e-03 1.589127e-03 1.270986e-03 1.207117e-03 1.253596e-03 1.400856e-03 1.248374e-03 1.290018e-03 1.253240e-03 1.218381e-03 1.824178e-03 3.412429e-04 8.568686e-05 6.208640e-04 1.405075e-03 9.934878e-04 6.487322e-04 5.182792e-04 3.181736e-04 2.230942e-04 1.987746e-04 1.837948e-04 1.681767e-04 1.523437e-04 1.699193e-04 1.648304e-04 1.822035e-04 1.587328e-04 1.604752e-04 1.701935e-04 2.192246e-04 2.081427e-04 2.240867e-04 2.146148e-04 2.042702e-04 2.998552e-04 6.352708e-05 5.000000e-05
<GCONST> -2.963975e+02
<STATE> 3
<MEAN> 75
 1.333959e+00 1.733134e+00 1.838010e+00 1.944485e+00 2.019071e+00 2.071701e+00 2.098680e+00 2.068095e+00 2.001741e+00 1.922318e+00 1.852521e+00 1.820674e+00 1.811664e+00 1.800829e+00 1.766122e+00 1.711193e+00 1.626390e+00 1.516341e+00 1.396038e+00 1.289274e+00 1.209616e+00 1.138471e+00 1.085218e+00 1.026105e+00 1.008261e+00 1.777423e-03 -3.493928e-03 -4.722560e-03 -3.995172e-03 -2.868614e-03 -2.568610e-03 -2.216399e-03 -1.644539e-03 -1.117367e-03 -6.879894e-04 -7.666015e-04 -4.444424e-04 1.680860e-05 2.582277e-04 3.392270e-04 5.825907e-04 6.288083e-04 9.715310e-04 8.172143e-04 7.495663e-04 4.415513e-04 1.194694e-04 5.407164e-05 -4.664186e-05 -5.463312e-05 -2.695210e-04 -3.456660e-05 1.415624e-04 9.752230e-05 -8.953260e-05 -1.971383e-04 -1.157367e-04 1.411214e-04 2.852478e-04 3.197882e-04 3.724432e-04 3.066628e-04 3.434168e-04 3.318479e-04 5.288347e-04 4.959990e-04 4.511236e-04 4.424093e-04 4.489679e-04 4.365588e-04 2.483508e-04 5.922301e-05 1.640902e-04 -5.857699e-06 -3.003327e-05
<VARIANCE> 75
 2.158258e-01 4.584093e-01 3.972032e-01 3.209991e-01 2.670917e-01 2.566281e-01 2.465874e-01 2.321722e-01 2.128695e-01 1.690570e-01 1.334149e-01 1.209650e-01 1.223389e-01 1.201871e-01 1.259379e-01 1.468108e-01 1.735535e-01 1.529668e-01 1.080068e-01 6.715961e-02 3.916503e-02 2.062766e-02 9.778236e-03 1.891732e-03 8.725949e-04 8.141699e-03 8.893566e-03 7.468064e-03 6.059689e-03 4.637930e-03 4.059875e-03 3.307345e-03 3.008540e-03 3.139877e-03 3.047476e-03 3.244680e-03 3.460837e-03 3.486644e-03 3.444904e-03 3.444202e-03 3.002550e-03 2.623857e-03 2.333923e-03 1.990532e-03 1.632657e-03 1.234291e-03 8.445463e-04 5.792997e-04 1.464660e-04 9.023363e-05 1.565075e-03 1.588701e-03 1.307392e-03 1.066097e-03 8.307577e-04 7.355020e-04 5.743314e-04 5.319296e-04 5.725937e-04 5.742144e-04 6.086417e-04 6.443401e-04 6.197437e-04 6.069560e-04 6.053054e-04 4.992387e-04 4.625674e-04 4.063100e-04 3.467566e-04 2.884362e-04 2.230366e-04 1.598086e-04 1.145923e-04 5.000000e-05 5.000000e-05
<GCONST> -2.658775e+02
<STATE> 4
<MEAN> 75
 1.353893e+00 1.524169e+00 1.630449e+00 1.779424e+00 1.940967e+00 2.080278e+00 2.201932e+00 2.278893e+00 2.296905e+00 2.275373e+00 2.245214e+00 2.226671e+00 2.222327e+00 2.209857e+00 2.172105e+00 2.106234e+00 1.987986e+00 1.833652e+00 1.668116e+00 1.499461e+00 1.357944e+00 1.230325e+00 1.129504e+00 1.034636e+00 1.009452e+00 -8.126514e-05 1.427790e-03 6.908115e-04 4.628801e-04 -1.433767e-04 -1.336998e-04 8.489973e-05 7.500024e-05 6.776099e-05 1.902351e-04 2.658587e-04 3.158070e-04 3.105092e-04 7.347922e-06 1.756820e-04 1.926059e-04 2.013792e-04 4.773242e-04 6.653210e-04 4.214659e-04 2.851433e-04 1.201242e-04 2.417062e-04 3.393015e-05 1.095475e-04 3.298047e-05 2.668133e-04 8.065881e-05 7.385483e-05 -2.006251e-05 7.082430e-05 7.031772e-05 4.438715e-05 1.228784e-05 -3.631908e-05 -5.550592e-05 -1.362233e-05 2.538634e-05 -8.788385e-05 -4.816859e-05 1.327326e-05 -7.037070e-06 3.149805e-06 5.852880e-05 -2.438597e-05 9.916911e-06 2.512482e-05 4.442115e-05 1.045457e-05 2.893096e-05
<VARIANCE> 75
 1.726768e-01 4.474987e-01 4.025266e-01 3.325455e-01 2.719847e-01 2.329095e-01 2.154010e-01 2.073561e-01 1.885115e-01 1.488843e-01 1.232720e-01 1.132691e-01 1.120373e-01 1.178812e-01 1.336575e-01 1.671810e-01 1.908130e-01 1.824639e-01 1.463099e-01 1.127111e-01 7.831923e-02 4.169343e-02 1.609937e-02 2.150303e-03 1.229199e-03 4.412098e-03 5.875027e-03 4.859427e-03 3.433265e-03 2.193372e-03 1.408711e-03 1.005811e-03 7.629109e-04 6.534414e-04 5.705714e-04 5.024460e-04 4.795830e-04 4.392071e-04 3.837390e-04 3.589934e-04 3.881839e-04 4.734947e-04 5.699755e-04 7.098982e-04 6.954424e-04 6.601674e-04 6.811566e-04 6.037033e-04 1.481126e-04 1.251155e-04 8.357335e-04 9.344088e-04 7.800951e-04 5.512781e-04 3.517639e-04 2.275021e-04 1.550442e-04 1.120458e-04 9.854000e-05 8.645647e-05 7.965111e-05 7.821556e-05 7.303482e-05 6.077797e-05 5.952997e-05 6.214302e-05 8.052857e-05 9.565701e-05 1.252680e-04 1.265599e-04 1.226831e-04 1.299042e-04 1.152489e-04 5.000000e-05 5.000000e-05
<GCONST> -3.204861e+02
<TRANSP> 5
 0.000000e+00 1.000000e+00 0.000000e+00 0.000000e+00 0.000000e+00
 0.000000e+00 8.746493e-01 1.253507e-01 0.000000e+00 0.000000e+00
 0.000000e+00 0.000000e+00 9.543552e-01 4.564478e-02 0.000000e+00
 0.000000e+00 0.000000e+00 0.000000e+00 9.849027e-01 1.509733e-02
 0.000000e+00 0.000000e+00 0.000000e+00 0.000000e+00 0.000000e+00
<ENDHMM>
