~o
<STREAMINFO> 1 75
<VECSIZE> 75<NULLD><USER_D_A><DIAGC>
~h "e"
<BEGINHMM>
<NUMSTATES> 5
<STATE> 2
<MEAN> 75
 1.363207e+00 2.079850e+00 2.281446e+00 2.431101e+00 2.510082e+00 2.531564e+00 2.545765e+00 2.529341e+00 2.497827e+00 2.451933e+00 2.354584e+00 2.249051e+00 2.207788e+00 2.217756e+00 2.247176e+00 2.233982e+00 2.135255e+00 1.973078e+00 1.775787e+00 1.591760e+00 1.419930e+00 1.245937e+00 1.116158e+00 1.026992e+00 1.015337e+00 1.733797e-03 1.606481e-03 -6.087971e-04 -2.391206e-03 -3.750003e-03 -3.578705e-03 -2.543982e-03 -1.768518e-03 -1.643520e-03 -1.287038e-03 -3.171296e-04 6.944448e-04 9.675930e-04 9.537036e-04 1.233796e-03 1.252315e-03 1.212963e-03 1.409722e-03 1.467592e-03 1.013889e-03 3.518518e-04 9.953763e-05 5.300923e-04 -5.092585e-05 2.314810e-05 2.303242e-04 -4.444444e-04 -6.259265e-04 -5.717594e-04 -3.842594e-04 -1.027778e-04 -4.583357e-05 -6.828698e-05 -1.708334e-04 -2.071761e-04 -1.581019e-04 -1.703704e-04 -1.861113e-04 -1.039352e-04 -7.847223e-05 -1.502314e-04 -1.236112e-04 -3.263879e-05 -1.763890e-04 -1.004629e-04 -2.935185e-04 5.601842e-05 -3.541667e-05 5.439814e-05 4.629608e-06
<VARIANCE> 75
 1.999224e-01 6.247803e-01 5.001605e-01 3.721787e-01 2.728300e-01 2.395055e-01 1.895571e-01 1.650165e-01 1.262849e-01 1.034555e-01 1.140289e-01 1.187209e-01 1.261645e-01 1.188918e-01 1.132942e-01 1.111820e-01 1.137010e-01 1.493350e-01 1.788118e-01 1.726011e-01 1.287404e-01 5.822875e-02 1.527761e-02 1.596965e-03 3.816500e-03 7.858001e-03 1.315734e-02 8.562178e-03 7.202021e-03 5.988087e-03 4.089366e-03 3.078545e-03 2.683230e-03 2.056564e-03 1.598857e-03 1.368045e-03 1.576709e-03 1.506255e-03 1.290629e-03 1.118964e-03 7.710387e-04 9.459044e-04 1.139627e-03 1.149571e-03 1.182413e-03 8.975355e-04 1.023196e-03 6.724594e-04 1.212960e-04 3.542703e-04 1.518223e-03 2.052825e-03 1.159840e-03 9.642935e-04 8.732249e-04 6.361549e-04 4.402208e-04 3.797588e-04 2.672720e-04 2.482812e-04 2.467925e-04 2.596336e-04 2.359031e-04 2.024466e-04 1.899456e-04 1.107850e-04 1.398948e-04 1.802955e-04 1.894966e-04 2.102599e-04 1.439518e-04 1.720699e-04 1.238439e-04 2.332965e-05 7.031522e-05
<GCONST> -2.826468e+02
<STATE> 3
<MEAN> 75
 1.363207e+00 2.079850e+00 2.281446e+00 2.431101e+00 2.510082e+00 2.531564e+00 2.545765e+00 2.529341e+00 2.497827e+00 2.451933e+00 2.354584e+00 2.249051e+00 2.207788e+00 2.217756e+00 2.247176e+00 2.233982e+00 2.135255e+00 1.973078e+00 1.775787e+00 1.591760e+00 1.419930e+00 1.245937e+00 1.116158e+00 1.026992e+00 1.015337e+00 1.733797e-03 1.606481e-03 -6.087971e-04 -2.391206e-03 -3.750003e-03 -3.578705e-03 -2.543982e-03 -1.768518e-03 -1.643520e-03 -1.287038e-03 -3.171296e-04 6.944448e-04 9.675930e-04 9.537036e-04 1.233796e-03 1.252315e-03 1.212963e-03 1.409722e-03 1.467592e-03 1.013889e-03 3.518518e-04 9.953763e-05 5.300923e-04 -5.092585e-05 2.314810e-05 2.303242e-04 -4.444444e-04 -6.259265e-04 -5.717594e-04 -3.842594e-04 -1.027778e-04 -4.583357e-05 -6.828698e-05 -1.708334e-04 -2.071761e-04 -1.581019e-04 -1.703704e-04 -1.861113e-04 -1.039352e-04 -7.847223e-05 -1.502314e-04 -1.236112e-04 -3.263879e-05 -1.763890e-04 -1.004629e-04 -2.935185e-04 5.601842e-05 -3.541667e-05 5.439814e-05 4.629608e-06
<VARIANCE> 75
 1.999224e-01 6.247803e-01 5.001605e-01 3.721787e-01 2.728300e-01 2.395055e-01 1.895571e-01 1.650165e-01 1.262849e-01 1.034555e-01 1.140289e-01 1.187209e-01 1.261645e-01 1.188918e-01 1.132942e-01 1.111820e-01 1.137010e-01 1.493350e-01 1.788118e-01 1.726011e-01 1.287404e-01 5.822875e-02 1.527761e-02 1.596965e-03 3.816500e-03 7.858001e-03 1.315734e-02 8.562178e-03 7.202021e-03 5.988087e-03 4.089366e-03 3.078545e-03 2.683230e-03 2.056564e-03 1.598857e-03 1.368045e-03 1.576709e-03 1.506255e-03 1.290629e-03 1.118964e-03 7.710387e-04 9.459044e-04 1.139627e-03 1.149571e-03 1.182413e-03 8.975355e-04 1.023196e-03 6.724594e-04 1.212960e-04 3.542703e-04 1.518223e-03 2.052825e-03 1.159840e-03 9.642935e-04 8.732249e-04 6.361549e-04 4.402208e-04 3.797588e-04 2.672720e-04 2.482812e-04 2.467925e-04 2.596336e-04 2.359031e-04 2.024466e-04 1.899456e-04 1.107850e-04 1.398948e-04 1.802955e-04 1.894966e-04 2.102599e-04 1.439518e-04 1.720699e-04 1.238439e-04 2.332965e-05 7.031522e-05
<GCONST> -2.826468e+02
<STATE> 4
<MEAN> 75
 1.363207e+00 2.079850e+00 2.281446e+00 2.431101e+00 2.510082e+00 2.531564e+00 2.545765e+00 2.529341e+00 2.497827e+00 2.451933e+00 2.354584e+00 2.249051e+00 2.207788e+00 2.217756e+00 2.247176e+00 2.233982e+00 2.135255e+00 1.973078e+00 1.775787e+00 1.591760e+00 1.419930e+00 1.245937e+00 1.116158e+00 1.026992e+00 1.015337e+00 1.733797e-03 1.606481e-03 -6.087971e-04 -2.391206e-03 -3.750003e-03 -3.578705e-03 -2.543982e-03 -1.768518e-03 -1.643520e-03 -1.287038e-03 -3.171296e-04 6.944448e-04 9.675930e-04 9.537036e-04 1.233796e-03 1.252315e-03 1.212963e-03 1.409722e-03 1.467592e-03 1.013889e-03 3.518518e-04 9.953763e-05 5.300923e-04 -5.092585e-05 2.314810e-05 2.303242e-04 -4.444444e-04 -6.259265e-04 -5.717594e-04 -3.842594e-04 -1.027778e-04 -4.583357e-05 -6.828698e-05 -1.708334e-04 -2.071761e-04 -1.581019e-04 -1.703704e-04 -1.861113e-04 -1.039352e-04 -7.847223e-05 -1.502314e-04 -1.236112e-04 -3.263879e-05 -1.763890e-04 -1.004629e-04 -2.935185e-04 5.601842e-05 -3.541667e-05 5.439814e-05 4.629608e-06
<VARIANCE> 75
 1.999224e-01 6.247803e-01 5.001605e-01 3.721787e-01 2.728300e-01 2.395055e-01 1.895571e-01 1.650165e-01 1.262849e-01 1.034555e-01 1.140289e-01 1.187209e-01 1.261645e-01 1.188918e-01 1.132942e-01 1.111820e-01 1.137010e-01 1.493350e-01 1.788118e-01 1.726011e-01 1.287404e-01 5.822875e-02 1.527761e-02 1.596965e-03 3.816500e-03 7.858001e-03 1.315734e-02 8.562178e-03 7.202021e-03 5.988087e-03 4.089366e-03 3.078545e-03 2.683230e-03 2.056564e-03 1.598857e-03 1.368045e-03 1.576709e-03 1.506255e-03 1.290629e-03 1.118964e-03 7.710387e-04 9.459044e-04 1.139627e-03 1.149571e-03 1.182413e-03 8.975355e-04 1.023196e-03 6.724594e-04 1.212960e-04 3.542703e-04 1.518223e-03 2.052825e-03 1.159840e-03 9.642935e-04 8.732249e-04 6.361549e-04 4.402208e-04 3.797588e-04 2.672720e-04 2.482812e-04 2.467925e-04 2.596336e-04 2.359031e-04 2.024466e-04 1.899456e-04 1.107850e-04 1.398948e-04 1.802955e-04 1.894966e-04 2.102599e-04 1.439518e-04 1.720699e-04 1.238439e-04 2.332965e-05 7.031522e-05
<GCONST> -2.826468e+02
<TRANSP> 5
 0.000000e+00 1.000000e+00 0.000000e+00 0.000000e+00 0.000000e+00
 0.000000e+00 6.000000e-01 4.000000e-01 0.000000e+00 0.000000e+00
 0.000000e+00 0.000000e+00 6.000000e-01 4.000000e-01 0.000000e+00
 0.000000e+00 0.000000e+00 0.000000e+00 7.000000e-01 3.000000e-01
 0.000000e+00 0.000000e+00 0.000000e+00 0.000000e+00 0.000000e+00
<ENDHMM>
~h "ne"
<BEGINHMM>
<NUMSTATES> 5
<STATE> 2
<MEAN> 75
 1.389416e+00 2.167761e+00 2.356661e+00 2.469632e+00 2.497900e+00 2.475072e+00 2.520201e+00 2.597106e+00 2.611605e+00 2.567804e+00 2.453256e+00 2.342738e+00 2.310917e+00 2.344254e+00 2.398874e+00 2.392975e+00 2.260040e+00 2.090712e+00 1.918137e+00 1.700954e+00 1.466516e+00 1.218858e+00 1.077282e+00 1.020417e+00 1.008791e+00 -3.163478e-03 1.044278e-02 1.006841e-02 6.633969e-03 2.166779e-03 6.068174e-04 -9.520163e-04 -1.540832e-03 -9.284525e-04 -1.277668e-04 8.928690e-04 1.506981e-03 1.240270e-03 8.049384e-04 1.264444e-03 1.309559e-03 9.843899e-04 5.009319e-04 -7.579217e-04 -1.392798e-03 -1.678232e-03 -1.050163e-03 6.509247e-04 1.411152e-04 4.405058e-05 -1.109273e-04 -4.245999e-04 -4.517571e-04 -3.972106e-04 2.848674e-05 2.674193e-04 3.237429e-04 2.038446e-05 -1.706038e-04 -3.838926e-04 -3.415738e-04 -4.851897e-04 -4.211315e-04 -1.224398e-04 -3.191737e-05 -3.662993e-04 -4.737014e-04 -4.053801e-04 -6.392751e-04 -2.667395e-04 -4.046921e-04 2.365314e-04 -2.437191e-04 1.791245e-04 3.400436e-06
<VARIANCE> 75
 1.521068e-01 4.286533e-01 3.540141e-01 2.619116e-01 1.823291e-01 1.811212e-01 1.216341e-01 6.973695e-02 4.366496e-02 2.392061e-02 4.084452e-02 5.670367e-02 4.633788e-02 3.821558e-02 4.148049e-02 7.122599e-02 9.919444e-02 1.571297e-01 1.923387e-01 1.453304e-01 6.762667e-02 1.676182e-02 4.549582e-03 5.782815e-04 3.281100e-04 6.146157e-03 1.310143e-02 8.254589e-03 4.377637e-03 2.354209e-03 1.200356e-03 7.356948e-04 6.690478e-04 5.228473e-04 5.044646e-04 5.406800e-04 5.883004e-04 4.106520e-04 2.722765e-04 2.435486e-04 2.125243e-04 2.953749e-04 3.804665e-04 4.013526e-04 4.427552e-04 5.132935e-04 5.138936e-04 3.245924e-04 5.881949e-05 3.527808e-05 1.128075e-03 1.964517e-03 8.695899e-04 3.841976e-04 2.659938e-04 1.947142e-04 1.074081e-04 8.128775e-05 6.446536e-05 7.056235e-05 7.234589e-05 9.420168e-05 6.365951e-05 4.378367e-05 4.613865e-05 3.484096e-05 4.760755e-05 6.643528e-05 7.007723e-05 7.158105e-05 9.470415e-05 9.720801e-05 5.572068e-05 1.034874e-05 8.452542e-06
<GCONST> -3.518636e+02
<STATE> 3
<MEAN> 75
 1.036270e+00 2.197106e+00 2.534226e+00 2.646106e+00 2.646353e+00 2.644335e+00 2.644129e+00 2.612889e+00 2.562990e+00 2.456123e+00 2.317097e+00 2.205930e+00 2.160845e+00 2.173680e+00 2.168676e+00 2.108067e+00 1.935690e+00 1.700384e+00 1.499741e+00 1.384935e+00 1.298771e+00 1.211688e+00 1.141379e+00 1.043658e+00 1.011955e+00 1.216839e-03 7.867807e-03 -3.831436e-03 -9.338972e-03 -1.128247e-02 -7.795870e-03 -1.873746e-03 3.766453e-03 4.821934e-03 -5.728841e-04 -3.590961e-03 -3.489780e-03 -1.478350e-03 -1.648181e-03 -2.426231e-03 -3.900474e-03 -6.482045e-03 -6.842968e-03 -3.323524e-03 -1.805018e-03 -5.185659e-04 5.092451e-04 -8.208067e-04 -3.112620e-04 -9.965838e-05 1.023867e-03 -9.593258e-04 -4.084168e-04 -8.953275e-04 -1.726541e-03 -1.800962e-03 -1.299550e-03 -8.573881e-04 -1.235441e-03 -9.631913e-04 4.661509e-05 -1.901774e-04 -1.229124e-04 -1.002929e-04 -7.938327e-05 -1.612047e-04 -4.692074e-04 -2.289694e-04 -1.831050e-05 4.432471e-04 4.483738e-04 4.184893e-04 5.945652e-05 -1.740285e-04 1.942333e-04
<VARIANCE> 75
 1.239123e-02 6.974001e-01 4.030767e-01 3.652173e-01 3.794076e-01 3.158005e-01 2.338004e-01 2.345211e-01 1.942271e-01 1.289271e-01 7.858634e-02 6.383917e-02 8.260708e-02 8.455157e-02 8.579618e-02 7.409906e-02 6.699807e-02 7.615764e-02 5.765099e-02 3.707393e-02 2.113621e-02 1.635709e-02 1.200031e-02 2.029822e-03 4.882698e-04 1.137436e-03 1.011524e-02 3.936290e-03 3.684469e-03 4.016759e-03 3.154439e-03 2.386949e-03 1.879361e-03 1.847605e-03 1.594284e-03 1.004159e-03 1.011096e-03 1.314941e-03 1.016908e-03 1.172552e-03 1.058253e-03 1.355935e-03 1.184765e-03 9.094353e-04 1.038138e-03 7.323495e-04 7.597661e-04 9.572056e-04 1.685900e-04 5.242786e-05 2.228988e-04 1.627252e-03 5.482288e-04 4.344898e-04 4.267451e-04 3.520361e-04 2.789261e-04 2.456385e-04 2.659886e-04 2.412870e-04 1.646658e-04 1.722392e-04 2.540040e-04 1.929000e-04 2.218602e-04 1.660893e-04 2.156127e-04 1.823783e-04 1.362732e-04 2.163963e-04 1.340140e-04 1.255083e-04 1.857323e-04 3.201853e-05 1.054008e-05
<GCONST> -3.102430e+02
<STATE> 4
<MEAN> 75
 1.477162e+00 1.949149e+00 2.101606e+00 2.300225e+00 2.462515e+00 2.536828e+00 2.528984e+00 2.437319e+00 2.373027e+00 2.350599e+00 2.286004e+00 2.187353e+00 2.138332e+00 2.125194e+00 2.143611e+00 2.142728e+00 2.104111e+00 1.977582e+00 1.760453e+00 1.577947e+00 1.427261e+00 1.283365e+00 1.140405e+00 1.025673e+00 1.021597e+00 6.774469e-03 -8.056163e-03 -8.299611e-03 -6.893188e-03 -5.011313e-03 -3.672554e-03 -3.004999e-03 -3.410469e-03 -4.434149e-03 -2.272153e-03 2.267542e-04 1.629284e-03 1.541119e-03 2.134904e-03 2.828738e-03 3.443198e-03 4.725305e-03 5.639101e-03 5.225923e-03 4.378931e-03 2.334708e-03 9.842147e-04 1.051736e-03 -1.194593e-04 3.544224e-05 1.332199e-04 -7.898222e-04 -9.991307e-04 -8.519496e-04 -6.123821e-04 -2.208035e-04 -3.537620e-04 -3.032807e-04 -2.030265e-04 9.054277e-06 -1.276605e-04 3.567720e-05 -7.356842e-05 -1.148285e-04 -9.489708e-05 -3.965016e-05 2.771265e-04 3.023536e-04 1.297910e-04 -2.582771e-04 -4.662824e-04 -2.945784e-04 1.844855e-05 1.344283e-05 3.327745e-05
<VARIANCE> 75
 2.627763e-01 7.202452e-01 5.948114e-01 4.271214e-01 2.921281e-01 2.463326e-01 2.256228e-01 2.046133e-01 1.425789e-01 1.407714e-01 1.783827e-01 1.821549e-01 1.983218e-01 1.802369e-01 1.533480e-01 1.236897e-01 1.145789e-01 1.301697e-01 1.679327e-01 2.243546e-01 2.189372e-01 1.091852e-01 2.382894e-02 2.163650e-03 7.973152e-03 1.205840e-02 1.424027e-02 1.075014e-02 1.104938e-02 9.847755e-03 6.751224e-03 5.236758e-03 4.689817e-03 3.436318e-03 2.552077e-03 2.244972e-03 2.671559e-03 2.540974e-03 2.291795e-03 1.857249e-03 1.124120e-03 1.308727e-03 1.742587e-03 1.881688e-03 1.871945e-03 1.297064e-03 1.556789e-03 8.575787e-04 1.568406e-04 7.316261e-04 2.377621e-03 2.286461e-03 1.681677e-03 1.687653e-03 1.566867e-03 1.096526e-03 7.583001e-04 6.631392e-04 4.110056e-04 3.893446e-04 4.320648e-04 4.410241e-04 3.791203e-04 3.449908e-04 3.031882e-04 1.535916e-04 1.889503e-04 2.788557e-04 3.161829e-04 3.286971e-04 1.918276e-04 2.534848e-04 1.575482e-04 3.100618e-05 1.448242e-04
<GCONST> -2.540794e+02
<TRANSP> 5
 0.000000e+00 1.000000e+00 0.000000e+00 0.000000e+00 0.000000e+00
 0.000000e+00 9.750761e-01 2.492391e-02 0.000000e+00 0.000000e+00
 0.000000e+00 0.000000e+00 9.487205e-01 5.127960e-02 0.000000e+00
 0.000000e+00 0.000000e+00 0.000000e+00 9.788359e-01 2.116407e-02
 0.000000e+00 0.000000e+00 0.000000e+00 0.000000e+00 0.000000e+00
<ENDHMM>
