~o
<STREAMINFO> 1 75
<VECSIZE> 75<NULLD><USER_D_A><DIAGC>
~h "e"
<BEGINHMM>
<NUMSTATES> 5
<STATE> 2
<MEAN> 75
 1.438828e+00 2.233786e+00 2.357229e+00 2.451918e+00 2.543677e+00 2.602583e+00 2.631341e+00 2.624069e+00 2.557410e+00 2.443278e+00 2.308941e+00 2.211324e+00 2.162353e+00 2.136282e+00 2.088674e+00 1.991934e+00 1.830035e+00 1.602823e+00 1.389092e+00 1.234924e+00 1.182600e+00 1.140131e+00 1.149370e+00 1.110520e+00 1.098355e+00 -2.561020e-03 5.246518e-03 4.804424e-03 3.948138e-03 1.963138e-03 5.953724e-04 -2.523344e-07 -3.470162e-04 -1.074164e-04 -3.133688e-04 -7.654332e-04 -1.344224e-03 -1.493149e-03 -1.638769e-03 -1.267847e-03 -1.326564e-03 -1.320702e-03 -1.223480e-03 -1.427640e-03 -7.675004e-04 -9.370744e-04 -2.755437e-04 -7.224518e-04 -3.170488e-04 -3.300491e-04 -2.377759e-04 -3.262665e-04 -2.442502e-04 -4.490874e-05 -1.237427e-04 -2.938273e-04 -2.192619e-04 -2.799904e-04 -4.313966e-04 -5.387351e-04 -4.207957e-04 -3.562700e-04 -2.514673e-04 -3.039737e-04 -4.357741e-04 -5.020278e-04 -4.448569e-04 -2.798036e-04 -2.644500e-04 -6.755396e-05 -9.670287e-05 2.403906e-05 2.127441e-05 7.229005e-05 1.660164e-04
<VARIANCE> 75
 2.407882e-01 3.815016e-01 2.460202e-01 1.556481e-01 9.933979e-02 7.784463e-02 7.000095e-02 7.818318e-02 8.782142e-02 8.260257e-02 6.821634e-02 5.913626e-02 5.501895e-02 5.636580e-02 6.257173e-02 7.568124e-02 8.944733e-02 8.020335e-02 5.067312e-02 2.433036e-02 1.914873e-02 1.587849e-02 1.832444e-02 1.289563e-02 1.359833e-02 1.000000e-02 1.000000e-02 1.000000e-02 1.000000e-02 1.000000e-02 1.000000e-02 1.000000e-02 1.000000e-02 1.000000e-02 1.000000e-02 1.000000e-02 1.000000e-02 1.000000e-02 1.000000e-02 1.000000e-02 1.000000e-02 1.000000e-02 1.000000e-02 1.000000e-02 1.000000e-02 1.000000e-02 1.000000e-02 1.000000e-02 1.000000e-02 1.000000e-02 1.000000e-02 1.000000e-02 1.000000e-02 1.000000e-02 1.000000e-02 1.000000e-02 1.000000e-02 1.000000e-02 1.000000e-02 1.000000e-02 1.000000e-02 1.000000e-02 1.000000e-02 1.000000e-02 1.000000e-02 1.000000e-02 1.000000e-02 1.000000e-02 1.000000e-02 1.000000e-02 1.000000e-02 1.000000e-02 1.000000e-02 1.000000e-02 1.000000e-02
<GCONST> -1.620879e+02
<STATE> 3
<MEAN> 75
 1.451092e+00 2.461656e+00 2.551196e+00 2.568923e+00 2.587777e+00 2.607515e+00 2.604118e+00 2.547141e+00 2.455527e+00 2.340389e+00 2.230073e+00 2.166127e+00 2.120673e+00 2.073726e+00 2.022089e+00 1.939406e+00 1.791730e+00 1.594067e+00 1.420791e+00 1.287830e+00 1.278268e+00 1.248949e+00 1.308322e+00 1.259585e+00 1.240547e+00 -1.454739e-03 1.401248e-02 1.973956e-02 1.993426e-02 1.449100e-02 8.663690e-03 5.332723e-03 3.077416e-03 1.602957e-03 5.713463e-04 1.462171e-04 -9.966843e-04 -2.221813e-03 -1.999736e-03 -2.729208e-03 -3.397371e-03 -2.915519e-03 -1.472430e-03 -1.569243e-05 -1.732443e-04 -1.538705e-03 -1.415245e-03 -1.622538e-03 -1.009888e-03 -7.526575e-04 -2.553314e-04 -3.066891e-04 9.705270e-04 1.570710e-03 1.917135e-03 1.120695e-03 6.746872e-04 7.527732e-04 3.347546e-04 3.669847e-04 6.964553e-04 6.017873e-04 5.594499e-04 3.746720e-04 1.830572e-04 3.065939e-04 3.777931e-04 2.965333e-04 5.463514e-04 3.190245e-04 6.059612e-04 8.561568e-05 7.388566e-05 1.024254e-05 -4.679064e-05
<VARIANCE> 75
 3.540633e-01 3.104404e-01 2.039283e-01 1.475346e-01 9.579176e-02 7.064731e-02 7.775314e-02 9.642132e-02 1.047548e-01 9.247459e-02 8.008667e-02 7.408211e-02 7.301127e-02 7.734662e-02 8.977820e-02 1.018909e-01 9.997698e-02 8.249994e-02 5.973408e-02 4.533684e-02 4.276390e-02 4.087408e-02 4.937162e-02 4.018846e-02 3.649211e-02 1.000000e-02 1.207445e-02 1.000000e-02 1.000000e-02 1.000000e-02 1.000000e-02 1.000000e-02 1.000000e-02 1.000000e-02 1.000000e-02 1.000000e-02 1.000000e-02 1.000000e-02 1.000000e-02 1.000000e-02 1.000000e-02 1.000000e-02 1.000000e-02 1.000000e-02 1.000000e-02 1.000000e-02 1.000000e-02 1.000000e-02 1.000000e-02 1.000000e-02 1.000000e-02 1.000000e-02 1.000000e-02 1.000000e-02 1.000000e-02 1.000000e-02 1.000000e-02 1.000000e-02 1.000000e-02 1.000000e-02 1.000000e-02 1.000000e-02 1.000000e-02 1.000000e-02 1.000000e-02 1.000000e-02 1.000000e-02 1.000000e-02 1.000000e-02 1.000000e-02 1.000000e-02 1.000000e-02 1.000000e-02 1.000000e-02 1.000000e-02
<GCONST> -1.540567e+02
<STATE> 4
<MEAN> 75
 1.604800e+00 2.773707e+00 2.995789e+00 3.067391e+00 3.068949e+00 3.000613e+00 2.916575e+00 2.838492e+00 2.743350e+00 2.618661e+00 2.475674e+00 2.347175e+00 2.276131e+00 2.254127e+00 2.224963e+00 2.166556e+00 2.056923e+00 1.859897e+00 1.611959e+00 1.374063e+00 1.248173e+00 1.161622e+00 1.161958e+00 1.128259e+00 1.120072e+00 6.715509e-05 -2.258986e-03 -5.408770e-04 1.527523e-03 3.185831e-03 2.734461e-03 1.806149e-03 1.483874e-03 1.570906e-03 1.621610e-03 1.469185e-03 1.244769e-03 1.325756e-03 1.054854e-03 1.020001e-03 8.284451e-04 6.309809e-04 6.569459e-04 3.111216e-04 3.341009e-04 5.476122e-05 -3.200271e-04 -6.396539e-04 -6.062073e-04 -6.893862e-04 1.853440e-05 -1.368764e-03 -1.693840e-03 -1.754433e-03 -1.439541e-03 -9.834365e-04 -5.601060e-04 -4.044989e-04 -3.185697e-04 -3.853344e-04 -4.571084e-04 -4.044541e-04 -3.515893e-04 -3.170746e-04 -1.506031e-04 -1.554185e-04 -1.611127e-04 -8.800700e-05 -8.285134e-05 -4.252831e-05 -1.114790e-04 -1.312101e-04 -1.279036e-04 -1.350308e-04 -1.694566e-04
<VARIANCE> 75
 6.273130e-01 6.123452e-01 3.985808e-01 3.158828e-01 2.517048e-01 2.222715e-01 2.183874e-01 1.872166e-01 1.727281e-01 1.733362e-01 1.571638e-01 1.224827e-01 9.184106e-02 8.001039e-02 8.399902e-02 9.828498e-02 1.325884e-01 1.580383e-01 1.470995e-01 1.036020e-01 6.549640e-02 3.644600e-02 3.988532e-02 3.356752e-02 3.718375e-02 1.000000e-02 1.000000e-02 1.000000e-02 1.000000e-02 1.000000e-02 1.000000e-02 1.000000e-02 1.000000e-02 1.000000e-02 1.000000e-02 1.000000e-02 1.000000e-02 1.000000e-02 1.000000e-02 1.000000e-02 1.000000e-02 1.000000e-02 1.000000e-02 1.000000e-02 1.000000e-02 1.000000e-02 1.000000e-02 1.000000e-02 1.000000e-02 1.000000e-02 1.000000e-02 1.000000e-02 1.000000e-02 1.000000e-02 1.000000e-02 1.000000e-02 1.000000e-02 1.000000e-02 1.000000e-02 1.000000e-02 1.000000e-02 1.000000e-02 1.000000e-02 1.000000e-02 1.000000e-02 1.000000e-02 1.000000e-02 1.000000e-02 1.000000e-02 1.000000e-02 1.000000e-02 1.000000e-02 1.000000e-02 1.000000e-02 1.000000e-02
<GCONST> -1.426908e+02
<TRANSP> 5
 0.000000e+00 1.000000e+00 0.000000e+00 0.000000e+00 0.000000e+00
 0.000000e+00 9.680216e-01 3.197839e-02 0.000000e+00 0.000000e+00
 0.000000e+00 0.000000e+00 8.708904e-01 1.291095e-01 0.000000e+00
 0.000000e+00 0.000000e+00 0.000000e+00 9.789053e-01 2.109470e-02
 0.000000e+00 0.000000e+00 0.000000e+00 0.000000e+00 0.000000e+00
<ENDHMM>
~h "ne"
<BEGINHMM>
<NUMSTATES> 5
<STATE> 2
<MEAN> 75
 1.494478e+00 2.122751e+00 2.262455e+00 2.340068e+00 2.387457e+00 2.409631e+00 2.391181e+00 2.331450e+00 2.238863e+00 2.132845e+00 2.034613e+00 1.966479e+00 1.931653e+00 1.903296e+00 1.850989e+00 1.757154e+00 1.617562e+00 1.453193e+00 1.312030e+00 1.203140e+00 1.168697e+00 1.132911e+00 1.145335e+00 1.110922e+00 1.099967e+00 3.639423e-06 -2.436063e-03 -2.663994e-03 -1.964332e-03 -1.415261e-03 -1.180916e-03 -9.361997e-04 -8.721849e-04 -9.181916e-04 -8.030382e-04 -7.435594e-04 -8.411654e-04 -7.095764e-04 -6.965250e-04 -7.464389e-04 -6.522514e-04 -5.443093e-04 -4.270897e-04 -5.884868e-04 -3.593402e-04 -3.627657e-04 -3.022797e-04 -2.149702e-04 -7.370845e-05 2.493492e-05 9.295464e-05 -1.640698e-04 -1.281003e-04 -1.527510e-04 -8.804441e-05 -4.591741e-05 -1.050143e-05 2.764797e-05 7.964799e-05 6.524026e-05 1.122238e-04 1.741681e-04 1.375886e-04 1.195845e-04 1.810929e-04 1.121144e-04 5.112071e-05 4.484579e-05 8.419574e-05 8.669413e-06 9.020940e-05 6.766869e-05 5.991378e-05 2.995168e-05 -1.832661e-05
<VARIANCE> 75
 4.276471e-01 5.221219e-01 4.340728e-01 3.998166e-01 3.829804e-01 3.692804e-01 3.711623e-01 3.610195e-01 3.413189e-01 3.081128e-01 2.695261e-01 2.372658e-01 2.223216e-01 2.197702e-01 2.146256e-01 2.017295e-01 1.738113e-01 1.263838e-01 7.149253e-02 3.432486e-02 2.449749e-02 1.954817e-02 2.406636e-02 1.780470e-02 1.733587e-02 1.000000e-02 1.000000e-02 1.000000e-02 1.000000e-02 1.000000e-02 1.000000e-02 1.000000e-02 1.000000e-02 1.000000e-02 1.000000e-02 1.000000e-02 1.000000e-02 1.000000e-02 1.000000e-02 1.000000e-02 1.000000e-02 1.000000e-02 1.000000e-02 1.000000e-02 1.000000e-02 1.000000e-02 1.000000e-02 1.000000e-02 1.000000e-02 1.000000e-02 1.000000e-02 1.000000e-02 1.000000e-02 1.000000e-02 1.000000e-02 1.000000e-02 1.000000e-02 1.000000e-02 1.000000e-02 1.000000e-02 1.000000e-02 1.000000e-02 1.000000e-02 1.000000e-02 1.000000e-02 1.000000e-02 1.000000e-02 1.000000e-02 1.000000e-02 1.000000e-02 1.000000e-02 1.000000e-02 1.000000e-02 1.000000e-02 1.000000e-02
<GCONST> -1.400772e+02
<STATE> 3
<MEAN> 75
 1.373634e+00 2.026087e+00 2.164439e+00 2.249820e+00 2.315602e+00 2.353404e+00 2.352664e+00 2.300475e+00 2.208346e+00 2.100112e+00 2.009156e+00 1.957149e+00 1.931625e+00 1.903417e+00 1.841474e+00 1.731835e+00 1.576561e+00 1.409088e+00 1.279308e+00 1.182922e+00 1.145853e+00 1.111103e+00 1.113965e+00 1.082922e+00 1.074369e+00 3.502516e-04 -3.099805e-04 -4.022744e-04 -4.136167e-04 -4.761290e-04 -5.238128e-04 -4.635039e-04 -1.208097e-04 1.472727e-04 3.515878e-04 5.874974e-04 8.902351e-04 1.077811e-03 1.097500e-03 1.165279e-03 1.110049e-03 1.025097e-03 8.771794e-04 7.274884e-04 3.967413e-04 3.186511e-04 2.234162e-04 3.152733e-04 2.280435e-04 3.108536e-04 1.564480e-04 -9.995572e-05 -1.320237e-04 -9.100830e-05 -1.214727e-04 -8.506880e-05 -6.496254e-05 -3.190898e-05 1.632718e-05 6.483772e-05 9.019677e-05 1.026532e-04 1.276772e-04 1.661470e-04 1.876740e-04 1.891405e-04 1.756722e-04 1.923901e-04 1.807937e-04 1.281118e-04 1.376391e-04 1.736689e-04 1.193449e-04 1.044536e-04 1.220762e-04
<VARIANCE> 75
 2.546923e-01 3.358128e-01 2.248071e-01 1.704817e-01 1.400802e-01 1.323069e-01 1.320606e-01 1.311408e-01 1.259443e-01 1.095854e-01 9.357411e-02 8.820331e-02 9.293979e-02 9.979977e-02 1.021964e-01 1.019333e-01 9.368324e-02 7.081510e-02 4.119807e-02 2.132235e-02 1.467913e-02 1.150793e-02 1.252546e-02 1.000000e-02 1.000000e-02 1.000000e-02 1.000000e-02 1.000000e-02 1.000000e-02 1.000000e-02 1.000000e-02 1.000000e-02 1.000000e-02 1.000000e-02 1.000000e-02 1.000000e-02 1.000000e-02 1.000000e-02 1.000000e-02 1.000000e-02 1.000000e-02 1.000000e-02 1.000000e-02 1.000000e-02 1.000000e-02 1.000000e-02 1.000000e-02 1.000000e-02 1.000000e-02 1.000000e-02 1.000000e-02 1.000000e-02 1.000000e-02 1.000000e-02 1.000000e-02 1.000000e-02 1.000000e-02 1.000000e-02 1.000000e-02 1.000000e-02 1.000000e-02 1.000000e-02 1.000000e-02 1.000000e-02 1.000000e-02 1.000000e-02 1.000000e-02 1.000000e-02 1.000000e-02 1.000000e-02 1.000000e-02 1.000000e-02 1.000000e-02 1.000000e-02 1.000000e-02
<GCONST> -1.588365e+02
<STATE> 4
<MEAN> 75
 1.529024e+00 1.573579e+00 1.658404e+00 1.737037e+00 1.824267e+00 1.910386e+00 1.983686e+00 2.027972e+00 2.039145e+00 2.022305e+00 2.004096e+00 2.004404e+00 2.017716e+00 2.020715e+00 1.992140e+00 1.922891e+00 1.808810e+00 1.665707e+00 1.534122e+00 1.401954e+00 1.328914e+00 1.247214e+00 1.234625e+00 1.168879e+00 1.147241e+00 1.633447e-04 6.544094e-05 -2.235161e-04 -3.386257e-04 -3.204320e-04 -3.399402e-04 -2.212883e-04 -7.563256e-05 -2.239283e-05 6.404364e-05 5.948875e-05 5.222699e-05 6.800274e-05 1.066857e-04 1.532028e-04 1.503186e-04 1.934518e-04 2.326587e-04 2.785183e-04 2.978513e-04 1.503029e-04 1.011151e-04 5.978878e-05 4.153004e-05 -2.210604e-05 -5.503375e-05 2.662238e-04 2.433744e-04 2.116686e-04 2.119136e-04 1.573010e-04 1.203705e-04 8.528295e-05 1.285582e-05 -2.715768e-06 -2.601400e-05 -5.227948e-05 -7.041359e-05 -6.495639e-05 -8.228453e-05 -1.117809e-04 -9.467761e-05 -9.690044e-05 -7.022983e-05 -3.762278e-05 -6.360322e-05 -5.540991e-05 -5.565782e-05 -2.327537e-05 -5.380161e-05
<VARIANCE> 75
 1.919589e-01 2.526762e-01 2.116755e-01 1.834710e-01 1.573059e-01 1.385294e-01 1.340521e-01 1.405150e-01 1.451956e-01 1.366655e-01 1.213120e-01 1.166939e-01 1.229857e-01 1.336431e-01 1.466683e-01 1.611476e-01 1.669975e-01 1.514125e-01 1.175879e-01 8.483743e-02 6.108842e-02 4.476708e-02 4.174173e-02 2.981298e-02 2.883280e-02 1.000000e-02 1.000000e-02 1.000000e-02 1.000000e-02 1.000000e-02 1.000000e-02 1.000000e-02 1.000000e-02 1.000000e-02 1.000000e-02 1.000000e-02 1.000000e-02 1.000000e-02 1.000000e-02 1.000000e-02 1.000000e-02 1.000000e-02 1.000000e-02 1.000000e-02 1.000000e-02 1.000000e-02 1.000000e-02 1.000000e-02 1.000000e-02 1.000000e-02 1.000000e-02 1.000000e-02 1.000000e-02 1.000000e-02 1.000000e-02 1.000000e-02 1.000000e-02 1.000000e-02 1.000000e-02 1.000000e-02 1.000000e-02 1.000000e-02 1.000000e-02 1.000000e-02 1.000000e-02 1.000000e-02 1.000000e-02 1.000000e-02 1.000000e-02 1.000000e-02 1.000000e-02 1.000000e-02 1.000000e-02 1.000000e-02 1.000000e-02
<GCONST> -1.469434e+02
<TRANSP> 5
 0.000000e+00 1.000000e+00 0.000000e+00 0.000000e+00 0.000000e+00
 0.000000e+00 9.535655e-01 4.643446e-02 0.000000e+00 0.000000e+00
 0.000000e+00 0.000000e+00 9.627222e-01 3.727780e-02 0.000000e+00
 0.000000e+00 0.000000e+00 0.000000e+00 9.858106e-01 1.418940e-02
 0.000000e+00 0.000000e+00 0.000000e+00 0.000000e+00 0.000000e+00
<ENDHMM>
