~o
<STREAMINFO> 1 75
<VECSIZE> 75<NULLD><USER_D_A><DIAGC>
~h "e"
<BEGINHMM>
<NUMSTATES> 5
<STATE> 2
<NUMMIXES> 2
<MIXTURE> 1 4.890657e-01
<MEAN> 75
 4.301647e+00 3.959329e+00 3.539446e+00 3.127165e+00 2.806828e+00 2.619241e+00 2.559418e+00 2.559760e+00 2.552859e+00 2.521836e+00 2.471185e+00 2.412689e+00 2.365796e+00 2.346814e+00 2.344471e+00 2.322321e+00 2.247330e+00 2.103411e+00 1.890378e+00 1.627487e+00 1.363189e+00 1.164340e+00 1.060222e+00 1.000000e+00 1.006588e+00 6.939130e-02 8.159860e-02 8.059812e-02 6.444751e-02 4.255944e-02 2.130016e-02 6.414261e-03 1.614064e-03 1.324991e-03 1.492883e-03 1.437221e-03 1.087136e-03 4.706848e-04 -1.423481e-04 -5.571989e-04 -6.553307e-04 -6.543275e-04 -6.362781e-04 -6.592305e-04 -6.666023e-04 -5.757178e-04 -3.897898e-04 -2.055621e-04 -4.483525e-17 -5.180780e-05 -8.399542e-03 -5.663395e-03 -9.918769e-04 2.113620e-03 3.071968e-03 2.903705e-03 1.530395e-03 2.816900e-04 -2.302363e-05 -4.218625e-05 -3.654162e-05 -3.026221e-05 -1.056021e-05 -6.374137e-06 -7.111384e-06 -8.491636e-06 -1.048239e-05 -9.754396e-06 -1.206349e-05 -6.937927e-06 -5.669517e-06 -3.048981e-06 1.551747e-06 -4.483525e-17 1.541487e-06
<VARIANCE> 75
 6.911474e-01 6.744091e-01 6.433514e-01 4.759563e-01 2.272329e-01 6.243629e-02 1.922121e-02 1.201299e-02 1.000000e-02 1.000000e-02 1.056871e-02 1.424253e-02 1.765122e-02 1.704963e-02 1.242791e-02 1.000000e-02 1.000000e-02 1.000000e-02 1.000000e-02 1.000000e-02 1.000000e-02 1.000000e-02 1.000000e-02 1.000000e-02 1.000000e-02 1.042103e-02 1.052054e-02 1.000000e-02 1.000000e-02 1.000000e-02 1.000000e-02 1.000000e-02 1.000000e-02 1.000000e-02 1.000000e-02 1.000000e-02 1.000000e-02 1.000000e-02 1.000000e-02 1.000000e-02 1.000000e-02 1.000000e-02 1.000000e-02 1.000000e-02 1.000000e-02 1.000000e-02 1.000000e-02 1.000000e-02 1.000000e-02 1.000000e-02 1.000000e-02 1.000000e-02 1.000000e-02 1.000000e-02 1.000000e-02 1.000000e-02 1.000000e-02 1.000000e-02 1.000000e-02 1.000000e-02 1.000000e-02 1.000000e-02 1.000000e-02 1.000000e-02 1.000000e-02 1.000000e-02 1.000000e-02 1.000000e-02 1.000000e-02 1.000000e-02 1.000000e-02 1.000000e-02 1.000000e-02 1.000000e-02 1.000000e-02
<GCONST> -1.834612e+02
<MIXTURE> 2 5.109349e-01
<MEAN> 75
 4.177713e+00 3.715564e+00 3.195755e+00 2.743152e+00 2.460438e+00 2.365516e+00 2.363585e+00 2.358715e+00 2.328113e+00 2.276333e+00 2.214694e+00 2.158147e+00 2.118208e+00 2.091235e+00 2.059080e+00 2.000470e+00 1.901750e+00 1.759336e+00 1.580881e+00 1.387267e+00 1.214626e+00 1.096265e+00 1.035699e+00 1.000000e+00 1.000521e+00 8.535628e-02 9.638014e-02 8.792503e-02 6.073621e-02 2.998010e-02 8.611371e-03 2.143266e-03 1.704633e-03 1.892974e-03 1.815414e-03 1.445538e-03 8.849634e-04 2.925036e-04 -1.027354e-04 -3.262691e-04 -4.111888e-04 -4.907502e-04 -5.466018e-04 -6.186629e-04 -5.793831e-04 -4.839648e-04 -2.743037e-04 -1.288392e-04 2.326271e-17 -1.540631e-05 -8.834403e-03 -4.859302e-03 1.357933e-03 4.709295e-03 4.701709e-03 2.394166e-03 4.706021e-04 -4.141124e-07 -3.970699e-05 -2.876306e-05 -2.390413e-05 -1.552593e-05 -6.800706e-06 -8.606450e-07 -1.022609e-05 -1.201096e-05 -8.847744e-06 -5.304050e-06 -1.027533e-05 -9.219862e-06 1.408876e-06 -1.286528e-06 -2.170357e-06 2.326271e-17 5.610538e-07
<VARIANCE> 75
 3.032993e-01 3.919353e-01 3.913472e-01 2.216119e-01 5.379405e-02 2.845205e-02 1.922121e-02 1.176505e-02 1.000000e-02 1.000000e-02 1.000000e-02 1.000000e-02 1.000000e-02 1.000000e-02 1.000000e-02 1.000000e-02 1.000000e-02 1.000000e-02 1.000000e-02 1.000000e-02 1.000000e-02 1.000000e-02 1.000000e-02 1.000000e-02 1.000000e-02 1.000000e-02 1.000000e-02 1.000000e-02 1.000000e-02 1.000000e-02 1.000000e-02 1.000000e-02 1.000000e-02 1.000000e-02 1.000000e-02 1.000000e-02 1.000000e-02 1.000000e-02 1.000000e-02 1.000000e-02 1.000000e-02 1.000000e-02 1.000000e-02 1.000000e-02 1.000000e-02 1.000000e-02 1.000000e-02 1.000000e-02 1.000000e-02 1.000000e-02 1.000000e-02 1.000000e-02 1.000000e-02 1.000000e-02 1.000000e-02 1.000000e-02 1.000000e-02 1.000000e-02 1.000000e-02 1.000000e-02 1.000000e-02 1.000000e-02 1.000000e-02 1.000000e-02 1.000000e-02 1.000000e-02 1.000000e-02 1.000000e-02 1.000000e-02 1.000000e-02 1.000000e-02 1.000000e-02 1.000000e-02 1.000000e-02 1.000000e-02
<GCONST> -1.901568e+02
<STATE> 3
<NUMMIXES> 2
<MIXTURE> 1 8.122926e-01
<MEAN> 75
 5.248324e+00 5.350676e+00 5.340081e+00 5.207555e+00 4.947527e+00 4.559151e+00 4.062428e+00 3.538621e+00 3.097010e+00 2.786861e+00 2.596514e+00 2.479263e+00 2.397810e+00 2.351218e+00 2.338382e+00 2.323072e+00 2.262743e+00 2.132524e+00 1.927801e+00 1.664894e+00 1.390618e+00 1.177319e+00 1.064027e+00 1.000000e+00 1.006559e+00 -8.547339e-03 -3.306185e-04 8.090819e-03 1.664001e-02 2.516263e-02 3.260642e-02 3.474102e-02 2.760107e-02 1.697677e-02 8.423580e-03 3.428823e-03 1.298058e-03 4.028855e-04 -1.814043e-04 -5.795927e-04 -7.759828e-04 -8.221852e-04 -8.257917e-04 -8.480197e-04 -8.302705e-04 -7.292861e-04 -4.931097e-04 -2.481845e-04 -2.716424e-18 -3.850755e-05 -1.057810e-03 -1.582594e-03 -2.117435e-03 -2.650663e-03 -3.044010e-03 -2.882375e-03 -1.587513e-03 -3.034012e-04 9.117432e-06 -1.545526e-07 -4.359719e-05 -5.698894e-05 -5.674748e-05 -2.913335e-05 -1.818066e-05 -1.326480e-05 -1.852416e-05 -1.766526e-05 -1.904384e-05 -1.633733e-05 -1.249509e-05 -7.636200e-06 -2.456453e-06 -2.716424e-18 1.337611e-06
<VARIANCE> 75
 8.735170e-02 7.529422e-02 6.314393e-02 1.114851e-01 2.208524e-01 3.715068e-01 5.110776e-01 4.940912e-01 3.015554e-01 1.118552e-01 2.484961e-02 1.000000e-02 1.000000e-02 1.000000e-02 1.000000e-02 1.000000e-02 1.000000e-02 1.000000e-02 1.000000e-02 1.000000e-02 1.000000e-02 1.000000e-02 1.000000e-02 1.000000e-02 1.000000e-02 1.000000e-02 1.000000e-02 1.000000e-02 1.000000e-02 1.000000e-02 1.000000e-02 1.000000e-02 1.000000e-02 1.000000e-02 1.000000e-02 1.000000e-02 1.000000e-02 1.000000e-02 1.000000e-02 1.000000e-02 1.000000e-02 1.000000e-02 1.000000e-02 1.000000e-02 1.000000e-02 1.000000e-02 1.000000e-02 1.000000e-02 1.000000e-02 1.000000e-02 1.000000e-02 1.000000e-02 1.000000e-02 1.000000e-02 1.000000e-02 1.000000e-02 1.000000e-02 1.000000e-02 1.000000e-02 1.000000e-02 1.000000e-02 1.000000e-02 1.000000e-02 1.000000e-02 1.000000e-02 1.000000e-02 1.000000e-02 1.000000e-02 1.000000e-02 1.000000e-02 1.000000e-02 1.000000e-02 1.000000e-02 1.000000e-02 1.000000e-02
<GCONST> -1.778315e+02
<MIXTURE> 2 1.877034e-01
<MEAN> 75
 4.398726e+00 4.557432e+00 4.589374e+00 4.500191e+00 4.313274e+00 4.081887e+00 3.864926e+00 3.655526e+00 3.419775e+00 3.136224e+00 2.817992e+00 2.512526e+00 2.299734e+00 2.202361e+00 2.153511e+00 2.097455e+00 2.005092e+00 1.865071e+00 1.680810e+00 1.470570e+00 1.271415e+00 1.125880e+00 1.047598e+00 1.000000e+00 1.003129e+00 -3.043294e-03 9.121878e-03 2.095462e-02 3.174050e-02 3.826628e-02 3.331399e-02 2.402537e-02 1.904575e-02 1.687832e-02 1.493520e-02 1.199405e-02 7.643476e-03 2.977199e-03 5.613479e-04 -1.509331e-04 -3.854262e-04 -4.665802e-04 -5.612695e-04 -6.005826e-04 -6.476156e-04 -5.038772e-04 -3.735695e-04 -1.740632e-04 -3.589755e-20 -4.779280e-05 -3.134675e-03 -3.953584e-03 -4.545064e-03 -4.530446e-03 -2.472613e-03 6.134504e-04 7.806455e-04 2.259318e-04 -4.967592e-05 -1.228935e-04 -9.784172e-05 -3.895790e-05 1.964698e-06 -3.117360e-05 -1.985289e-05 -4.867102e-06 -2.629839e-05 8.624240e-07 -2.887934e-06 1.075091e-05 4.739368e-06 6.306061e-06 4.537312e-06 -3.589755e-20 1.635810e-06
<VARIANCE> 75
 1.002943e+00 7.480073e-01 8.073192e-01 1.104876e+00 1.526524e+00 1.874757e+00 1.926988e+00 1.706755e+00 1.320314e+00 8.747207e-01 4.535883e-01 1.549818e-01 3.272118e-02 1.101033e-02 1.184491e-02 1.629525e-02 2.086431e-02 2.265814e-02 1.987836e-02 1.320945e-02 1.000000e-02 1.000000e-02 1.000000e-02 1.000000e-02 1.000000e-02 1.000000e-02 1.000000e-02 1.000000e-02 1.000000e-02 1.000000e-02 1.000000e-02 1.000000e-02 1.000000e-02 1.000000e-02 1.000000e-02 1.000000e-02 1.000000e-02 1.000000e-02 1.000000e-02 1.000000e-02 1.000000e-02 1.000000e-02 1.000000e-02 1.000000e-02 1.000000e-02 1.000000e-02 1.000000e-02 1.000000e-02 1.000000e-02 1.000000e-02 1.000000e-02 1.000000e-02 1.000000e-02 1.000000e-02 1.000000e-02 1.000000e-02 1.000000e-02 1.000000e-02 1.000000e-02 1.000000e-02 1.000000e-02 1.000000e-02 1.000000e-02 1.000000e-02 1.000000e-02 1.000000e-02 1.000000e-02 1.000000e-02 1.000000e-02 1.000000e-02 1.000000e-02 1.000000e-02 1.000000e-02 1.000000e-02 1.000000e-02
<GCONST> -1.484976e+02
<STATE> 4
<NUMMIXES> 2
<MIXTURE> 1 4.397027e-01
<MEAN> 75
 5.087287e+00 5.313264e+00 5.427147e+00 5.420546e+00 5.288090e+00 5.024738e+00 4.625480e+00 4.094565e+00 3.480483e+00 2.919377e+00 2.528416e+00 2.308383e+00 2.195783e+00 2.131531e+00 2.080249e+00 2.013933e+00 1.912850e+00 1.769503e+00 1.589806e+00 1.394560e+00 1.219654e+00 1.098525e+00 1.036088e+00 1.000000e+00 1.000326e+00 -1.536891e-02 -9.419962e-03 -3.578226e-03 2.208949e-03 8.098396e-03 1.407982e-02 1.988140e-02 2.430867e-02 2.349658e-02 1.538491e-02 6.888040e-03 2.106232e-03 3.777867e-04 -2.260263e-04 -4.977112e-04 -6.279423e-04 -7.207429e-04 -7.768016e-04 -7.920422e-04 -7.338425e-04 -5.672944e-04 -3.395684e-04 -1.545662e-04 -1.084904e-17 -1.235483e-05 1.212856e-04 -1.442688e-04 -4.151532e-04 -7.050886e-04 -9.948266e-04 -1.282557e-03 -1.513412e-03 -1.484199e-03 -7.970748e-04 -1.746534e-04 -4.031625e-05 -3.898630e-05 -2.890080e-05 -1.777354e-05 -1.223117e-05 -7.141453e-06 2.445743e-06 -2.193816e-06 1.467781e-06 2.992468e-06 2.294850e-06 8.481800e-07 2.272902e-06 -1.084904e-17 5.254761e-07
<VARIANCE> 75
 1.325203e-01 7.529422e-02 6.314393e-02 5.083671e-02 4.639013e-02 1.010751e-01 1.850432e-01 2.839524e-01 3.276250e-01 2.225998e-01 7.624660e-02 1.419336e-02 1.000000e-02 1.000000e-02 1.000000e-02 1.000000e-02 1.000000e-02 1.000000e-02 1.000000e-02 1.000000e-02 1.000000e-02 1.000000e-02 1.000000e-02 1.000000e-02 1.000000e-02 1.000000e-02 1.000000e-02 1.000000e-02 1.000000e-02 1.000000e-02 1.000000e-02 1.000000e-02 1.000000e-02 1.000000e-02 1.000000e-02 1.000000e-02 1.000000e-02 1.000000e-02 1.000000e-02 1.000000e-02 1.000000e-02 1.000000e-02 1.000000e-02 1.000000e-02 1.000000e-02 1.000000e-02 1.000000e-02 1.000000e-02 1.000000e-02 1.000000e-02 1.000000e-02 1.000000e-02 1.000000e-02 1.000000e-02 1.000000e-02 1.000000e-02 1.000000e-02 1.000000e-02 1.000000e-02 1.000000e-02 1.000000e-02 1.000000e-02 1.000000e-02 1.000000e-02 1.000000e-02 1.000000e-02 1.000000e-02 1.000000e-02 1.000000e-02 1.000000e-02 1.000000e-02 1.000000e-02 1.000000e-02 1.000000e-02 1.000000e-02
<GCONST> -1.803895e+02
<MIXTURE> 2 5.602915e-01
<MEAN> 75
 5.175716e+00 5.054558e+00 4.818919e+00 4.463128e+00 3.991904e+00 3.446432e+00 2.947822e+00 2.605905e+00 2.428049e+00 2.338692e+00 2.264343e+00 2.193748e+00 2.138629e+00 2.099954e+00 2.061349e+00 2.000190e+00 1.900910e+00 1.758935e+00 1.580749e+00 1.387944e+00 1.215796e+00 1.097211e+00 1.035858e+00 1.000000e+00 1.000422e+00 8.690804e-03 1.815545e-02 2.810635e-02 3.804247e-02 4.656376e-02 4.768565e-02 3.555074e-02 1.870605e-02 6.536747e-03 2.228649e-03 1.337116e-03 8.174133e-04 2.921653e-04 -1.589711e-04 -3.828247e-04 -5.006090e-04 -5.625209e-04 -6.261947e-04 -6.597844e-04 -6.312907e-04 -4.877889e-04 -3.126797e-04 -1.360146e-04 -2.080162e-17 -1.066943e-05 -2.219553e-03 -2.844233e-03 -3.437624e-03 -3.902890e-03 -3.695621e-03 -1.735271e-03 4.756922e-04 1.038941e-03 5.547372e-04 5.652559e-05 -4.920610e-05 -3.951119e-05 -2.186191e-05 -1.557304e-05 -8.131196e-06 -3.465047e-06 -6.882916e-06 -7.585188e-06 -3.216121e-06 3.447789e-07 7.146621e-07 3.438588e-06 3.058719e-07 -2.080162e-17 4.059031e-07
<VARIANCE> 75
 2.207684e-01 2.388268e-01 2.748989e-01 3.253995e-01 3.742601e-01 3.692392e-01 2.301062e-01 6.833623e-02 1.000000e-02 1.000000e-02 1.000000e-02 1.000000e-02 1.000000e-02 1.000000e-02 1.000000e-02 1.000000e-02 1.000000e-02 1.000000e-02 1.000000e-02 1.000000e-02 1.000000e-02 1.000000e-02 1.000000e-02 1.000000e-02 1.000000e-02 1.000000e-02 1.000000e-02 1.000000e-02 1.000000e-02 1.000000e-02 1.000000e-02 1.000000e-02 1.000000e-02 1.000000e-02 1.000000e-02 1.000000e-02 1.000000e-02 1.000000e-02 1.000000e-02 1.000000e-02 1.000000e-02 1.000000e-02 1.000000e-02 1.000000e-02 1.000000e-02 1.000000e-02 1.000000e-02 1.000000e-02 1.000000e-02 1.000000e-02 1.000000e-02 1.000000e-02 1.000000e-02 1.000000e-02 1.000000e-02 1.000000e-02 1.000000e-02 1.000000e-02 1.000000e-02 1.000000e-02 1.000000e-02 1.000000e-02 1.000000e-02 1.000000e-02 1.000000e-02 1.000000e-02 1.000000e-02 1.000000e-02 1.000000e-02 1.000000e-02 1.000000e-02 1.000000e-02 1.000000e-02 1.000000e-02 1.000000e-02
<GCONST> -1.821939e+02
<TRANSP> 5
 0.000000e+00 1.000000e+00 0.000000e+00 0.000000e+00 0.000000e+00
 0.000000e+00 9.509816e-01 4.901839e-02 0.000000e+00 0.000000e+00
 0.000000e+00 0.000000e+00 9.102404e-01 8.975966e-02 0.000000e+00
 0.000000e+00 0.000000e+00 0.000000e+00 9.434191e-01 5.658091e-02
 0.000000e+00 0.000000e+00 0.000000e+00 0.000000e+00 0.000000e+00
<ENDHMM>
~h "ne"
<BEGINHMM>
<NUMSTATES> 5
<STATE> 2
<NUMMIXES> 2
<MIXTURE> 1 4.195603e-01
<MEAN> 75
 2.046978e+00 2.188599e+00 2.312767e+00 2.413472e+00 2.488735e+00 2.538504e+00 2.563264e+00 2.564281e+00 2.544136e+00 2.506635e+00 2.458603e+00 2.413282e+00 2.389932e+00 2.397857e+00 2.416223e+00 2.407322e+00 2.341835e+00 2.205668e+00 1.997729e+00 1.732379e+00 1.449712e+00 1.217851e+00 1.084389e+00 1.000000e+00 1.010039e+00 -2.590061e-04 -1.379856e-03 -1.535402e-03 -1.288558e-03 -1.035517e-03 -8.672793e-04 -7.535010e-04 -6.595075e-04 -6.543852e-04 -6.662358e-04 -7.021397e-04 -7.762848e-04 -8.695134e-04 -9.696653e-04 -1.067164e-03 -1.145233e-03 -1.226563e-03 -1.307243e-03 -1.355527e-03 -1.333374e-03 -1.157874e-03 -7.613770e-04 -3.900965e-04 -3.997666e-16 -6.690191e-05 5.698705e-04 2.652307e-04 3.225982e-05 -1.645920e-05 -1.350928e-05 -1.669835e-06 -1.509348e-06 1.921642e-06 6.568757e-06 7.335695e-06 1.967708e-06 -3.120295e-06 -8.585293e-06 -8.431724e-06 -8.082694e-06 -1.306071e-05 -1.155527e-05 -1.316737e-05 -1.139489e-05 -1.355999e-05 -8.055720e-06 -8.316430e-06 -2.758887e-06 -3.997666e-16 1.494750e-06
<VARIANCE> 75
 8.735170e-02 7.529422e-02 6.314393e-02 5.083671e-02 3.912752e-02 2.845205e-02 1.922121e-02 1.176505e-02 1.000000e-02 1.000000e-02 1.000000e-02 1.253212e-02 1.502611e-02 1.293704e-02 1.000000e-02 1.000000e-02 1.000000e-02 1.000000e-02 1.000000e-02 1.000000e-02 1.000000e-02 1.000000e-02 1.000000e-02 1.000000e-02 1.000000e-02 1.000000e-02 1.000000e-02 1.000000e-02 1.000000e-02 1.000000e-02 1.000000e-02 1.000000e-02 1.000000e-02 1.000000e-02 1.000000e-02 1.000000e-02 1.000000e-02 1.000000e-02 1.000000e-02 1.000000e-02 1.000000e-02 1.000000e-02 1.000000e-02 1.000000e-02 1.000000e-02 1.000000e-02 1.000000e-02 1.000000e-02 1.000000e-02 1.000000e-02 1.000000e-02 1.000000e-02 1.000000e-02 1.000000e-02 1.000000e-02 1.000000e-02 1.000000e-02 1.000000e-02 1.000000e-02 1.000000e-02 1.000000e-02 1.000000e-02 1.000000e-02 1.000000e-02 1.000000e-02 1.000000e-02 1.000000e-02 1.000000e-02 1.000000e-02 1.000000e-02 1.000000e-02 1.000000e-02 1.000000e-02 1.000000e-02 1.000000e-02
<GCONST> -1.957756e+02
<MIXTURE> 2 5.804341e-01
<MEAN> 75
 1.958750e+00 2.083116e+00 2.200137e+00 2.299919e+00 2.377378e+00 2.431561e+00 2.462524e+00 2.470628e+00 2.456745e+00 2.423116e+00 2.375779e+00 2.327936e+00 2.300203e+00 2.302982e+00 2.317124e+00 2.305588e+00 2.238813e+00 2.102572e+00 1.897336e+00 1.641363e+00 1.380113e+00 1.178942e+00 1.070107e+00 1.000000e+00 1.009793e+00 1.403289e-03 -7.912189e-04 -1.511123e-03 -1.320247e-03 -1.013871e-03 -7.899458e-04 -6.520442e-04 -5.551811e-04 -5.182014e-04 -5.147465e-04 -5.826795e-04 -6.380553e-04 -7.737312e-04 -9.109112e-04 -1.016701e-03 -1.102474e-03 -1.167457e-03 -1.246334e-03 -1.295312e-03 -1.224653e-03 -1.010118e-03 -6.394329e-04 -3.111496e-04 -1.117588e-16 -5.105205e-05 7.495738e-04 3.871227e-04 6.473943e-05 -1.634461e-05 -2.022500e-05 -4.196182e-06 3.839713e-06 5.273372e-06 7.563454e-06 8.268580e-06 1.091594e-05 3.898177e-06 1.182388e-06 -1.755364e-06 -5.663979e-06 -3.140509e-06 -5.174840e-06 -6.455686e-06 -1.006341e-07 1.184630e-06 1.508322e-06 -8.160933e-07 1.482936e-07 -1.117588e-16 -5.990753e-08
<VARIANCE> 75
 8.735170e-02 7.529422e-02 6.314393e-02 5.083671e-02 3.912752e-02 2.845205e-02 1.922121e-02 1.176505e-02 1.000000e-02 1.000000e-02 1.000000e-02 1.000000e-02 1.000000e-02 1.000000e-02 1.000000e-02 1.000000e-02 1.000000e-02 1.000000e-02 1.000000e-02 1.000000e-02 1.000000e-02 1.000000e-02 1.000000e-02 1.000000e-02 1.000000e-02 1.000000e-02 1.000000e-02 1.000000e-02 1.000000e-02 1.000000e-02 1.000000e-02 1.000000e-02 1.000000e-02 1.000000e-02 1.000000e-02 1.000000e-02 1.000000e-02 1.000000e-02 1.000000e-02 1.000000e-02 1.000000e-02 1.000000e-02 1.000000e-02 1.000000e-02 1.000000e-02 1.000000e-02 1.000000e-02 1.000000e-02 1.000000e-02 1.000000e-02 1.000000e-02 1.000000e-02 1.000000e-02 1.000000e-02 1.000000e-02 1.000000e-02 1.000000e-02 1.000000e-02 1.000000e-02 1.000000e-02 1.000000e-02 1.000000e-02 1.000000e-02 1.000000e-02 1.000000e-02 1.000000e-02 1.000000e-02 1.000000e-02 1.000000e-02 1.000000e-02 1.000000e-02 1.000000e-02 1.000000e-02 1.000000e-02 1.000000e-02
<GCONST> -1.966660e+02
<STATE> 3
<NUMMIXES> 2
<MIXTURE> 1 2.992370e-01
<MEAN> 75
 1.976785e+00 2.084489e+00 2.189392e+00 2.284939e+00 2.359892e+00 2.411057e+00 2.438094e+00 2.441639e+00 2.423031e+00 2.386006e+00 2.338824e+00 2.296406e+00 2.274648e+00 2.273893e+00 2.271425e+00 2.236640e+00 2.147526e+00 1.995040e+00 1.783385e+00 1.535243e+00 1.298874e+00 1.131560e+00 1.048107e+00 1.000000e+00 1.003741e+00 4.786498e-03 1.594637e-03 -8.267540e-04 -1.276684e-03 -1.065038e-03 -8.458863e-04 -6.983276e-04 -6.144093e-04 -5.677190e-04 -5.758014e-04 -6.170461e-04 -7.072057e-04 -8.233025e-04 -9.469087e-04 -1.038134e-03 -1.115419e-03 -1.190656e-03 -1.245602e-03 -1.256398e-03 -1.159132e-03 -8.959380e-04 -5.215164e-04 -2.359986e-04 2.843065e-18 -4.132361e-05 9.904328e-04 9.694772e-04 4.494266e-04 6.804414e-05 -2.201474e-06 1.033588e-06 3.493694e-06 5.223877e-06 9.040185e-06 1.154769e-05 8.651928e-06 9.169523e-06 5.009053e-06 9.505729e-08 6.491437e-07 9.623817e-07 2.766814e-06 1.779852e-06 6.830663e-06 2.713871e-06 5.196613e-06 4.325156e-06 4.635948e-07 2.843065e-18 1.492946e-06
<VARIANCE> 75
 8.735170e-02 7.529422e-02 6.314393e-02 5.083671e-02 3.912752e-02 2.845205e-02 1.922121e-02 1.176505e-02 1.000000e-02 1.000000e-02 1.000000e-02 1.000000e-02 1.000000e-02 1.000000e-02 1.000000e-02 1.000000e-02 1.000000e-02 1.000000e-02 1.000000e-02 1.000000e-02 1.000000e-02 1.000000e-02 1.000000e-02 1.000000e-02 1.000000e-02 1.000000e-02 1.000000e-02 1.000000e-02 1.000000e-02 1.000000e-02 1.000000e-02 1.000000e-02 1.000000e-02 1.000000e-02 1.000000e-02 1.000000e-02 1.000000e-02 1.000000e-02 1.000000e-02 1.000000e-02 1.000000e-02 1.000000e-02 1.000000e-02 1.000000e-02 1.000000e-02 1.000000e-02 1.000000e-02 1.000000e-02 1.000000e-02 1.000000e-02 1.000000e-02 1.000000e-02 1.000000e-02 1.000000e-02 1.000000e-02 1.000000e-02 1.000000e-02 1.000000e-02 1.000000e-02 1.000000e-02 1.000000e-02 1.000000e-02 1.000000e-02 1.000000e-02 1.000000e-02 1.000000e-02 1.000000e-02 1.000000e-02 1.000000e-02 1.000000e-02 1.000000e-02 1.000000e-02 1.000000e-02 1.000000e-02 1.000000e-02
<GCONST> -1.966660e+02
<MIXTURE> 2 7.007360e-01
<MEAN> 75
 1.953478e+00 2.075910e+00 2.181384e+00 2.265996e+00 2.327612e+00 2.366032e+00 2.381272e+00 2.374089e+00 2.346657e+00 2.304217e+00 2.257355e+00 2.221250e+00 2.205771e+00 2.203273e+00 2.190746e+00 2.144285e+00 2.048784e+00 1.899008e+00 1.700769e+00 1.475436e+00 1.264813e+00 1.116041e+00 1.040569e+00 1.000000e+00 1.000320e+00 -1.142270e-03 -1.286739e-03 -1.287907e-03 -1.120509e-03 -1.000887e-03 -8.762822e-04 -8.088741e-04 -7.735079e-04 -7.613460e-04 -7.698035e-04 -8.166152e-04 -8.436490e-04 -9.309449e-04 -1.010874e-03 -1.091060e-03 -1.139805e-03 -1.229027e-03 -1.295548e-03 -1.278913e-03 -1.131307e-03 -8.509185e-04 -4.509426e-04 -2.297697e-04 1.887609e-18 -3.312379e-06 6.731007e-05 3.119622e-05 7.682867e-06 -1.297731e-05 -2.764438e-06 -1.012419e-05 -4.113789e-06 -1.621632e-06 -1.464181e-06 -8.405418e-06 1.210564e-05 -9.613980e-06 -8.259452e-06 -6.557954e-06 -9.697438e-06 -8.399520e-06 -1.674910e-05 2.589535e-06 5.919643e-06 -1.227674e-05 -7.634423e-06 -1.409528e-05 -1.522686e-07 1.887609e-18 2.974579e-07
<VARIANCE> 75
 8.735170e-02 7.529422e-02 6.314393e-02 5.083671e-02 3.912752e-02 2.845205e-02 1.922121e-02 1.176505e-02 1.000000e-02 1.000000e-02 1.000000e-02 1.000000e-02 1.000000e-02 1.000000e-02 1.000000e-02 1.000000e-02 1.000000e-02 1.000000e-02 1.000000e-02 1.000000e-02 1.000000e-02 1.000000e-02 1.000000e-02 1.000000e-02 1.000000e-02 1.000000e-02 1.000000e-02 1.000000e-02 1.000000e-02 1.000000e-02 1.000000e-02 1.000000e-02 1.000000e-02 1.000000e-02 1.000000e-02 1.000000e-02 1.000000e-02 1.000000e-02 1.000000e-02 1.000000e-02 1.000000e-02 1.000000e-02 1.000000e-02 1.000000e-02 1.000000e-02 1.000000e-02 1.000000e-02 1.000000e-02 1.000000e-02 1.000000e-02 1.000000e-02 1.000000e-02 1.000000e-02 1.000000e-02 1.000000e-02 1.000000e-02 1.000000e-02 1.000000e-02 1.000000e-02 1.000000e-02 1.000000e-02 1.000000e-02 1.000000e-02 1.000000e-02 1.000000e-02 1.000000e-02 1.000000e-02 1.000000e-02 1.000000e-02 1.000000e-02 1.000000e-02 1.000000e-02 1.000000e-02 1.000000e-02 1.000000e-02
<GCONST> -1.966660e+02
<STATE> 4
<NUMMIXES> 2
<MIXTURE> 1 4.370712e-01
<MEAN> 75
 1.959731e+00 2.065402e+00 2.159200e+00 2.236433e+00 2.292167e+00 2.324743e+00 2.334224e+00 2.321803e+00 2.290277e+00 2.245640e+00 2.198684e+00 2.162799e+00 2.144901e+00 2.136191e+00 2.115995e+00 2.064016e+00 1.967647e+00 1.823357e+00 1.637783e+00 1.431690e+00 1.242705e+00 1.109473e+00 1.040517e+00 1.000000e+00 1.002362e+00 1.835541e-03 3.339750e-04 -8.462922e-04 -1.083944e-03 -9.436124e-04 -7.934426e-04 -7.063961e-04 -6.534801e-04 -6.357680e-04 -6.640851e-04 -7.080348e-04 -7.908776e-04 -8.767874e-04 -9.638575e-04 -1.039925e-03 -1.117354e-03 -1.180095e-03 -1.214802e-03 -1.197289e-03 -1.073530e-03 -7.969287e-04 -4.580235e-04 -1.994489e-04 -8.265687e-18 -3.681757e-05 4.624323e-04 5.193804e-04 2.899714e-04 7.123943e-05 9.222940e-06 4.156026e-06 6.250613e-06 5.872566e-06 5.779562e-06 6.976893e-06 6.431234e-06 3.966597e-06 3.913190e-06 9.986959e-07 1.204933e-07 -6.453289e-07 2.572944e-06 1.454405e-06 4.815186e-07 3.270716e-06 6.235308e-07 6.899318e-06 -7.590541e-07 -8.265687e-18 -6.047303e-07
<VARIANCE> 75
 8.735170e-02 7.529422e-02 6.314393e-02 5.083671e-02 3.912752e-02 2.845205e-02 1.922121e-02 1.176505e-02 1.000000e-02 1.000000e-02 1.000000e-02 1.000000e-02 1.000000e-02 1.000000e-02 1.000000e-02 1.000000e-02 1.000000e-02 1.000000e-02 1.000000e-02 1.000000e-02 1.000000e-02 1.000000e-02 1.000000e-02 1.000000e-02 1.000000e-02 1.000000e-02 1.000000e-02 1.000000e-02 1.000000e-02 1.000000e-02 1.000000e-02 1.000000e-02 1.000000e-02 1.000000e-02 1.000000e-02 1.000000e-02 1.000000e-02 1.000000e-02 1.000000e-02 1.000000e-02 1.000000e-02 1.000000e-02 1.000000e-02 1.000000e-02 1.000000e-02 1.000000e-02 1.000000e-02 1.000000e-02 1.000000e-02 1.000000e-02 1.000000e-02 1.000000e-02 1.000000e-02 1.000000e-02 1.000000e-02 1.000000e-02 1.000000e-02 1.000000e-02 1.000000e-02 1.000000e-02 1.000000e-02 1.000000e-02 1.000000e-02 1.000000e-02 1.000000e-02 1.000000e-02 1.000000e-02 1.000000e-02 1.000000e-02 1.000000e-02 1.000000e-02 1.000000e-02 1.000000e-02 1.000000e-02 1.000000e-02
<GCONST> -1.966660e+02
<MIXTURE> 2 5.629184e-01
<MEAN> 75
 1.894848e+00 2.000523e+00 2.100073e+00 2.183159e+00 2.242985e+00 2.277848e+00 2.288390e+00 2.276194e+00 2.244437e+00 2.199331e+00 2.151616e+00 2.114054e+00 2.092793e+00 2.079151e+00 2.053703e+00 1.997644e+00 1.899514e+00 1.756827e+00 1.577545e+00 1.383682e+00 1.211590e+00 1.094166e+00 1.034548e+00 1.000000e+00 1.000894e+00 2.064153e-03 -1.419381e-04 -1.113815e-03 -1.103037e-03 -8.614643e-04 -6.647145e-04 -5.376797e-04 -4.732497e-04 -4.664558e-04 -5.010256e-04 -5.818696e-04 -6.869550e-04 -7.966140e-04 -8.928741e-04 -9.784831e-04 -1.041113e-03 -1.099126e-03 -1.136437e-03 -1.108110e-03 -9.721650e-04 -6.978313e-04 -4.046902e-04 -1.906753e-04 5.797214e-17 -3.484411e-05 6.932426e-04 4.639081e-04 1.678450e-04 3.058581e-05 9.404168e-06 1.108219e-05 1.471585e-05 1.806490e-05 1.836725e-05 1.712613e-05 1.677809e-05 1.353811e-05 1.202544e-05 1.114557e-05 1.090206e-05 1.223149e-05 1.339211e-05 1.284819e-05 1.318275e-05 1.053271e-05 7.397481e-06 4.400183e-06 2.137906e-06 5.797214e-17 7.427294e-07
<VARIANCE> 75
 8.735170e-02 7.529422e-02 6.314393e-02 5.083671e-02 3.912752e-02 2.845205e-02 1.922121e-02 1.176505e-02 1.000000e-02 1.000000e-02 1.000000e-02 1.000000e-02 1.000000e-02 1.000000e-02 1.000000e-02 1.000000e-02 1.000000e-02 1.000000e-02 1.000000e-02 1.000000e-02 1.000000e-02 1.000000e-02 1.000000e-02 1.000000e-02 1.000000e-02 1.000000e-02 1.000000e-02 1.000000e-02 1.000000e-02 1.000000e-02 1.000000e-02 1.000000e-02 1.000000e-02 1.000000e-02 1.000000e-02 1.000000e-02 1.000000e-02 1.000000e-02 1.000000e-02 1.000000e-02 1.000000e-02 1.000000e-02 1.000000e-02 1.000000e-02 1.000000e-02 1.000000e-02 1.000000e-02 1.000000e-02 1.000000e-02 1.000000e-02 1.000000e-02 1.000000e-02 1.000000e-02 1.000000e-02 1.000000e-02 1.000000e-02 1.000000e-02 1.000000e-02 1.000000e-02 1.000000e-02 1.000000e-02 1.000000e-02 1.000000e-02 1.000000e-02 1.000000e-02 1.000000e-02 1.000000e-02 1.000000e-02 1.000000e-02 1.000000e-02 1.000000e-02 1.000000e-02 1.000000e-02 1.000000e-02 1.000000e-02
<GCONST> -1.966660e+02
<TRANSP> 5
 0.000000e+00 1.000000e+00 0.000000e+00 0.000000e+00 0.000000e+00
 0.000000e+00 9.623392e-01 3.766080e-02 0.000000e+00 0.000000e+00
 0.000000e+00 0.000000e+00 9.638345e-01 3.616557e-02 0.000000e+00
 0.000000e+00 0.000000e+00 0.000000e+00 9.843119e-01 1.568800e-02
 0.000000e+00 0.000000e+00 0.000000e+00 0.000000e+00 0.000000e+00
<ENDHMM>
