~o
<STREAMINFO> 1 75
<VECSIZE> 75<NULLD><USER_D_A><DIAGC>
~h "e"
<BEGINHMM>
<NUMSTATES> 5
<STATE> 2
<NUMMIXES> 2
<MIXTURE> 1 4.659590e-01
<MEAN> 75
 4.474897e+00 4.093428e+00 3.631795e+00 3.181138e+00 2.828777e+00 2.616872e+00 2.544890e+00 2.544310e+00 2.539146e+00 2.507191e+00 2.452414e+00 2.388473e+00 2.337724e+00 2.318952e+00 2.321163e+00 2.305840e+00 2.237654e+00 2.099081e+00 1.889341e+00 1.627677e+00 1.362970e+00 1.163554e+00 1.059546e+00 1.000000e+00 1.006486e+00 7.443038e-02 8.778793e-02 8.691221e-02 6.973515e-02 4.648683e-02 2.378388e-02 7.474619e-03 1.906360e-03 1.508480e-03 1.680316e-03 1.625049e-03 1.257828e-03 5.956008e-04 -6.451555e-05 -5.089566e-04 -6.176870e-04 -6.080382e-04 -5.807037e-04 -6.015678e-04 -6.113142e-04 -5.407865e-04 -3.678545e-04 -1.955369e-04 1.108867e-18 -4.588997e-05 -9.083278e-03 -6.174302e-03 -1.120980e-03 2.216688e-03 3.224266e-03 3.079923e-03 1.686875e-03 3.273743e-04 -2.124238e-05 -4.658232e-05 -3.986050e-05 -3.179558e-05 -1.043077e-05 -6.723348e-06 -6.834014e-06 -8.547529e-06 -1.348948e-05 -7.580115e-06 -1.302279e-05 -8.953029e-06 -6.389613e-06 -4.536277e-06 2.518895e-06 1.108867e-18 1.870854e-06
<VARIANCE> 75
 3.864801e-01 5.448487e-01 6.397745e-01 5.203291e-01 2.597137e-01 6.867020e-02 1.891963e-02 1.152333e-02 1.000000e-02 1.000000e-02 1.000000e-02 1.000000e-02 1.000000e-02 1.000000e-02 1.000000e-02 1.000000e-02 1.000000e-02 1.000000e-02 1.000000e-02 1.000000e-02 1.000000e-02 1.000000e-02 1.000000e-02 1.000000e-02 1.000000e-02 1.064495e-02 1.070624e-02 1.000000e-02 1.000000e-02 1.000000e-02 1.000000e-02 1.000000e-02 1.000000e-02 1.000000e-02 1.000000e-02 1.000000e-02 1.000000e-02 1.000000e-02 1.000000e-02 1.000000e-02 1.000000e-02 1.000000e-02 1.000000e-02 1.000000e-02 1.000000e-02 1.000000e-02 1.000000e-02 1.000000e-02 1.000000e-02 1.000000e-02 1.000000e-02 1.000000e-02 1.000000e-02 1.000000e-02 1.000000e-02 1.000000e-02 1.000000e-02 1.000000e-02 1.000000e-02 1.000000e-02 1.000000e-02 1.000000e-02 1.000000e-02 1.000000e-02 1.000000e-02 1.000000e-02 1.000000e-02 1.000000e-02 1.000000e-02 1.000000e-02 1.000000e-02 1.000000e-02 1.000000e-02 1.000000e-02 1.000000e-02
<GCONST> -1.856902e+02
<MIXTURE> 2 5.340412e-01
<MEAN> 75
 4.212773e+00 3.761764e+00 3.249498e+00 2.794684e+00 2.495321e+00 2.377277e+00 2.365194e+00 2.359185e+00 2.328898e+00 2.277313e+00 2.215469e+00 2.158415e+00 2.118037e+00 2.090937e+00 2.058887e+00 2.000272e+00 1.901542e+00 1.758807e+00 1.579916e+00 1.385945e+00 1.213245e+00 1.095267e+00 1.035192e+00 1.000000e+00 1.000474e+00 8.085819e-02 9.171806e-02 8.450957e-02 5.976629e-02 3.124665e-02 9.970650e-03 2.433802e-03 1.673046e-03 1.824077e-03 1.750385e-03 1.392864e-03 8.511271e-04 2.642835e-04 -1.305640e-04 -3.443205e-04 -4.329677e-04 -5.078902e-04 -5.571143e-04 -6.342005e-04 -5.815027e-04 -4.868401e-04 -2.779896e-04 -1.175402e-04 7.720903e-17 -1.479172e-05 -8.449267e-03 -4.806527e-03 9.136230e-04 4.057413e-03 4.311706e-03 2.469960e-03 5.586157e-04 1.377380e-05 -3.893819e-05 -3.312236e-05 -2.419404e-05 -1.728468e-05 -9.028371e-06 -3.967067e-06 -1.131683e-05 -9.073230e-06 -1.248746e-05 -7.267423e-06 -9.316588e-06 -6.702615e-06 4.974707e-06 1.680596e-07 -2.163050e-06 7.720903e-17 4.528903e-07
<VARIANCE> 75
 3.199711e-01 4.193195e-01 4.307193e-01 2.622354e-01 7.414809e-02 2.812354e-02 1.891963e-02 1.152333e-02 1.000000e-02 1.000000e-02 1.000000e-02 1.000000e-02 1.000000e-02 1.000000e-02 1.000000e-02 1.000000e-02 1.000000e-02 1.000000e-02 1.000000e-02 1.000000e-02 1.000000e-02 1.000000e-02 1.000000e-02 1.000000e-02 1.000000e-02 1.000000e-02 1.000000e-02 1.000000e-02 1.000000e-02 1.000000e-02 1.000000e-02 1.000000e-02 1.000000e-02 1.000000e-02 1.000000e-02 1.000000e-02 1.000000e-02 1.000000e-02 1.000000e-02 1.000000e-02 1.000000e-02 1.000000e-02 1.000000e-02 1.000000e-02 1.000000e-02 1.000000e-02 1.000000e-02 1.000000e-02 1.000000e-02 1.000000e-02 1.000000e-02 1.000000e-02 1.000000e-02 1.000000e-02 1.000000e-02 1.000000e-02 1.000000e-02 1.000000e-02 1.000000e-02 1.000000e-02 1.000000e-02 1.000000e-02 1.000000e-02 1.000000e-02 1.000000e-02 1.000000e-02 1.000000e-02 1.000000e-02 1.000000e-02 1.000000e-02 1.000000e-02 1.000000e-02 1.000000e-02 1.000000e-02 1.000000e-02
<GCONST> -1.894988e+02
<STATE> 3
<NUMMIXES> 2
<MIXTURE> 1 8.072313e-01
<MEAN> 75
 5.239563e+00 5.342204e+00 5.332200e+00 5.200553e+00 4.941623e+00 4.554677e+00 4.060187e+00 3.540447e+00 3.103548e+00 2.795218e+00 2.602355e+00 2.481443e+00 2.398113e+00 2.351243e+00 2.339621e+00 2.326753e+00 2.269038e+00 2.140947e+00 1.937342e+00 1.674083e+00 1.397373e+00 1.180571e+00 1.064917e+00 1.000000e+00 1.006629e+00 -8.462608e-03 -2.421995e-04 8.182108e-03 1.673963e-02 2.526936e-02 3.273635e-02 3.488632e-02 2.762828e-02 1.694819e-02 8.482680e-03 3.553917e-03 1.383372e-03 4.357779e-04 -1.720523e-04 -5.835237e-04 -7.798543e-04 -8.283936e-04 -8.318220e-04 -8.477160e-04 -8.376568e-04 -7.372208e-04 -4.931494e-04 -2.433104e-04 1.701593e-18 -3.892494e-05 -1.067909e-03 -1.594187e-03 -2.128181e-03 -2.665435e-03 -3.064891e-03 -2.904084e-03 -1.585885e-03 -2.783605e-04 1.274104e-05 -5.834427e-06 -4.873074e-05 -5.752981e-05 -5.639914e-05 -3.251839e-05 -1.915280e-05 -1.478650e-05 -1.674349e-05 -1.727039e-05 -1.953386e-05 -1.636455e-05 -1.326001e-05 -7.678079e-06 -1.593880e-06 1.701593e-18 1.377462e-06
<VARIANCE> 75
 8.776183e-02 7.490857e-02 6.273318e-02 1.132272e-01 2.255178e-01 3.807614e-01 5.258949e-01 5.122840e-01 3.191589e-01 1.237830e-01 2.921041e-02 1.000000e-02 1.000000e-02 1.000000e-02 1.000000e-02 1.000000e-02 1.000000e-02 1.000000e-02 1.000000e-02 1.000000e-02 1.000000e-02 1.000000e-02 1.000000e-02 1.000000e-02 1.000000e-02 1.000000e-02 1.000000e-02 1.000000e-02 1.000000e-02 1.000000e-02 1.000000e-02 1.000000e-02 1.000000e-02 1.000000e-02 1.000000e-02 1.000000e-02 1.000000e-02 1.000000e-02 1.000000e-02 1.000000e-02 1.000000e-02 1.000000e-02 1.000000e-02 1.000000e-02 1.000000e-02 1.000000e-02 1.000000e-02 1.000000e-02 1.000000e-02 1.000000e-02 1.000000e-02 1.000000e-02 1.000000e-02 1.000000e-02 1.000000e-02 1.000000e-02 1.000000e-02 1.000000e-02 1.000000e-02 1.000000e-02 1.000000e-02 1.000000e-02 1.000000e-02 1.000000e-02 1.000000e-02 1.000000e-02 1.000000e-02 1.000000e-02 1.000000e-02 1.000000e-02 1.000000e-02 1.000000e-02 1.000000e-02 1.000000e-02 1.000000e-02
<GCONST> -1.773929e+02
<MIXTURE> 2 1.927636e-01
<MEAN> 75
 4.353097e+00 4.574179e+00 4.664953e+00 4.632290e+00 4.499012e+00 4.308918e+00 4.111859e+00 3.884779e+00 3.597366e+00 3.251970e+00 2.874125e+00 2.522058e+00 2.286159e+00 2.181361e+00 2.126651e+00 2.064685e+00 1.968848e+00 1.828972e+00 1.649351e+00 1.447941e+00 1.259350e+00 1.121505e+00 1.046383e+00 1.000000e+00 1.002892e+00 -7.812158e-03 4.534851e-03 1.648378e-02 2.743153e-02 3.520622e-02 3.325095e-02 2.583815e-02 2.259404e-02 2.063760e-02 1.787609e-02 1.383618e-02 8.431012e-03 3.207575e-03 6.421812e-04 -1.011103e-04 -3.170068e-04 -4.324430e-04 -5.109721e-04 -5.531925e-04 -6.043653e-04 -4.763339e-04 -3.486996e-04 -1.792611e-04 8.773574e-19 -5.747295e-05 -2.825261e-03 -3.625088e-03 -4.248347e-03 -4.422740e-03 -2.938654e-03 6.925872e-05 5.341411e-04 5.982579e-05 -8.044902e-05 -1.080869e-04 -7.968079e-05 -2.699450e-05 6.985805e-06 -1.922938e-05 -1.895636e-05 -4.009534e-06 -1.275134e-05 -5.101473e-06 -3.479017e-06 3.518721e-06 1.816041e-06 9.994724e-06 -1.573388e-06 8.773574e-19 -1.919524e-06
<VARIANCE> 75
 9.808986e-01 7.679436e-01 8.615556e-01 1.179436e+00 1.597332e+00 1.927527e+00 1.934503e+00 1.682967e+00 1.310113e+00 8.775976e-01 4.575591e-01 1.551915e-01 3.167255e-02 1.000000e-02 1.000000e-02 1.225730e-02 1.594209e-02 1.757944e-02 1.571952e-02 1.060810e-02 1.000000e-02 1.000000e-02 1.000000e-02 1.000000e-02 1.000000e-02 1.000000e-02 1.000000e-02 1.000000e-02 1.000000e-02 1.000000e-02 1.000000e-02 1.000000e-02 1.000000e-02 1.000000e-02 1.000000e-02 1.000000e-02 1.000000e-02 1.000000e-02 1.000000e-02 1.000000e-02 1.000000e-02 1.000000e-02 1.000000e-02 1.000000e-02 1.000000e-02 1.000000e-02 1.000000e-02 1.000000e-02 1.000000e-02 1.000000e-02 1.000000e-02 1.000000e-02 1.000000e-02 1.000000e-02 1.000000e-02 1.000000e-02 1.000000e-02 1.000000e-02 1.000000e-02 1.000000e-02 1.000000e-02 1.000000e-02 1.000000e-02 1.000000e-02 1.000000e-02 1.000000e-02 1.000000e-02 1.000000e-02 1.000000e-02 1.000000e-02 1.000000e-02 1.000000e-02 1.000000e-02 1.000000e-02 1.000000e-02
<GCONST> -1.498544e+02
<STATE> 4
<NUMMIXES> 2
<MIXTURE> 1 3.900683e-01
<MEAN> 75
 5.085539e+00 5.305483e+00 5.413661e+00 5.401700e+00 5.264496e+00 4.998025e+00 4.601444e+00 4.088836e+00 3.499774e+00 2.935216e+00 2.535744e+00 2.322137e+00 2.215240e+00 2.152831e+00 2.104255e+00 2.040940e+00 1.941367e+00 1.796912e+00 1.612803e+00 1.410341e+00 1.227279e+00 1.100793e+00 1.036645e+00 1.000000e+00 1.000464e+00 -1.458283e-02 -9.101818e-03 -3.713548e-03 1.602606e-03 6.986320e-03 1.239455e-02 1.733744e-02 2.071345e-02 2.095643e-02 1.489049e-02 6.503898e-03 1.754028e-03 2.310384e-04 -2.999481e-04 -5.409166e-04 -6.739282e-04 -7.564311e-04 -8.073622e-04 -8.329939e-04 -7.556971e-04 -5.785466e-04 -3.481348e-04 -1.538669e-04 -1.794344e-18 -8.677849e-06 1.754664e-04 -9.383508e-05 -3.726156e-04 -6.673185e-04 -9.482625e-04 -1.208813e-03 -1.326377e-03 -1.284083e-03 -9.250678e-04 -2.959959e-04 -5.874455e-05 -4.231026e-05 -2.700697e-05 -1.525666e-05 -7.986808e-06 -5.014853e-07 5.747280e-06 -1.337209e-06 6.361225e-06 3.459842e-06 7.106714e-06 3.335946e-06 1.983097e-07 -1.794344e-18 1.054356e-06
<VARIANCE> 75
 9.963166e-02 7.490857e-02 6.273318e-02 5.043118e-02 9.848417e-02 1.790370e-01 2.715639e-01 3.184516e-01 2.798397e-01 1.663988e-01 5.033763e-02 1.006185e-02 1.000000e-02 1.000000e-02 1.000000e-02 1.000000e-02 1.017892e-02 1.000000e-02 1.000000e-02 1.000000e-02 1.000000e-02 1.000000e-02 1.000000e-02 1.000000e-02 1.000000e-02 1.000000e-02 1.000000e-02 1.000000e-02 1.000000e-02 1.000000e-02 1.000000e-02 1.000000e-02 1.000000e-02 1.000000e-02 1.000000e-02 1.000000e-02 1.000000e-02 1.000000e-02 1.000000e-02 1.000000e-02 1.000000e-02 1.000000e-02 1.000000e-02 1.000000e-02 1.000000e-02 1.000000e-02 1.000000e-02 1.000000e-02 1.000000e-02 1.000000e-02 1.000000e-02 1.000000e-02 1.000000e-02 1.000000e-02 1.000000e-02 1.000000e-02 1.000000e-02 1.000000e-02 1.000000e-02 1.000000e-02 1.000000e-02 1.000000e-02 1.000000e-02 1.000000e-02 1.000000e-02 1.000000e-02 1.000000e-02 1.000000e-02 1.000000e-02 1.000000e-02 1.000000e-02 1.000000e-02 1.000000e-02 1.000000e-02 1.000000e-02
<GCONST> -1.800617e+02
<MIXTURE> 2 6.099283e-01
<MEAN> 75
 5.221543e+00 5.136607e+00 4.939156e+00 4.622739e+00 4.188925e+00 3.664388e+00 3.143770e+00 2.737715e+00 2.483571e+00 2.353434e+00 2.269674e+00 2.196051e+00 2.138531e+00 2.097605e+00 2.057394e+00 1.995233e+00 1.895635e+00 1.753662e+00 1.576185e+00 1.384524e+00 1.213885e+00 1.096427e+00 1.035586e+00 1.000000e+00 1.000324e+00 5.516281e-03 1.466075e-02 2.425744e-02 3.394180e-02 4.268247e-02 4.590710e-02 3.719709e-02 2.240798e-02 9.624486e-03 3.121424e-03 1.468559e-03 8.597355e-04 3.142465e-04 -1.381278e-04 -3.774158e-04 -4.922058e-04 -5.680268e-04 -6.265321e-04 -6.593591e-04 -6.396343e-04 -4.898156e-04 -3.143420e-04 -1.454159e-04 -3.895058e-18 -1.148336e-05 -1.906599e-03 -2.502136e-03 -3.069550e-03 -3.543404e-03 -3.547340e-03 -2.082735e-03 -2.544863e-05 6.659012e-04 5.280870e-04 1.210671e-04 -3.842006e-05 -4.014837e-05 -3.013898e-05 -1.662061e-05 -8.887804e-06 -6.167813e-06 -8.072823e-06 -4.468352e-06 -5.140524e-06 3.626187e-06 -3.630442e-06 -1.730245e-06 1.236412e-06 -3.895058e-18 6.587597e-07
<VARIANCE> 75
 2.171481e-01 2.428415e-01 2.914038e-01 3.588774e-01 4.292890e-01 4.577832e-01 3.442678e-01 1.403537e-01 2.546745e-02 1.000000e-02 1.000000e-02 1.000000e-02 1.000000e-02 1.000000e-02 1.000000e-02 1.000000e-02 1.000000e-02 1.000000e-02 1.000000e-02 1.000000e-02 1.000000e-02 1.000000e-02 1.000000e-02 1.000000e-02 1.000000e-02 1.000000e-02 1.000000e-02 1.000000e-02 1.000000e-02 1.000000e-02 1.000000e-02 1.000000e-02 1.000000e-02 1.000000e-02 1.000000e-02 1.000000e-02 1.000000e-02 1.000000e-02 1.000000e-02 1.000000e-02 1.000000e-02 1.000000e-02 1.000000e-02 1.000000e-02 1.000000e-02 1.000000e-02 1.000000e-02 1.000000e-02 1.000000e-02 1.000000e-02 1.000000e-02 1.000000e-02 1.000000e-02 1.000000e-02 1.000000e-02 1.000000e-02 1.000000e-02 1.000000e-02 1.000000e-02 1.000000e-02 1.000000e-02 1.000000e-02 1.000000e-02 1.000000e-02 1.000000e-02 1.000000e-02 1.000000e-02 1.000000e-02 1.000000e-02 1.000000e-02 1.000000e-02 1.000000e-02 1.000000e-02 1.000000e-02 1.000000e-02
<GCONST> -1.796280e+02
<TRANSP> 5
 0.000000e+00 1.000000e+00 0.000000e+00 0.000000e+00 0.000000e+00
 0.000000e+00 9.513407e-01 4.865928e-02 0.000000e+00 0.000000e+00
 0.000000e+00 0.000000e+00 9.090325e-01 9.096753e-02 0.000000e+00
 0.000000e+00 0.000000e+00 0.000000e+00 9.398832e-01 6.011683e-02
 0.000000e+00 0.000000e+00 0.000000e+00 0.000000e+00 0.000000e+00
<ENDHMM>
~h "ne"
<BEGINHMM>
<NUMSTATES> 5
<STATE> 2
<NUMMIXES> 2
<MIXTURE> 1 4.152057e-01
<MEAN> 75
 2.052203e+00 2.195675e+00 2.320997e+00 2.422215e+00 2.497458e+00 2.546750e+00 2.570740e+00 2.570942e+00 2.550339e+00 2.513200e+00 2.466348e+00 2.422374e+00 2.399483e+00 2.406534e+00 2.423137e+00 2.412304e+00 2.345222e+00 2.208062e+00 1.999762e+00 1.734490e+00 1.451823e+00 1.219283e+00 1.084837e+00 1.000000e+00 1.009927e+00 -3.530036e-04 -1.421133e-03 -1.545754e-03 -1.291047e-03 -1.038333e-03 -8.673855e-04 -7.531614e-04 -6.628722e-04 -6.558023e-04 -6.693603e-04 -7.090103e-04 -7.829046e-04 -8.748799e-04 -9.718749e-04 -1.069188e-03 -1.145947e-03 -1.226203e-03 -1.308528e-03 -1.358151e-03 -1.336172e-03 -1.162808e-03 -7.659996e-04 -3.928961e-04 -5.042503e-18 -6.750871e-05 5.429198e-04 2.539319e-04 2.877983e-05 -1.730298e-05 -1.349088e-05 -1.369152e-06 -2.546733e-06 1.890485e-06 5.130826e-06 5.470111e-06 1.043992e-06 -3.515014e-06 -9.422366e-06 -9.083152e-06 -7.971851e-06 -1.275670e-05 -1.160571e-05 -1.343175e-05 -1.175964e-05 -1.382065e-05 -8.686661e-06 -8.175097e-06 -2.504258e-06 -5.042503e-18 1.769605e-06
<VARIANCE> 75
 8.703106e-02 7.490857e-02 6.273318e-02 5.043118e-02 3.875412e-02 2.812354e-02 1.891963e-02 1.152333e-02 1.000000e-02 1.000000e-02 1.094930e-02 1.552665e-02 1.842454e-02 1.572047e-02 1.000000e-02 1.000000e-02 1.000000e-02 1.000000e-02 1.000000e-02 1.000000e-02 1.000000e-02 1.000000e-02 1.000000e-02 1.000000e-02 1.000000e-02 1.000000e-02 1.000000e-02 1.000000e-02 1.000000e-02 1.000000e-02 1.000000e-02 1.000000e-02 1.000000e-02 1.000000e-02 1.000000e-02 1.000000e-02 1.000000e-02 1.000000e-02 1.000000e-02 1.000000e-02 1.000000e-02 1.000000e-02 1.000000e-02 1.000000e-02 1.000000e-02 1.000000e-02 1.000000e-02 1.000000e-02 1.000000e-02 1.000000e-02 1.000000e-02 1.000000e-02 1.000000e-02 1.000000e-02 1.000000e-02 1.000000e-02 1.000000e-02 1.000000e-02 1.000000e-02 1.000000e-02 1.000000e-02 1.000000e-02 1.000000e-02 1.000000e-02 1.000000e-02 1.000000e-02 1.000000e-02 1.000000e-02 1.000000e-02 1.000000e-02 1.000000e-02 1.000000e-02 1.000000e-02 1.000000e-02 1.000000e-02
<GCONST> -1.951530e+02
<MIXTURE> 2 5.847886e-01
<MEAN> 75
 1.960153e+00 2.084633e+00 2.201485e+00 2.300976e+00 2.378186e+00 2.432193e+00 2.463061e+00 2.471099e+00 2.457186e+00 2.423507e+00 2.376017e+00 2.327877e+00 2.299769e+00 2.302575e+00 2.317523e+00 2.307423e+00 2.242405e+00 2.107924e+00 1.904105e+00 1.648625e+00 1.386125e+00 1.182209e+00 1.071087e+00 1.000000e+00 1.009739e+00 1.402296e-03 -8.131462e-04 -1.521090e-03 -1.321408e-03 -1.014194e-03 -7.873958e-04 -6.506226e-04 -5.529542e-04 -5.148970e-04 -5.112154e-04 -5.786290e-04 -6.346457e-04 -7.715918e-04 -9.111966e-04 -1.019495e-03 -1.105286e-03 -1.170782e-03 -1.249998e-03 -1.298183e-03 -1.231270e-03 -1.019478e-03 -6.478162e-04 -3.160767e-04 -5.671257e-17 -4.986592e-05 8.018058e-04 4.108936e-04 6.842345e-05 -1.672135e-05 -2.036923e-05 -3.600744e-06 4.037984e-06 7.102135e-06 8.136833e-06 8.416471e-06 1.177255e-05 4.557190e-06 1.874744e-06 -1.350938e-06 -5.480795e-06 -2.734428e-06 -5.155403e-06 -5.529153e-06 -1.558378e-07 1.307163e-06 2.037106e-06 -5.999189e-08 6.449240e-07 -5.671257e-17 -7.929671e-08
<VARIANCE> 75
 8.703106e-02 7.490857e-02 6.273318e-02 5.043118e-02 3.875412e-02 2.812354e-02 1.891963e-02 1.152333e-02 1.000000e-02 1.000000e-02 1.000000e-02 1.000000e-02 1.000000e-02 1.000000e-02 1.000000e-02 1.000000e-02 1.000000e-02 1.000000e-02 1.000000e-02 1.000000e-02 1.000000e-02 1.000000e-02 1.000000e-02 1.000000e-02 1.000000e-02 1.000000e-02 1.000000e-02 1.000000e-02 1.000000e-02 1.000000e-02 1.000000e-02 1.000000e-02 1.000000e-02 1.000000e-02 1.000000e-02 1.000000e-02 1.000000e-02 1.000000e-02 1.000000e-02 1.000000e-02 1.000000e-02 1.000000e-02 1.000000e-02 1.000000e-02 1.000000e-02 1.000000e-02 1.000000e-02 1.000000e-02 1.000000e-02 1.000000e-02 1.000000e-02 1.000000e-02 1.000000e-02 1.000000e-02 1.000000e-02 1.000000e-02 1.000000e-02 1.000000e-02 1.000000e-02 1.000000e-02 1.000000e-02 1.000000e-02 1.000000e-02 1.000000e-02 1.000000e-02 1.000000e-02 1.000000e-02 1.000000e-02 1.000000e-02 1.000000e-02 1.000000e-02 1.000000e-02 1.000000e-02 1.000000e-02 1.000000e-02
<GCONST> -1.967472e+02
<STATE> 3
<NUMMIXES> 2
<MIXTURE> 1 3.169325e-01
<MEAN> 75
 1.969572e+00 2.082096e+00 2.190114e+00 2.286563e+00 2.361721e+00 2.412958e+00 2.440074e+00 2.443641e+00 2.425038e+00 2.387907e+00 2.340507e+00 2.297756e+00 2.275806e+00 2.275183e+00 2.273142e+00 2.238918e+00 2.150286e+00 1.998099e+00 1.786400e+00 1.537714e+00 1.300312e+00 1.131986e+00 1.048071e+00 1.000000e+00 1.003795e+00 4.496504e-03 1.432747e-03 -8.671723e-04 -1.276654e-03 -1.064795e-03 -8.481992e-04 -7.032191e-04 -6.205642e-04 -5.755502e-04 -5.809997e-04 -6.252482e-04 -7.135853e-04 -8.267675e-04 -9.500970e-04 -1.040947e-03 -1.119465e-03 -1.194292e-03 -1.247059e-03 -1.261435e-03 -1.164618e-03 -9.003821e-04 -5.255960e-04 -2.340035e-04 -4.928284e-17 -4.347173e-05 9.388280e-04 9.247847e-04 4.282177e-04 6.528826e-05 -2.698172e-06 4.772273e-07 3.956664e-06 3.767040e-06 1.032925e-05 1.242910e-05 7.832359e-06 8.854079e-06 4.554735e-06 2.393530e-07 1.713907e-06 3.883973e-07 2.924015e-06 1.167475e-06 7.092293e-06 3.520733e-06 3.867257e-06 3.438849e-06 -1.028960e-08 -4.928284e-17 1.515585e-06
<VARIANCE> 75
 8.703106e-02 7.490857e-02 6.273318e-02 5.043118e-02 3.875412e-02 2.812354e-02 1.891963e-02 1.152333e-02 1.000000e-02 1.000000e-02 1.000000e-02 1.000000e-02 1.000000e-02 1.000000e-02 1.000000e-02 1.000000e-02 1.000000e-02 1.000000e-02 1.000000e-02 1.000000e-02 1.000000e-02 1.000000e-02 1.000000e-02 1.000000e-02 1.000000e-02 1.000000e-02 1.000000e-02 1.000000e-02 1.000000e-02 1.000000e-02 1.000000e-02 1.000000e-02 1.000000e-02 1.000000e-02 1.000000e-02 1.000000e-02 1.000000e-02 1.000000e-02 1.000000e-02 1.000000e-02 1.000000e-02 1.000000e-02 1.000000e-02 1.000000e-02 1.000000e-02 1.000000e-02 1.000000e-02 1.000000e-02 1.000000e-02 1.000000e-02 1.000000e-02 1.000000e-02 1.000000e-02 1.000000e-02 1.000000e-02 1.000000e-02 1.000000e-02 1.000000e-02 1.000000e-02 1.000000e-02 1.000000e-02 1.000000e-02 1.000000e-02 1.000000e-02 1.000000e-02 1.000000e-02 1.000000e-02 1.000000e-02 1.000000e-02 1.000000e-02 1.000000e-02 1.000000e-02 1.000000e-02 1.000000e-02 1.000000e-02
<GCONST> -1.967472e+02
<MIXTURE> 2 6.830520e-01
<MEAN> 75
 1.952346e+00 2.074978e+00 2.180767e+00 2.265708e+00 2.327649e+00 2.366366e+00 2.381876e+00 2.374907e+00 2.347619e+00 2.305216e+00 2.258282e+00 2.221981e+00 2.206333e+00 2.203835e+00 2.191427e+00 2.145121e+00 2.049690e+00 1.899846e+00 1.701381e+00 1.475712e+00 1.264787e+00 1.115903e+00 1.040498e+00 1.000000e+00 1.000308e+00 -1.092874e-03 -1.261486e-03 -1.280941e-03 -1.118393e-03 -1.004433e-03 -8.744151e-04 -8.104791e-04 -7.746931e-04 -7.626559e-04 -7.699815e-04 -8.168134e-04 -8.450228e-04 -9.287838e-04 -1.011351e-03 -1.090878e-03 -1.141871e-03 -1.229382e-03 -1.297053e-03 -1.279452e-03 -1.131597e-03 -8.517169e-04 -4.460840e-04 -2.303022e-04 2.390758e-17 -3.404813e-06 6.891044e-05 3.526683e-05 8.985176e-06 -1.344391e-05 -2.977067e-06 -9.738404e-06 -3.574940e-06 -1.190407e-06 -1.948242e-06 -7.672765e-06 1.150314e-05 -9.195217e-06 -8.214482e-06 -7.862117e-06 -9.032004e-06 -8.405686e-06 -1.753931e-05 2.388202e-06 6.053563e-06 -1.262954e-05 -7.782990e-06 -1.396359e-05 -3.742424e-07 2.390758e-17 3.147316e-07
<VARIANCE> 75
 8.703106e-02 7.490857e-02 6.273318e-02 5.043118e-02 3.875412e-02 2.812354e-02 1.891963e-02 1.152333e-02 1.000000e-02 1.000000e-02 1.000000e-02 1.000000e-02 1.000000e-02 1.000000e-02 1.000000e-02 1.000000e-02 1.000000e-02 1.000000e-02 1.000000e-02 1.000000e-02 1.000000e-02 1.000000e-02 1.000000e-02 1.000000e-02 1.000000e-02 1.000000e-02 1.000000e-02 1.000000e-02 1.000000e-02 1.000000e-02 1.000000e-02 1.000000e-02 1.000000e-02 1.000000e-02 1.000000e-02 1.000000e-02 1.000000e-02 1.000000e-02 1.000000e-02 1.000000e-02 1.000000e-02 1.000000e-02 1.000000e-02 1.000000e-02 1.000000e-02 1.000000e-02 1.000000e-02 1.000000e-02 1.000000e-02 1.000000e-02 1.000000e-02 1.000000e-02 1.000000e-02 1.000000e-02 1.000000e-02 1.000000e-02 1.000000e-02 1.000000e-02 1.000000e-02 1.000000e-02 1.000000e-02 1.000000e-02 1.000000e-02 1.000000e-02 1.000000e-02 1.000000e-02 1.000000e-02 1.000000e-02 1.000000e-02 1.000000e-02 1.000000e-02 1.000000e-02 1.000000e-02 1.000000e-02 1.000000e-02
<GCONST> -1.967472e+02
<STATE> 4
<NUMMIXES> 2
<MIXTURE> 1 4.369960e-01
<MEAN> 75
 1.959706e+00 2.065604e+00 2.159272e+00 2.236332e+00 2.291932e+00 2.324446e+00 2.333923e+00 2.321542e+00 2.290082e+00 2.245547e+00 2.198672e+00 2.162874e+00 2.145030e+00 2.136365e+00 2.116238e+00 2.064328e+00 1.968046e+00 1.823841e+00 1.638326e+00 1.432220e+00 1.243118e+00 1.109703e+00 1.040594e+00 1.000000e+00 1.002375e+00 1.778254e-03 3.283427e-04 -8.425250e-04 -1.081889e-03 -9.437599e-04 -7.973291e-04 -7.099368e-04 -6.568770e-04 -6.398891e-04 -6.687848e-04 -7.121329e-04 -7.929200e-04 -8.798395e-04 -9.660290e-04 -1.040842e-03 -1.118654e-03 -1.182931e-03 -1.217148e-03 -1.199711e-03 -1.075316e-03 -7.983081e-04 -4.631348e-04 -1.996985e-04 -1.430074e-18 -3.824881e-05 4.454112e-04 5.118496e-04 2.901849e-04 7.271414e-05 1.006897e-05 3.162743e-06 5.883834e-06 4.954790e-06 5.548245e-06 5.607778e-06 6.664956e-06 3.628882e-06 3.468668e-06 1.444055e-06 -7.961831e-07 -6.485016e-07 2.611049e-06 1.328497e-06 1.648174e-07 3.080284e-06 2.748684e-07 6.682603e-06 -6.642885e-07 -1.430074e-18 -6.499776e-07
<VARIANCE> 75
 8.703106e-02 7.490857e-02 6.273318e-02 5.043118e-02 3.875412e-02 2.812354e-02 1.891963e-02 1.152333e-02 1.000000e-02 1.000000e-02 1.000000e-02 1.000000e-02 1.000000e-02 1.000000e-02 1.000000e-02 1.000000e-02 1.000000e-02 1.000000e-02 1.000000e-02 1.000000e-02 1.000000e-02 1.000000e-02 1.000000e-02 1.000000e-02 1.000000e-02 1.000000e-02 1.000000e-02 1.000000e-02 1.000000e-02 1.000000e-02 1.000000e-02 1.000000e-02 1.000000e-02 1.000000e-02 1.000000e-02 1.000000e-02 1.000000e-02 1.000000e-02 1.000000e-02 1.000000e-02 1.000000e-02 1.000000e-02 1.000000e-02 1.000000e-02 1.000000e-02 1.000000e-02 1.000000e-02 1.000000e-02 1.000000e-02 1.000000e-02 1.000000e-02 1.000000e-02 1.000000e-02 1.000000e-02 1.000000e-02 1.000000e-02 1.000000e-02 1.000000e-02 1.000000e-02 1.000000e-02 1.000000e-02 1.000000e-02 1.000000e-02 1.000000e-02 1.000000e-02 1.000000e-02 1.000000e-02 1.000000e-02 1.000000e-02 1.000000e-02 1.000000e-02 1.000000e-02 1.000000e-02 1.000000e-02 1.000000e-02
<GCONST> -1.967472e+02
<MIXTURE> 2 5.629886e-01
<MEAN> 75
 1.894467e+00 2.000404e+00 2.099549e+00 2.182379e+00 2.242132e+00 2.276996e+00 2.287574e+00 2.275442e+00 2.243775e+00 2.198776e+00 2.151175e+00 2.113695e+00 2.092483e+00 2.078851e+00 2.053409e+00 1.997361e+00 1.899260e+00 1.756624e+00 1.577412e+00 1.383616e+00 1.211581e+00 1.094173e+00 1.034558e+00 1.000000e+00 1.000864e+00 2.012385e-03 -1.338583e-04 -1.099751e-03 -1.100417e-03 -8.616563e-04 -6.668539e-04 -5.395793e-04 -4.761874e-04 -4.701859e-04 -5.033608e-04 -5.846279e-04 -6.893140e-04 -7.983427e-04 -8.938528e-04 -9.798196e-04 -1.042268e-03 -1.101020e-03 -1.137268e-03 -1.108959e-03 -9.717490e-04 -6.977111e-04 -4.042549e-04 -1.902719e-04 6.033541e-17 -3.430463e-05 6.915338e-04 4.645433e-04 1.711148e-04 3.236978e-05 1.028770e-05 1.121535e-05 1.477422e-05 1.828165e-05 1.830349e-05 1.738516e-05 1.678298e-05 1.341252e-05 1.197191e-05 1.110445e-05 1.065591e-05 1.206255e-05 1.284632e-05 1.272743e-05 1.305737e-05 1.075241e-05 7.324289e-06 4.441846e-06 2.076771e-06 6.033541e-17 7.731651e-07
<VARIANCE> 75
 8.703106e-02 7.490857e-02 6.273318e-02 5.043118e-02 3.875412e-02 2.812354e-02 1.891963e-02 1.152333e-02 1.000000e-02 1.000000e-02 1.000000e-02 1.000000e-02 1.000000e-02 1.000000e-02 1.000000e-02 1.000000e-02 1.000000e-02 1.000000e-02 1.000000e-02 1.000000e-02 1.000000e-02 1.000000e-02 1.000000e-02 1.000000e-02 1.000000e-02 1.000000e-02 1.000000e-02 1.000000e-02 1.000000e-02 1.000000e-02 1.000000e-02 1.000000e-02 1.000000e-02 1.000000e-02 1.000000e-02 1.000000e-02 1.000000e-02 1.000000e-02 1.000000e-02 1.000000e-02 1.000000e-02 1.000000e-02 1.000000e-02 1.000000e-02 1.000000e-02 1.000000e-02 1.000000e-02 1.000000e-02 1.000000e-02 1.000000e-02 1.000000e-02 1.000000e-02 1.000000e-02 1.000000e-02 1.000000e-02 1.000000e-02 1.000000e-02 1.000000e-02 1.000000e-02 1.000000e-02 1.000000e-02 1.000000e-02 1.000000e-02 1.000000e-02 1.000000e-02 1.000000e-02 1.000000e-02 1.000000e-02 1.000000e-02 1.000000e-02 1.000000e-02 1.000000e-02 1.000000e-02 1.000000e-02 1.000000e-02
<GCONST> -1.967472e+02
<TRANSP> 5
 0.000000e+00 1.000000e+00 0.000000e+00 0.000000e+00 0.000000e+00
 0.000000e+00 9.626192e-01 3.738082e-02 0.000000e+00 0.000000e+00
 0.000000e+00 0.000000e+00 9.640648e-01 3.593525e-02 0.000000e+00
 0.000000e+00 0.000000e+00 0.000000e+00 9.842490e-01 1.575096e-02
 0.000000e+00 0.000000e+00 0.000000e+00 0.000000e+00 0.000000e+00
<ENDHMM>
