~o
<STREAMINFO> 1 75
<VECSIZE> 75<NULLD><USER_D_A><DIAGC>
~h "e"
<BEGINHMM>
<NUMSTATES> 5
<STATE> 2
<MEAN> 75
 3.116709e+00 3.135332e+00 3.118449e+00 3.070248e+00 2.997480e+00 2.907523e+00 2.804388e+00 2.691071e+00 2.573410e+00 2.459871e+00 2.359964e+00 2.282689e+00 2.234830e+00 2.213039e+00 2.196832e+00 2.157554e+00 2.073387e+00 1.934900e+00 1.745222e+00 1.522738e+00 1.305871e+00 1.142952e+00 1.054422e+00 1.000000e+00 1.004947e+00 2.201088e-02 2.118595e-02 1.968814e-02 1.757829e-02 1.501389e-02 1.231690e-02 9.747790e-03 7.337169e-03 5.131546e-03 3.256271e-03 1.808258e-03 7.648836e-04 3.746277e-05 -4.161331e-04 -6.534023e-04 -7.626266e-04 -8.201406e-04 -8.649818e-04 -8.936700e-04 -8.630761e-04 -7.145402e-04 -4.606153e-04 -2.263021e-04 0.000000e+00 -5.473488e-05 5.948601e-05 7.966770e-05 9.526033e-05 1.044360e-04 1.035806e-04 9.095157e-05 7.546886e-05 6.110079e-05 4.553706e-05 3.045768e-05 1.978926e-05 1.254130e-05 7.029907e-06 3.969404e-06 2.600800e-06 2.399164e-06 2.110895e-06 2.392946e-06 2.580960e-06 2.555773e-06 2.747991e-06 2.203307e-06 1.183038e-06 0.000000e+00 5.269808e-07
<VARIANCE> 75
 2.089263e+00 1.922339e+00 1.725327e+00 1.495442e+00 1.239364e+00 9.681678e-01 7.004858e-01 4.605783e-01 2.692786e-01 1.374234e-01 6.188957e-02 2.786315e-02 1.769304e-02 1.776198e-02 2.214129e-02 2.844518e-02 3.377311e-02 3.509020e-02 3.061905e-02 2.099811e-02 1.005636e-02 1.000000e-02 1.000000e-02 1.000000e-02 1.000000e-02 1.000000e-02 1.000000e-02 1.000000e-02 1.000000e-02 1.000000e-02 1.000000e-02 1.000000e-02 1.000000e-02 1.000000e-02 1.000000e-02 1.000000e-02 1.000000e-02 1.000000e-02 1.000000e-02 1.000000e-02 1.000000e-02 1.000000e-02 1.000000e-02 1.000000e-02 1.000000e-02 1.000000e-02 1.000000e-02 1.000000e-02 1.000000e-02 1.000000e-02 1.000000e-02 1.000000e-02 1.000000e-02 1.000000e-02 1.000000e-02 1.000000e-02 1.000000e-02 1.000000e-02 1.000000e-02 1.000000e-02 1.000000e-02 1.000000e-02 1.000000e-02 1.000000e-02 1.000000e-02 1.000000e-02 1.000000e-02 1.000000e-02 1.000000e-02 1.000000e-02 1.000000e-02 1.000000e-02 1.000000e-02 1.000000e-02 1.000000e-02
<GCONST> -1.532311e+02
<STATE> 3
<MEAN> 75
 3.266857e+00 3.278883e+00 3.250985e+00 3.187677e+00 3.096778e+00 2.987968e+00 2.867108e+00 2.737424e+00 2.605102e+00 2.479485e+00 2.370665e+00 2.287220e+00 2.235080e+00 2.210525e+00 2.192832e+00 2.152874e+00 2.068356e+00 1.929596e+00 1.739740e+00 1.517442e+00 1.301491e+00 1.140134e+00 1.053048e+00 1.000000e+00 1.004614e+00 2.233473e-02 2.165615e-02 2.027626e-02 1.824396e-02 1.568958e-02 1.291983e-02 1.025556e-02 7.755398e-03 5.447809e-03 3.462487e-03 1.932580e-03 8.393424e-04 7.883883e-05 -3.919532e-04 -6.373257e-04 -7.476268e-04 -8.067986e-04 -8.497841e-04 -8.775977e-04 -8.467256e-04 -6.978880e-04 -4.475694e-04 -2.192457e-04 0.000000e+00 -5.070609e-05 2.547305e-05 4.026127e-05 5.327743e-05 6.224524e-05 6.801853e-05 6.383096e-05 5.452473e-05 4.554046e-05 3.488661e-05 2.187555e-05 1.302823e-05 8.767021e-06 5.288254e-06 3.185855e-06 2.162231e-06 2.729185e-06 2.160171e-06 2.414009e-06 2.586877e-06 2.900013e-06 2.569950e-06 1.950976e-06 1.001514e-06 0.000000e+00 6.448515e-07
<VARIANCE> 75
 2.177596e+00 2.025404e+00 1.839584e+00 1.614608e+00 1.355578e+00 1.072603e+00 7.846918e-01 5.204232e-01 3.058398e-01 1.559875e-01 6.936432e-02 3.002365e-02 1.800996e-02 1.766410e-02 2.192485e-02 2.817938e-02 3.351748e-02 3.486979e-02 3.042072e-02 2.079908e-02 1.000000e-02 1.000000e-02 1.000000e-02 1.000000e-02 1.000000e-02 1.000000e-02 1.000000e-02 1.000000e-02 1.000000e-02 1.000000e-02 1.000000e-02 1.000000e-02 1.000000e-02 1.000000e-02 1.000000e-02 1.000000e-02 1.000000e-02 1.000000e-02 1.000000e-02 1.000000e-02 1.000000e-02 1.000000e-02 1.000000e-02 1.000000e-02 1.000000e-02 1.000000e-02 1.000000e-02 1.000000e-02 1.000000e-02 1.000000e-02 1.000000e-02 1.000000e-02 1.000000e-02 1.000000e-02 1.000000e-02 1.000000e-02 1.000000e-02 1.000000e-02 1.000000e-02 1.000000e-02 1.000000e-02 1.000000e-02 1.000000e-02 1.000000e-02 1.000000e-02 1.000000e-02 1.000000e-02 1.000000e-02 1.000000e-02 1.000000e-02 1.000000e-02 1.000000e-02 1.000000e-02 1.000000e-02 1.000000e-02
<GCONST> -1.521687e+02
<STATE> 4
<MEAN> 75
 3.974116e+00 3.918373e+00 3.805285e+00 3.641895e+00 3.443484e+00 3.232951e+00 3.026361e+00 2.828816e+00 2.648112e+00 2.494840e+00 2.374784e+00 2.287251e+00 2.230328e+00 2.199688e+00 2.177750e+00 2.135673e+00 2.049802e+00 1.909781e+00 1.718887e+00 1.496969e+00 1.284419e+00 1.129243e+00 1.047872e+00 1.000000e+00 1.003461e+00 2.388586e-02 2.428205e-02 2.364577e-02 2.189377e-02 1.909141e-02 1.563589e-02 1.220723e-02 9.022407e-03 6.085448e-03 3.593896e-03 1.825787e-03 7.518219e-04 8.584691e-05 -3.505577e-04 -5.947914e-04 -7.046780e-04 -7.616437e-04 -7.987008e-04 -8.216164e-04 -7.868707e-04 -6.394070e-04 -4.036839e-04 -1.951639e-04 0.000000e+00 -3.360345e-05 -3.483300e-04 -3.226543e-04 -2.861558e-04 -2.441496e-04 -1.875621e-04 -1.366920e-04 -9.691348e-05 -6.335374e-05 -3.633360e-05 -1.999106e-05 -1.318857e-05 -7.967456e-06 -3.087087e-06 6.014220e-08 1.686817e-06 3.509747e-06 4.660034e-06 3.268782e-06 4.708720e-06 4.836524e-06 4.694879e-06 2.454840e-06 1.378368e-06 0.000000e+00 7.601487e-07
<VARIANCE> 75
 2.004525e+00 1.944184e+00 1.840487e+00 1.679080e+00 1.453599e+00 1.161799e+00 8.297995e-01 5.155414e-01 2.706995e-01 1.186259e-01 4.742163e-02 2.314423e-02 1.673174e-02 1.690400e-02 2.084325e-02 2.685064e-02 3.209968e-02 3.344746e-02 2.901889e-02 1.950744e-02 1.000000e-02 1.000000e-02 1.000000e-02 1.000000e-02 1.000000e-02 1.000000e-02 1.000000e-02 1.000000e-02 1.000000e-02 1.000000e-02 1.000000e-02 1.000000e-02 1.000000e-02 1.000000e-02 1.000000e-02 1.000000e-02 1.000000e-02 1.000000e-02 1.000000e-02 1.000000e-02 1.000000e-02 1.000000e-02 1.000000e-02 1.000000e-02 1.000000e-02 1.000000e-02 1.000000e-02 1.000000e-02 1.000000e-02 1.000000e-02 1.000000e-02 1.000000e-02 1.000000e-02 1.000000e-02 1.000000e-02 1.000000e-02 1.000000e-02 1.000000e-02 1.000000e-02 1.000000e-02 1.000000e-02 1.000000e-02 1.000000e-02 1.000000e-02 1.000000e-02 1.000000e-02 1.000000e-02 1.000000e-02 1.000000e-02 1.000000e-02 1.000000e-02 1.000000e-02 1.000000e-02 1.000000e-02 1.000000e-02
<GCONST> -1.535057e+02
<TRANSP> 5
 0.000000e+00 1.000000e+00 0.000000e+00 0.000000e+00 0.000000e+00
 0.000000e+00 8.391516e-01 1.608485e-01 0.000000e+00 0.000000e+00
 0.000000e+00 0.000000e+00 8.391425e-01 1.608575e-01 0.000000e+00
 0.000000e+00 0.000000e+00 0.000000e+00 9.783888e-01 2.161117e-02
 0.000000e+00 0.000000e+00 0.000000e+00 0.000000e+00 0.000000e+00
<ENDHMM>
~h "ne"
<BEGINHMM>
<NUMSTATES> 5
<STATE> 2
<MEAN> 75
 2.108280e+00 2.214704e+00 2.302035e+00 2.370230e+00 2.419399e+00 2.447423e+00 2.453506e+00 2.438017e+00 2.403949e+00 2.356837e+00 2.306733e+00 2.267102e+00 2.248251e+00 2.245671e+00 2.238548e+00 2.201212e+00 2.116355e+00 1.976430e+00 1.784625e+00 1.557980e+00 1.333394e+00 1.159488e+00 1.062826e+00 1.000000e+00 1.006055e+00 1.389752e-04 3.361815e-04 2.685777e-04 2.376260e-04 1.438914e-04 1.931533e-04 1.122364e-04 5.076647e-05 -1.040889e-04 -3.011168e-04 -5.564201e-04 -5.786498e-04 -7.484092e-04 -8.564641e-04 -9.615570e-04 -9.641389e-04 -1.081413e-03 -1.222468e-03 -1.240478e-03 -1.045334e-03 -8.401233e-04 -4.724717e-04 -2.576125e-04 0.000000e+00 -5.779555e-05 -8.256496e-05 -8.861074e-05 -7.141093e-05 -5.883868e-05 -6.191301e-05 -4.916479e-05 -3.859819e-05 -3.374356e-05 -3.066234e-05 -4.420985e-05 6.715117e-06 -6.304938e-05 -6.076686e-05 -6.138805e-05 -8.049936e-05 -6.932866e-05 -8.781700e-05 -5.094053e-05 -2.799019e-05 -6.744279e-05 -5.676366e-05 -4.107071e-05 -2.174522e-05 0.000000e+00 6.210443e-07
<VARIANCE> 75
 1.962437e-01 1.780304e-01 1.624061e-01 1.474961e-01 1.296387e-01 1.077867e-01 8.385777e-02 6.056057e-02 4.072941e-02 2.625615e-02 1.735217e-02 1.301596e-02 1.185526e-02 1.299222e-02 1.612881e-02 2.040113e-02 2.384499e-02 2.463874e-02 2.173100e-02 1.550765e-02 1.000000e-02 1.000000e-02 1.000000e-02 1.000000e-02 1.000000e-02 1.000000e-02 1.000000e-02 1.000000e-02 1.000000e-02 1.000000e-02 1.000000e-02 1.000000e-02 1.000000e-02 1.000000e-02 1.000000e-02 1.000000e-02 1.000000e-02 1.000000e-02 1.000000e-02 1.000000e-02 1.000000e-02 1.000000e-02 1.000000e-02 1.000000e-02 1.000000e-02 1.000000e-02 1.000000e-02 1.000000e-02 1.000000e-02 1.000000e-02 1.000000e-02 1.000000e-02 1.000000e-02 1.000000e-02 1.000000e-02 1.000000e-02 1.000000e-02 1.000000e-02 1.000000e-02 1.000000e-02 1.000000e-02 1.000000e-02 1.000000e-02 1.000000e-02 1.000000e-02 1.000000e-02 1.000000e-02 1.000000e-02 1.000000e-02 1.000000e-02 1.000000e-02 1.000000e-02 1.000000e-02 1.000000e-02 1.000000e-02
<GCONST> -1.795517e+02
<STATE> 3
<MEAN> 75
 2.106709e+00 2.214114e+00 2.301379e+00 2.369227e+00 2.418171e+00 2.446431e+00 2.452330e+00 2.436500e+00 2.401669e+00 2.353539e+00 2.302469e+00 2.261946e+00 2.242195e+00 2.238971e+00 2.231203e+00 2.193506e+00 2.108017e+00 1.967641e+00 1.775799e+00 1.549856e+00 1.326803e+00 1.155622e+00 1.060604e+00 1.000000e+00 1.005716e+00 -7.948711e-06 1.750865e-04 1.983575e-04 1.363975e-04 8.642991e-05 1.040029e-04 6.913842e-05 -3.313921e-06 -1.456925e-04 -3.397568e-04 -5.256144e-04 -7.111308e-04 -8.679442e-04 -9.746825e-04 -1.071525e-03 -1.131488e-03 -1.220116e-03 -1.277372e-03 -1.285013e-03 -1.193235e-03 -9.687116e-04 -5.724211e-04 -3.289889e-04 0.000000e+00 -4.885067e-05 -2.016236e-05 -2.168587e-05 -8.604124e-06 -1.210639e-05 -4.364482e-06 -1.027745e-05 -3.811084e-06 -5.833344e-06 -3.586378e-06 -1.013286e-06 4.334890e-06 -1.376894e-05 -1.232218e-05 -1.235652e-05 -9.007365e-06 -1.944831e-05 -1.290213e-05 -4.029765e-06 -4.703486e-06 -1.639522e-05 -1.445741e-05 -1.163199e-05 -9.030832e-06 0.000000e+00 1.293835e-06
<VARIANCE> 75
 2.192296e-01 1.984033e-01 1.806105e-01 1.645323e-01 1.459511e-01 1.225332e-01 9.617444e-02 6.985576e-02 4.679130e-02 2.954174e-02 1.873945e-02 1.340399e-02 1.191535e-02 1.299718e-02 1.612645e-02 2.036989e-02 2.382463e-02 2.459124e-02 2.164633e-02 1.536875e-02 1.000000e-02 1.000000e-02 1.000000e-02 1.000000e-02 1.000000e-02 1.000000e-02 1.000000e-02 1.000000e-02 1.000000e-02 1.000000e-02 1.000000e-02 1.000000e-02 1.000000e-02 1.000000e-02 1.000000e-02 1.000000e-02 1.000000e-02 1.000000e-02 1.000000e-02 1.000000e-02 1.000000e-02 1.000000e-02 1.000000e-02 1.000000e-02 1.000000e-02 1.000000e-02 1.000000e-02 1.000000e-02 1.000000e-02 1.000000e-02 1.000000e-02 1.000000e-02 1.000000e-02 1.000000e-02 1.000000e-02 1.000000e-02 1.000000e-02 1.000000e-02 1.000000e-02 1.000000e-02 1.000000e-02 1.000000e-02 1.000000e-02 1.000000e-02 1.000000e-02 1.000000e-02 1.000000e-02 1.000000e-02 1.000000e-02 1.000000e-02 1.000000e-02 1.000000e-02 1.000000e-02 1.000000e-02 1.000000e-02
<GCONST> -1.782395e+02
<STATE> 4
<MEAN> 75
 2.013076e+00 2.119677e+00 2.212415e+00 2.287542e+00 2.342259e+00 2.375028e+00 2.385165e+00 2.373584e+00 2.342791e+00 2.297888e+00 2.248286e+00 2.207236e+00 2.185199e+00 2.178319e+00 2.165958e+00 2.123151e+00 2.032779e+00 1.888670e+00 1.696313e+00 1.476627e+00 1.270003e+00 1.121790e+00 1.044897e+00 1.000000e+00 1.002909e+00 1.830338e-03 1.263066e-03 8.517257e-04 5.672198e-04 3.487173e-04 1.721661e-04 9.593194e-06 -1.494333e-04 -3.023445e-04 -4.389923e-04 -5.666451e-04 -6.926580e-04 -8.160750e-04 -9.280742e-04 -1.020023e-03 -1.095930e-03 -1.160045e-03 -1.205924e-03 -1.200723e-03 -1.091135e-03 -8.286635e-04 -4.885489e-04 -2.264793e-04 0.000000e+00 -3.177881e-05 6.037501e-05 5.513478e-05 4.860607e-05 4.229196e-05 3.542050e-05 2.815879e-05 2.173946e-05 1.636737e-05 1.211655e-05 8.854365e-06 7.056279e-06 5.598210e-06 5.082937e-06 4.458770e-06 4.289579e-06 4.738269e-06 4.975508e-06 5.058047e-06 5.362581e-06 5.194258e-06 4.716803e-06 2.978757e-06 2.089110e-06 0.000000e+00 3.099104e-07
<VARIANCE> 75
 2.588332e-01 1.967629e-01 1.511537e-01 1.161290e-01 8.798287e-02 6.464001e-02 4.573689e-02 3.165514e-02 2.226280e-02 1.675794e-02 1.374179e-02 1.207235e-02 1.158564e-02 1.270210e-02 1.560719e-02 1.954442e-02 2.275263e-02 2.342207e-02 2.049481e-02 1.425024e-02 1.000000e-02 1.000000e-02 1.000000e-02 1.000000e-02 1.000000e-02 1.000000e-02 1.000000e-02 1.000000e-02 1.000000e-02 1.000000e-02 1.000000e-02 1.000000e-02 1.000000e-02 1.000000e-02 1.000000e-02 1.000000e-02 1.000000e-02 1.000000e-02 1.000000e-02 1.000000e-02 1.000000e-02 1.000000e-02 1.000000e-02 1.000000e-02 1.000000e-02 1.000000e-02 1.000000e-02 1.000000e-02 1.000000e-02 1.000000e-02 1.000000e-02 1.000000e-02 1.000000e-02 1.000000e-02 1.000000e-02 1.000000e-02 1.000000e-02 1.000000e-02 1.000000e-02 1.000000e-02 1.000000e-02 1.000000e-02 1.000000e-02 1.000000e-02 1.000000e-02 1.000000e-02 1.000000e-02 1.000000e-02 1.000000e-02 1.000000e-02 1.000000e-02 1.000000e-02 1.000000e-02 1.000000e-02 1.000000e-02
<GCONST> -1.833633e+02
<TRANSP> 5
 0.000000e+00 1.000000e+00 0.000000e+00 0.000000e+00 0.000000e+00
 0.000000e+00 8.515605e-01 1.484395e-01 0.000000e+00 0.000000e+00
 0.000000e+00 0.000000e+00 8.515607e-01 1.484393e-01 0.000000e+00
 0.000000e+00 0.000000e+00 0.000000e+00 9.901586e-01 9.841449e-03
 0.000000e+00 0.000000e+00 0.000000e+00 0.000000e+00 0.000000e+00
<ENDHMM>
