~o
<STREAMINFO> 1 75
<VECSIZE> 75<NULLD><USER_D_A><DIAGC>
~h "e"
<BEGINHMM>
<NUMSTATES> 5
<STATE> 2
<MEAN> 75
 1.363207e+00 2.079850e+00 2.281446e+00 2.431101e+00 2.510082e+00 2.531564e+00 2.545765e+00 2.529341e+00 2.497827e+00 2.451933e+00 2.354584e+00 2.249051e+00 2.207788e+00 2.217756e+00 2.247176e+00 2.233982e+00 2.135255e+00 1.973078e+00 1.775787e+00 1.591760e+00 1.419930e+00 1.245937e+00 1.116158e+00 1.026992e+00 1.015337e+00 1.733797e-03 1.606481e-03 -6.087971e-04 -2.391206e-03 -3.750003e-03 -3.578705e-03 -2.543982e-03 -1.768518e-03 -1.643520e-03 -1.287038e-03 -3.171296e-04 6.944448e-04 9.675930e-04 9.537036e-04 1.233796e-03 1.252315e-03 1.212963e-03 1.409722e-03 1.467592e-03 1.013889e-03 3.518518e-04 9.953763e-05 5.300923e-04 -5.092585e-05 2.314810e-05 2.303242e-04 -4.444444e-04 -6.259265e-04 -5.717594e-04 -3.842594e-04 -1.027778e-04 -4.583357e-05 -6.828698e-05 -1.708334e-04 -2.071761e-04 -1.581019e-04 -1.703704e-04 -1.861113e-04 -1.039352e-04 -7.847223e-05 -1.502314e-04 -1.236112e-04 -3.263879e-05 -1.763890e-04 -1.004629e-04 -2.935185e-04 5.601842e-05 -3.541667e-05 5.439814e-05 4.629608e-06
<VARIANCE> 75
 1.999224e-01 6.247803e-01 5.001605e-01 3.721787e-01 2.728300e-01 2.395055e-01 1.895571e-01 1.650165e-01 1.262849e-01 1.034555e-01 1.140289e-01 1.187209e-01 1.261645e-01 1.188918e-01 1.132942e-01 1.111820e-01 1.137010e-01 1.493350e-01 1.788118e-01 1.726011e-01 1.287404e-01 5.822875e-02 1.527761e-02 1.596965e-03 3.816500e-03 7.858001e-03 1.315734e-02 8.562178e-03 7.202021e-03 5.988087e-03 4.089366e-03 3.078545e-03 2.683230e-03 2.056564e-03 1.598857e-03 1.368045e-03 1.576709e-03 1.506255e-03 1.290629e-03 1.118964e-03 7.710387e-04 9.459044e-04 1.139627e-03 1.149571e-03 1.182413e-03 8.975355e-04 1.023196e-03 6.724594e-04 1.212960e-04 3.542703e-04 1.518223e-03 2.052825e-03 1.159840e-03 9.642935e-04 8.732249e-04 6.361549e-04 4.402208e-04 3.797588e-04 2.672720e-04 2.482812e-04 2.467925e-04 2.596336e-04 2.359031e-04 2.024466e-04 1.899456e-04 1.107850e-04 1.398948e-04 1.802955e-04 1.894966e-04 2.102599e-04 1.439518e-04 1.720699e-04 1.238439e-04 2.332965e-05 7.031522e-05
<GCONST> -2.826468e+02
<STATE> 3
<MEAN> 75
 1.363207e+00 2.079850e+00 2.281446e+00 2.431101e+00 2.510082e+00 2.531564e+00 2.545765e+00 2.529341e+00 2.497827e+00 2.451933e+00 2.354584e+00 2.249051e+00 2.207788e+00 2.217756e+00 2.247176e+00 2.233982e+00 2.135255e+00 1.973078e+00 1.775787e+00 1.591760e+00 1.419930e+00 1.245937e+00 1.116158e+00 1.026992e+00 1.015337e+00 1.733797e-03 1.606481e-03 -6.087971e-04 -2.391206e-03 -3.750003e-03 -3.578705e-03 -2.543982e-03 -1.768518e-03 -1.643520e-03 -1.287038e-03 -3.171296e-04 6.944448e-04 9.675930e-04 9.537036e-04 1.233796e-03 1.252315e-03 1.212963e-03 1.409722e-03 1.467592e-03 1.013889e-03 3.518518e-04 9.953763e-05 5.300923e-04 -5.092585e-05 2.314810e-05 2.303242e-04 -4.444444e-04 -6.259265e-04 -5.717594e-04 -3.842594e-04 -1.027778e-04 -4.583357e-05 -6.828698e-05 -1.708334e-04 -2.071761e-04 -1.581019e-04 -1.703704e-04 -1.861113e-04 -1.039352e-04 -7.847223e-05 -1.502314e-04 -1.236112e-04 -3.263879e-05 -1.763890e-04 -1.004629e-04 -2.935185e-04 5.601842e-05 -3.541667e-05 5.439814e-05 4.629608e-06
<VARIANCE> 75
 1.999224e-01 6.247803e-01 5.001605e-01 3.721787e-01 2.728300e-01 2.395055e-01 1.895571e-01 1.650165e-01 1.262849e-01 1.034555e-01 1.140289e-01 1.187209e-01 1.261645e-01 1.188918e-01 1.132942e-01 1.111820e-01 1.137010e-01 1.493350e-01 1.788118e-01 1.726011e-01 1.287404e-01 5.822875e-02 1.527761e-02 1.596965e-03 3.816500e-03 7.858001e-03 1.315734e-02 8.562178e-03 7.202021e-03 5.988087e-03 4.089366e-03 3.078545e-03 2.683230e-03 2.056564e-03 1.598857e-03 1.368045e-03 1.576709e-03 1.506255e-03 1.290629e-03 1.118964e-03 7.710387e-04 9.459044e-04 1.139627e-03 1.149571e-03 1.182413e-03 8.975355e-04 1.023196e-03 6.724594e-04 1.212960e-04 3.542703e-04 1.518223e-03 2.052825e-03 1.159840e-03 9.642935e-04 8.732249e-04 6.361549e-04 4.402208e-04 3.797588e-04 2.672720e-04 2.482812e-04 2.467925e-04 2.596336e-04 2.359031e-04 2.024466e-04 1.899456e-04 1.107850e-04 1.398948e-04 1.802955e-04 1.894966e-04 2.102599e-04 1.439518e-04 1.720699e-04 1.238439e-04 2.332965e-05 7.031522e-05
<GCONST> -2.826468e+02
<STATE> 4
<MEAN> 75
 1.363207e+00 2.079850e+00 2.281446e+00 2.431101e+00 2.510082e+00 2.531564e+00 2.545765e+00 2.529341e+00 2.497827e+00 2.451933e+00 2.354584e+00 2.249051e+00 2.207788e+00 2.217756e+00 2.247176e+00 2.233982e+00 2.135255e+00 1.973078e+00 1.775787e+00 1.591760e+00 1.419930e+00 1.245937e+00 1.116158e+00 1.026992e+00 1.015337e+00 1.733797e-03 1.606481e-03 -6.087971e-04 -2.391206e-03 -3.750003e-03 -3.578705e-03 -2.543982e-03 -1.768518e-03 -1.643520e-03 -1.287038e-03 -3.171296e-04 6.944448e-04 9.675930e-04 9.537036e-04 1.233796e-03 1.252315e-03 1.212963e-03 1.409722e-03 1.467592e-03 1.013889e-03 3.518518e-04 9.953763e-05 5.300923e-04 -5.092585e-05 2.314810e-05 2.303242e-04 -4.444444e-04 -6.259265e-04 -5.717594e-04 -3.842594e-04 -1.027778e-04 -4.583357e-05 -6.828698e-05 -1.708334e-04 -2.071761e-04 -1.581019e-04 -1.703704e-04 -1.861113e-04 -1.039352e-04 -7.847223e-05 -1.502314e-04 -1.236112e-04 -3.263879e-05 -1.763890e-04 -1.004629e-04 -2.935185e-04 5.601842e-05 -3.541667e-05 5.439814e-05 4.629608e-06
<VARIANCE> 75
 1.999224e-01 6.247803e-01 5.001605e-01 3.721787e-01 2.728300e-01 2.395055e-01 1.895571e-01 1.650165e-01 1.262849e-01 1.034555e-01 1.140289e-01 1.187209e-01 1.261645e-01 1.188918e-01 1.132942e-01 1.111820e-01 1.137010e-01 1.493350e-01 1.788118e-01 1.726011e-01 1.287404e-01 5.822875e-02 1.527761e-02 1.596965e-03 3.816500e-03 7.858001e-03 1.315734e-02 8.562178e-03 7.202021e-03 5.988087e-03 4.089366e-03 3.078545e-03 2.683230e-03 2.056564e-03 1.598857e-03 1.368045e-03 1.576709e-03 1.506255e-03 1.290629e-03 1.118964e-03 7.710387e-04 9.459044e-04 1.139627e-03 1.149571e-03 1.182413e-03 8.975355e-04 1.023196e-03 6.724594e-04 1.212960e-04 3.542703e-04 1.518223e-03 2.052825e-03 1.159840e-03 9.642935e-04 8.732249e-04 6.361549e-04 4.402208e-04 3.797588e-04 2.672720e-04 2.482812e-04 2.467925e-04 2.596336e-04 2.359031e-04 2.024466e-04 1.899456e-04 1.107850e-04 1.398948e-04 1.802955e-04 1.894966e-04 2.102599e-04 1.439518e-04 1.720699e-04 1.238439e-04 2.332965e-05 7.031522e-05
<GCONST> -2.826468e+02
<TRANSP> 5
 0.000000e+00 1.000000e+00 0.000000e+00 0.000000e+00 0.000000e+00
 0.000000e+00 6.000000e-01 4.000000e-01 0.000000e+00 0.000000e+00
 0.000000e+00 0.000000e+00 6.000000e-01 4.000000e-01 0.000000e+00
 0.000000e+00 0.000000e+00 0.000000e+00 7.000000e-01 3.000000e-01
 0.000000e+00 0.000000e+00 0.000000e+00 0.000000e+00 0.000000e+00
<ENDHMM>
~h "ne"
<BEGINHMM>
<NUMSTATES> 5
<STATE> 2
<MEAN> 75
 1.222695e+00 2.154029e+00 2.466430e+00 2.622886e+00 2.648668e+00 2.617826e+00 2.636587e+00 2.617700e+00 2.597712e+00 2.532173e+00 2.388915e+00 2.260267e+00 2.211028e+00 2.233380e+00 2.259030e+00 2.251430e+00 2.149553e+00 1.962613e+00 1.757815e+00 1.551705e+00 1.377208e+00 1.198107e+00 1.095799e+00 1.026112e+00 1.009905e+00 -1.836922e-03 1.423515e-02 2.378024e-02 1.574840e-02 2.013773e-04 -5.020265e-03 -5.964078e-03 -2.040665e-03 2.790264e-03 1.670611e-03 -4.519935e-04 2.768711e-03 2.485238e-03 -5.382058e-05 -1.679916e-03 -1.011809e-03 -2.526686e-03 -3.512246e-03 -3.206603e-04 -1.618862e-03 2.023252e-04 -1.686639e-03 2.947975e-03 -5.942768e-04 6.213398e-04 -2.623373e-04 -3.208875e-04 -1.457556e-04 -1.362267e-03 -1.321694e-04 1.716588e-04 -2.262527e-04 -5.053491e-04 -9.014495e-04 -1.624304e-03 -6.756656e-04 -8.593898e-04 -1.262373e-03 -3.671383e-04 8.030998e-05 -1.505704e-03 -2.025573e-03 -1.026398e-03 -2.706476e-03 -8.836841e-04 -1.137845e-03 1.849696e-03 -5.843867e-04 4.808014e-04 -1.250616e-05
<VARIANCE> 75
 1.098837e-01 4.760503e-01 3.389180e-01 2.745654e-01 2.314533e-01 2.484033e-01 1.749095e-01 1.577901e-01 1.661321e-01 1.142036e-01 8.418924e-02 7.778092e-02 7.301135e-02 7.889540e-02 8.389183e-02 9.142658e-02 9.518883e-02 1.395833e-01 1.795395e-01 1.423690e-01 6.888472e-02 1.896876e-02 6.652557e-03 9.442695e-04 4.345221e-04 2.888025e-03 1.144054e-02 1.020869e-02 5.214968e-03 2.629015e-03 1.931984e-03 1.452766e-03 1.357212e-03 1.379905e-03 1.312292e-03 1.104676e-03 8.076887e-04 9.423277e-04 4.781789e-04 6.365699e-04 4.892508e-04 7.309948e-04 8.484173e-04 7.507120e-04 9.006966e-04 8.140267e-04 6.973068e-04 4.701941e-04 1.044694e-04 4.885949e-05 4.874491e-04 1.733595e-03 8.133617e-04 3.687051e-04 2.856025e-04 2.868473e-04 1.756545e-04 1.490165e-04 1.644474e-04 1.471743e-04 1.149120e-04 1.052158e-04 1.439788e-04 6.371706e-05 1.231805e-04 6.726459e-05 1.052918e-04 1.304671e-04 1.028514e-04 1.283423e-04 1.438840e-04 1.468695e-04 7.099238e-05 1.654475e-05 9.817060e-06
<GCONST> -3.208422e+02
<STATE> 3
<MEAN> 75
 1.200153e+00 2.239642e+00 2.541395e+00 2.647070e+00 2.622092e+00 2.581089e+00 2.601684e+00 2.601018e+00 2.590878e+00 2.515653e+00 2.373169e+00 2.249566e+00 2.193491e+00 2.216214e+00 2.243651e+00 2.220713e+00 2.102883e+00 1.918667e+00 1.727617e+00 1.536416e+00 1.366681e+00 1.199056e+00 1.098450e+00 1.027423e+00 1.010907e+00 -3.497009e-03 1.148056e-02 8.139292e-03 6.119583e-04 -5.805086e-03 -6.473422e-03 -5.668682e-03 -3.198861e-03 -2.199727e-03 -3.630971e-03 -3.110986e-03 -2.282313e-03 -3.074228e-03 -2.793280e-03 -2.444675e-03 -4.837445e-03 -7.057154e-03 -6.541181e-03 -4.592864e-03 -2.112179e-03 -1.762965e-03 7.856072e-06 3.625924e-05 2.238770e-04 1.034277e-04 -1.582509e-04 -5.922712e-04 -2.623976e-03 -2.453144e-03 -1.197519e-03 -3.793870e-04 2.103980e-05 -1.789074e-04 -7.218988e-04 -6.612560e-04 -3.313876e-04 -7.255039e-04 -7.708842e-04 -4.060642e-04 -1.383473e-04 -4.489615e-04 -5.153459e-04 -3.562253e-04 -3.651699e-04 1.185050e-07 -1.947918e-04 9.037327e-05 -4.092512e-04 7.497783e-05 -7.371566e-05
<VARIANCE> 75
 1.002348e-01 4.632960e-01 2.813633e-01 2.585971e-01 2.491894e-01 2.487994e-01 1.822184e-01 1.822870e-01 1.674023e-01 1.118027e-01 8.194730e-02 7.582960e-02 8.545738e-02 8.921532e-02 9.515680e-02 1.101571e-01 1.204430e-01 1.597586e-01 1.889328e-01 1.436380e-01 6.488603e-02 1.678093e-02 6.949533e-03 1.101954e-03 4.580596e-04 3.634906e-03 1.032120e-02 6.213387e-03 3.993808e-03 3.400999e-03 3.049798e-03 2.252634e-03 1.742615e-03 1.720047e-03 1.394347e-03 1.066115e-03 9.209519e-04 1.084965e-03 6.677051e-04 7.444061e-04 5.984334e-04 1.015111e-03 1.044638e-03 6.759911e-04 8.430843e-04 6.168180e-04 6.568365e-04 4.754941e-04 1.041485e-04 5.180501e-05 6.271930e-04 1.549490e-03 6.485321e-04 3.786374e-04 4.149350e-04 4.641586e-04 2.758901e-04 1.976581e-04 2.146196e-04 1.908694e-04 1.538282e-04 1.447800e-04 1.955738e-04 1.047781e-04 1.205044e-04 8.540216e-05 1.695452e-04 1.702586e-04 1.097794e-04 1.688801e-04 1.120623e-04 1.218245e-04 8.863244e-05 2.004137e-05 1.062619e-05
<GCONST> -3.130262e+02
<STATE> 4
<MEAN> 75
 1.358498e+00 2.070554e+00 2.258152e+00 2.417917e+00 2.513171e+00 2.541530e+00 2.546007e+00 2.513451e+00 2.471767e+00 2.425685e+00 2.332968e+00 2.228848e+00 2.186129e+00 2.187276e+00 2.206877e+00 2.189382e+00 2.096436e+00 1.934698e+00 1.733509e+00 1.562148e+00 1.409146e+00 1.254259e+00 1.125546e+00 1.027901e+00 1.016799e+00 3.157909e-03 -1.257903e-03 -4.428831e-03 -5.274992e-03 -4.979802e-03 -4.027461e-03 -2.694068e-03 -2.223446e-03 -2.563793e-03 -1.872818e-03 -4.274916e-04 6.510678e-04 1.138816e-03 1.310156e-03 1.775920e-03 2.012020e-03 2.289391e-03 2.722559e-03 2.657319e-03 2.065738e-03 1.028107e-03 4.912749e-04 4.634274e-04 -5.025434e-05 -2.371577e-05 3.689634e-04 -5.892633e-04 -6.711176e-04 -5.041383e-04 -4.331812e-04 -1.224286e-04 -4.694979e-05 -4.330174e-05 -1.065246e-04 -9.597858e-05 -1.265457e-04 -9.637724e-05 -8.258302e-05 -7.752783e-05 -9.759713e-05 -3.710074e-05 4.375264e-05 7.044444e-05 1.719379e-05 -5.871455e-05 -2.751088e-04 -8.247725e-05 3.197256e-05 2.666506e-05 1.318046e-05
<VARIANCE> 75
 2.148547e-01 6.528960e-01 5.287006e-01 3.931011e-01 2.845016e-01 2.406440e-01 1.953737e-01 1.746476e-01 1.289504e-01 1.093809e-01 1.242610e-01 1.274099e-01 1.384295e-01 1.299002e-01 1.203813e-01 1.112385e-01 1.145545e-01 1.495781e-01 1.777181e-01 1.834554e-01 1.500540e-01 7.105009e-02 1.789952e-02 1.834179e-03 4.785751e-03 8.431504e-03 1.275651e-02 8.443532e-03 7.896125e-03 6.915128e-03 4.638119e-03 3.499450e-03 3.058734e-03 2.279829e-03 1.767699e-03 1.557286e-03 1.833283e-03 1.746597e-03 1.561290e-03 1.324636e-03 8.912397e-04 1.052771e-03 1.285535e-03 1.344754e-03 1.352774e-03 9.903732e-04 1.144325e-03 7.588149e-04 1.345022e-04 4.399340e-04 1.642778e-03 1.999020e-03 1.236865e-03 1.124056e-03 1.034049e-03 7.240205e-04 5.081855e-04 4.452292e-04 2.998626e-04 2.837508e-04 2.934393e-04 3.039644e-04 2.716705e-04 2.457163e-04 2.246309e-04 1.283223e-04 1.553433e-04 2.044687e-04 2.243233e-04 2.433691e-04 1.557343e-04 1.874143e-04 1.407874e-04 2.604951e-05 8.696246e-05
<GCONST> -2.746591e+02
<TRANSP> 5
 0.000000e+00 1.000000e+00 0.000000e+00 0.000000e+00 0.000000e+00
 0.000000e+00 8.489118e-01 1.510881e-01 0.000000e+00 0.000000e+00
 0.000000e+00 0.000000e+00 8.489116e-01 1.510884e-01 0.000000e+00
 0.000000e+00 0.000000e+00 0.000000e+00 9.879172e-01 1.208269e-02
 0.000000e+00 0.000000e+00 0.000000e+00 0.000000e+00 0.000000e+00
<ENDHMM>
