~o
<STREAMINFO> 1 75
<VECSIZE> 75<NULLD><USER_D_A><DIAGC>
~h "e"
<BEGINHMM>
<NUMSTATES> 5
<STATE> 2
<MEAN> 75
 3.104953e+00 3.124034e+00 3.108069e+00 3.061116e+00 2.989550e+00 2.900580e+00 2.798386e+00 2.685796e+00 2.569137e+00 2.457283e+00 2.359066e+00 2.282839e+00 2.235434e+00 2.214094e+00 2.198611e+00 2.160124e+00 2.076611e+00 1.938438e+00 1.748659e+00 1.525579e+00 1.307633e+00 1.143606e+00 1.054497e+00 1.000000e+00 1.004892e+00 2.196870e-02 2.111071e-02 1.959464e-02 1.748062e-02 1.491613e-02 1.221509e-02 9.641015e-03 7.222620e-03 5.015506e-03 3.158874e-03 1.745530e-03 7.366295e-04 2.776573e-05 -4.227040e-04 -6.600330e-04 -7.688286e-04 -8.258298e-04 -8.701487e-04 -8.980699e-04 -8.669846e-04 -7.177790e-04 -4.621398e-04 -2.274587e-04 0.000000e+00 -5.455899e-05 6.214366e-05 8.129432e-05 9.613008e-05 1.052151e-04 1.048508e-04 9.259916e-05 7.693449e-05 6.199240e-05 4.572273e-05 3.025739e-05 1.962376e-05 1.241073e-05 6.973057e-06 3.977304e-06 2.617567e-06 2.421254e-06 2.126518e-06 2.418630e-06 2.612260e-06 2.587196e-06 2.823796e-06 2.267166e-06 1.259567e-06 0.000000e+00 5.553854e-07
<VARIANCE> 75
 2.090041e+00 1.919882e+00 1.718904e+00 1.485056e+00 1.225882e+00 9.531500e-01 6.853783e-01 4.474876e-01 2.603743e-01 1.330009e-01 6.051697e-02 2.767434e-02 1.767149e-02 1.775131e-02 2.218275e-02 2.862854e-02 3.414198e-02 3.561877e-02 3.118635e-02 2.143871e-02 1.026772e-02 1.000000e-02 1.000000e-02 1.000000e-02 1.000000e-02 1.000000e-02 1.000000e-02 1.000000e-02 1.000000e-02 1.000000e-02 1.000000e-02 1.000000e-02 1.000000e-02 1.000000e-02 1.000000e-02 1.000000e-02 1.000000e-02 1.000000e-02 1.000000e-02 1.000000e-02 1.000000e-02 1.000000e-02 1.000000e-02 1.000000e-02 1.000000e-02 1.000000e-02 1.000000e-02 1.000000e-02 1.000000e-02 1.000000e-02 1.000000e-02 1.000000e-02 1.000000e-02 1.000000e-02 1.000000e-02 1.000000e-02 1.000000e-02 1.000000e-02 1.000000e-02 1.000000e-02 1.000000e-02 1.000000e-02 1.000000e-02 1.000000e-02 1.000000e-02 1.000000e-02 1.000000e-02 1.000000e-02 1.000000e-02 1.000000e-02 1.000000e-02 1.000000e-02 1.000000e-02 1.000000e-02 1.000000e-02
<GCONST> -1.533233e+02
<STATE> 3
<MEAN> 75
 3.254786e+00 3.267070e+00 3.239977e+00 3.177909e+00 3.088229e+00 2.980399e+00 2.860449e+00 2.731470e+00 2.600164e+00 2.476346e+00 2.369426e+00 2.287221e+00 2.235632e+00 2.211542e+00 2.194570e+00 2.155407e+00 2.071545e+00 1.933104e+00 1.743153e+00 1.520259e+00 1.303233e+00 1.140779e+00 1.053119e+00 1.000000e+00 1.004562e+00 2.231741e-02 2.159750e-02 2.019438e-02 1.815644e-02 1.560451e-02 1.283234e-02 1.016057e-02 7.648498e-03 5.333789e-03 3.364062e-03 1.868850e-03 8.107282e-04 6.910371e-05 -3.983689e-04 -6.437108e-04 -7.535624e-04 -8.122971e-04 -8.546324e-04 -8.817295e-04 -8.502560e-04 -7.006432e-04 -4.486418e-04 -2.197838e-04 0.000000e+00 -5.031348e-05 2.947695e-05 4.303140e-05 5.491731e-05 6.339117e-05 6.910574e-05 6.520680e-05 5.585627e-05 4.646661e-05 3.520110e-05 2.186560e-05 1.302248e-05 8.866110e-06 5.310664e-06 3.213706e-06 2.289251e-06 2.814439e-06 2.222322e-06 2.559887e-06 2.672783e-06 3.112827e-06 2.694270e-06 1.978667e-06 1.107918e-06 0.000000e+00 6.733138e-07
<VARIANCE> 75
 2.183219e+00 2.027315e+00 1.836643e+00 1.606500e+00 1.343164e+00 1.057658e+00 7.689965e-01 5.063701e-01 2.960076e-01 1.509432e-01 6.773695e-02 2.980110e-02 1.799599e-02 1.766158e-02 2.197246e-02 2.836551e-02 3.388784e-02 3.540073e-02 3.098825e-02 2.123832e-02 1.009184e-02 1.000000e-02 1.000000e-02 1.000000e-02 1.000000e-02 1.000000e-02 1.000000e-02 1.000000e-02 1.000000e-02 1.000000e-02 1.000000e-02 1.000000e-02 1.000000e-02 1.000000e-02 1.000000e-02 1.000000e-02 1.000000e-02 1.000000e-02 1.000000e-02 1.000000e-02 1.000000e-02 1.000000e-02 1.000000e-02 1.000000e-02 1.000000e-02 1.000000e-02 1.000000e-02 1.000000e-02 1.000000e-02 1.000000e-02 1.000000e-02 1.000000e-02 1.000000e-02 1.000000e-02 1.000000e-02 1.000000e-02 1.000000e-02 1.000000e-02 1.000000e-02 1.000000e-02 1.000000e-02 1.000000e-02 1.000000e-02 1.000000e-02 1.000000e-02 1.000000e-02 1.000000e-02 1.000000e-02 1.000000e-02 1.000000e-02 1.000000e-02 1.000000e-02 1.000000e-02 1.000000e-02 1.000000e-02
<GCONST> -1.522569e+02
<STATE> 4
<MEAN> 75
 3.960711e+00 3.904964e+00 3.792826e+00 3.631203e+00 3.434705e+00 3.225870e+00 3.020977e+00 2.824852e+00 2.645500e+00 2.493791e+00 2.375242e+00 2.288579e+00 2.231940e+00 2.201627e+00 2.180423e+00 2.139244e+00 2.054119e+00 1.914413e+00 1.723311e+00 1.500555e+00 1.286593e+00 1.130040e+00 1.047959e+00 1.000000e+00 1.003418e+00 2.413319e-02 2.446181e-02 2.377306e-02 2.199201e-02 1.917497e-02 1.569608e-02 1.223355e-02 9.007750e-03 6.037824e-03 3.539437e-03 1.791754e-03 7.463025e-04 8.755811e-05 -3.515225e-04 -5.959665e-04 -7.067241e-04 -7.639329e-04 -7.989195e-04 -8.225938e-04 -7.862271e-04 -6.394428e-04 -4.032000e-04 -1.933410e-04 0.000000e+00 -3.281935e-05 -3.430750e-04 -3.182301e-04 -2.822356e-04 -2.408558e-04 -1.854294e-04 -1.353869e-04 -9.490149e-05 -6.113019e-05 -3.495526e-05 -1.918900e-05 -1.286404e-05 -7.568745e-06 -2.953969e-06 -1.885519e-07 2.190040e-06 3.665226e-06 4.696827e-06 3.750877e-06 4.934940e-06 5.472993e-06 5.072879e-06 2.182757e-06 1.405595e-06 0.000000e+00 7.485911e-07
<VARIANCE> 75
 2.026956e+00 1.962252e+00 1.851606e+00 1.681957e+00 1.449273e+00 1.153338e+00 8.196518e-01 5.060763e-01 2.639968e-01 1.152960e-01 4.660326e-02 2.323064e-02 1.692861e-02 1.709786e-02 2.105382e-02 2.717600e-02 3.261669e-02 3.414832e-02 2.976414e-02 2.008641e-02 1.000000e-02 1.000000e-02 1.000000e-02 1.000000e-02 1.000000e-02 1.000000e-02 1.000000e-02 1.000000e-02 1.000000e-02 1.000000e-02 1.000000e-02 1.000000e-02 1.000000e-02 1.000000e-02 1.000000e-02 1.000000e-02 1.000000e-02 1.000000e-02 1.000000e-02 1.000000e-02 1.000000e-02 1.000000e-02 1.000000e-02 1.000000e-02 1.000000e-02 1.000000e-02 1.000000e-02 1.000000e-02 1.000000e-02 1.000000e-02 1.000000e-02 1.000000e-02 1.000000e-02 1.000000e-02 1.000000e-02 1.000000e-02 1.000000e-02 1.000000e-02 1.000000e-02 1.000000e-02 1.000000e-02 1.000000e-02 1.000000e-02 1.000000e-02 1.000000e-02 1.000000e-02 1.000000e-02 1.000000e-02 1.000000e-02 1.000000e-02 1.000000e-02 1.000000e-02 1.000000e-02 1.000000e-02 1.000000e-02
<GCONST> -1.534494e+02
<TRANSP> 5
 0.000000e+00 1.000000e+00 0.000000e+00 0.000000e+00 0.000000e+00
 0.000000e+00 8.391547e-01 1.608453e-01 0.000000e+00 0.000000e+00
 0.000000e+00 0.000000e+00 8.391454e-01 1.608547e-01 0.000000e+00
 0.000000e+00 0.000000e+00 0.000000e+00 9.783588e-01 2.164117e-02
 0.000000e+00 0.000000e+00 0.000000e+00 0.000000e+00 0.000000e+00
<ENDHMM>
~h "ne"
<BEGINHMM>
<NUMSTATES> 5
<STATE> 2
<MEAN> 75
 2.109692e+00 2.215327e+00 2.302064e+00 2.369946e+00 2.419052e+00 2.447043e+00 2.453159e+00 2.437709e+00 2.403793e+00 2.356977e+00 2.307074e+00 2.267461e+00 2.248519e+00 2.245991e+00 2.239129e+00 2.202178e+00 2.117720e+00 1.978119e+00 1.786483e+00 1.559760e+00 1.334780e+00 1.160241e+00 1.063047e+00 1.000000e+00 1.006081e+00 2.128169e-04 3.878848e-04 2.947520e-04 2.505217e-04 1.373039e-04 1.941992e-04 1.014223e-04 3.650063e-05 -1.172292e-04 -3.066407e-04 -5.660874e-04 -5.831232e-04 -7.440649e-04 -8.549535e-04 -9.624753e-04 -9.695412e-04 -1.081133e-03 -1.224702e-03 -1.239662e-03 -1.044429e-03 -8.393092e-04 -4.802973e-04 -2.602180e-04 0.000000e+00 -5.958945e-05 -8.053140e-05 -8.595983e-05 -7.116293e-05 -5.845955e-05 -6.050462e-05 -4.912843e-05 -3.831447e-05 -3.315512e-05 -3.200271e-05 -4.652608e-05 6.163252e-06 -6.254152e-05 -6.271532e-05 -6.227682e-05 -8.137125e-05 -6.712923e-05 -8.769483e-05 -5.157018e-05 -3.087827e-05 -6.819908e-05 -5.938025e-05 -4.090211e-05 -2.053682e-05 0.000000e+00 9.482539e-07
<VARIANCE> 75
 1.997237e-01 1.795427e-01 1.625569e-01 1.467386e-01 1.281945e-01 1.058470e-01 8.173213e-02 5.871071e-02 3.959111e-02 2.581492e-02 1.728937e-02 1.305648e-02 1.190430e-02 1.304101e-02 1.621989e-02 2.058418e-02 2.416831e-02 2.510522e-02 2.227273e-02 1.599257e-02 1.000000e-02 1.000000e-02 1.000000e-02 1.000000e-02 1.000000e-02 1.000000e-02 1.000000e-02 1.000000e-02 1.000000e-02 1.000000e-02 1.000000e-02 1.000000e-02 1.000000e-02 1.000000e-02 1.000000e-02 1.000000e-02 1.000000e-02 1.000000e-02 1.000000e-02 1.000000e-02 1.000000e-02 1.000000e-02 1.000000e-02 1.000000e-02 1.000000e-02 1.000000e-02 1.000000e-02 1.000000e-02 1.000000e-02 1.000000e-02 1.000000e-02 1.000000e-02 1.000000e-02 1.000000e-02 1.000000e-02 1.000000e-02 1.000000e-02 1.000000e-02 1.000000e-02 1.000000e-02 1.000000e-02 1.000000e-02 1.000000e-02 1.000000e-02 1.000000e-02 1.000000e-02 1.000000e-02 1.000000e-02 1.000000e-02 1.000000e-02 1.000000e-02 1.000000e-02 1.000000e-02 1.000000e-02 1.000000e-02
<GCONST> -1.795517e+02
<STATE> 3
<MEAN> 75
 2.108621e+00 2.215085e+00 2.301602e+00 2.369012e+00 2.417802e+00 2.446029e+00 2.451922e+00 2.436114e+00 2.401427e+00 2.353610e+00 2.302769e+00 2.262284e+00 2.242462e+00 2.239290e+00 2.231778e+00 2.194472e+00 2.109385e+00 1.969323e+00 1.777647e+00 1.551625e+00 1.328178e+00 1.156346e+00 1.060825e+00 1.000000e+00 1.005730e+00 7.212845e-05 2.362486e-04 2.338387e-04 1.495652e-04 8.326641e-05 9.776140e-05 5.643282e-05 -1.929813e-05 -1.641161e-04 -3.560057e-04 -5.351168e-04 -7.155379e-04 -8.691176e-04 -9.756428e-04 -1.072623e-03 -1.131763e-03 -1.220921e-03 -1.278981e-03 -1.287617e-03 -1.195025e-03 -9.720497e-04 -5.766404e-04 -3.287136e-04 0.000000e+00 -5.055275e-05 -1.993180e-05 -2.096552e-05 -7.433382e-06 -1.213999e-05 -3.958618e-06 -1.144609e-05 -4.113881e-06 -6.138930e-06 -4.261814e-06 -2.471655e-06 4.391618e-06 -1.386076e-05 -1.299492e-05 -1.265319e-05 -8.976916e-06 -1.884591e-05 -1.308088e-05 -3.870829e-06 -4.908410e-06 -1.672359e-05 -1.481852e-05 -1.104965e-05 -8.748242e-06 0.000000e+00 1.267402e-06
<VARIANCE> 75
 2.237207e-01 2.004550e-01 1.809163e-01 1.637180e-01 1.443320e-01 1.203211e-01 9.372292e-02 6.766800e-02 4.538694e-02 2.894895e-02 1.862183e-02 1.343398e-02 1.195916e-02 1.304428e-02 1.621060e-02 2.055066e-02 2.414689e-02 2.505281e-02 2.218195e-02 1.584721e-02 1.000000e-02 1.000000e-02 1.000000e-02 1.000000e-02 1.000000e-02 1.000000e-02 1.000000e-02 1.000000e-02 1.000000e-02 1.000000e-02 1.000000e-02 1.000000e-02 1.000000e-02 1.000000e-02 1.000000e-02 1.000000e-02 1.000000e-02 1.000000e-02 1.000000e-02 1.000000e-02 1.000000e-02 1.000000e-02 1.000000e-02 1.000000e-02 1.000000e-02 1.000000e-02 1.000000e-02 1.000000e-02 1.000000e-02 1.000000e-02 1.000000e-02 1.000000e-02 1.000000e-02 1.000000e-02 1.000000e-02 1.000000e-02 1.000000e-02 1.000000e-02 1.000000e-02 1.000000e-02 1.000000e-02 1.000000e-02 1.000000e-02 1.000000e-02 1.000000e-02 1.000000e-02 1.000000e-02 1.000000e-02 1.000000e-02 1.000000e-02 1.000000e-02 1.000000e-02 1.000000e-02 1.000000e-02 1.000000e-02
<GCONST> -1.782456e+02
<STATE> 4
<MEAN> 75
 2.012203e+00 2.119341e+00 2.212099e+00 2.287153e+00 2.341922e+00 2.374855e+00 2.385180e+00 2.373760e+00 2.343132e+00 2.298418e+00 2.248937e+00 2.207900e+00 2.185802e+00 2.178936e+00 2.166769e+00 2.124272e+00 2.034244e+00 1.890418e+00 1.698202e+00 1.478420e+00 1.271354e+00 1.122496e+00 1.045125e+00 1.000000e+00 1.002913e+00 1.777658e-03 1.243883e-03 8.429560e-04 5.538553e-04 3.324009e-04 1.575043e-04 -2.708728e-06 -1.611820e-04 -3.124381e-04 -4.472048e-04 -5.725247e-04 -6.954609e-04 -8.180881e-04 -9.297247e-04 -1.021574e-03 -1.097818e-03 -1.162597e-03 -1.207578e-03 -1.203101e-03 -1.093672e-03 -8.319306e-04 -4.907108e-04 -2.272943e-04 0.000000e+00 -3.197596e-05 5.923766e-05 5.440650e-05 4.827834e-05 4.221913e-05 3.541027e-05 2.804352e-05 2.169774e-05 1.633547e-05 1.206749e-05 8.814482e-06 6.949085e-06 5.601336e-06 5.008984e-06 4.419435e-06 4.265507e-06 4.665425e-06 4.655340e-06 5.041042e-06 5.436181e-06 5.328684e-06 4.690838e-06 2.988000e-06 2.001038e-06 0.000000e+00 3.268941e-07
<VARIANCE> 75
 2.574248e-01 1.952416e-01 1.495122e-01 1.145985e-01 8.674662e-02 6.362499e-02 4.497333e-02 3.110875e-02 2.198392e-02 1.671338e-02 1.383828e-02 1.221999e-02 1.173116e-02 1.283031e-02 1.573978e-02 1.973042e-02 2.303667e-02 2.382544e-02 2.097291e-02 1.466531e-02 1.000000e-02 1.000000e-02 1.000000e-02 1.000000e-02 1.000000e-02 1.000000e-02 1.000000e-02 1.000000e-02 1.000000e-02 1.000000e-02 1.000000e-02 1.000000e-02 1.000000e-02 1.000000e-02 1.000000e-02 1.000000e-02 1.000000e-02 1.000000e-02 1.000000e-02 1.000000e-02 1.000000e-02 1.000000e-02 1.000000e-02 1.000000e-02 1.000000e-02 1.000000e-02 1.000000e-02 1.000000e-02 1.000000e-02 1.000000e-02 1.000000e-02 1.000000e-02 1.000000e-02 1.000000e-02 1.000000e-02 1.000000e-02 1.000000e-02 1.000000e-02 1.000000e-02 1.000000e-02 1.000000e-02 1.000000e-02 1.000000e-02 1.000000e-02 1.000000e-02 1.000000e-02 1.000000e-02 1.000000e-02 1.000000e-02 1.000000e-02 1.000000e-02 1.000000e-02 1.000000e-02 1.000000e-02 1.000000e-02
<GCONST> -1.833393e+02
<TRANSP> 5
 0.000000e+00 1.000000e+00 0.000000e+00 0.000000e+00 0.000000e+00
 0.000000e+00 8.515345e-01 1.484655e-01 0.000000e+00 0.000000e+00
 0.000000e+00 0.000000e+00 8.515349e-01 1.484651e-01 0.000000e+00
 0.000000e+00 0.000000e+00 0.000000e+00 9.901420e-01 9.858005e-03
 0.000000e+00 0.000000e+00 0.000000e+00 0.000000e+00 0.000000e+00
<ENDHMM>
