~o
<STREAMINFO> 1 75
<VECSIZE> 75<NULLD><USER_D_A><DIAGC>
~h "e"
<BEGINHMM>
<NUMSTATES> 5
<STATE> 2
<MEAN> 75
 1.494484e+00 2.246441e+00 2.402435e+00 2.482810e+00 2.542072e+00 2.565734e+00 2.565140e+00 2.540953e+00 2.473587e+00 2.363082e+00 2.239379e+00 2.144571e+00 2.094158e+00 2.077436e+00 2.046952e+00 1.983038e+00 1.866475e+00 1.682128e+00 1.484334e+00 1.309707e+00 1.231457e+00 1.168079e+00 1.177662e+00 1.137171e+00 1.124010e+00 -2.650062e-04 4.509968e-03 5.173846e-03 4.626921e-03 3.804615e-03 2.417959e-03 8.870815e-04 6.596681e-04 5.251410e-04 2.557159e-04 2.593133e-04 1.546172e-04 -5.066422e-04 -5.152678e-04 -5.554357e-04 -3.031368e-04 -3.790201e-04 -1.860228e-04 -1.339005e-04 -5.052459e-04 -3.452842e-04 -2.025349e-04 -6.065061e-05 3.194910e-05 1.098680e-04 3.304782e-05 1.266873e-04 1.206207e-04 9.684725e-05 1.762574e-04 2.493758e-04 2.117959e-04 2.318067e-04 2.037489e-04 1.075573e-04 -6.856214e-06 4.019217e-05 4.860373e-04 1.120716e-04 6.028007e-05 -1.500878e-05 1.114767e-04 9.332604e-05 -5.642277e-05 -5.131706e-05 2.437067e-05 -7.424631e-07 -3.825845e-05 1.217541e-05 1.335031e-05
<VARIANCE> 75
 3.399884e-01 5.566300e-01 4.230769e-01 3.450488e-01 2.853806e-01 2.392553e-01 2.134907e-01 1.951076e-01 1.840195e-01 1.728865e-01 1.476256e-01 1.211908e-01 1.104005e-01 1.094303e-01 1.146502e-01 1.271517e-01 1.471405e-01 1.486216e-01 1.162342e-01 7.060909e-02 4.386981e-02 2.929237e-02 3.306039e-02 2.693563e-02 2.793999e-02 1.000000e-02 1.000000e-02 1.000000e-02 1.000000e-02 1.000000e-02 1.000000e-02 1.000000e-02 1.000000e-02 1.000000e-02 1.000000e-02 1.000000e-02 1.000000e-02 1.000000e-02 1.000000e-02 1.000000e-02 1.000000e-02 1.000000e-02 1.000000e-02 1.000000e-02 1.000000e-02 1.000000e-02 1.000000e-02 1.000000e-02 1.000000e-02 1.000000e-02 1.000000e-02 1.000000e-02 1.000000e-02 1.000000e-02 1.000000e-02 1.000000e-02 1.000000e-02 1.000000e-02 1.000000e-02 1.000000e-02 1.000000e-02 1.000000e-02 1.000000e-02 1.000000e-02 1.000000e-02 1.000000e-02 1.000000e-02 1.000000e-02 1.000000e-02 1.000000e-02 1.000000e-02 1.000000e-02 1.000000e-02 1.000000e-02 1.000000e-02
<GCONST> -1.438687e+02
<STATE> 3
<MEAN> 75
 1.494165e+00 2.276740e+00 2.436205e+00 2.512167e+00 2.566322e+00 2.582736e+00 2.573509e+00 2.547204e+00 2.478619e+00 2.366735e+00 2.243301e+00 2.148476e+00 2.097837e+00 2.078569e+00 2.047091e+00 1.982662e+00 1.866417e+00 1.682836e+00 1.484345e+00 1.308003e+00 1.230288e+00 1.167064e+00 1.177226e+00 1.137803e+00 1.125602e+00 -7.944454e-05 4.898175e-03 5.669368e-03 5.018742e-03 4.185468e-03 2.928148e-03 1.429848e-03 9.903316e-04 7.941134e-04 6.104605e-04 5.974796e-04 5.776105e-04 6.515695e-04 2.191266e-04 6.319475e-05 -6.331534e-05 -1.882163e-05 9.208639e-05 -2.760927e-05 -2.531828e-04 -2.059733e-04 -2.159722e-04 -1.482292e-04 2.952653e-05 1.847234e-04 4.213173e-05 4.066726e-05 5.530687e-05 4.722463e-05 4.107058e-05 5.953437e-05 7.006436e-05 3.606821e-05 2.983203e-05 5.291274e-05 6.087335e-05 6.346547e-05 1.401848e-04 1.153910e-04 1.043780e-04 4.788561e-05 5.189988e-05 4.190389e-05 2.651064e-05 4.872254e-05 2.036197e-05 -5.631102e-06 -1.589610e-05 -8.308549e-06 2.560116e-06
<VARIANCE> 75
 3.515764e-01 5.775322e-01 4.408397e-01 3.616974e-01 2.987522e-01 2.475286e-01 2.192902e-01 1.997053e-01 1.885805e-01 1.788427e-01 1.537305e-01 1.255853e-01 1.114141e-01 1.111720e-01 1.177796e-01 1.309735e-01 1.505107e-01 1.510894e-01 1.185241e-01 7.293269e-02 4.702233e-02 3.203348e-02 3.665179e-02 3.030807e-02 3.167009e-02 1.000000e-02 1.000000e-02 1.000000e-02 1.000000e-02 1.000000e-02 1.000000e-02 1.000000e-02 1.000000e-02 1.000000e-02 1.000000e-02 1.000000e-02 1.000000e-02 1.000000e-02 1.000000e-02 1.000000e-02 1.000000e-02 1.000000e-02 1.000000e-02 1.000000e-02 1.000000e-02 1.000000e-02 1.000000e-02 1.000000e-02 1.000000e-02 1.000000e-02 1.000000e-02 1.000000e-02 1.000000e-02 1.000000e-02 1.000000e-02 1.000000e-02 1.000000e-02 1.000000e-02 1.000000e-02 1.000000e-02 1.000000e-02 1.000000e-02 1.000000e-02 1.000000e-02 1.000000e-02 1.000000e-02 1.000000e-02 1.000000e-02 1.000000e-02 1.000000e-02 1.000000e-02 1.000000e-02 1.000000e-02 1.000000e-02 1.000000e-02
<GCONST> -1.427680e+02
<STATE> 4
<MEAN> 75
 1.474030e+00 2.392544e+00 2.563286e+00 2.619731e+00 2.650586e+00 2.641223e+00 2.604954e+00 2.563067e+00 2.488727e+00 2.378286e+00 2.261342e+00 2.166318e+00 2.113121e+00 2.091863e+00 2.060550e+00 1.991949e+00 1.875221e+00 1.694526e+00 1.495108e+00 1.313626e+00 1.227627e+00 1.159294e+00 1.167834e+00 1.131705e+00 1.123415e+00 -6.872445e-04 6.756795e-03 8.237046e-03 7.520722e-03 6.045244e-03 3.993276e-03 1.938093e-03 6.742475e-04 4.333012e-04 6.682788e-04 5.740082e-04 4.678525e-04 6.605687e-04 6.025345e-04 7.346359e-04 4.872243e-04 2.789366e-04 2.310614e-04 6.844993e-05 -4.163899e-05 -2.997599e-04 -5.186060e-04 -5.323860e-04 -3.767672e-04 -2.722474e-04 3.524948e-05 -2.775371e-05 -6.353931e-05 -3.449726e-05 -9.755217e-06 1.466570e-06 5.902766e-05 2.904044e-05 1.443226e-05 2.003533e-05 7.802397e-06 -3.708449e-05 -2.251700e-05 -2.201259e-05 3.516734e-05 7.776935e-06 -1.626976e-05 3.503436e-05 2.029324e-05 1.157365e-05 -7.407319e-06 -3.519517e-05 -2.126133e-05 -1.551074e-05 -3.747409e-05
<VARIANCE> 75
 3.840042e-01 6.515124e-01 4.993069e-01 4.231091e-01 3.444712e-01 2.709600e-01 2.291133e-01 2.021545e-01 1.920287e-01 1.851111e-01 1.642057e-01 1.328353e-01 1.122400e-01 1.124748e-01 1.245710e-01 1.405439e-01 1.588368e-01 1.582534e-01 1.269689e-01 8.066655e-02 5.231811e-02 3.426491e-02 4.026179e-02 3.342521e-02 3.586538e-02 1.000000e-02 1.000000e-02 1.000000e-02 1.000000e-02 1.000000e-02 1.000000e-02 1.000000e-02 1.000000e-02 1.000000e-02 1.000000e-02 1.000000e-02 1.000000e-02 1.000000e-02 1.000000e-02 1.000000e-02 1.000000e-02 1.000000e-02 1.000000e-02 1.000000e-02 1.000000e-02 1.000000e-02 1.000000e-02 1.000000e-02 1.000000e-02 1.000000e-02 1.000000e-02 1.000000e-02 1.000000e-02 1.000000e-02 1.000000e-02 1.000000e-02 1.000000e-02 1.000000e-02 1.000000e-02 1.000000e-02 1.000000e-02 1.000000e-02 1.000000e-02 1.000000e-02 1.000000e-02 1.000000e-02 1.000000e-02 1.000000e-02 1.000000e-02 1.000000e-02 1.000000e-02 1.000000e-02 1.000000e-02 1.000000e-02 1.000000e-02
<GCONST> -1.409087e+02
<TRANSP> 5
 0.000000e+00 1.000000e+00 0.000000e+00 0.000000e+00 0.000000e+00
 0.000000e+00 8.381577e-01 1.618422e-01 0.000000e+00 0.000000e+00
 0.000000e+00 0.000000e+00 8.381577e-01 1.618423e-01 0.000000e+00
 0.000000e+00 0.000000e+00 0.000000e+00 9.709780e-01 2.902207e-02
 0.000000e+00 0.000000e+00 0.000000e+00 0.000000e+00 0.000000e+00
<ENDHMM>
~h "ne"
<BEGINHMM>
<NUMSTATES> 5
<STATE> 2
<MEAN> 75
 1.467895e+00 1.906478e+00 2.021750e+00 2.085592e+00 2.149058e+00 2.198599e+00 2.222995e+00 2.213431e+00 2.168622e+00 2.096174e+00 2.028799e+00 1.990128e+00 1.975273e+00 1.963805e+00 1.925483e+00 1.844132e+00 1.716393e+00 1.558540e+00 1.418048e+00 1.294762e+00 1.237957e+00 1.179372e+00 1.177304e+00 1.128153e+00 1.114327e+00 -5.934376e-04 -2.784076e-03 -2.979250e-03 -2.032732e-03 -1.646742e-03 -1.177411e-03 -9.695383e-04 -7.856431e-04 -4.551448e-04 -3.510850e-04 -4.909384e-04 -8.458703e-04 -4.510352e-04 -4.858960e-04 -6.383238e-04 -2.785737e-04 -1.731031e-04 -1.137907e-04 -9.581867e-04 -8.329127e-04 -6.095658e-04 -6.027797e-04 -2.813555e-04 -1.613203e-04 -2.392654e-05 8.996730e-05 2.647151e-05 7.046277e-05 5.438108e-05 3.444118e-06 7.384035e-05 1.991201e-04 1.412228e-04 1.499413e-04 9.761154e-06 4.143211e-05 1.151335e-04 -5.329165e-07 3.720833e-05 1.683310e-04 -4.713884e-05 -2.555239e-04 -7.582377e-05 1.131114e-04 4.269834e-05 2.003147e-04 2.135481e-04 -2.378959e-05 1.571565e-05 -2.223782e-04
<VARIANCE> 75
 2.926463e-01 5.005289e-01 4.299650e-01 3.888689e-01 3.356778e-01 2.863612e-01 2.564557e-01 2.357331e-01 2.178129e-01 1.896769e-01 1.606224e-01 1.443432e-01 1.407929e-01 1.452281e-01 1.527321e-01 1.633538e-01 1.625974e-01 1.382412e-01 9.775420e-02 6.244690e-02 4.381920e-02 3.131490e-02 3.047854e-02 2.115064e-02 2.098599e-02 1.000000e-02 1.000000e-02 1.000000e-02 1.000000e-02 1.000000e-02 1.000000e-02 1.000000e-02 1.000000e-02 1.000000e-02 1.000000e-02 1.000000e-02 1.000000e-02 1.000000e-02 1.000000e-02 1.000000e-02 1.000000e-02 1.000000e-02 1.000000e-02 1.000000e-02 1.000000e-02 1.000000e-02 1.000000e-02 1.000000e-02 1.000000e-02 1.000000e-02 1.000000e-02 1.000000e-02 1.000000e-02 1.000000e-02 1.000000e-02 1.000000e-02 1.000000e-02 1.000000e-02 1.000000e-02 1.000000e-02 1.000000e-02 1.000000e-02 1.000000e-02 1.000000e-02 1.000000e-02 1.000000e-02 1.000000e-02 1.000000e-02 1.000000e-02 1.000000e-02 1.000000e-02 1.000000e-02 1.000000e-02 1.000000e-02 1.000000e-02
<GCONST> -1.425028e+02
<STATE> 3
<MEAN> 75
 1.467244e+00 1.891177e+00 2.007155e+00 2.077371e+00 2.142833e+00 2.195253e+00 2.221045e+00 2.212436e+00 2.168193e+00 2.096084e+00 2.028444e+00 1.989967e+00 1.976617e+00 1.965421e+00 1.926571e+00 1.844568e+00 1.715597e+00 1.558982e+00 1.417433e+00 1.294258e+00 1.237481e+00 1.179092e+00 1.176087e+00 1.127647e+00 1.112567e+00 -4.983536e-05 -2.240123e-03 -2.126334e-03 -1.188025e-03 -9.068895e-04 -4.958110e-04 -2.815535e-04 -1.333028e-04 -7.448716e-05 -2.402148e-05 -5.184743e-05 1.926367e-05 2.129842e-04 2.433895e-04 1.743647e-04 4.397846e-05 -1.354506e-04 5.247610e-05 -2.348354e-05 -1.702988e-06 -3.077259e-05 1.931852e-06 -1.821573e-04 -7.443500e-05 -2.873467e-04 7.047320e-05 9.089022e-05 1.348271e-04 1.261124e-04 1.151397e-04 9.682371e-05 8.830252e-05 9.202561e-05 4.809983e-05 5.157439e-05 6.372573e-05 1.245528e-04 1.057930e-04 1.123533e-04 1.130758e-04 5.903664e-05 3.453720e-05 3.751601e-05 1.330655e-04 1.230261e-04 7.075517e-05 7.445842e-05 1.878143e-05 1.020508e-05 -1.798015e-05
<VARIANCE> 75
 2.849731e-01 4.753628e-01 4.141118e-01 3.742302e-01 3.272101e-01 2.812558e-01 2.518765e-01 2.294500e-01 2.110785e-01 1.840596e-01 1.567546e-01 1.411648e-01 1.377067e-01 1.422384e-01 1.492843e-01 1.590500e-01 1.591729e-01 1.353458e-01 9.655920e-02 6.140666e-02 4.332598e-02 3.109801e-02 3.016649e-02 2.082650e-02 2.029056e-02 1.000000e-02 1.000000e-02 1.000000e-02 1.000000e-02 1.000000e-02 1.000000e-02 1.000000e-02 1.000000e-02 1.000000e-02 1.000000e-02 1.000000e-02 1.000000e-02 1.000000e-02 1.000000e-02 1.000000e-02 1.000000e-02 1.000000e-02 1.000000e-02 1.000000e-02 1.000000e-02 1.000000e-02 1.000000e-02 1.000000e-02 1.000000e-02 1.000000e-02 1.000000e-02 1.000000e-02 1.000000e-02 1.000000e-02 1.000000e-02 1.000000e-02 1.000000e-02 1.000000e-02 1.000000e-02 1.000000e-02 1.000000e-02 1.000000e-02 1.000000e-02 1.000000e-02 1.000000e-02 1.000000e-02 1.000000e-02 1.000000e-02 1.000000e-02 1.000000e-02 1.000000e-02 1.000000e-02 1.000000e-02 1.000000e-02 1.000000e-02
<GCONST> -1.430954e+02
<STATE> 4
<MEAN> 75
 1.493223e+00 1.788214e+00 1.896140e+00 1.978054e+00 2.053390e+00 2.115954e+00 2.155359e+00 2.158645e+00 2.127488e+00 2.074010e+00 2.024085e+00 1.998978e+00 1.994163e+00 1.984003e+00 1.943212e+00 1.860245e+00 1.731658e+00 1.577323e+00 1.441687e+00 1.319383e+00 1.260260e+00 1.196910e+00 1.192466e+00 1.140239e+00 1.123336e+00 1.898155e-04 -2.905247e-04 -5.042168e-04 -4.867573e-04 -3.978880e-04 -4.477930e-04 -3.328603e-04 -1.584099e-04 -8.353479e-05 2.402976e-05 8.663323e-05 1.316188e-04 1.675864e-04 1.926370e-04 2.445756e-04 2.271490e-04 2.617573e-04 2.692427e-04 2.844025e-04 2.714733e-04 1.274292e-04 8.895507e-05 7.067394e-05 5.944641e-05 5.761625e-05 3.870804e-06 5.251087e-05 2.997026e-05 2.135902e-05 4.077567e-05 2.593551e-05 1.886676e-05 2.044353e-05 -4.489275e-06 -1.128910e-06 -6.219598e-07 -7.234868e-06 -1.033678e-05 -2.912211e-06 -4.487717e-06 -1.964566e-05 -7.675741e-06 -1.321031e-05 -5.929362e-06 -3.019947e-06 -9.200260e-06 -4.306500e-07 2.863608e-06 1.248803e-05 5.393570e-06
<VARIANCE> 75
 2.576987e-01 3.937980e-01 3.451429e-01 3.102337e-01 2.751232e-01 2.439194e-01 2.223914e-01 2.061233e-01 1.909334e-01 1.690359e-01 1.452190e-01 1.336093e-01 1.357998e-01 1.443821e-01 1.536385e-01 1.627198e-01 1.635937e-01 1.438161e-01 1.073523e-01 7.314871e-02 5.201213e-02 3.698701e-02 3.520438e-02 2.463753e-02 2.381978e-02 1.000000e-02 1.000000e-02 1.000000e-02 1.000000e-02 1.000000e-02 1.000000e-02 1.000000e-02 1.000000e-02 1.000000e-02 1.000000e-02 1.000000e-02 1.000000e-02 1.000000e-02 1.000000e-02 1.000000e-02 1.000000e-02 1.000000e-02 1.000000e-02 1.000000e-02 1.000000e-02 1.000000e-02 1.000000e-02 1.000000e-02 1.000000e-02 1.000000e-02 1.000000e-02 1.000000e-02 1.000000e-02 1.000000e-02 1.000000e-02 1.000000e-02 1.000000e-02 1.000000e-02 1.000000e-02 1.000000e-02 1.000000e-02 1.000000e-02 1.000000e-02 1.000000e-02 1.000000e-02 1.000000e-02 1.000000e-02 1.000000e-02 1.000000e-02 1.000000e-02 1.000000e-02 1.000000e-02 1.000000e-02 1.000000e-02 1.000000e-02
<GCONST> -1.433577e+02
<TRANSP> 5
 0.000000e+00 1.000000e+00 0.000000e+00 0.000000e+00 0.000000e+00
 0.000000e+00 8.545511e-01 1.454488e-01 0.000000e+00 0.000000e+00
 0.000000e+00 0.000000e+00 8.545513e-01 1.454488e-01 0.000000e+00
 0.000000e+00 0.000000e+00 0.000000e+00 9.907565e-01 9.243519e-03
 0.000000e+00 0.000000e+00 0.000000e+00 0.000000e+00 0.000000e+00
<ENDHMM>
