~o
<STREAMINFO> 1 75
<VECSIZE> 75<NULLD><USER_D_A><DIAGC>
~h "e"
<BEGINHMM>
<NUMSTATES> 5
<STATE> 2
<MEAN> 75
 1.557461e+00 1.958060e+00 2.018774e+00 2.044473e+00 2.059453e+00 2.057321e+00 2.079429e+00 2.097421e+00 2.103161e+00 2.070926e+00 2.020653e+00 1.994403e+00 1.991704e+00 1.974005e+00 1.923545e+00 1.846534e+00 1.727845e+00 1.626788e+00 1.561810e+00 1.480022e+00 1.379380e+00 1.251180e+00 1.138218e+00 1.038545e+00 1.008639e+00 7.132147e-04 2.565538e-03 3.422466e-03 4.138713e-03 3.232413e-03 2.800821e-03 1.649167e-03 1.603032e-03 1.891609e-03 1.323728e-03 -8.038063e-05 -3.016000e-05 6.126750e-04 7.902106e-04 1.774900e-03 1.308113e-03 7.207174e-04 1.747919e-03 1.747958e-03 6.324774e-04 1.030605e-03 -6.190846e-04 1.141452e-03 3.350342e-04 -1.078554e-04 -5.966991e-04 -2.621797e-04 2.177453e-04 4.353351e-05 -5.200053e-05 1.599825e-04 -8.665590e-05 2.121871e-04 -1.024556e-04 -2.777511e-04 1.326023e-04 3.573794e-04 1.459140e-04 1.295192e-04 -7.563516e-05 1.016751e-04 2.274078e-05 -1.362345e-04 1.372379e-05 1.822970e-05 6.162043e-05 5.698084e-04 -5.420014e-05 -1.626531e-04 4.293987e-05
<VARIANCE> 75
 3.114657e-01 3.146602e-01 2.777418e-01 2.519181e-01 2.096421e-01 1.869888e-01 1.867971e-01 1.825208e-01 1.596520e-01 1.138361e-01 8.048017e-02 7.707182e-02 8.807129e-02 1.151030e-01 1.534710e-01 2.106754e-01 2.271834e-01 2.195926e-01 2.039411e-01 1.651475e-01 1.027469e-01 4.608901e-02 1.788613e-02 2.544057e-03 7.191896e-04 7.236417e-03 4.834402e-03 3.950618e-03 3.637067e-03 3.025054e-03 2.453907e-03 1.989618e-03 1.568543e-03 1.466696e-03 1.309857e-03 1.211267e-03 1.269262e-03 1.212265e-03 1.090614e-03 1.092165e-03 1.086097e-03 1.167260e-03 1.224015e-03 1.136168e-03 9.687603e-04 9.409143e-04 9.087942e-04 7.491372e-04 1.621024e-04 6.500582e-05 1.286478e-03 7.802017e-04 6.295685e-04 5.905993e-04 4.891134e-04 4.046345e-04 3.131749e-04 2.476532e-04 2.300232e-04 2.165617e-04 2.075631e-04 2.156227e-04 2.098690e-04 1.869976e-04 1.871480e-04 1.891519e-04 2.117893e-04 2.138668e-04 2.029163e-04 1.725152e-04 1.664417e-04 1.679821e-04 1.404113e-04 5.000000e-05 5.000000e-05
<GCONST> -2.947130e+02
<STATE> 3
<MEAN> 75
 1.558808e+00 1.966879e+00 2.035156e+00 2.063133e+00 2.073882e+00 2.072514e+00 2.089385e+00 2.105318e+00 2.107771e+00 2.072461e+00 2.021778e+00 1.997689e+00 1.995411e+00 1.978758e+00 1.931099e+00 1.852481e+00 1.732501e+00 1.633212e+00 1.568920e+00 1.485919e+00 1.385831e+00 1.254943e+00 1.141810e+00 1.038782e+00 1.008510e+00 1.882211e-04 1.522094e-03 2.844487e-03 3.293158e-03 2.597881e-03 2.527369e-03 1.724272e-03 1.513633e-03 9.354365e-04 4.405744e-04 5.447620e-04 8.875036e-04 7.922952e-04 8.971910e-04 1.186527e-03 8.865932e-04 7.867300e-04 9.975281e-04 1.146158e-03 1.037820e-03 1.028477e-03 7.961621e-04 4.597839e-04 1.990468e-05 -6.501874e-06 -2.429022e-05 -1.870941e-04 -1.253821e-04 -1.625491e-04 -1.230799e-04 -9.245413e-05 -2.769668e-05 -6.462605e-05 -1.499565e-04 -1.001449e-04 1.015078e-04 9.175402e-05 1.395348e-05 -2.227040e-06 -1.011818e-04 -7.457257e-05 1.688330e-05 -1.104744e-04 -8.979230e-05 6.442518e-05 -2.117894e-05 1.631657e-04 -1.295741e-04 -2.690682e-05 1.062195e-05
<VARIANCE> 75
 3.133939e-01 3.152670e-01 2.790747e-01 2.524350e-01 2.101377e-01 1.880029e-01 1.861206e-01 1.813550e-01 1.587731e-01 1.130250e-01 8.095409e-02 7.793880e-02 8.988920e-02 1.163243e-01 1.534831e-01 2.121566e-01 2.323508e-01 2.233389e-01 2.065523e-01 1.675979e-01 1.062715e-01 4.908948e-02 1.926863e-02 2.503117e-03 7.532332e-04 7.329421e-03 4.808557e-03 3.970162e-03 3.776171e-03 3.208461e-03 2.409317e-03 2.011619e-03 1.598119e-03 1.462777e-03 1.307152e-03 1.264918e-03 1.306607e-03 1.222374e-03 1.097815e-03 1.105259e-03 1.099625e-03 1.190864e-03 1.224940e-03 1.154810e-03 9.882239e-04 9.474216e-04 8.893718e-04 7.597783e-04 1.653885e-04 6.984591e-05 1.420140e-03 7.915616e-04 6.328888e-04 6.061821e-04 5.172473e-04 4.130274e-04 3.197067e-04 2.542272e-04 2.338597e-04 2.258387e-04 2.185037e-04 2.243833e-04 2.167260e-04 1.918869e-04 1.957533e-04 1.928501e-04 2.180967e-04 2.212857e-04 2.097341e-04 1.766832e-04 1.673529e-04 1.652331e-04 1.443395e-04 5.000000e-05 5.000000e-05
<GCONST> -2.933379e+02
<STATE> 4
<MEAN> 75
 1.528397e+00 1.896247e+00 1.973082e+00 2.012363e+00 2.018376e+00 2.018805e+00 2.039003e+00 2.063813e+00 2.072253e+00 2.050725e+00 2.018738e+00 1.999746e+00 1.992724e+00 1.972858e+00 1.933024e+00 1.863003e+00 1.752427e+00 1.663255e+00 1.599690e+00 1.514745e+00 1.413640e+00 1.282604e+00 1.161671e+00 1.046782e+00 1.008630e+00 -1.415142e-03 -1.372299e-03 -7.655201e-04 2.135954e-04 4.386663e-05 9.073709e-05 -1.132834e-04 2.726023e-04 2.202789e-04 5.188253e-04 9.864330e-04 7.407006e-04 6.444620e-04 4.886728e-04 4.070387e-04 3.694396e-04 5.719062e-04 6.997130e-04 9.271476e-04 9.358609e-04 7.537171e-04 7.615208e-04 2.858163e-04 1.716570e-04 -2.677336e-05 -5.699297e-05 -1.719960e-04 -9.705288e-05 -1.906282e-04 -2.348041e-04 -9.295787e-05 -1.194362e-04 -3.541131e-05 -3.606732e-05 1.510568e-05 6.799443e-05 -3.416286e-05 3.284913e-05 3.526647e-05 -3.633041e-05 3.975538e-05 7.022693e-05 -5.184498e-06 7.291760e-05 6.868746e-05 4.959343e-05 -2.258552e-05 1.569465e-05 4.484920e-05 -1.064824e-05
<VARIANCE> 75
 2.858712e-01 3.456491e-01 2.904044e-01 2.293983e-01 1.766974e-01 1.555346e-01 1.561674e-01 1.523800e-01 1.426497e-01 1.135111e-01 8.798995e-02 8.613477e-02 9.902820e-02 1.212887e-01 1.657660e-01 2.280932e-01 2.427545e-01 2.244264e-01 1.959682e-01 1.571423e-01 1.029646e-01 5.306447e-02 2.381149e-02 3.395883e-03 8.897153e-04 7.237011e-03 5.103334e-03 3.939938e-03 3.681291e-03 3.095436e-03 2.175240e-03 1.772311e-03 1.358175e-03 1.286779e-03 1.129868e-03 1.116039e-03 1.141836e-03 1.028379e-03 9.335150e-04 9.847502e-04 9.382093e-04 1.055138e-03 1.057248e-03 1.005909e-03 9.347912e-04 8.820437e-04 8.594177e-04 7.443334e-04 2.105300e-04 8.835048e-05 1.459075e-03 8.817625e-04 6.190955e-04 5.898555e-04 4.989604e-04 3.830932e-04 2.921844e-04 2.192911e-04 2.052049e-04 1.899076e-04 1.840813e-04 1.904445e-04 1.793446e-04 1.596126e-04 1.775390e-04 1.618965e-04 1.913405e-04 1.894266e-04 1.797505e-04 1.658796e-04 1.545171e-04 1.562611e-04 1.386456e-04 5.000000e-05 5.000000e-05
<GCONST> -2.969735e+02
<TRANSP> 5
 0.000000e+00 1.000000e+00 0.000000e+00 0.000000e+00 0.000000e+00
 0.000000e+00 8.354592e-01 1.645408e-01 0.000000e+00 0.000000e+00
 0.000000e+00 0.000000e+00 8.354596e-01 1.645404e-01 0.000000e+00
 0.000000e+00 0.000000e+00 0.000000e+00 9.710764e-01 2.892368e-02
 0.000000e+00 0.000000e+00 0.000000e+00 0.000000e+00 0.000000e+00
<ENDHMM>
~h "ne"
<BEGINHMM>
<NUMSTATES> 5
<STATE> 2
<MEAN> 75
 1.316579e+00 1.704867e+00 1.804687e+00 1.908128e+00 2.003783e+00 2.076688e+00 2.144793e+00 2.173339e+00 2.167896e+00 2.138049e+00 2.101051e+00 2.076632e+00 2.068494e+00 2.055306e+00 2.010622e+00 1.930713e+00 1.812864e+00 1.679283e+00 1.550958e+00 1.428266e+00 1.324311e+00 1.218281e+00 1.133386e+00 1.041221e+00 1.008065e+00 1.116812e-03 -2.491118e-03 -1.893723e-03 -1.312560e-03 -8.455332e-04 -7.418170e-04 -7.672063e-06 7.686346e-04 1.487234e-03 3.258633e-04 -4.646874e-04 -8.105445e-04 -2.122737e-03 -1.897434e-03 -3.207277e-03 -3.426379e-03 -3.556402e-03 -3.463034e-03 -2.924740e-03 -2.408137e-03 -1.801684e-03 -7.755859e-04 -1.752532e-03 4.467652e-05 -9.385992e-06 1.767890e-04 2.680696e-04 5.455824e-04 -1.111728e-04 1.418887e-04 3.901090e-04 -1.836814e-04 1.957064e-04 2.114358e-04 3.087478e-04 1.199956e-04 -1.396729e-04 3.182945e-04 4.960114e-06 4.974429e-04 2.252268e-04 2.377334e-04 4.068967e-06 1.658583e-04 2.131855e-04 3.694328e-04 2.282257e-04 3.191800e-04 -2.332716e-04 3.002346e-05
<VARIANCE> 75
 1.899708e-01 4.529574e-01 4.199282e-01 3.530608e-01 2.851437e-01 2.461233e-01 2.120777e-01 2.009630e-01 1.942591e-01 1.655819e-01 1.346463e-01 1.214994e-01 1.206889e-01 1.302125e-01 1.466069e-01 1.763891e-01 1.976882e-01 1.816843e-01 1.438203e-01 1.039388e-01 6.863836e-02 3.875612e-02 2.129208e-02 3.295434e-03 7.209682e-04 6.257130e-03 6.800603e-03 5.464865e-03 3.980591e-03 2.758811e-03 2.144785e-03 1.496264e-03 1.313888e-03 1.355233e-03 1.362986e-03 1.311220e-03 1.430762e-03 1.520933e-03 1.721536e-03 1.445708e-03 1.257109e-03 1.263835e-03 1.330092e-03 1.158803e-03 1.001317e-03 9.181187e-04 9.003768e-04 1.267171e-03 2.140961e-04 8.026768e-05 1.144906e-03 1.106503e-03 8.515137e-04 6.087726e-04 4.684696e-04 3.816033e-04 2.625883e-04 2.325317e-04 2.512120e-04 2.384242e-04 2.303538e-04 2.540926e-04 2.418623e-04 2.398217e-04 2.215026e-04 1.805478e-04 1.886383e-04 1.970337e-04 1.823705e-04 1.601905e-04 1.556979e-04 1.620452e-04 1.900749e-04 5.000000e-05 5.000000e-05
<GCONST> -2.894142e+02
<STATE> 3
<MEAN> 75
 1.328638e+00 1.689288e+00 1.790715e+00 1.895163e+00 1.996713e+00 2.075787e+00 2.144130e+00 2.177411e+00 2.172208e+00 2.137300e+00 2.096750e+00 2.070128e+00 2.058995e+00 2.044054e+00 2.000018e+00 1.919396e+00 1.802127e+00 1.667645e+00 1.542387e+00 1.422784e+00 1.320037e+00 1.216721e+00 1.128947e+00 1.039576e+00 1.008262e+00 2.060812e-03 -2.024175e-03 -2.137163e-03 -1.882714e-03 -1.085512e-03 -1.924367e-04 -2.301258e-04 4.332561e-04 3.902678e-04 -2.671183e-04 -8.315822e-04 -1.095499e-03 -1.415037e-03 -1.772230e-03 -1.436603e-03 -1.503096e-03 -1.343595e-03 -1.463770e-03 -1.082817e-03 -6.525688e-04 -6.140046e-04 -2.534373e-04 -5.193866e-04 -2.465606e-04 3.589679e-05 7.849726e-05 3.200686e-05 -1.018175e-04 -7.582472e-05 -6.101487e-05 5.736023e-05 6.006477e-06 -5.543671e-05 -1.687634e-04 -1.321242e-04 -3.782483e-05 -2.167356e-05 7.649214e-05 2.678751e-05 2.345438e-04 2.872317e-04 3.462381e-04 3.253359e-04 3.000628e-04 2.701218e-04 1.510875e-04 6.327042e-05 1.734965e-04 -2.766693e-05 4.915717e-06
<VARIANCE> 75
 1.977160e-01 4.475300e-01 4.127384e-01 3.499436e-01 2.803813e-01 2.360000e-01 2.102474e-01 1.999405e-01 1.937203e-01 1.631634e-01 1.336772e-01 1.208055e-01 1.199744e-01 1.301053e-01 1.482652e-01 1.787322e-01 1.998634e-01 1.835433e-01 1.450353e-01 1.075789e-01 7.016414e-02 3.960875e-02 1.789259e-02 3.155002e-03 8.169252e-04 6.334245e-03 6.659810e-03 4.960161e-03 3.726331e-03 2.756659e-03 2.258122e-03 1.565933e-03 1.336227e-03 1.315162e-03 1.266480e-03 1.328545e-03 1.456002e-03 1.467255e-03 1.476595e-03 1.467712e-03 1.384859e-03 1.297813e-03 1.359776e-03 1.135767e-03 1.003927e-03 8.887212e-04 8.243116e-04 7.311109e-04 2.027959e-04 8.172844e-05 1.244925e-03 1.156791e-03 8.472044e-04 6.350225e-04 4.792354e-04 4.126674e-04 2.823066e-04 2.454068e-04 2.475347e-04 2.391486e-04 2.491009e-04 2.695184e-04 2.581505e-04 2.529378e-04 2.476479e-04 2.181199e-04 2.219398e-04 2.268426e-04 1.971528e-04 1.755231e-04 1.630538e-04 1.618287e-04 1.480907e-04 5.000000e-05 5.000000e-05
<GCONST> -2.891621e+02
<STATE> 4
<MEAN> 75
 1.345565e+00 1.597289e+00 1.703218e+00 1.835311e+00 1.966640e+00 2.077838e+00 2.167152e+00 2.211672e+00 2.206863e+00 2.173649e+00 2.136080e+00 2.112965e+00 2.104702e+00 2.089973e+00 2.049360e+00 1.981836e+00 1.871974e+00 1.735219e+00 1.591343e+00 1.449655e+00 1.331696e+00 1.221152e+00 1.130068e+00 1.036641e+00 1.009069e+00 3.622709e-04 3.800060e-04 -5.395814e-04 -5.258156e-04 -7.671249e-04 -6.828003e-04 -3.991736e-04 -3.193216e-04 -1.922874e-04 -1.045907e-04 -5.961844e-05 8.462108e-05 2.530576e-04 9.925685e-05 2.241192e-04 2.961078e-04 2.811289e-04 5.551740e-04 5.920408e-04 3.605329e-04 2.068631e-04 7.875450e-05 2.016488e-04 3.914100e-05 7.998932e-05 -1.418868e-05 1.269360e-04 -1.443144e-05 5.934626e-05 -8.382774e-06 6.767105e-06 3.613915e-05 4.620784e-05 6.649661e-05 4.360203e-05 3.997600e-05 6.084947e-05 7.153960e-05 -2.474351e-05 8.265550e-06 4.526986e-05 2.964247e-05 5.688483e-05 1.070962e-04 2.676492e-05 2.645069e-05 1.143830e-05 4.468695e-05 2.202220e-06 2.875497e-05
<VARIANCE> 75
 2.001864e-01 4.663262e-01 4.129855e-01 3.372245e-01 2.738942e-01 2.404509e-01 2.263380e-01 2.199549e-01 2.044439e-01 1.689435e-01 1.459177e-01 1.378871e-01 1.378927e-01 1.422509e-01 1.545615e-01 1.822391e-01 2.000579e-01 1.830847e-01 1.423725e-01 1.052366e-01 7.279216e-02 4.056930e-02 1.730017e-02 2.542188e-03 1.041555e-03 5.355945e-03 6.634393e-03 5.473471e-03 4.054730e-03 2.825106e-03 2.021365e-03 1.550207e-03 1.286813e-03 1.219596e-03 1.107210e-03 1.075200e-03 1.115284e-03 1.076210e-03 1.047283e-03 1.030639e-03 9.769441e-04 9.682724e-04 9.950971e-04 9.996335e-04 9.322104e-04 8.247376e-04 7.444783e-04 6.730965e-04 1.671729e-04 1.089408e-04 1.016285e-03 1.098565e-03 8.968937e-04 6.623948e-04 4.675884e-04 3.381169e-04 2.490749e-04 2.047401e-04 2.001010e-04 1.858297e-04 1.859921e-04 1.939959e-04 1.833291e-04 1.754953e-04 1.760573e-04 1.606514e-04 1.673256e-04 1.729885e-04 1.769740e-04 1.692405e-04 1.522789e-04 1.400802e-04 1.292189e-04 5.000000e-05 5.000000e-05
<GCONST> -2.956825e+02
<TRANSP> 5
 0.000000e+00 1.000000e+00 0.000000e+00 0.000000e+00 0.000000e+00
 0.000000e+00 8.475575e-01 1.524425e-01 0.000000e+00 0.000000e+00
 0.000000e+00 0.000000e+00 8.475580e-01 1.524420e-01 0.000000e+00
 0.000000e+00 0.000000e+00 0.000000e+00 9.885690e-01 1.143108e-02
 0.000000e+00 0.000000e+00 0.000000e+00 0.000000e+00 0.000000e+00
<ENDHMM>
